{"model":{"sizes":[100,50,5],"layers":[{"0":{},"1":{},"2":{},"3":{},"4":{},"5":{},"6":{},"7":{},"8":{},"9":{},"10":{},"11":{},"12":{},"13":{},"14":{},"15":{},"16":{},"17":{},"18":{},"19":{},"20":{},"21":{},"22":{},"23":{},"24":{},"25":{},"26":{},"27":{},"28":{},"29":{},"30":{},"31":{},"32":{},"33":{},"34":{},"35":{},"36":{},"37":{},"38":{},"39":{},"40":{},"41":{},"42":{},"43":{},"44":{},"45":{},"46":{},"47":{},"48":{},"49":{},"50":{},"51":{},"52":{},"53":{},"54":{},"55":{},"56":{},"57":{},"58":{},"59":{},"60":{},"61":{},"62":{},"63":{},"64":{},"65":{},"66":{},"67":{},"68":{},"69":{},"70":{},"71":{},"72":{},"73":{},"74":{},"75":{},"76":{},"77":{},"78":{},"79":{},"80":{},"81":{},"82":{},"83":{},"84":{},"85":{},"86":{},"87":{},"88":{},"89":{},"90":{},"91":{},"92":{},"93":{},"94":{},"95":{},"96":{},"97":{},"98":{},"99":{}},{"0":{"bias":0.043101489543914795,"weights":{"0":-0.16299553215503693,"1":0.015447039157152176,"2":0.16343343257904053,"3":0.16509421169757843,"4":0.10355909913778305,"5":0.0004747907514683902,"6":0.09126171469688416,"7":-0.1438198834657669,"8":0.010489711537957191,"9":-0.09992451220750809,"10":-0.00513435760512948,"11":-0.18935926258563995,"12":-0.2642343044281006,"13":-0.14854708313941956,"14":-0.014080875553190708,"15":-0.05822666734457016,"16":-0.0814361646771431,"17":0.031331490725278854,"18":-0.0342896468937397,"19":0.16195048391819,"20":-0.19687505066394806,"21":-0.1642909198999405,"22":0.007754868362098932,"23":0.15213151276111603,"24":0.10617144405841827,"25":-0.022256482392549515,"26":-0.10720065236091614,"27":-0.0568903386592865,"28":0.203868567943573,"29":-0.03106154315173626,"30":-0.02262955717742443,"31":0.03913605958223343,"32":-0.2522563338279724,"33":-0.061493054032325745,"34":0.09744466096162796,"35":0.00890311598777771,"36":-0.277933806180954,"37":-0.19962044060230255,"38":-0.24425652623176575,"39":0.13736970722675323,"40":-0.12694944441318512,"41":-0.11562703549861908,"42":0.22737814486026764,"43":0.1759326308965683,"44":0.05837555602192879,"45":-0.03747544437646866,"46":0.20351509749889374,"47":0.14628911018371582,"48":0.13751068711280823,"49":-0.1006574034690857,"50":-0.17570070922374725,"51":0.27008476853370667,"52":-0.07232129573822021,"53":0.0965856984257698,"54":-0.03327678516507149,"55":0.11177004128694534,"56":-0.002254818333312869,"57":-0.00769861089065671,"58":0.077779121696949,"59":-0.12434639036655426,"60":0.16535145044326782,"61":-0.11186254024505615,"62":0.03793473541736603,"63":-0.07542990893125534,"64":-0.22417233884334564,"65":0.18401722609996796,"66":-0.13832247257232666,"67":-0.05252864956855774,"68":0.13104285299777985,"69":0.11533057689666748,"70":-0.12024980783462524,"71":0.1643245965242386,"72":-0.17463214695453644,"73":0.18480485677719116,"74":0.07994560152292252,"75":-0.1922273188829422,"76":0.17144420742988586,"77":-0.162437304854393,"78":0.06226835772395134,"79":0.1907704919576645,"80":-0.0767216682434082,"81":-0.034327778965234756,"82":0.10050176084041595,"83":-0.022922273725271225,"84":0.059384919703006744,"85":-0.08941413462162018,"86":-0.0925239622592926,"87":-0.07849091291427612,"88":0.10983850806951523,"89":0.1555917114019394,"90":0.20339983701705933,"91":0.18084987998008728,"92":0.17237384617328644,"93":0.021447982639074326,"94":0.12752389907836914,"95":0.19850000739097595,"96":0.16647468507289886,"97":0.018714042380452156,"98":-0.08964113891124725,"99":-0.11236553639173508}},"1":{"bias":0.08420731127262115,"weights":{"0":0.14919616281986237,"1":-0.18670830130577087,"2":0.021180598065257072,"3":-0.11518366634845734,"4":0.11762993782758713,"5":-0.03662988543510437,"6":-0.0568758100271225,"7":-0.015621481463313103,"8":0.21112115681171417,"9":-0.032882209867239,"10":-0.1764417439699173,"11":0.17544244229793549,"12":0.05868964269757271,"13":0.14416399598121643,"14":0.0583476796746254,"15":0.09717369079589844,"16":0.22953297197818756,"17":0.22729872167110443,"18":0.10556762665510178,"19":-0.15804186463356018,"20":0.13915477693080902,"21":-0.019564302638173103,"22":-0.04415970295667648,"23":-0.13471902906894684,"24":-0.14763405919075012,"25":-0.02004709281027317,"26":0.17086979746818542,"27":0.10309950262308121,"28":-0.013138866983354092,"29":-0.16782251000404358,"30":-0.1211654469370842,"31":-0.10250871628522873,"32":0.09395059198141098,"33":-0.021515315398573875,"34":-0.02597595751285553,"35":0.03415028750896454,"36":0.054645560681819916,"37":0.16810457408428192,"38":-0.19693845510482788,"39":-0.18521757423877716,"40":-0.19298380613327026,"41":-0.14602212607860565,"42":-0.1763216108083725,"43":0.0000820061904960312,"44":-0.21244925260543823,"45":-0.2535136640071869,"46":-0.16504673659801483,"47":-0.11244432628154755,"48":-0.09874352067708969,"49":-0.1825590878725052,"50":-0.10450146347284317,"51":-0.10049627721309662,"52":-0.1179252415895462,"53":-0.11696822196245193,"54":0.04537034034729004,"55":0.03841819614171982,"56":-0.3080374598503113,"57":-0.18656279146671295,"58":-0.04097171872854233,"59":0.09715612977743149,"60":-0.019065145403146744,"61":-0.21684901416301727,"62":0.08817298710346222,"63":0.049902819097042084,"64":0.19552510976791382,"65":0.1071910411119461,"66":0.16028156876564026,"67":0.1542445421218872,"68":-0.1900463104248047,"69":0.029080212116241455,"70":0.08804010599851608,"71":0.07350697368383408,"72":-0.22049583494663239,"73":0.03176170960068703,"74":-0.141026109457016,"75":-0.06296137720346451,"76":-0.11480721831321716,"77":0.16609016060829163,"78":0.13467003405094147,"79":0.09804990887641907,"80":0.03359290212392807,"81":-0.004088362213224173,"82":0.06065184995532036,"83":-0.04952296242117882,"84":-0.14710789918899536,"85":-0.10817702859640121,"86":0.004417461808770895,"87":-0.09839673340320587,"88":-0.1728667914867401,"89":-0.033055324107408524,"90":-0.12191707640886307,"91":-0.036874860525131226,"92":-0.1712826043367386,"93":0.01876828446984291,"94":0.13561850786209106,"95":0.10794853419065475,"96":-0.16254489123821259,"97":0.15722334384918213,"98":-0.09164698421955109,"99":0.10462535172700882}},"2":{"bias":0.021905742585659027,"weights":{"0":-0.14460401237010956,"1":-0.02372809872031212,"2":0.16545620560646057,"3":-0.15088695287704468,"4":0.0869084820151329,"5":0.13975220918655396,"6":-0.011078122071921825,"7":0.16734524071216583,"8":-0.10124276578426361,"9":-0.05613618716597557,"10":0.013347497209906578,"11":-0.03234735503792763,"12":-0.021787861362099648,"13":-0.04599506035447121,"14":0.05930612236261368,"15":-0.14351117610931396,"16":0.023192347958683968,"17":-0.06458251178264618,"18":-0.11839330941438675,"19":-0.009182444773614407,"20":-0.10146088153123856,"21":-0.04371004179120064,"22":0.05775415152311325,"23":-0.18525657057762146,"24":-0.13718071579933167,"25":-0.1609778106212616,"26":-0.1091536432504654,"27":-0.24305911362171173,"28":0.018616069108247757,"29":0.1235995665192604,"30":-0.1870398372411728,"31":-0.3373967409133911,"32":-0.036832138895988464,"33":-0.28329581022262573,"34":0.057870324701070786,"35":-0.0011987906182184815,"36":-0.40081149339675903,"37":-0.11165973544120789,"38":-0.1895362287759781,"39":-0.07793065905570984,"40":0.018585147336125374,"41":0.10588142275810242,"42":-0.15422967076301575,"43":0.13657723367214203,"44":-0.10424750298261642,"45":-0.05231717601418495,"46":0.09610037505626678,"47":-0.023997662588953972,"48":0.011106898076832294,"49":0.12580597400665283,"50":-0.15682414174079895,"51":-0.04302037134766579,"52":0.02656329981982708,"53":0.058568064123392105,"54":0.002939181635156274,"55":-0.13598504662513733,"56":0.08680443465709686,"57":0.15306781232357025,"58":0.10621361434459686,"59":0.05965319275856018,"60":0.07279079407453537,"61":0.09580695629119873,"62":-0.07131583988666534,"63":0.1593984216451645,"64":0.04205712303519249,"65":0.05948278680443764,"66":0.1037939041852951,"67":-0.006217340938746929,"68":-0.03032805398106575,"69":-0.10479699075222015,"70":-0.10483802109956741,"71":0.16938115656375885,"72":-0.034144554287195206,"73":-0.061991240829229355,"74":0.1671275794506073,"75":0.14814133942127228,"76":0.10036901384592056,"77":0.062486421316862106,"78":-0.03718496486544609,"79":-0.1944250613451004,"80":-0.10543472319841385,"81":0.1666218340396881,"82":0.23835857212543488,"83":0.26051804423332214,"84":0.19747477769851685,"85":-0.04323006048798561,"86":0.11916503310203552,"87":0.30731359124183655,"88":0.22198700904846191,"89":-0.06667093187570572,"90":0.20205624401569366,"91":0.011503688991069794,"92":0.24581634998321533,"93":0.17114244401454926,"94":0.10321766138076782,"95":0.15429282188415527,"96":0.2412155419588089,"97":0.002436132403090596,"98":-0.07534441351890564,"99":0.15249846875667572}},"3":{"bias":0.1809486597776413,"weights":{"0":0.16033469140529633,"1":-0.10314144194126129,"2":0.0719335675239563,"3":-0.21085970103740692,"4":0.1352929174900055,"5":0.0867609977722168,"6":-0.044627875089645386,"7":0.12900692224502563,"8":-0.2297212779521942,"9":-0.17274509370326996,"10":0.10703730583190918,"11":-0.17189495265483856,"12":-0.5072022676467896,"13":-0.3053702414035797,"14":-0.1380661576986313,"15":-0.31701672077178955,"16":0.005966908298432827,"17":-0.3450504243373871,"18":-0.21068072319030762,"19":-0.01278317254036665,"20":0.016205737367272377,"21":0.12484860420227051,"22":-0.11117071658372879,"23":0.13604706525802612,"24":0.22163426876068115,"25":0.08752832561731339,"26":-0.06907162815332413,"27":-0.16038201749324799,"28":0.192871555685997,"29":0.14155322313308716,"30":0.09146551042795181,"31":-0.13612580299377441,"32":0.07447607815265656,"33":-0.18158501386642456,"34":-0.06410132348537445,"35":-0.03469744324684143,"36":-0.029983581975102425,"37":-0.1265632063150406,"38":0.1536342352628708,"39":0.11218009144067764,"40":0.18328943848609924,"41":0.027200713753700256,"42":0.05272328853607178,"43":0.12284695357084274,"44":0.0006540702888742089,"45":0.42060667276382446,"46":0.4673975706100464,"47":0.17734985053539276,"48":0.17872032523155212,"49":0.1745346486568451,"50":0.17024235427379608,"51":0.24724015593528748,"52":0.16836394369602203,"53":0.3809252083301544,"54":0.05800304561853409,"55":-0.06222474202513695,"56":0.39453962445259094,"57":0.3581865131855011,"58":0.4918331503868103,"59":0.16628217697143555,"60":0.11927960813045502,"61":-0.11663438379764557,"62":0.09030777215957642,"63":-0.024368127807974815,"64":0.19541901350021362,"65":-0.08002196997404099,"66":0.21387813985347748,"67":0.13573457300662994,"68":-0.02777153253555298,"69":-0.029758760705590248,"70":0.013144897297024727,"71":0.07182490825653076,"72":0.08858825266361237,"73":0.05837775766849518,"74":0.12074275314807892,"75":-0.0667070671916008,"76":0.1349133551120758,"77":0.206857830286026,"78":0.2384966015815735,"79":0.09373430907726288,"80":0.1113327220082283,"81":-0.16616247594356537,"82":0.05091419070959091,"83":-0.18352839350700378,"84":-0.10584553331136703,"85":0.05415608361363411,"86":-0.1508384644985199,"87":0.12035329639911652,"88":-0.1531553864479065,"89":-0.0267318245023489,"90":-0.027035057544708252,"91":-0.03756999969482422,"92":-0.06417843699455261,"93":0.25602003931999207,"94":-0.01623530127108097,"95":-0.023115206509828568,"96":0.2254999279975891,"97":-0.021478500217199326,"98":0.1568361222743988,"99":0.016648687422275543}},"4":{"bias":-0.13622237741947174,"weights":{"0":0.049769677221775055,"1":0.05969567969441414,"2":-0.01892215572297573,"3":0.33209389448165894,"4":-0.12083634734153748,"5":0.10412044823169708,"6":-0.05017377808690071,"7":0.042786337435245514,"8":-0.037468113005161285,"9":-0.05096923187375069,"10":0.05330542474985123,"11":-0.1375608742237091,"12":-0.13654901087284088,"13":0.12900084257125854,"14":-0.01343000028282404,"15":0.10534083843231201,"16":0.09683442115783691,"17":0.062084730714559555,"18":-0.12072670459747314,"19":-0.03897248953580856,"20":-0.05756504088640213,"21":-0.08042991161346436,"22":-0.1136581301689148,"23":0.14875182509422302,"24":0.16701887547969818,"25":0.11520781368017197,"26":0.1311349719762802,"27":0.22175928950309753,"28":-0.14559456706047058,"29":-0.09959231317043304,"30":0.1999046951532364,"31":-0.06337408721446991,"32":-0.013364911079406738,"33":0.21313413977622986,"34":0.19858871400356293,"35":0.06870237737894058,"36":0.02740483731031418,"37":0.25149622559547424,"38":-0.03989028558135033,"39":0.14854766428470612,"40":-0.001830700202845037,"41":-0.13338905572891235,"42":0.3314993381500244,"43":0.2569938898086548,"44":0.1872192621231079,"45":0.17733123898506165,"46":0.05536973848938942,"47":0.11327489465475082,"48":-0.22327597439289093,"49":0.06395652890205383,"50":-0.047005195170640945,"51":0.21194010972976685,"52":0.19790740311145782,"53":0.15722084045410156,"54":0.25699660181999207,"55":0.17507514357566833,"56":0.3311680257320404,"57":0.35677576065063477,"58":0.3181770145893097,"59":-0.17271573841571808,"60":-0.13817034661769867,"61":0.06639982759952545,"62":-0.18466876447200775,"63":-0.11650199443101883,"64":0.07416457682847977,"65":0.00769481435418129,"66":-0.005231518764048815,"67":0.0572393499314785,"68":-0.07780040055513382,"69":-0.21270929276943207,"70":0.015875235199928284,"71":-0.046828970313072205,"72":-0.2028782218694687,"73":0.09847306460142136,"74":-0.1696208268404007,"75":-0.14865325391292572,"76":0.034140922129154205,"77":-0.039201248437166214,"78":-0.013147654943168163,"79":-0.06453508138656616,"80":-0.18567371368408203,"81":-0.26361215114593506,"82":-0.1863945722579956,"83":-0.33149290084838867,"84":-0.2959304749965668,"85":-0.1725255250930786,"86":-0.41682904958724976,"87":-0.1589875966310501,"88":-0.3419944643974304,"89":-0.19141937792301178,"90":0.053333837538957596,"91":-0.167536661028862,"92":-0.1960090547800064,"93":-0.15026536583900452,"94":0.07154682278633118,"95":0.10678460448980331,"96":0.03807550296187401,"97":-0.09103119373321533,"98":0.07545623928308487,"99":0.21846389770507812}},"5":{"bias":0.08839643746614456,"weights":{"0":0.17731796205043793,"1":0.12233326584100723,"2":0.08683083206415176,"3":0.1712208092212677,"4":0.020576808601617813,"5":0.0869494155049324,"6":0.14370661973953247,"7":0.3486008644104004,"8":-0.0965142473578453,"9":0.09105265885591507,"10":-0.1028682291507721,"11":0.13858811557292938,"12":0.18583624064922333,"13":0.2037467211484909,"14":-0.0037308635655790567,"15":0.23448412120342255,"16":0.17113149166107178,"17":0.3555777668952942,"18":0.010664843022823334,"19":0.04395083338022232,"20":0.11512575298547745,"21":-0.12994401156902313,"22":0.18981528282165527,"23":-0.029100021347403526,"24":-0.040612559765577316,"25":0.19576625525951385,"26":0.12256278097629547,"27":0.07074447721242905,"28":-0.1404758095741272,"29":-0.18767376244068146,"30":-0.21467387676239014,"31":-0.043636880815029144,"32":-0.12376133352518082,"33":0.034487251192331314,"34":-0.09323567897081375,"35":-0.17305932939052582,"36":0.040043797343969345,"37":-0.02499762922525406,"38":-0.23898902535438538,"39":0.17547115683555603,"40":-0.0099335303530097,"41":-0.20743489265441895,"42":0.047243718057870865,"43":0.020581945776939392,"44":-0.0967649593949318,"45":-0.25525856018066406,"46":-0.051311954855918884,"47":-0.002947045722976327,"48":0.01135037001222372,"49":-0.09376581758260727,"50":-0.1589466780424118,"51":-0.2816011309623718,"52":0.01162769552320242,"53":0.07855875790119171,"54":-0.15534187853336334,"55":0.02107926644384861,"56":0.1241137906908989,"57":-0.04557599127292633,"58":-0.037264056503772736,"59":-0.11153648048639297,"60":-0.17646390199661255,"61":-0.08448576182126999,"62":-0.08978555351495743,"63":0.06807499378919601,"64":-0.03437289223074913,"65":-0.010153936222195625,"66":-0.10057319700717926,"67":0.035943370312452316,"68":-0.006281507667154074,"69":0.10424836724996567,"70":-0.18710805475711823,"71":-0.3134390711784363,"72":0.11897454410791397,"73":-0.1741851270198822,"74":-0.023332683369517326,"75":0.04204804450273514,"76":0.0978076234459877,"77":0.14500166475772858,"78":-0.18730029463768005,"79":-0.16138523817062378,"80":-0.031822655349969864,"81":-0.1879071742296219,"82":0.011757980100810528,"83":0.13896912336349487,"84":0.1692599356174469,"85":-0.05075571686029434,"86":0.08853185176849365,"87":0.0781654343008995,"88":-0.0882887914776802,"89":0.050807442516088486,"90":-0.07218010723590851,"91":-0.14738842844963074,"92":-0.06551571935415268,"93":-0.000367330270819366,"94":0.18872016668319702,"95":-0.003519873833283782,"96":0.0817616730928421,"97":-0.06573550403118134,"98":-0.20312833786010742,"99":-0.14107178151607513}},"6":{"bias":-0.11935331672430038,"weights":{"0":-0.10849873721599579,"1":0.101605124771595,"2":-0.07759495079517365,"3":-0.07583905011415482,"4":0.14353707432746887,"5":-0.06911944597959518,"6":0.13707835972309113,"7":-0.1077202707529068,"8":-0.0608055554330349,"9":-0.18299084901809692,"10":-0.1715129017829895,"11":0.005370591301470995,"12":0.017777083441615105,"13":-0.04700758680701256,"14":0.16543632745742798,"15":-0.11457720398902893,"16":0.03267920762300491,"17":0.00456244358792901,"18":0.03252221271395683,"19":-0.16401788592338562,"20":0.2068517804145813,"21":0.029495935887098312,"22":0.1573099046945572,"23":0.23082320392131805,"24":-0.12778198719024658,"25":-0.07264097779989243,"26":0.011035867035388947,"27":-0.0795133039355278,"28":0.3166118860244751,"29":0.11712969839572906,"30":0.3401995897293091,"31":0.3566225469112396,"32":0.1315866857767105,"33":0.1320367306470871,"34":-0.01435033418238163,"35":-0.06271596252918243,"36":0.3611180782318115,"37":0.3913268446922302,"38":0.4759121537208557,"39":0.22016017138957977,"40":0.08977542072534561,"41":0.06288153678178787,"42":-0.10120691359043121,"43":0.1406175196170807,"44":0.021878482773900032,"45":-0.1452532708644867,"46":-0.3522571325302124,"47":0.02626139484345913,"48":0.035304244607686996,"49":-0.06840073317289352,"50":0.09660924226045609,"51":0.034808527678251266,"52":0.0887039452791214,"53":0.10278566926717758,"54":-0.1707175225019455,"55":-0.04148093983530998,"56":-0.13249748945236206,"57":0.11046356707811356,"58":0.04671499505639076,"59":0.18115411698818207,"60":0.15807636082172394,"61":0.10939882695674896,"62":0.19597762823104858,"63":-0.0721733495593071,"64":0.10197432339191437,"65":0.05850016325712204,"66":0.04905072599649429,"67":-0.097377710044384,"68":0.03957134485244751,"69":-0.033823128789663315,"70":0.0633295476436615,"71":-0.03319147974252701,"72":0.033441461622714996,"73":-0.07623610645532608,"74":0.18063244223594666,"75":0.09630384296178818,"76":0.18352118134498596,"77":0.05956021323800087,"78":0.11360368132591248,"79":0.1010190099477768,"80":0.09880229085683823,"81":-0.18403805792331696,"82":-0.31730496883392334,"83":-0.14589859545230865,"84":-0.276193767786026,"85":0.04521596431732178,"86":-0.27644971013069153,"87":-0.1257510781288147,"88":-0.03926006332039833,"89":0.18826895952224731,"90":0.24918781220912933,"91":-0.20752376317977905,"92":-0.04761752113699913,"93":-0.06494420766830444,"94":-0.06813052296638489,"95":0.03635816276073456,"96":-0.3337280750274658,"97":-0.16311030089855194,"98":0.10515477508306503,"99":-0.09706545621156693}},"7":{"bias":-0.12033165246248245,"weights":{"0":0.047462258487939835,"1":-0.1764865517616272,"2":-0.05751049518585205,"3":-0.14607304334640503,"4":-0.09484141319990158,"5":0.1324201375246048,"6":-0.1630999743938446,"7":-0.008365114219486713,"8":-0.21779131889343262,"9":0.04946516826748848,"10":0.04197988659143448,"11":-0.29478010535240173,"12":-0.35854604840278625,"13":-0.0798330008983612,"14":-0.22761231660842896,"15":-0.09421421587467194,"16":-0.3236447870731354,"17":-0.30560505390167236,"18":-0.12219464778900146,"19":0.04113594815135002,"20":-0.10205516964197159,"21":-0.0029461632948368788,"22":-0.12106357514858246,"23":0.039276763796806335,"24":0.17064130306243896,"25":-0.050422731786966324,"26":-0.11140747368335724,"27":0.17066816985607147,"28":0.2568610906600952,"29":0.044316548854112625,"30":0.14218397438526154,"31":0.4856320321559906,"32":0.10724099725484848,"33":-0.037155430763959885,"34":-0.0018430917989462614,"35":-0.15509837865829468,"36":0.03590264916419983,"37":0.09123320877552032,"38":0.3306191861629486,"39":0.24777671694755554,"40":-0.1360519677400589,"41":0.2922918498516083,"42":0.0509273000061512,"43":0.1233249232172966,"44":-0.23666977882385254,"45":-0.2142556756734848,"46":-0.2937556803226471,"47":-0.0019379641162231565,"48":0.10238783061504364,"49":-0.13148336112499237,"50":-0.14234979450702667,"51":0.21150973439216614,"52":-0.19442664086818695,"53":-0.14303217828273773,"54":0.09373578429222107,"55":0.027013661339879036,"56":0.07875457406044006,"57":0.003710451303049922,"58":0.20671266317367554,"59":0.037265438586473465,"60":0.0843261256814003,"61":0.2693917751312256,"62":0.006921389140188694,"63":0.13238172233104706,"64":-0.1261397749185562,"65":0.15436062216758728,"66":-0.005588285159319639,"67":0.1550295650959015,"68":0.21343517303466797,"69":0.08057910203933716,"70":-0.09750857949256897,"71":0.22541245818138123,"72":0.010249240323901176,"73":0.0337429977953434,"74":0.17041367292404175,"75":0.12684175372123718,"76":0.18055450916290283,"77":-0.09783212840557098,"78":0.13626232743263245,"79":-0.06659100204706192,"80":0.294547438621521,"81":-0.03523443266749382,"82":-0.13185398280620575,"83":-0.022499630227684975,"84":0.15323136746883392,"85":-0.051226820796728134,"86":-0.0023326317314058542,"87":-0.21974734961986542,"88":0.19885455071926117,"89":0.2781062424182892,"90":0.050781019032001495,"91":0.007886458188295364,"92":-0.14458312094211578,"93":-0.10705302655696869,"94":-0.09544023871421814,"95":0.03600924462080002,"96":-0.04323718696832657,"97":-0.22484593093395233,"98":0.06329482048749924,"99":0.16062846779823303}},"8":{"bias":-0.15552134811878204,"weights":{"0":0.1913204938173294,"1":0.20331116020679474,"2":0.13711762428283691,"3":-0.03517385199666023,"4":-0.018058640882372856,"5":0.21463772654533386,"6":0.2094804346561432,"7":0.2205013483762741,"8":0.09708643704652786,"9":0.0046778107061982155,"10":-0.049621373414993286,"11":0.1521786004304886,"12":-0.09508578479290009,"13":0.12926509976387024,"14":0.134009450674057,"15":0.008541099727153778,"16":-0.15615913271903992,"17":-0.09774354100227356,"18":0.12974701821804047,"19":-0.10280614346265793,"20":0.07504608482122421,"21":0.1979849487543106,"22":0.09763311594724655,"23":-0.15179447829723358,"24":-0.00832293275743723,"25":0.10921858251094818,"26":-0.05440238118171692,"27":-0.05144387483596802,"28":0.02312822826206684,"29":-0.13957229256629944,"30":0.3043605387210846,"31":0.21040551364421844,"32":0.2660830020904541,"33":0.2280377447605133,"34":0.25383272767066956,"35":-0.010826661251485348,"36":0.2801530361175537,"37":0.2715992331504822,"38":0.40673601627349854,"39":0.08681882172822952,"40":0.23612476885318756,"41":-0.021890493109822273,"42":0.20855456590652466,"43":-0.13899029791355133,"44":0.12036053091287613,"45":-0.007282529026269913,"46":-0.2841734290122986,"47":0.031177256256341934,"48":0.2762281894683838,"49":0.09691976755857468,"50":0.048376746475696564,"51":0.03976954519748688,"52":0.12909099459648132,"53":0.053678564727306366,"54":-0.03249574825167656,"55":-0.050821300595998764,"56":0.1421482414007187,"57":-0.15972423553466797,"58":0.005143790505826473,"59":-0.08288099616765976,"60":-0.14134573936462402,"61":0.09434013813734055,"62":0.06892462819814682,"63":0.08859202265739441,"64":-0.12057258933782578,"65":0.13917073607444763,"66":0.12254119664430618,"67":0.14547064900398254,"68":0.2354123890399933,"69":0.020415954291820526,"70":-0.1428927332162857,"71":0.011950459331274033,"72":0.07940597087144852,"73":0.19463004171848297,"74":-0.17583942413330078,"75":-0.21454539895057678,"76":-0.19138407707214355,"77":0.2014937847852707,"78":0.1911277025938034,"79":0.0244685597717762,"80":0.1850617676973343,"81":-0.09935218840837479,"82":-0.386208713054657,"83":-0.3974912464618683,"84":-0.10282986611127853,"85":-0.11402163654565811,"86":-0.3350992500782013,"87":-0.04246409609913826,"88":-0.05129573121666908,"89":-0.0798863098025322,"90":0.2286016345024109,"91":-0.07909537851810455,"92":-0.12207005172967911,"93":-0.34248265624046326,"94":-0.0553455613553524,"95":0.03660034015774727,"96":-0.05218428000807762,"97":-0.0759606808423996,"98":0.06945356726646423,"99":-0.17586873471736908}},"9":{"bias":-0.13888300955295563,"weights":{"0":0.04995858669281006,"1":0.06878504902124405,"2":-0.1550384908914566,"3":-0.08916861563920975,"4":-0.17760291695594788,"5":-0.31418293714523315,"6":-0.26016491651535034,"7":-0.11980362236499786,"8":0.09541816264390945,"9":-0.048314888030290604,"10":0.10292621701955795,"11":-0.05614837631583214,"12":-0.20676514506340027,"13":-0.25568315386772156,"14":0.0810270756483078,"15":-0.12959416210651398,"16":0.02764381468296051,"17":-0.08233707398176193,"18":-0.2434084713459015,"19":-0.13665622472763062,"20":-0.20592883229255676,"21":0.07596172392368317,"22":-0.1155315637588501,"23":0.15333978831768036,"24":0.05007652938365936,"25":-0.03122829832136631,"26":-0.03271913528442383,"27":0.19823749363422394,"28":0.08631973713636398,"29":-0.192925825715065,"30":0.1215759664773941,"31":0.18257279694080353,"32":0.30046093463897705,"33":0.3568339943885803,"34":0.20768077671527863,"35":0.08300703763961792,"36":0.28555262088775635,"37":0.10170621424913406,"38":0.09202113002538681,"39":-0.02158297970890999,"40":-0.16654247045516968,"41":-0.20518222451210022,"42":-0.1380070000886917,"43":-0.08389192819595337,"44":0.24642929434776306,"45":-0.0006895338883623481,"46":0.44915643334388733,"47":-0.15146265923976898,"48":-0.1775112748146057,"49":0.17213839292526245,"50":0.061465971171855927,"51":-0.3267727196216583,"52":-0.14667215943336487,"53":-0.33437052369117737,"54":-0.14122073352336884,"55":-0.16269832849502563,"56":-0.27368372678756714,"57":0.03502311557531357,"58":-0.24886325001716614,"59":0.09867396205663681,"60":-0.01991775631904602,"61":-0.052325330674648285,"62":-0.006450437009334564,"63":-0.09630792587995529,"64":0.1294603943824768,"65":-0.08548615872859955,"66":-0.20773467421531677,"67":-0.08945491909980774,"68":0.02051430754363537,"69":0.007965967059135437,"70":0.12948869168758392,"71":-0.2631857991218567,"72":0.021298440173268318,"73":-0.13119162619113922,"74":0.21364045143127441,"75":0.08933130651712418,"76":-0.15529239177703857,"77":0.10194522142410278,"78":-0.23224596679210663,"79":-0.11489250510931015,"80":-0.031425632536411285,"81":0.04241783544421196,"82":0.013930470682680607,"83":0.11359788477420807,"84":-0.012552470900118351,"85":0.14495743811130524,"86":-0.13453051447868347,"87":0.06477271020412445,"88":-0.0789014920592308,"89":-0.10652461647987366,"90":0.13989371061325073,"91":-0.05503835156559944,"92":-0.24448156356811523,"93":-0.06933392584323883,"94":-0.026437263935804367,"95":-0.17265324294567108,"96":-0.10828863829374313,"97":-0.16399583220481873,"98":-0.07129527628421783,"99":0.06073058769106865}},"10":{"bias":0.08307185024023056,"weights":{"0":-0.1984647661447525,"1":-0.067868672311306,"2":-0.0829274132847786,"3":0.13464055955410004,"4":0.07207287847995758,"5":-0.05472441390156746,"6":0.08858069777488708,"7":0.13681216537952423,"8":0.09113960713148117,"9":-0.19578324258327484,"10":-0.14911578595638275,"11":0.2560921013355255,"12":-0.07791134715080261,"13":0.076438307762146,"14":0.17014524340629578,"15":-0.04035716503858566,"16":0.09590441733598709,"17":0.071706123650074,"18":-0.07560413330793381,"19":0.18425065279006958,"20":-0.18092820048332214,"21":0.10386862605810165,"22":-0.10320965945720673,"23":0.1820373684167862,"24":0.00439809262752533,"25":-0.13342484831809998,"26":0.0053235189989209175,"27":-0.09447719901800156,"28":-0.19201409816741943,"29":0.07664614170789719,"30":-0.014489310793578625,"31":0.09046907722949982,"32":-0.0807560384273529,"33":0.13093028962612152,"34":-0.05741923674941063,"35":0.11143011599779129,"36":-0.052073609083890915,"37":-0.03339529410004616,"38":-0.24084915220737457,"39":-0.05022010579705238,"40":-0.03462165966629982,"41":-0.2572151720523834,"42":0.013753925450146198,"43":0.2046886831521988,"44":0.22448299825191498,"45":-0.14900627732276917,"46":-0.006802060175687075,"47":0.1736890971660614,"48":-0.0718759298324585,"49":0.14047546684741974,"50":0.01781999133527279,"51":0.10135055333375931,"52":0.14095863699913025,"53":-0.06744766235351562,"54":0.1909276843070984,"55":-0.006576329004019499,"56":0.082282654941082,"57":0.0020172635558992624,"58":-0.10454773902893066,"59":-0.17828823626041412,"60":0.1379549503326416,"61":-0.3307582437992096,"62":-0.11709482222795486,"63":-0.18284456431865692,"64":0.08121166378259659,"65":0.19545701146125793,"66":-0.1469825655221939,"67":0.11896118521690369,"68":-0.29430511593818665,"69":-0.04028395190834999,"70":0.014141477644443512,"71":-0.0393785759806633,"72":-0.14079596102237701,"73":-0.0778466984629631,"74":0.08478084951639175,"75":0.02266252040863037,"76":-0.11101599782705307,"77":0.07056024670600891,"78":-0.12505188584327698,"79":-0.10939913243055344,"80":0.13791532814502716,"81":-0.027919543907046318,"82":0.040451038628816605,"83":-0.17193016409873962,"84":-0.1950918287038803,"85":-0.011355849914252758,"86":-0.23362764716148376,"87":-0.06990253180265427,"88":-0.2659664452075958,"89":0.01494530774652958,"90":-0.18591462075710297,"91":-0.00045245327055454254,"92":-0.10141710937023163,"93":0.01150155533105135,"94":0.06250528246164322,"95":-0.14807693660259247,"96":0.22318561375141144,"97":-0.01793668605387211,"98":-0.0426788255572319,"99":-0.20706172287464142}},"11":{"bias":-0.08180750906467438,"weights":{"0":0.18055227398872375,"1":-0.05884062871336937,"2":-0.28232070803642273,"3":0.03573662042617798,"4":0.01701969839632511,"5":0.08243703097105026,"6":-0.004215862136334181,"7":0.014894799329340458,"8":-0.055765725672245026,"9":-0.10372220724821091,"10":0.08560819923877716,"11":-0.1327172815799713,"12":-0.11557898670434952,"13":-0.25618746876716614,"14":-0.09861038625240326,"15":0.0576208122074604,"16":-0.16793398559093475,"17":-0.36393070220947266,"18":-0.25245463848114014,"19":-0.07894996553659439,"20":-0.12166496366262436,"21":0.20285077393054962,"22":0.03667694702744484,"23":-0.19244098663330078,"24":-0.15533341467380524,"25":-0.03335792198777199,"26":-0.1393798291683197,"27":-0.18953928351402283,"28":-0.06884361058473587,"29":-0.10735100507736206,"30":0.1289246678352356,"31":-0.05739618092775345,"32":-0.2867032289505005,"33":-0.22452589869499207,"34":-0.1464584320783615,"35":0.05987565964460373,"36":0.11173032969236374,"37":-0.129320427775383,"38":0.06235754117369652,"39":0.035815149545669556,"40":-0.10696712136268616,"41":0.1465855836868286,"42":-0.08893750607967377,"43":-0.082614466547966,"44":0.06345687061548233,"45":0.07196115702390671,"46":0.1457885354757309,"47":0.04958430677652359,"48":0.09241634607315063,"49":-0.016731619834899902,"50":0.13754558563232422,"51":0.01829046756029129,"52":0.05607060715556145,"53":0.005942082032561302,"54":0.005282417871057987,"55":-0.2055334448814392,"56":-0.20953837037086487,"57":-0.11984213441610336,"58":-0.03752075880765915,"59":-0.10835336148738861,"60":0.1893899142742157,"61":-0.0965503379702568,"62":-0.18315450847148895,"63":-0.05707424134016037,"64":-0.19146350026130676,"65":-0.20702387392520905,"66":-0.1666555404663086,"67":0.07487724721431732,"68":-0.012711415067315102,"69":-0.10633725672960281,"70":0.191324844956398,"71":0.19793038070201874,"72":0.17838507890701294,"73":0.11683569103479385,"74":0.046427804976701736,"75":0.19682900607585907,"76":-0.018498389050364494,"77":-0.03511182963848114,"78":-0.09651079773902893,"79":0.14104022085666656,"80":-0.06107299029827118,"81":0.3078981637954712,"82":0.15089672803878784,"83":0.27865689992904663,"84":0.13675794005393982,"85":0.2657882273197174,"86":0.20431585609912872,"87":-0.08629821985960007,"88":0.08982907980680466,"89":0.20789389312267303,"90":-0.09826767444610596,"91":0.22424957156181335,"92":0.011311518959701061,"93":0.18730728328227997,"94":-0.027977701276540756,"95":-0.19381698966026306,"96":-0.10776287317276001,"97":0.0027146656066179276,"98":0.13712909817695618,"99":0.027166573330760002}},"12":{"bias":0.1271006017923355,"weights":{"0":0.01880542002618313,"1":-0.18692193925380707,"2":0.10954567790031433,"3":0.04565199464559555,"4":-0.08047385513782501,"5":-0.04798804223537445,"6":-0.020744452252984047,"7":0.17962230741977692,"8":0.13334009051322937,"9":0.09399671107530594,"10":0.10683087259531021,"11":-0.19791081547737122,"12":-0.05818025767803192,"13":-0.0614834688603878,"14":-0.24114930629730225,"15":-0.3071063160896301,"16":0.13037773966789246,"17":0.12104076147079468,"18":-0.17388977110385895,"19":0.16197243332862854,"20":-0.19605834782123566,"21":-0.13819114863872528,"22":-0.20702959597110748,"23":-0.011832536198198795,"24":-0.04756809398531914,"25":-0.2578757703304291,"26":0.08418555557727814,"27":0.1240081638097763,"28":-0.23099565505981445,"29":-0.24488651752471924,"30":-0.2223132997751236,"31":-0.15925998985767365,"32":-0.23498079180717468,"33":0.06235761567950249,"34":-0.11436645686626434,"35":-0.007144185248762369,"36":0.09477410465478897,"37":-0.24514849483966827,"38":-0.33938702940940857,"39":-0.07782193273305893,"40":-0.18141472339630127,"41":-0.07792295515537262,"42":0.11858458817005157,"43":0.0898885652422905,"44":0.08430588245391846,"45":0.05633019655942917,"46":0.3513338565826416,"47":0.21900534629821777,"48":-0.2271953970193863,"49":-0.0440199039876461,"50":-0.15203076601028442,"51":-0.04668744280934334,"52":0.07254157215356827,"53":0.3465588688850403,"54":0.3068774938583374,"55":0.18081730604171753,"56":0.11392557621002197,"57":0.21184371411800385,"58":0.2753528952598572,"59":-0.03439485654234886,"60":0.13894835114479065,"61":-0.03554582968354225,"62":-0.1015857681632042,"63":0.06359991431236267,"64":0.02996872179210186,"65":-0.015364293940365314,"66":-0.170355424284935,"67":0.015329543501138687,"68":-0.11640552431344986,"69":0.09946389496326447,"70":-0.1360757052898407,"71":-0.06533098220825195,"72":0.01639162376523018,"73":-0.05579371005296707,"74":0.009780053980648518,"75":-0.010836108587682247,"76":-0.15094144642353058,"77":-0.18067364394664764,"78":-0.1552692949771881,"79":0.027206778526306152,"80":-0.042229849845170975,"81":-0.024044187739491463,"82":0.1078980341553688,"83":-0.2508125603199005,"84":-0.08240612596273422,"85":-0.10343289375305176,"86":-0.2159024029970169,"87":0.1202959343791008,"88":-0.12986013293266296,"89":0.057859212160110474,"90":-0.19816865026950836,"91":-0.20619182288646698,"92":0.2926138937473297,"93":0.042955704033374786,"94":0.04291421175003052,"95":0.20150716602802277,"96":0.2475472092628479,"97":-0.016718171536922455,"98":-0.11217235773801804,"99":0.08307924121618271}},"13":{"bias":0.2641006410121918,"weights":{"0":0.03799185901880264,"1":-0.08079894632101059,"2":-0.01836061291396618,"3":-0.008902122266590595,"4":-0.2815927565097809,"5":-0.21608081459999084,"6":-0.015642693266272545,"7":0.041703686118125916,"8":-0.09839020669460297,"9":0.1920986920595169,"10":-0.17751093208789825,"11":0.02017332799732685,"12":0.348159521818161,"13":0.2694522738456726,"14":0.21880996227264404,"15":0.14016611874103546,"16":-0.027671193704009056,"17":-0.09143368154764175,"18":-0.03801114484667778,"19":0.17515802383422852,"20":0.09185360372066498,"21":-0.014788219705224037,"22":0.1434987187385559,"23":-0.09507420659065247,"24":0.16537445783615112,"25":-0.013800865970551968,"26":-0.11195551604032516,"27":-0.18638542294502258,"28":-0.25360146164894104,"29":-0.014459417201578617,"30":0.07255356758832932,"31":-0.204702228307724,"32":0.16635017096996307,"33":0.07175570726394653,"34":-0.09263624250888824,"35":-0.01657942309975624,"36":0.028620045632123947,"37":0.17432759702205658,"38":-0.028538621962070465,"39":0.08192960917949677,"40":-0.0018950746161863208,"41":-0.17852598428726196,"42":-0.08181721717119217,"43":-0.24676276743412018,"44":-0.19677765667438507,"45":0.12852756679058075,"46":-0.12570104002952576,"47":-0.24617289006710052,"48":-0.20510898530483246,"49":-0.020153358578681946,"50":-0.19886459410190582,"51":-0.47135186195373535,"52":-0.23654142022132874,"53":-0.11912851780653,"54":-0.1257120966911316,"55":-0.0742274820804596,"56":-0.324436753988266,"57":-0.37935495376586914,"58":-0.4181991219520569,"59":-0.1114174947142601,"60":-0.057454101741313934,"61":-0.38992807269096375,"62":-0.13487686216831207,"63":-0.08471403270959854,"64":0.19681932032108307,"65":-0.05095915496349335,"66":0.1588580459356308,"67":-0.08418954163789749,"68":-0.177333265542984,"69":0.1824110448360443,"70":-0.016213200986385345,"71":-0.05072822794318199,"72":0.12449852377176285,"73":0.18925553560256958,"74":0.024938510730862617,"75":0.18266965448856354,"76":-0.08978069573640823,"77":-0.13076721131801605,"78":-0.03266224265098572,"79":0.05272648483514786,"80":0.0665450319647789,"81":0.16637516021728516,"82":-0.02348698489367962,"83":0.19776184856891632,"84":-0.019637545570731163,"85":-0.014396270737051964,"86":0.2538820207118988,"87":0.2890341877937317,"88":0.16346465051174164,"89":-0.24044770002365112,"90":-0.09324567764997482,"91":0.021825963631272316,"92":-0.1503446251153946,"93":-0.1358792930841446,"94":0.17474766075611115,"95":-0.1688040941953659,"96":-0.16505537927150726,"97":-0.005598442163318396,"98":-0.24779173731803894,"99":0.05950963497161865}},"14":{"bias":-0.02329268679022789,"weights":{"0":-0.09751679748296738,"1":0.0673413872718811,"2":-0.1542857438325882,"3":0.05779308080673218,"4":-0.02857775054872036,"5":-0.055178601294755936,"6":0.004754462745040655,"7":-0.13324838876724243,"8":0.11030403524637222,"9":-0.04912595823407173,"10":0.18551191687583923,"11":0.09601462632417679,"12":0.04381192475557327,"13":-0.03156197816133499,"14":0.01935560256242752,"15":-0.10622872412204742,"16":0.09096535295248032,"17":0.1449146419763565,"18":0.11426840722560883,"19":0.00007110212027328089,"20":0.16233156621456146,"21":0.049713388085365295,"22":-0.00518294470384717,"23":0.16768130660057068,"24":0.1965503841638565,"25":-0.2076227366924286,"26":-0.08052075654268265,"27":0.1067989394068718,"28":-0.21976035833358765,"29":-0.029077576473355293,"30":0.16872207820415497,"31":0.18202202022075653,"32":0.10837357491254807,"33":0.032760169357061386,"34":0.15681636333465576,"35":0.012979025952517986,"36":0.1816934049129486,"37":-0.13589821755886078,"38":-0.05171962454915047,"39":-0.16257913410663605,"40":-0.1173466145992279,"41":-0.11593043804168701,"42":-0.1987856775522232,"43":-0.3269954025745392,"44":0.14154799282550812,"45":0.16980372369289398,"46":0.008767449297010899,"47":-0.21762852370738983,"48":-0.2135060429573059,"49":-0.19070425629615784,"50":0.1514352560043335,"51":-0.12279891222715378,"52":-0.3048967123031616,"53":-0.3447352647781372,"54":-0.2807700037956238,"55":-0.023463113233447075,"56":-0.3757178485393524,"57":-0.33531713485717773,"58":-0.3663962483406067,"59":-0.061143938452005386,"60":0.06556231528520584,"61":-0.022634482011198997,"62":-0.17578114569187164,"63":0.06251626461744308,"64":0.15550579130649567,"65":0.09357816725969315,"66":0.11529401689767838,"67":-0.013966919854283333,"68":-0.038978446274995804,"69":0.0372173935174942,"70":0.09697576612234116,"71":-0.12468566745519638,"72":-0.04321844503283501,"73":0.027502164244651794,"74":0.13223063945770264,"75":-0.011435102671384811,"76":-0.1068611592054367,"77":-0.10481203347444534,"78":-0.1188724935054779,"79":0.09877358376979828,"80":-0.0863611027598381,"81":0.23739798367023468,"82":0.12031320482492447,"83":0.12915459275245667,"84":-0.10533884912729263,"85":0.08304493129253387,"86":0.26829859614372253,"87":-0.015270853415131569,"88":-0.05173118785023689,"89":0.07879117876291275,"90":0.07961556315422058,"91":-0.20306283235549927,"92":0.08593118190765381,"93":0.12305060029029846,"94":-0.18452586233615875,"95":-0.1839565485715866,"96":-0.22499261796474457,"97":0.09481181204319,"98":-0.005899184383451939,"99":0.053727179765701294}},"15":{"bias":0.14583805203437805,"weights":{"0":0.19144728779792786,"1":0.17155563831329346,"2":0.2727159261703491,"3":0.10887020826339722,"4":-0.026485493406653404,"5":0.13798250257968903,"6":0.060620009899139404,"7":0.3156450092792511,"8":0.2610584497451782,"9":-0.09988103061914444,"10":0.08517985790967941,"11":0.2983447015285492,"12":0.3861986994743347,"13":0.4042842984199524,"14":0.030952855944633484,"15":0.27933597564697266,"16":0.06109322980046272,"17":0.34182968735694885,"18":-0.0820472240447998,"19":0.21250514686107635,"20":0.027649760246276855,"21":-0.03573954477906227,"22":-0.09084213525056839,"23":0.10431762784719467,"24":0.02108219638466835,"25":0.19625124335289001,"26":0.021491428837180138,"27":-0.04877501726150513,"28":-0.11370100826025009,"29":-0.18216738104820251,"30":0.03342629224061966,"31":-0.10963162034749985,"32":0.019582176581025124,"33":-0.10567502677440643,"34":-0.06508836895227432,"35":-0.11260367184877396,"36":-0.054060619324445724,"37":-0.05812907963991165,"38":-0.22072865068912506,"39":-0.08161995559930801,"40":-0.055755600333213806,"41":0.15423378348350525,"42":0.11798041313886642,"43":0.06970557570457458,"44":-0.19105522334575653,"45":-0.2680494785308838,"46":0.03618869185447693,"47":0.10652297735214233,"48":-0.08371822535991669,"49":-0.11935562640428543,"50":-0.15083514153957367,"51":-0.22371995449066162,"52":0.17355935275554657,"53":0.2191324084997177,"54":-0.09418629854917526,"55":0.0704142153263092,"56":0.05218353495001793,"57":0.0028157453052699566,"58":-0.00026437744963914156,"59":0.026325345039367676,"60":0.1479259729385376,"61":-0.16807018220424652,"62":-0.1014920324087143,"63":-0.16185325384140015,"64":-0.09145715087652206,"65":-0.11937879025936127,"66":0.09093612432479858,"67":0.09742839634418488,"68":-0.15415425598621368,"69":0.01625506393611431,"70":0.1579810231924057,"71":0.07876909524202347,"72":-0.18705573678016663,"73":0.18434828519821167,"74":-0.05000528320670128,"75":0.1427040696144104,"76":-0.07232588529586792,"77":0.10530156642198563,"78":0.026278207078576088,"79":0.1523011475801468,"80":0.11871776729822159,"81":-0.29265332221984863,"82":-0.006814728956669569,"83":0.027938006445765495,"84":-0.09767522662878036,"85":-0.18751460313796997,"86":-0.01663530245423317,"87":-0.12469734996557236,"88":-0.16724002361297607,"89":-0.05527164414525032,"90":-0.022542385384440422,"91":-0.20788006484508514,"92":-0.09194310009479523,"93":0.03862466290593147,"94":0.13829877972602844,"95":-0.008096104487776756,"96":-0.053344279527664185,"97":0.1948598325252533,"98":0.014263213612139225,"99":-0.23469699919223785}},"16":{"bias":0.08671733736991882,"weights":{"0":-0.10811084508895874,"1":0.07715140283107758,"2":-0.13151726126670837,"3":-0.024057673290371895,"4":-0.00758702028542757,"5":0.20002737641334534,"6":-0.06499314308166504,"7":0.1502469778060913,"8":-0.06218672916293144,"9":0.04412684217095375,"10":0.11531584709882736,"11":0.18450617790222168,"12":0.25403696298599243,"13":0.2458946406841278,"14":0.03895106911659241,"15":0.05039174109697342,"16":-0.07597032934427261,"17":0.09576775878667831,"18":-0.18818816542625427,"19":-0.14709779620170593,"20":0.02170565165579319,"21":0.04033806174993515,"22":-0.05772214010357857,"23":-0.16134613752365112,"24":-0.1369902789592743,"25":0.09758445620536804,"26":-0.18694113194942474,"27":0.02901427634060383,"28":0.12966598570346832,"29":-0.16382336616516113,"30":0.257438063621521,"31":0.22264383733272552,"32":0.15932385623455048,"33":-0.085284024477005,"34":-0.013281249441206455,"35":-0.039989717304706573,"36":-0.004326291847974062,"37":-0.029223887249827385,"38":0.09471695125102997,"39":-0.10721620917320251,"40":-0.09337510913610458,"41":0.08289995044469833,"42":-0.15993717312812805,"43":0.05371735244989395,"44":0.014622045680880547,"45":-0.24187545478343964,"46":-0.13683538138866425,"47":-0.28653743863105774,"48":-0.0638437420129776,"49":-0.18220309913158417,"50":-0.06418076157569885,"51":0.18844179809093475,"52":0.03865034505724907,"53":-0.04850044846534729,"54":-0.129191055893898,"55":0.07572672516107559,"56":0.05576073005795479,"57":-0.06319990754127502,"58":0.015140009112656116,"59":-0.12945161759853363,"60":-0.05647740140557289,"61":0.06735974550247192,"62":-0.061961110681295395,"63":0.028468139469623566,"64":-0.04979010298848152,"65":0.1959323287010193,"66":0.1237073466181755,"67":-0.07495950907468796,"68":0.06265834718942642,"69":-0.06724695861339569,"70":0.03248220682144165,"71":0.22885160148143768,"72":0.03117038868367672,"73":-0.08676852285861969,"74":0.018287690356373787,"75":-0.1257338523864746,"76":-0.11671765893697739,"77":-0.05971565470099449,"78":0.23369765281677246,"79":-0.06688304245471954,"80":0.05695674195885658,"81":0.1619137078523636,"82":-0.0029516364447772503,"83":0.0023996669333428144,"84":-0.20509713888168335,"85":-0.04821677878499031,"86":0.09106040000915527,"87":-0.15067845582962036,"88":0.11663676053285599,"89":-0.07555023580789566,"90":0.22806650400161743,"91":0.0034521284978836775,"92":0.07124888896942139,"93":-0.09543131291866302,"94":0.023748133331537247,"95":-0.1725645214319229,"96":-0.07644029706716537,"97":0.09716243296861649,"98":0.025576161220669746,"99":0.10612460970878601}},"17":{"bias":0.023444764316082,"weights":{"0":-0.08808396756649017,"1":0.16990867257118225,"2":0.15162590146064758,"3":0.17019613087177277,"4":0.05903239920735359,"5":0.1970238983631134,"6":-0.08951214700937271,"7":0.04417091980576515,"8":0.09527618438005447,"9":-0.16864895820617676,"10":0.1886807233095169,"11":-0.17879131436347961,"12":-0.26286792755126953,"13":0.037075646221637726,"14":0.16656368970870972,"15":-0.18966862559318542,"16":0.11996656656265259,"17":0.01494830846786499,"18":0.040933024138212204,"19":0.05434756353497505,"20":0.09070414304733276,"21":-0.11020781099796295,"22":-0.1283232420682907,"23":0.09155725687742233,"24":0.12192810326814651,"25":-0.0630250871181488,"26":-0.09553837776184082,"27":-0.045050665736198425,"28":0.005158546846359968,"29":-0.13062146306037903,"30":-0.008892852813005447,"31":0.37880739569664,"32":-0.007750397082418203,"33":0.007909183390438557,"34":0.15150980651378632,"35":-0.022371290251612663,"36":0.2197917252779007,"37":0.08071772754192352,"38":0.23477792739868164,"39":0.009222831577062607,"40":-0.11676030606031418,"41":0.2985038459300995,"42":0.13131076097488403,"43":0.08987416326999664,"44":-0.03857797011733055,"45":-0.0028807371854782104,"46":0.04739530384540558,"47":0.1451159566640854,"48":0.2262202352285385,"49":-0.16147348284721375,"50":-0.12080258876085281,"51":-0.060136038810014725,"52":0.08457858860492706,"53":-0.13901148736476898,"54":0.13500739634037018,"55":0.1524762660264969,"56":-0.008042506873607635,"57":0.17682459950447083,"58":0.16803079843521118,"59":0.07853810489177704,"60":-0.12925560772418976,"61":0.004134462680667639,"62":0.20797514915466309,"63":-0.10694930702447891,"64":0.046321701258420944,"65":-0.12214889377355576,"66":-0.19203053414821625,"67":0.022082412615418434,"68":-0.06938113272190094,"69":0.15458790957927704,"70":0.07356306165456772,"71":-0.07428988814353943,"72":-0.024455426260828972,"73":-0.14860288798809052,"74":-0.18419769406318665,"75":-0.18867520987987518,"76":0.06673986464738846,"77":0.18143382668495178,"78":0.02043919824063778,"79":0.1383877545595169,"80":0.19618478417396545,"81":0.03721166402101517,"82":-0.12514904141426086,"83":0.021361349150538445,"84":-0.22052225470542908,"85":0.21705248951911926,"86":-0.275275856256485,"87":-0.2646803557872772,"88":-0.1459595263004303,"89":-0.12009888887405396,"90":-0.14516662061214447,"91":-0.06785079836845398,"92":0.013666820712387562,"93":-0.16176103055477142,"94":0.00701806740835309,"95":0.004338718950748444,"96":-0.16720755398273468,"97":-0.25594356656074524,"98":0.018537547439336777,"99":-0.05463366582989693}},"18":{"bias":0.056841008365154266,"weights":{"0":0.1516936868429184,"1":-0.13189224898815155,"2":-0.2744675576686859,"3":-0.24971941113471985,"4":-0.05674496665596962,"5":-0.29061827063560486,"6":-0.19973602890968323,"7":-0.18299224972724915,"8":0.02432442270219326,"9":0.022664183750748634,"10":0.126313254237175,"11":-0.274344265460968,"12":-0.1013798788189888,"13":-0.024968672543764114,"14":-0.1263931691646576,"15":-0.053886670619249344,"16":-0.03664437308907509,"17":-0.1464654803276062,"18":-0.16415242850780487,"19":0.04227070510387421,"20":-0.19513072073459625,"21":-0.14810989797115326,"22":0.21927887201309204,"23":0.012070374563336372,"24":-0.02740228921175003,"25":-0.07482951134443283,"26":0.05974072590470314,"27":0.08343061804771423,"28":-0.13352252542972565,"29":0.06363258510828018,"30":-0.0774904415011406,"31":-0.08929295092821121,"32":0.26296737790107727,"33":-0.05052889138460159,"34":0.11015982180833817,"35":-0.04887663945555687,"36":0.21966801583766937,"37":0.14665856957435608,"38":-0.08124960958957672,"39":-0.12020177394151688,"40":0.020698869600892067,"41":-0.10324706137180328,"42":0.026743823662400246,"43":-0.015146150253713131,"44":0.22506597638130188,"45":0.12411806732416153,"46":0.4573839008808136,"47":-0.016084028407931328,"48":-0.1274452656507492,"49":0.03238115459680557,"50":0.10595515370368958,"51":-0.2294439822435379,"52":-0.1670384407043457,"53":-0.031199466437101364,"54":-0.06661185622215271,"55":0.15285496413707733,"56":-0.12176775932312012,"57":-0.16956950724124908,"58":-0.1769840121269226,"59":-0.1890229433774948,"60":-0.008609174750745296,"61":0.04914961755275726,"62":-0.1839345395565033,"63":-0.016552746295928955,"64":-0.05178100988268852,"65":-0.03486708179116249,"66":0.04977334663271904,"67":0.127603217959404,"68":-0.2492334395647049,"69":0.12774834036827087,"70":-0.1615656018257141,"71":-0.005722879432141781,"72":-0.09661347419023514,"73":-0.17655514180660248,"74":0.22942237555980682,"75":-0.17951104044914246,"76":-0.058017339557409286,"77":-0.2092984914779663,"78":-0.19595985114574432,"79":0.001306326943449676,"80":-0.20092080533504486,"81":0.08476617187261581,"82":-0.07895247638225555,"83":-0.0860883891582489,"84":-0.15356801450252533,"85":0.21331626176834106,"86":-0.02252967469394207,"87":-0.11610196530818939,"88":-0.06003117933869362,"89":-0.12956154346466064,"90":0.07099640369415283,"91":0.10694918781518936,"92":0.030482826754450798,"93":0.12727585434913635,"94":-0.1018303632736206,"95":-0.09362909942865372,"96":0.054880399256944656,"97":-0.224192276597023,"98":-0.05718037858605385,"99":0.12333738803863525}},"19":{"bias":-0.008003666996955872,"weights":{"0":0.11300868541002274,"1":0.06546920537948608,"2":-0.18786896765232086,"3":-0.03568856790661812,"4":-0.1668379008769989,"5":-0.07311271876096725,"6":0.21844251453876495,"7":0.018997453153133392,"8":-0.03697177395224571,"9":-0.10211231559515,"10":0.08328427374362946,"11":0.15736734867095947,"12":0.028066696599125862,"13":0.30615684390068054,"14":-0.006371262017637491,"15":0.32695457339286804,"16":0.24802902340888977,"17":0.21068035066127777,"18":-0.10773974657058716,"19":0.10533232986927032,"20":0.12779194116592407,"21":-0.029012711718678474,"22":-0.060188084840774536,"23":-0.11163000017404556,"24":0.1357627958059311,"25":-0.12575365602970123,"26":-0.20797914266586304,"27":-0.16548076272010803,"28":-0.07317617535591125,"29":-0.04057994484901428,"30":0.06312812864780426,"31":0.22556589543819427,"32":0.1764996498823166,"33":-0.003754887031391263,"34":0.14859190583229065,"35":-0.006274665240198374,"36":-0.14858439564704895,"37":0.26422038674354553,"38":-0.028456060215830803,"39":-0.03404908627271652,"40":-0.01986892707645893,"41":0.02033894509077072,"42":-0.2997291088104248,"43":-0.24214620888233185,"44":-0.24146293103694916,"45":-0.28750255703926086,"46":-0.4081140160560608,"47":-0.0706857219338417,"48":0.102116659283638,"49":0.0476604588329792,"50":0.15200284123420715,"51":-0.07841131091117859,"52":-0.28548330068588257,"53":-0.4000052213668823,"54":-0.20344115793704987,"55":-0.04411313310265541,"56":-0.2181660234928131,"57":-0.09857479482889175,"58":-0.04182500019669533,"59":-0.120503269135952,"60":-0.16272400319576263,"61":-0.11216448992490768,"62":-0.13976611196994781,"63":0.11361685395240784,"64":0.03353437781333923,"65":0.06996317207813263,"66":0.006049019284546375,"67":0.1824229657649994,"68":0.2121041715145111,"69":0.07894911617040634,"70":0.13959643244743347,"71":-0.16493742167949677,"72":-0.03280667960643768,"73":0.12604469060897827,"74":-0.060775697231292725,"75":0.08466276526451111,"76":0.1438877284526825,"77":0.013810375705361366,"78":0.20504143834114075,"79":0.04860355705022812,"80":0.07160353660583496,"81":-0.039441995322704315,"82":0.015985146164894104,"83":0.001619566697627306,"84":0.25699010491371155,"85":-0.10487256944179535,"86":-0.03811785951256752,"87":-0.12533248960971832,"88":0.18630468845367432,"89":0.11746805906295776,"90":0.17443610727787018,"91":-0.18689021468162537,"92":0.016038943082094193,"93":-0.05223905295133591,"94":-0.03739917650818825,"95":-0.02677718922495842,"96":-0.1889020949602127,"97":0.13154956698417664,"98":-0.1845424622297287,"99":0.027368443086743355}},"20":{"bias":0.0025067273527383804,"weights":{"0":0.04702562838792801,"1":0.17503739893436432,"2":0.09972371906042099,"3":0.17700208723545074,"4":-0.05949901044368744,"5":-0.038493044674396515,"6":-0.09247320145368576,"7":0.04970550164580345,"8":0.18788526952266693,"9":0.1625656932592392,"10":-0.10300511866807938,"11":0.18755553662776947,"12":0.049619317054748535,"13":-0.029895830899477005,"14":0.02192993275821209,"15":0.21211840212345123,"16":-0.0294197965413332,"17":-0.04301469400525093,"18":0.10005743056535721,"19":0.04784490168094635,"20":-0.03513457253575325,"21":0.21746008098125458,"22":-0.08828465640544891,"23":0.013310549780726433,"24":0.1603943109512329,"25":-0.02578919008374214,"26":0.13709597289562225,"27":0.2360425889492035,"28":-0.02118799090385437,"29":0.11411367356777191,"30":0.24095512926578522,"31":0.4184016287326813,"32":0.20718270540237427,"33":0.22977349162101746,"34":0.010819697752594948,"35":0.18338635563850403,"36":0.10946666449308395,"37":0.019917123019695282,"38":0.5386258363723755,"39":0.1661049723625183,"40":0.15242116153240204,"41":0.2635064125061035,"42":-0.053575530648231506,"43":-0.2542928457260132,"44":-0.25666525959968567,"45":-0.29441654682159424,"46":-0.3822966516017914,"47":-0.1827707588672638,"48":0.18443799018859863,"49":-0.165126770734787,"50":-0.05067851021885872,"51":-0.14068134129047394,"52":-0.3663983941078186,"53":-0.14523479342460632,"54":-0.2912837862968445,"55":-0.036587491631507874,"56":-0.3328908085823059,"57":-0.24278652667999268,"58":0.00988801196217537,"59":-0.0342286042869091,"60":0.2230904996395111,"61":0.2385256439447403,"62":0.05345993861556053,"63":-0.15064945816993713,"64":0.08406823873519897,"65":0.04589800909161568,"66":0.011515541933476925,"67":0.22596165537834167,"68":0.07584420591592789,"69":0.008101275190711021,"70":0.11456477642059326,"71":0.22061626613140106,"72":-0.017870929092168808,"73":-0.03435520455241203,"74":-0.09149587899446487,"75":-0.06768935918807983,"76":-0.1400979459285736,"77":0.11074835062026978,"78":0.008769575506448746,"79":-0.09318283945322037,"80":0.16793015599250793,"81":0.1381409764289856,"82":-0.18371230363845825,"83":0.069947749376297,"84":0.2412867695093155,"85":0.08264908939599991,"86":0.08891088515520096,"87":0.004659484606236219,"88":-0.013352436944842339,"89":0.25277966260910034,"90":-0.02063658833503723,"91":0.0018934538820758462,"92":-0.2336706519126892,"93":-0.0657641738653183,"94":0.014936269260942936,"95":-0.17684757709503174,"96":-0.04576229304075241,"97":0.03658014535903931,"98":-0.073796845972538,"99":-0.09545678645372391}},"21":{"bias":0.034806281328201294,"weights":{"0":0.06295333802700043,"1":-0.17586636543273926,"2":0.08314161002635956,"3":-0.3066433072090149,"4":-0.06974824517965317,"5":-0.20632514357566833,"6":-0.05116225406527519,"7":-0.00934883113950491,"8":0.10829030722379684,"9":0.11974503099918365,"10":0.08007199317216873,"11":-0.17224924266338348,"12":-0.2205512672662735,"13":-0.12204477190971375,"14":-0.06425414234399796,"15":-0.3557754456996918,"16":-0.26400697231292725,"17":-0.05792780965566635,"18":-0.09619876742362976,"19":-0.08148299157619476,"20":0.11093436181545258,"21":-0.09231025725603104,"22":-0.05756046622991562,"23":-0.019992770627141,"24":0.13640446960926056,"25":-0.2433364987373352,"26":-0.03606864809989929,"27":-0.2297191321849823,"28":-0.21705900132656097,"29":0.07907313853502274,"30":-0.07475683093070984,"31":-0.17540504038333893,"32":-0.2505621612071991,"33":0.024141842499375343,"34":0.03526175767183304,"35":-0.2995058000087738,"36":-0.14182424545288086,"37":0.04756166413426399,"38":-0.13376308977603912,"39":-0.21474385261535645,"40":0.08095529675483704,"41":0.005292216781526804,"42":-0.09118255227804184,"43":-0.2622266113758087,"44":0.026269175112247467,"45":0.10968627035617828,"46":0.3067036271095276,"47":0.0913870632648468,"48":-0.1472453624010086,"49":-0.18907871842384338,"50":-0.14091172814369202,"51":-0.2133731096982956,"52":-0.07322617620229721,"53":-0.047179073095321655,"54":0.18523533642292023,"55":0.07087348401546478,"56":-0.18309946358203888,"57":-0.06968089193105698,"58":-0.2002275288105011,"59":0.061194490641355515,"60":0.1271398514509201,"61":-0.004799119662493467,"62":0.17531903088092804,"63":-0.014539203606545925,"64":-0.151289165019989,"65":-0.050600387156009674,"66":0.08660520613193512,"67":0.1388099640607834,"68":-0.23317208886146545,"69":0.09668134897947311,"70":-0.08679153770208359,"71":-0.21593832969665527,"72":0.004912182223051786,"73":0.0333818718791008,"74":0.20043566823005676,"75":-0.034587275236845016,"76":0.06039555370807648,"77":-0.07186757773160934,"78":-0.037348672747612,"79":-0.12494741380214691,"80":-0.09523782134056091,"81":0.05062432587146759,"82":-0.034934498369693756,"83":0.01892496831715107,"84":0.12179965525865555,"85":-0.012409772723913193,"86":-0.08135248720645905,"87":0.09109775722026825,"88":0.08648904412984848,"89":0.123724065721035,"90":-0.0379943810403347,"91":0.16289983689785004,"92":-0.046665724366903305,"93":0.18226639926433563,"94":-0.09118570387363434,"95":0.1152150109410286,"96":0.010334961116313934,"97":-0.0944177657365799,"98":-0.003298212308436632,"99":-0.1971234679222107}},"22":{"bias":0.02951190620660782,"weights":{"0":-0.020974542945623398,"1":-0.12642166018486023,"2":-0.1808999478816986,"3":0.01722978986799717,"4":0.0035254843533039093,"5":-0.08138270676136017,"6":-0.024232272058725357,"7":0.14709143340587616,"8":-0.0802697092294693,"9":0.07213211804628372,"10":0.008348777890205383,"11":-0.14566822350025177,"12":-0.13571855425834656,"13":-0.02247662842273712,"14":0.01673365756869316,"15":-0.15363211929798126,"16":-0.1251697987318039,"17":-0.10466139018535614,"18":0.07064986974000931,"19":-0.16763317584991455,"20":0.13390663266181946,"21":-0.22423306107521057,"22":-0.14139465987682343,"23":0.041404467076063156,"24":0.14198116958141327,"25":-0.2374960482120514,"26":-0.06927093863487244,"27":-0.1293347030878067,"28":-0.03340756148099899,"29":-0.19420361518859863,"30":-0.16466668248176575,"31":-0.20973414182662964,"32":0.08368949592113495,"33":-0.06616535782814026,"34":0.027109045535326004,"35":-0.19237753748893738,"36":-0.18504558503627777,"37":-0.013617143966257572,"38":-0.04315604269504547,"39":-0.17849937081336975,"40":0.03903405740857124,"41":-0.2322581559419632,"42":0.09761372953653336,"43":0.05408191680908203,"44":0.18144281208515167,"45":0.06341388821601868,"46":0.39872363209724426,"47":0.1188509538769722,"48":-0.08687566220760345,"49":-0.20102480053901672,"50":-0.1574111133813858,"51":-0.2524169981479645,"52":-0.01938246376812458,"53":0.24682946503162384,"54":0.03549714758992195,"55":-0.052598338574171066,"56":0.02979298308491707,"57":0.05018456280231476,"58":-0.12927035987377167,"59":0.09182174503803253,"60":0.1656845659017563,"61":-0.22322317957878113,"62":-0.05429665744304657,"63":0.0552385114133358,"64":-0.11019998043775558,"65":-0.12420855462551117,"66":0.006487845443189144,"67":0.06015994772315025,"68":0.020131874829530716,"69":-0.09906601905822754,"70":-0.10861542075872421,"71":-0.23468822240829468,"72":-0.048358041793107986,"73":0.09453348070383072,"74":-0.11944441497325897,"75":-0.15977533161640167,"76":0.0760168582201004,"77":0.02031572349369526,"78":-0.09201675653457642,"79":0.12772008776664734,"80":-0.22580310702323914,"81":0.11561541259288788,"82":0.09184404462575912,"83":-0.03514821454882622,"84":0.03855956718325615,"85":-0.003399592125788331,"86":0.20175111293792725,"87":-0.13352076709270477,"88":0.12078262865543365,"89":-0.10564499348402023,"90":0.04992867633700371,"91":-0.030672797933220863,"92":0.22734974324703217,"93":0.14731071889400482,"94":-0.00772081408649683,"95":-0.039849359542131424,"96":-0.0839964970946312,"97":0.16884708404541016,"98":0.18850883841514587,"99":-0.09906905144453049}},"23":{"bias":0.07876937091350555,"weights":{"0":-0.17638133466243744,"1":0.07000511139631271,"2":0.05409826710820198,"3":-0.1270826756954193,"4":-0.1203153133392334,"5":-0.1525857001543045,"6":-0.13762742280960083,"7":-0.06144694983959198,"8":0.20598816871643066,"9":0.19775722920894623,"10":0.16658860445022583,"11":0.21963301301002502,"12":0.22760209441184998,"13":-0.0057367063127458096,"14":-0.11174295097589493,"15":-0.17055213451385498,"16":0.1999087929725647,"17":0.20824284851551056,"18":-0.10260530561208725,"19":0.18681851029396057,"20":-0.17886094748973846,"21":-0.06693350523710251,"22":0.12453005462884903,"23":-0.1237950474023819,"24":0.14699983596801758,"25":0.10518745332956314,"26":-0.002168441889807582,"27":0.13290919363498688,"28":0.06003446877002716,"29":-0.08224891126155853,"30":-0.06752518564462662,"31":-0.07229189574718475,"32":0.03645383566617966,"33":-0.13796159625053406,"34":-0.061330270022153854,"35":-0.16486425697803497,"36":0.09517370164394379,"37":0.15373796224594116,"38":-0.30596083402633667,"39":-0.04902125149965286,"40":-0.1308535635471344,"41":-0.0062422375194728374,"42":-0.054529737681150436,"43":-0.09166504442691803,"44":0.06535527855157852,"45":0.19675549864768982,"46":0.11063218116760254,"47":-0.04688745364546776,"48":0.02703884057700634,"49":0.0669253021478653,"50":0.17493648827075958,"51":-0.037233609706163406,"52":0.05121304839849472,"53":0.08063316345214844,"54":0.15730583667755127,"55":-0.11510985344648361,"56":-0.19635631144046783,"57":0.07050024718046188,"58":-0.2268693894147873,"59":0.06877239048480988,"60":-0.03804561123251915,"61":-0.01461046189069748,"62":-0.05175083503127098,"63":0.1556902527809143,"64":0.08797673881053925,"65":0.10897395759820938,"66":-0.05126575753092766,"67":0.0567207932472229,"68":-0.28054866194725037,"69":0.09422658383846283,"70":-0.1658186912536621,"71":-0.256056547164917,"72":-0.11248068511486053,"73":-0.12435062229633331,"74":0.07641372829675674,"75":-0.20454348623752594,"76":-0.11718510836362839,"77":0.0677657201886177,"78":-0.14676430821418762,"79":-0.08473693579435349,"80":-0.21508321166038513,"81":-0.26325803995132446,"82":0.05129347741603851,"83":-0.16729208827018738,"84":-0.0950796827673912,"85":0.02313663624227047,"86":0.1727914810180664,"87":0.13246341049671173,"88":-0.10474471747875214,"89":0.0025204094126820564,"90":-0.027699343860149384,"91":0.0745050460100174,"92":0.19043906033039093,"93":0.053098324686288834,"94":-0.15194448828697205,"95":-0.1399054080247879,"96":-0.12484078109264374,"97":0.08998128771781921,"98":0.05043400451540947,"99":-0.008181755430996418}},"24":{"bias":-0.20047029852867126,"weights":{"0":-0.0860661044716835,"1":-0.07298577576875687,"2":-0.020974822342395782,"3":0.016767021268606186,"4":-0.08152821660041809,"5":0.2024235725402832,"6":-0.023684313520789146,"7":-0.045234568417072296,"8":-0.021109947934746742,"9":0.07093647122383118,"10":-0.00290973880328238,"11":-0.11375747621059418,"12":-0.06735707074403763,"13":0.08898267149925232,"14":-0.17813466489315033,"15":0.003595912829041481,"16":-0.06848073750734329,"17":0.06557045131921768,"18":-0.0026706873904913664,"19":0.12443134933710098,"20":0.06605315953493118,"21":0.005115130916237831,"22":0.10553517192602158,"23":-0.14574304223060608,"24":0.19719764590263367,"25":0.020758362486958504,"26":0.15998317301273346,"27":0.17381910979747772,"28":-0.21965546905994415,"29":0.06707853078842163,"30":-0.125573068857193,"31":-0.3240879774093628,"32":-0.20043528079986572,"33":0.0948321744799614,"34":-0.06379075348377228,"35":0.05695520341396332,"36":-0.12218083441257477,"37":-0.056702788919210434,"38":-0.1553022265434265,"39":-0.18949063122272491,"40":0.026363877579569817,"41":-0.08793959766626358,"42":0.08499669283628464,"43":0.12387654930353165,"44":-0.0676737055182457,"45":-0.014293432235717773,"46":0.06217128783464432,"47":-0.09740818291902542,"48":0.12021037936210632,"49":-0.13078229129314423,"50":-0.0970965027809143,"51":0.08859748393297195,"52":0.18588674068450928,"53":0.19528613984584808,"54":-0.08741364628076553,"55":-0.03488720953464508,"56":0.2838180661201477,"57":0.1650790125131607,"58":0.14234326779842377,"59":0.09717123955488205,"60":-0.055044323205947876,"61":-0.049006469547748566,"62":-0.17254728078842163,"63":-0.12859416007995605,"64":0.005307430401444435,"65":-0.00024167982337530702,"66":0.1750032752752304,"67":0.11048571765422821,"68":-0.05429282784461975,"69":-0.1512051522731781,"70":0.009626521728932858,"71":-0.20827487111091614,"72":-0.022576166316866875,"73":0.015713730826973915,"74":0.07123971730470657,"75":-0.19896875321865082,"76":-0.0995408147573471,"77":0.061535049229860306,"78":-0.05948537960648537,"79":-0.06723832339048386,"80":0.1831715703010559,"81":0.03010604716837406,"82":-0.1666164994239807,"83":-0.07326708734035492,"84":-0.17046427726745605,"85":-0.2033929079771042,"86":0.03918977454304695,"87":0.11106564849615097,"88":-0.1450469195842743,"89":-0.1796497255563736,"90":-0.07335963100194931,"91":-0.01168238278478384,"92":0.2939823269844055,"93":0.07040809094905853,"94":0.029779642820358276,"95":0.2409048080444336,"96":0.09349396079778671,"97":0.2758704721927643,"98":0.25725141167640686,"99":-0.15728218853473663}},"25":{"bias":0.14872120320796967,"weights":{"0":-0.13849401473999023,"1":0.09661068767309189,"2":0.20413415133953094,"3":0.16384366154670715,"4":-0.08248305320739746,"5":-0.07009486854076385,"6":0.1509639322757721,"7":0.10725507885217667,"8":0.13537095487117767,"9":-0.18010610342025757,"10":0.055498525500297546,"11":0.1689174622297287,"12":0.25336551666259766,"13":-0.047148045152425766,"14":0.04940158873796463,"15":0.11348897218704224,"16":0.03267225995659828,"17":-0.07004979252815247,"18":0.14692936837673187,"19":-0.13757427036762238,"20":-0.017476830631494522,"21":-0.16094116866588593,"22":-0.041338562965393066,"23":0.052062395960092545,"24":0.08679664134979248,"25":0.023445943370461464,"26":0.011726831085979939,"27":0.033793576061725616,"28":-0.06755305826663971,"29":-0.118616983294487,"30":-0.05552470684051514,"31":-0.06728319823741913,"32":-0.051002297550439835,"33":-0.0748317539691925,"34":0.28750374913215637,"35":0.03153698518872261,"36":0.23613758385181427,"37":-0.027500957250595093,"38":-0.1657141149044037,"39":0.039187707006931305,"40":-0.13548493385314941,"41":-0.1712048053741455,"42":0.19203194975852966,"43":0.03210790827870369,"44":0.1913721263408661,"45":-0.053885117173194885,"46":0.26742538809776306,"47":-0.06250779330730438,"48":-0.2786789834499359,"49":0.11914059519767761,"50":0.15852683782577515,"51":-0.20334281027317047,"52":0.24038100242614746,"53":0.09520991146564484,"54":0.15801286697387695,"55":-0.0068475534208118916,"56":0.1786542683839798,"57":0.24245968461036682,"58":0.03662417456507683,"59":0.15371863543987274,"60":-0.07853282988071442,"61":-0.2824399769306183,"62":-0.16455085575580597,"63":-0.16995862126350403,"64":0.23621292412281036,"65":0.16027389466762543,"66":0.1920001357793808,"67":-0.021517368033528328,"68":-0.03291973099112511,"69":0.02210545912384987,"70":0.00907000619918108,"71":-0.14790096879005432,"72":-0.16821198165416718,"73":0.09118396043777466,"74":-0.01528499461710453,"75":-0.08855921775102615,"76":0.003988292533904314,"77":0.028904633596539497,"78":-0.22879891097545624,"79":-0.05952563136816025,"80":-0.08594789355993271,"81":-0.2692054808139801,"82":-0.01418248564004898,"83":-0.35812535881996155,"84":-0.1355094462633133,"85":-0.17544615268707275,"86":-0.218797504901886,"87":-0.02872842364013195,"88":-0.291002094745636,"89":-0.2780840992927551,"90":0.03703708574175835,"91":-0.2288324385881424,"92":0.1545524299144745,"93":0.044044818729162216,"94":-0.08260204643011093,"95":0.04661767929792404,"96":0.12898112833499908,"97":-0.07166068255901337,"98":-0.18738104403018951,"99":0.15713270008563995}},"26":{"bias":-0.1972091943025589,"weights":{"0":-0.0778646245598793,"1":0.05114706978201866,"2":0.07505178451538086,"3":0.005441694054752588,"4":-0.053129643201828,"5":0.2696211636066437,"6":0.30192452669143677,"7":0.11765211820602417,"8":0.028209980577230453,"9":0.17736434936523438,"10":0.07802002876996994,"11":0.22656844556331635,"12":-0.06597098708152771,"13":0.24599701166152954,"14":0.05028892308473587,"15":-0.14406882226467133,"16":-0.089086152613163,"17":0.24381478130817413,"18":-0.17712640762329102,"19":0.12155172973871231,"20":0.005674913991242647,"21":0.10151687264442444,"22":0.20758120715618134,"23":0.05227900668978691,"24":0.028118541464209557,"25":-0.16575708985328674,"26":0.030938224866986275,"27":-0.049144525080919266,"28":-0.14235490560531616,"29":-0.13737650215625763,"30":0.07076998054981232,"31":0.1450694501399994,"32":0.31834861636161804,"33":0.11503255367279053,"34":0.15833239257335663,"35":0.09755980968475342,"36":0.3247720003128052,"37":0.14267583191394806,"38":0.195611372590065,"39":-0.047352083027362823,"40":0.03700735792517662,"41":-0.2175978422164917,"42":0.1992568075656891,"43":0.2789871096611023,"44":0.14168065786361694,"45":0.1787731945514679,"46":0.12858539819717407,"47":0.062202345579862595,"48":-0.22872354090213776,"49":-0.16006438434123993,"50":-0.04761781170964241,"51":-0.0022075073793530464,"52":0.3184353709220886,"53":0.36733847856521606,"54":0.036702197045087814,"55":0.13277988135814667,"56":0.2136715054512024,"57":0.35212820768356323,"58":-0.06459580361843109,"59":-0.13467071950435638,"60":0.14982564747333527,"61":-0.3018448054790497,"62":-0.030635885894298553,"63":0.011088318191468716,"64":-0.13250459730625153,"65":-0.018212059512734413,"66":0.16224800050258636,"67":-0.02559315413236618,"68":-0.004139860160648823,"69":-0.07912719994783401,"70":-0.11749342828989029,"71":-0.23872388899326324,"72":-0.03215168043971062,"73":0.17947958409786224,"74":-0.055711276829242706,"75":-0.13175927102565765,"76":0.05374611169099808,"77":-0.07534612715244293,"78":-0.025197593495249748,"79":0.04598068818449974,"80":0.03773270174860954,"81":-0.3340276777744293,"82":-0.2993263602256775,"83":-0.42122921347618103,"84":-0.3087705075740814,"85":0.04328178986907005,"86":-0.28498759865760803,"87":-0.11025774478912354,"88":-0.16417546570301056,"89":-0.09768089652061462,"90":0.08574013411998749,"91":-0.17429451644420624,"92":-0.1297936737537384,"93":-0.2032712697982788,"94":0.025693504139780998,"95":-0.05615771561861038,"96":0.14912806451320648,"97":0.06707971543073654,"98":0.12773345410823822,"99":0.03115653805434704}},"27":{"bias":0.056176189333200455,"weights":{"0":0.04665527492761612,"1":-0.08867676556110382,"2":-0.2687190771102905,"3":-0.32036998867988586,"4":-0.09555837512016296,"5":-0.2710587680339813,"6":-0.3141309320926666,"7":-0.010283190757036209,"8":-0.18694382905960083,"9":-0.08362092822790146,"10":-0.11622024327516556,"11":-0.2959074079990387,"12":-0.49007919430732727,"13":-0.39791765809059143,"14":-0.20957733690738678,"15":0.0071936193853616714,"16":-0.30263715982437134,"17":-0.1390703171491623,"18":-0.22281356155872345,"19":-0.1283801794052124,"20":0.07735946774482727,"21":-0.08904963731765747,"22":-0.1335824579000473,"23":-0.11270541697740555,"24":0.0017143876757472754,"25":-0.2056167721748352,"26":-0.197730153799057,"27":-0.02654375322163105,"28":0.0901908203959465,"29":0.030707035213708878,"30":0.15652808547019958,"31":0.02562856487929821,"32":-0.04719877243041992,"33":-0.005163948517292738,"34":0.19991904497146606,"35":-0.011439016088843346,"36":-0.09358271211385727,"37":0.058155208826065063,"38":0.1954122930765152,"39":0.090642049908638,"40":0.10297255218029022,"41":-0.014807852916419506,"42":-0.16491936147212982,"43":-0.14633339643478394,"44":0.06687168031930923,"45":0.28456464409828186,"46":0.3003019392490387,"47":-0.1269681602716446,"48":0.23859380185604095,"49":-0.038361914455890656,"50":0.1662164330482483,"51":-0.06379199028015137,"52":-0.0005155399558134377,"53":-0.09184935688972473,"54":-0.19202780723571777,"55":-0.19312430918216705,"56":-0.16613607108592987,"57":-0.022421779111027718,"58":-0.12802636623382568,"59":0.06381113827228546,"60":-0.04586084932088852,"61":0.1051366850733757,"62":-0.16690318286418915,"63":-0.16255301237106323,"64":0.06762701272964478,"65":-0.044328946620225906,"66":-0.17354810237884521,"67":0.052912238985300064,"68":-0.12540926039218903,"69":-0.09072399139404297,"70":0.005462476052343845,"71":0.1775323748588562,"72":0.005396815482527018,"73":0.06378354132175446,"74":-0.023125793784856796,"75":0.08127886056900024,"76":-0.011132748797535896,"77":-0.13861148059368134,"78":0.24478213489055634,"79":-0.003860261058434844,"80":-0.09799189865589142,"81":-0.025181446224451065,"82":0.06055048480629921,"83":0.0439474917948246,"84":-0.1287185102701187,"85":0.19563861191272736,"86":0.16192658245563507,"87":0.14978209137916565,"88":-0.10099650174379349,"89":0.2072584629058838,"90":0.06259869784116745,"91":0.19352677464485168,"92":0.0464119128882885,"93":0.11107044667005539,"94":0.15661963820457458,"95":-0.12346062809228897,"96":0.05127005651593208,"97":-0.14191395044326782,"98":0.058827340602874756,"99":-0.036400359123945236}},"28":{"bias":-0.15453454852104187,"weights":{"0":0.022306814789772034,"1":0.0019221039256080985,"2":0.0048176865093410015,"3":-0.02031715400516987,"4":-0.009572872892022133,"5":0.3139714002609253,"6":0.269322007894516,"7":0.2687544822692871,"8":-0.0010019895853474736,"9":-0.050790492445230484,"10":-0.1544751077890396,"11":0.24137449264526367,"12":0.03509370982646942,"13":0.10524371266365051,"14":0.10129571706056595,"15":0.30177685618400574,"16":0.0573505237698555,"17":0.14254245162010193,"18":0.17176075279712677,"19":0.019752275198698044,"20":-0.12973766028881073,"21":0.1252945065498352,"22":-0.12181788682937622,"23":-0.035359662026166916,"24":-0.046983443200588226,"25":0.09720875322818756,"26":0.05958666279911995,"27":0.17901846766471863,"28":0.1039511188864708,"29":-0.04576852172613144,"30":-0.24053378403186798,"31":0.007082002237439156,"32":-0.2809608280658722,"33":-0.37681177258491516,"34":-0.4754481911659241,"35":-0.10614755004644394,"36":-0.49086636304855347,"37":-0.22405365109443665,"38":-0.008947239257395267,"39":0.04795993119478226,"40":-0.06297887116670609,"41":0.06577930599451065,"42":-0.08098414540290833,"43":0.10804632306098938,"44":-0.2466357797384262,"45":-0.41616496443748474,"46":-0.5435013771057129,"47":-0.20822834968566895,"48":0.3371011018753052,"49":0.00009344369027530774,"50":0.016840379685163498,"51":0.22478517889976501,"52":0.18134550750255585,"53":0.10886700451374054,"54":0.11928872019052505,"55":0.20450730621814728,"56":0.1820618063211441,"57":-0.02495337650179863,"58":0.048314645886421204,"59":-0.1337389200925827,"60":0.11369778215885162,"61":0.14886806905269623,"62":0.005902253556996584,"63":-0.08580242842435837,"64":-0.016934314742684364,"65":-0.11664582043886185,"66":0.11292335391044617,"67":0.09089545160531998,"68":0.2789946496486664,"69":0.05415128171443939,"70":0.09487910568714142,"71":0.026140939444303513,"72":-0.051642678678035736,"73":0.10640820860862732,"74":-0.25229349732398987,"75":0.1606302261352539,"76":0.02057698182761669,"77":0.11835457384586334,"78":0.24988102912902832,"79":0.1172284483909607,"80":-0.06850492209196091,"81":-0.0284438319504261,"82":-0.0811263844370842,"83":0.19958160817623138,"84":0.14796070754528046,"85":-0.22912785410881042,"86":0.17808987200260162,"87":0.09350719302892685,"88":0.21229149401187897,"89":-0.0043990458361804485,"90":0.008256644941866398,"91":0.18734824657440186,"92":0.3192223012447357,"93":-0.08802054822444916,"94":-0.08876702934503555,"95":0.08484288305044174,"96":0.2573483884334564,"97":0.26937317848205566,"98":0.2628656327724457,"99":0.04483921825885773}},"29":{"bias":-0.16651535034179688,"weights":{"0":-0.07526896893978119,"1":-0.13569651544094086,"2":0.018079891800880432,"3":0.18003861606121063,"4":0.015167956240475178,"5":0.10020113736391068,"6":0.1320115327835083,"7":0.1323593705892563,"8":-0.09487593919038773,"9":-0.1340438574552536,"10":-0.030411984771490097,"11":-0.015263552777469158,"12":0.24088416993618011,"13":0.3964765667915344,"14":0.17779359221458435,"15":0.12140420079231262,"16":0.1577022522687912,"17":0.1436806470155716,"18":0.0744275376200676,"19":0.08387713879346848,"20":-0.013641005381941795,"21":-0.10215453058481216,"22":-0.020691845566034317,"23":-0.13272376358509064,"24":-0.047081656754016876,"25":0.08715282380580902,"26":0.019648997113108635,"27":0.11111848056316376,"28":-0.034635137766599655,"29":-0.0012016112450510263,"30":0.14933587610721588,"31":-0.0675048902630806,"32":-0.05924529954791069,"33":-0.21030768752098083,"34":-0.21468020975589752,"35":0.14153093099594116,"36":-0.00687779113650322,"37":-0.2654024660587311,"38":0.1422678381204605,"39":-0.11609550565481186,"40":-0.14474838972091675,"41":-0.13603177666664124,"42":0.18224205076694489,"43":-0.06441520154476166,"44":0.028594287112355232,"45":-0.26300641894340515,"46":-0.48338279128074646,"47":-0.3082328736782074,"48":0.13260698318481445,"49":-0.003928014542907476,"50":0.1317836493253708,"51":0.08085101842880249,"52":-0.26107507944107056,"53":-0.051526717841625214,"54":-0.286508709192276,"55":-0.028199493885040283,"56":-0.3223286271095276,"57":-0.0971103236079216,"58":-0.0033817533403635025,"59":0.051400624215602875,"60":0.18757884204387665,"61":0.03748586028814316,"62":0.06980586796998978,"63":-0.009837382473051548,"64":-0.07695738226175308,"65":-0.09901261329650879,"66":-0.07136786729097366,"67":0.20845946669578552,"68":0.009530746378004551,"69":-0.17209677398204803,"70":0.11866939067840576,"71":-0.17850010097026825,"72":-0.16576096415519714,"73":0.08412084728479385,"74":-0.047463830560445786,"75":0.1386203020811081,"76":-0.15634073317050934,"77":0.0588037334382534,"78":-0.07240185141563416,"79":-0.1466502696275711,"80":0.13946647942066193,"81":0.08738204836845398,"82":0.15511000156402588,"83":0.16514939069747925,"84":0.07207110524177551,"85":-0.15904507040977478,"86":0.1110256165266037,"87":0.0043657575733959675,"88":-0.2320304960012436,"89":0.003604424186050892,"90":-0.13936345279216766,"91":-0.17758119106292725,"92":-0.097798652946949,"93":-0.045935969799757004,"94":-0.026150833815336227,"95":-0.11012225598096848,"96":-0.09298001229763031,"97":0.1818106770515442,"98":-0.1273013800382614,"99":-0.1435404121875763}},"30":{"bias":0.02956024557352066,"weights":{"0":0.0566568560898304,"1":-0.07339521497488022,"2":-0.06410178542137146,"3":-0.22453027963638306,"4":-0.10778157413005829,"5":-0.10179363191127777,"6":0.03513478860259056,"7":0.04927325248718262,"8":0.028348408639431,"9":0.044731415808200836,"10":0.13499607145786285,"11":-0.22940242290496826,"12":-0.3013235628604889,"13":-0.08003304153680801,"14":-0.033393505960702896,"15":0.1340668797492981,"16":-0.2823570966720581,"17":-0.19311009347438812,"18":0.11372416466474533,"19":0.0011480257380753756,"20":0.20423483848571777,"21":0.2846660912036896,"22":0.17561718821525574,"23":0.06682541221380234,"24":0.15288719534873962,"25":0.010308302007615566,"26":-0.08980918675661087,"27":0.13083045184612274,"28":0.0014260162133723497,"29":0.037130314856767654,"30":0.25158601999282837,"31":0.25421303510665894,"32":0.057093121111392975,"33":0.195062518119812,"34":0.18420474231243134,"35":0.02700386568903923,"36":0.21097536385059357,"37":0.17918212711811066,"38":0.29051461815834045,"39":0.19114990532398224,"40":0.06977492570877075,"41":0.2420787811279297,"42":0.12707671523094177,"43":-0.06369704753160477,"44":-0.21177828311920166,"45":-0.10064008831977844,"46":-0.27809563279151917,"47":-0.05531385540962219,"48":0.19767458736896515,"49":-0.10253487527370453,"50":-0.1024036556482315,"51":0.08155987411737442,"52":-0.18844527006149292,"53":0.09435021132230759,"54":-0.016306178644299507,"55":-0.1060091182589531,"56":0.01968376897275448,"57":-0.10966881364583969,"58":-0.04003918915987015,"59":0.0408373586833477,"60":0.09658126533031464,"61":0.04314473643898964,"62":-0.022621767595410347,"63":-0.15423685312271118,"64":0.1317266821861267,"65":-0.10864781588315964,"66":0.1679963320493698,"67":0.09355133026838303,"68":0.026168223470449448,"69":0.0329967737197876,"70":0.06310995668172836,"71":0.28923270106315613,"72":-0.12177949398756027,"73":0.1537053883075714,"74":-0.18993456661701202,"75":-0.15298256278038025,"76":0.10364184528589249,"77":-0.04008141905069351,"78":0.29333147406578064,"79":0.05521348863840103,"80":0.19952529668807983,"81":-0.026908108964562416,"82":-0.21314840018749237,"83":-0.1671755313873291,"84":0.04734114184975624,"85":0.07105441391468048,"86":-0.023924505338072777,"87":0.025275692343711853,"88":-0.07678434252738953,"89":0.06636415421962738,"90":0.09387603402137756,"91":0.09609704464673996,"92":-0.23242640495300293,"93":-0.08518488705158234,"94":0.002435382455587387,"95":0.06737666577100754,"96":-0.01675730012357235,"97":-0.020401842892169952,"98":0.06359576433897018,"99":0.1772758811712265}},"31":{"bias":0.02411811798810959,"weights":{"0":-0.07704509049654007,"1":-0.13741406798362732,"2":-0.16250000894069672,"3":0.08735369145870209,"4":-0.002620590617880225,"5":0.047338537871837616,"6":-0.26294633746147156,"7":0.005216871853917837,"8":0.04883700609207153,"9":0.09092610329389572,"10":0.16130731999874115,"11":-0.21537069976329803,"12":-0.04701964557170868,"13":-0.23484115302562714,"14":-0.028140965849161148,"15":-0.2996770441532135,"16":-0.23034466803073883,"17":-0.019140072166919708,"18":-0.19933412969112396,"19":0.13860514760017395,"20":0.022518180310726166,"21":-0.03797090798616409,"22":0.06706195324659348,"23":-0.13301867246627808,"24":-0.008360140956938267,"25":0.09375691413879395,"26":-0.012779530137777328,"27":-0.11129375547170639,"28":0.09779759496450424,"29":-0.12343686074018478,"30":-0.1260504126548767,"31":0.23832572996616364,"32":0.235301673412323,"33":0.14599569141864777,"34":0.1988237053155899,"35":-0.06670214980840683,"36":0.16238698363304138,"37":0.2974745035171509,"38":0.07663274556398392,"39":-0.022109689190983772,"40":-0.11292519420385361,"41":0.07969619333744049,"42":0.20112285017967224,"43":0.1655392199754715,"44":0.29334670305252075,"45":0.06036918982863426,"46":0.5469462275505066,"47":0.0648120790719986,"48":-0.2228206992149353,"49":0.18478044867515564,"50":0.1633480191230774,"51":-0.0945817083120346,"52":0.15135137736797333,"53":0.005227264948189259,"54":0.2927211821079254,"55":0.18741928040981293,"56":0.000017032238247338682,"57":0.13768288493156433,"58":-0.0612146221101284,"59":0.02219446375966072,"60":-0.2097880095243454,"61":-0.06061198189854622,"62":0.034788236021995544,"63":-0.11713439226150513,"64":-0.022921912372112274,"65":0.08073530346155167,"66":0.1671385020017624,"67":0.06577766686677933,"68":-0.09934169799089432,"69":0.10333177447319031,"70":-0.014237197116017342,"71":-0.2732055187225342,"72":0.11688186973333359,"73":-0.08004896342754364,"74":0.17625127732753754,"75":0.049001384526491165,"76":-0.11908292025327682,"77":-0.11978531628847122,"78":-0.20658358931541443,"79":-0.16656450927257538,"80":0.028114059939980507,"81":0.0019115720642730594,"82":-0.2608768045902252,"83":-0.08013170212507248,"84":-0.19720351696014404,"85":0.3175169825553894,"86":-0.10412159562110901,"87":-0.2244657427072525,"88":0.052148569375276566,"89":0.016455497592687607,"90":-0.17174842953681946,"91":0.10600853711366653,"92":-0.09429732710123062,"93":-0.08550813794136047,"94":0.2547587752342224,"95":-0.08643019944429398,"96":-0.09183906763792038,"97":-0.1383534073829651,"98":0.03175760433077812,"99":0.04074583202600479}},"32":{"bias":0.21514984965324402,"weights":{"0":0.10667363554239273,"1":0.18692553043365479,"2":-0.14067165553569794,"3":-0.02757728099822998,"4":-0.06581196188926697,"5":-0.27189773321151733,"6":0.09741336852312088,"7":-0.1572151780128479,"8":0.15190428495407104,"9":0.02227845788002014,"10":0.08066901564598083,"11":-0.12372470647096634,"12":0.1816750317811966,"13":0.36053934693336487,"14":-0.11245731264352798,"15":0.20290350914001465,"16":0.24406002461910248,"17":0.03226926550269127,"18":-0.1156858503818512,"19":-0.07788627594709396,"20":0.17739638686180115,"21":-0.10540559142827988,"22":-0.029411179944872856,"23":0.1777133047580719,"24":0.10636746138334274,"25":0.13074050843715668,"26":-0.12707819044589996,"27":-0.17964054644107819,"28":-0.10994365811347961,"29":-0.0718696191906929,"30":-0.028050614520907402,"31":0.19736209511756897,"32":-0.022489381954073906,"33":0.13287916779518127,"34":0.18126803636550903,"35":-0.16891330480575562,"36":0.13073652982711792,"37":0.2478407621383667,"38":0.04905471205711365,"39":0.14863188564777374,"40":0.013041417114436626,"41":-0.24587340652942657,"42":-0.24389910697937012,"43":0.014670509845018387,"44":-0.19682440161705017,"45":-0.07938607037067413,"46":0.0427754782140255,"47":-0.31924349069595337,"48":-0.0332682840526104,"49":-0.15660445392131805,"50":-0.07802954316139221,"51":-0.1609431505203247,"52":-0.09794717282056808,"53":-0.10251137614250183,"54":-0.15579067170619965,"55":0.04853285849094391,"56":-0.3896002173423767,"57":-0.42759406566619873,"58":-0.35716190934181213,"59":-0.06828382611274719,"60":0.07163652032613754,"61":0.017880089581012726,"62":-0.07928715646266937,"63":0.18780706822872162,"64":-0.11991402506828308,"65":-0.06779486685991287,"66":0.003722899593412876,"67":0.13299024105072021,"68":0.08022091537714005,"69":-0.07979664951562881,"70":-0.030016528442502022,"71":-0.25186672806739807,"72":0.03572872653603554,"73":0.009276042692363262,"74":-0.04245695471763611,"75":0.1558753103017807,"76":-0.0696599930524826,"77":0.12633009254932404,"78":0.1282186359167099,"79":0.11722883582115173,"80":0.05153593048453331,"81":0.22402960062026978,"82":-0.09396065026521683,"83":-0.08864749222993851,"84":0.2850290536880493,"85":0.003797809360548854,"86":0.10319332778453827,"87":-0.02682407572865486,"88":-0.15870201587677002,"89":-0.21006187796592712,"90":-0.1423424482345581,"91":-0.21729014813899994,"92":-0.21963487565517426,"93":0.07853148877620697,"94":0.11346586793661118,"95":0.024733304977416992,"96":-0.16850455105304718,"97":-0.0748445987701416,"98":0.010870669968426228,"99":-0.2551076114177704}},"33":{"bias":-0.07734620571136475,"weights":{"0":0.1289309710264206,"1":0.02719835564494133,"2":-0.10436578840017319,"3":-0.1079200729727745,"4":0.00993053987622261,"5":-0.066960908472538,"6":-0.22001054883003235,"7":-0.14203672111034393,"8":0.17323389649391174,"9":0.0038655963726341724,"10":-0.03631195053458214,"11":-0.1642753779888153,"12":-0.1509772539138794,"13":0.21293015778064728,"14":0.11178291589021683,"15":0.05960995331406593,"16":-0.14921453595161438,"17":-0.14745129644870758,"18":-0.11817311495542526,"19":-0.0011668498627841473,"20":-0.0028220440726727247,"21":0.18520016968250275,"22":-0.02890761010348797,"23":0.11821337044239044,"24":0.1617731899023056,"25":-0.16715173423290253,"26":-0.05703737214207649,"27":-0.09937144070863724,"28":0.09444613009691238,"29":-0.18525218963623047,"30":0.01451372541487217,"31":-0.03928721696138382,"32":0.10820601880550385,"33":0.31895408034324646,"34":-0.02854779176414013,"35":-0.08069053292274475,"36":0.20899437367916107,"37":0.12862560153007507,"38":0.09105584025382996,"39":0.03328984975814819,"40":0.1247025653719902,"41":0.1300819218158722,"42":-0.07208134979009628,"43":-0.10419478267431259,"44":0.18095320463180542,"45":0.05391150712966919,"46":-0.10858537256717682,"47":-0.15841679275035858,"48":-0.13458310067653656,"49":0.04039246216416359,"50":-0.07861122488975525,"51":-0.22492192685604095,"52":-0.26357606053352356,"53":-0.22683881223201752,"54":-0.03391040489077568,"55":-0.007263355888426304,"56":-0.2121233344078064,"57":-0.036550018936395645,"58":-0.08414702117443085,"59":-0.13654735684394836,"60":-0.009511643089354038,"61":-0.10862956941127777,"62":-0.09875595569610596,"63":-0.04790765792131424,"64":-0.11084932833909988,"65":0.10394207388162613,"66":-0.0878768041729927,"67":-0.19909408688545227,"68":0.03670414537191391,"69":0.025273367762565613,"70":0.07360704988241196,"71":-0.031015407294034958,"72":-0.04275963827967644,"73":0.008976589888334274,"74":0.18713437020778656,"75":-0.006295797880738974,"76":0.04191154986619949,"77":0.08258556574583054,"78":0.0278356671333313,"79":-0.1743534356355667,"80":0.1380435675382614,"81":0.12013833224773407,"82":0.11757464706897736,"83":-0.22513243556022644,"84":0.060120489448308945,"85":-0.16820783913135529,"86":-0.2421780675649643,"87":-0.014534560963511467,"88":-0.22372880578041077,"89":-0.18834684789180756,"90":0.008258022367954254,"91":0.019929027184844017,"92":0.09079954028129578,"93":-0.12907424569129944,"94":0.12729446589946747,"95":-0.13448664546012878,"96":-0.16901640594005585,"97":0.042451828718185425,"98":-0.20258450508117676,"99":-0.19054202735424042}},"34":{"bias":0.08373106271028519,"weights":{"0":-0.09121295064687729,"1":-0.04539289325475693,"2":-0.0008571607177145779,"3":0.07688446342945099,"4":-0.04973943158984184,"5":-0.2847892940044403,"6":-0.14285914599895477,"7":-0.17813082039356232,"8":0.08274132013320923,"9":-0.15276767313480377,"10":0.15648649632930756,"11":0.06491067260503769,"12":0.17940719425678253,"13":-0.16302450001239777,"14":0.1217169314622879,"15":0.03727925568819046,"16":-0.03866492584347725,"17":-0.20433653891086578,"18":-0.130825936794281,"19":0.02119789645075798,"20":-0.1609218865633011,"21":-0.06833966821432114,"22":-0.06779267638921738,"23":-0.016801925376057625,"24":0.23264962434768677,"25":0.08211123198270798,"26":0.09366399794816971,"27":-0.08889138698577881,"28":-0.30971652269363403,"29":-0.14580221474170685,"30":0.1339573860168457,"31":-0.0388728529214859,"32":0.06824575364589691,"33":0.21430258452892303,"34":-0.04950421676039696,"35":-0.10635347664356232,"36":0.15153458714485168,"37":0.03996255248785019,"38":-0.07379288971424103,"39":-0.012843688018620014,"40":-0.21960562467575073,"41":-0.19886012375354767,"42":-0.08518015593290329,"43":-0.053583767265081406,"44":0.023108048364520073,"45":0.16594737768173218,"46":0.2752077281475067,"47":-0.016318462789058685,"48":-0.17916062474250793,"49":0.005192164331674576,"50":-0.10473032295703888,"51":-0.4105169177055359,"52":0.069661945104599,"53":0.09027141332626343,"54":0.058058157563209534,"55":0.04598065838217735,"56":0.05545002594590187,"57":-0.19474107027053833,"58":-0.28500980138778687,"59":-0.16187062859535217,"60":0.0038155915681272745,"61":-0.18092022836208344,"62":0.026879526674747467,"63":0.0687759667634964,"64":0.13083383440971375,"65":0.04484246298670769,"66":-0.0768970474600792,"67":-0.06241956353187561,"68":-0.1866014003753662,"69":0.030277429148554802,"70":-0.21810810267925262,"71":-0.3677672743797302,"72":-0.1476750671863556,"73":-0.17597320675849915,"74":0.2359611541032791,"75":0.16446048021316528,"76":0.14007066190242767,"77":0.10823531448841095,"78":-0.21087437868118286,"79":0.0454801470041275,"80":0.09457665681838989,"81":-0.007345488760620356,"82":0.015246802009642124,"83":-0.07987315952777863,"84":0.0505867563188076,"85":0.00711281131953001,"86":-0.17017164826393127,"87":0.12817098200321198,"88":-0.005889977794140577,"89":-0.027612026780843735,"90":-0.13719724118709564,"91":-0.2563730776309967,"92":0.046252310276031494,"93":0.002290993230417371,"94":0.048736222088336945,"95":-0.08739021420478821,"96":-0.07050854712724686,"97":-0.06679611653089523,"98":-0.1366644948720932,"99":-0.1257171630859375}},"35":{"bias":-0.1640947014093399,"weights":{"0":0.17453716695308685,"1":-0.11985814571380615,"2":0.06578037887811661,"3":-0.15653188526630402,"4":-0.2384617179632187,"5":-0.16298721730709076,"6":-0.046671729534864426,"7":0.10867038369178772,"8":0.021236129105091095,"9":0.054565928876399994,"10":0.059841088950634,"11":0.0880783274769783,"12":-0.26682713627815247,"13":-0.3379589319229126,"14":0.14935897290706635,"15":-0.0035783180501312017,"16":-0.2537517547607422,"17":-0.04872879385948181,"18":-0.009040022268891335,"19":-0.12466411292552948,"20":-0.1781950443983078,"21":0.12755119800567627,"22":-0.17527316510677338,"23":-0.14453640580177307,"24":-0.08373191952705383,"25":-0.288332462310791,"26":-0.10694010555744171,"27":0.08609074354171753,"28":0.07151903212070465,"29":0.12489835917949677,"30":0.24406781792640686,"31":0.22611530125141144,"32":0.23340751230716705,"33":0.1655111461877823,"34":0.19376909732818604,"35":-0.009812568314373493,"36":0.09946487098932266,"37":0.2734399735927582,"38":-0.03220559284090996,"39":0.19601385295391083,"40":-0.034083280712366104,"41":0.15522855520248413,"42":-0.11780360341072083,"43":-0.0518592931330204,"44":0.2507418692111969,"45":-0.12517161667346954,"46":0.2912694215774536,"47":-0.10756053030490875,"48":0.01052543893456459,"49":0.07281114161014557,"50":-0.02301415614783764,"51":0.18580597639083862,"52":-0.13240207731723785,"53":-0.1495765745639801,"54":0.1510419100522995,"55":0.17024369537830353,"56":-0.09247399121522903,"57":-0.004183663055300713,"58":0.12391218543052673,"59":0.015323665924370289,"60":-0.14352184534072876,"61":-0.2105206400156021,"62":0.0904635637998581,"63":0.16970275342464447,"64":-0.06385932117700577,"65":0.15127499401569366,"66":0.10209961980581284,"67":-0.08163844794034958,"68":0.10584650188684464,"69":-0.15454867482185364,"70":-0.11902331560850143,"71":0.04143171384930611,"72":-0.17963647842407227,"73":0.20275640487670898,"74":0.15344181656837463,"75":-0.036922637373209,"76":-0.14624783396720886,"77":-0.17307530343532562,"78":0.1787598878145218,"79":-0.17359457910060883,"80":0.008230767212808132,"81":-0.058408718556165695,"82":-0.26135218143463135,"83":0.010263415984809399,"84":0.10746918618679047,"85":-0.10914715379476547,"86":-0.06686821579933167,"87":0.054617952555418015,"88":0.013455753214657307,"89":-0.042344830930233,"90":0.0276440791785717,"91":0.0990588366985321,"92":-0.16526713967323303,"93":-0.24922485649585724,"94":-0.08291275054216385,"95":0.06528893858194351,"96":-0.019722778350114822,"97":-0.21124212443828583,"98":0.06412585079669952,"99":-0.054568931460380554}},"36":{"bias":0.03383294865489006,"weights":{"0":0.10118590295314789,"1":-0.1722644716501236,"2":0.1746741682291031,"3":-0.04378727823495865,"4":0.23136498034000397,"5":0.0496794693171978,"6":0.09526638686656952,"7":0.22585105895996094,"8":0.04110586270689964,"9":-0.1017998531460762,"10":-0.19348964095115662,"11":-0.023526962846517563,"12":0.0730646401643753,"13":0.2641857862472534,"14":0.12384040653705597,"15":0.0073296003974974155,"16":0.05825665220618248,"17":0.12595081329345703,"18":-0.0033897454850375652,"19":-0.0028165667317807674,"20":0.18408851325511932,"21":0.03199280798435211,"22":0.03318050876259804,"23":-0.10569923371076584,"24":-0.17642644047737122,"25":-0.06730493158102036,"26":-0.11333037167787552,"27":0.06087663769721985,"28":0.23879215121269226,"29":-0.012641213834285736,"30":0.17001678049564362,"31":0.2621362507343292,"32":0.055446039885282516,"33":-0.18194638192653656,"34":-0.21536393463611603,"35":0.21692979335784912,"36":-0.20257039368152618,"37":-0.017631342634558678,"38":0.34679651260375977,"39":-0.02899928204715252,"40":-0.06339560449123383,"41":0.2548745572566986,"42":-0.20427094399929047,"43":-0.20201997458934784,"44":-0.20484858751296997,"45":-0.27278128266334534,"46":-0.38028258085250854,"47":-0.03388160094618797,"48":0.13812290132045746,"49":0.027420366182923317,"50":0.19743236899375916,"51":-0.07848590612411499,"52":-0.005886300466954708,"53":-0.13648810982704163,"54":-0.03449138253927231,"55":-0.08389397710561752,"56":-0.2224130928516388,"57":-0.09008429199457169,"58":-0.10011294484138489,"59":-0.06696641445159912,"60":0.009451313875615597,"61":0.2889179289340973,"62":0.10259316861629486,"63":0.09269312769174576,"64":0.04431353136897087,"65":0.10799119621515274,"66":0.0006865321774967015,"67":0.07945616543292999,"68":0.10817308723926544,"69":-0.030535941943526268,"70":-0.06514966487884521,"71":0.14635340869426727,"72":0.2088148146867752,"73":-0.03659821301698685,"74":-0.03728463873267174,"75":0.14402610063552856,"76":0.15017268061637878,"77":0.0341026708483696,"78":0.22807671129703522,"79":-0.14177928864955902,"80":0.20278432965278625,"81":0.1366495043039322,"82":-0.04322522133588791,"83":0.05164102464914322,"84":0.033922795206308365,"85":-0.12557606399059296,"86":0.04836004599928856,"87":-0.056288205087184906,"88":0.013321691192686558,"89":0.01194525696337223,"90":0.09532424062490463,"91":-0.11699274182319641,"92":-0.12613417208194733,"93":0.05983104556798935,"94":-0.19913683831691742,"95":0.012776577845215797,"96":0.10180297493934631,"97":-0.0025355867110192776,"98":-0.1487460732460022,"99":-0.059036947786808014}},"37":{"bias":-0.10913898050785065,"weights":{"0":-0.000003907679456460755,"1":-0.05285106226801872,"2":-0.22442515194416046,"3":-0.27566319704055786,"4":-0.07351285219192505,"5":-0.22916626930236816,"6":-0.19545169174671173,"7":-0.2528659403324127,"8":0.056600235402584076,"9":-0.1296636015176773,"10":-0.09413060545921326,"11":0.03861512243747711,"12":-0.36188459396362305,"13":-0.3217277526855469,"14":-0.018707670271396637,"15":-0.21802161633968353,"16":-0.19959180057048798,"17":-0.4041314423084259,"18":-0.09136851131916046,"19":0.1232820600271225,"20":0.10095275938510895,"21":-0.05328499525785446,"22":-0.0942954272031784,"23":-0.1305328756570816,"24":-0.08579564094543457,"25":-0.3072758913040161,"26":0.05620379373431206,"27":-0.06960151344537735,"28":-0.13176555931568146,"29":-0.12329482287168503,"30":-0.07128238677978516,"31":-0.14564600586891174,"32":-0.19586972892284393,"33":0.10139283537864685,"34":0.1263177990913391,"35":-0.19637855887413025,"36":0.06961392611265182,"37":0.08803928643465042,"38":-0.13497692346572876,"39":0.1959458887577057,"40":0.02292737364768982,"41":-0.13006992638111115,"42":0.04605898633599281,"43":-0.2627100348472595,"44":0.2117161601781845,"45":0.21019543707370758,"46":0.5504302978515625,"47":0.13147450983524323,"48":-0.2091076374053955,"49":0.08553837239742279,"50":-0.19342033565044403,"51":-0.2945561707019806,"52":-0.20895910263061523,"53":-0.2396828830242157,"54":-0.034866902977228165,"55":0.00959842000156641,"56":-0.0797388106584549,"57":-0.20670516788959503,"58":-0.20212511718273163,"59":0.1251358687877655,"60":-0.1296914964914322,"61":0.030119922012090683,"62":-0.12817558646202087,"63":0.19148224592208862,"64":0.04288065433502197,"65":-0.02512815222144127,"66":-0.18000152707099915,"67":-0.22314350306987762,"68":0.007568085566163063,"69":0.07508200407028198,"70":0.07598578929901123,"71":-0.2749499976634979,"72":-0.0685226321220398,"73":0.1348772794008255,"74":0.1532982736825943,"75":0.014970429241657257,"76":-0.02387312799692154,"77":-0.02795141190290451,"78":0.0021829905454069376,"79":-0.048396699130535126,"80":-0.15330399572849274,"81":-0.020657379180192947,"82":0.12327825278043747,"83":0.21221061050891876,"84":-0.15713433921337128,"85":0.020799485966563225,"86":0.042562052607536316,"87":0.25031033158302307,"88":-0.18019220232963562,"89":-0.20520395040512085,"90":0.10216721892356873,"91":-0.051800619810819626,"92":0.18103016912937164,"93":0.06162130832672119,"94":-0.09270303696393967,"95":-0.1503274142742157,"96":-0.19632156193256378,"97":0.035500552505254745,"98":-0.06110882759094238,"99":0.061714448034763336}},"38":{"bias":0.05392339080572128,"weights":{"0":-0.14610570669174194,"1":0.11059682071208954,"2":-0.0156131936237216,"3":-0.11232077330350876,"4":0.13500669598579407,"5":0.15070898830890656,"6":-0.06299709528684616,"7":0.05659577623009682,"8":0.06536783277988434,"9":-0.1849164515733719,"10":-0.0773870125412941,"11":0.17755739390850067,"12":0.3461131155490875,"13":0.20295384526252747,"14":0.10403930395841599,"15":0.18579453229904175,"16":0.03204293176531792,"17":0.21285974979400635,"18":0.13461612164974213,"19":0.04721324145793915,"20":0.17610514163970947,"21":-0.13211306929588318,"22":-0.06233084946870804,"23":-0.12197793275117874,"24":0.004394318908452988,"25":0.19049373269081116,"26":-0.05266115814447403,"27":0.13448822498321533,"28":-0.09490958601236343,"29":0.13721613585948944,"30":0.1717129796743393,"31":0.26728013157844543,"32":0.06956097483634949,"33":0.027827592566609383,"34":0.14613892138004303,"35":-0.0985407680273056,"36":0.08312472701072693,