{"model":{"sizes":[100,50,3],"layers":[{"0":{},"1":{},"2":{},"3":{},"4":{},"5":{},"6":{},"7":{},"8":{},"9":{},"10":{},"11":{},"12":{},"13":{},"14":{},"15":{},"16":{},"17":{},"18":{},"19":{},"20":{},"21":{},"22":{},"23":{},"24":{},"25":{},"26":{},"27":{},"28":{},"29":{},"30":{},"31":{},"32":{},"33":{},"34":{},"35":{},"36":{},"37":{},"38":{},"39":{},"40":{},"41":{},"42":{},"43":{},"44":{},"45":{},"46":{},"47":{},"48":{},"49":{},"50":{},"51":{},"52":{},"53":{},"54":{},"55":{},"56":{},"57":{},"58":{},"59":{},"60":{},"61":{},"62":{},"63":{},"64":{},"65":{},"66":{},"67":{},"68":{},"69":{},"70":{},"71":{},"72":{},"73":{},"74":{},"75":{},"76":{},"77":{},"78":{},"79":{},"80":{},"81":{},"82":{},"83":{},"84":{},"85":{},"86":{},"87":{},"88":{},"89":{},"90":{},"91":{},"92":{},"93":{},"94":{},"95":{},"96":{},"97":{},"98":{},"99":{}},{"0":{"bias":0.11083626747131348,"weights":{"0":0.170364648103714,"1":0.03793143481016159,"2":0.10731969028711319,"3":0.14001058042049408,"4":0.19499172270298004,"5":0.021687917411327362,"6":0.14025524258613586,"7":-0.09995227307081223,"8":-0.13490357995033264,"9":0.11584567278623581,"10":0.05366620793938637,"11":0.1397417187690735,"12":-0.10664360970258713,"13":0.18943063914775848,"14":0.1698041409254074,"15":-0.1686958223581314,"16":-0.02326742187142372,"17":-0.11020777374505997,"18":-0.19849970936775208,"19":0.014941276982426643,"20":0.19283750653266907,"21":0.11789529770612717,"22":-0.18227697908878326,"23":-0.14191555976867676,"24":-0.17397068440914154,"25":-0.12131574749946594,"26":-0.14559532701969147,"27":-0.03475053980946541,"28":-0.01872335933148861,"29":0.08783413469791412,"30":-0.014385496266186237,"31":-0.04852217435836792,"32":0.03142671287059784,"33":-0.15988196432590485,"34":-0.2778114676475525,"35":-0.3496246933937073,"36":-0.31938064098358154,"37":0.03444257751107216,"38":-0.10222098231315613,"39":0.13266688585281372,"40":0.07453951239585876,"41":0.04886601120233536,"42":-0.027714544907212257,"43":0.09793330729007721,"44":0.11145661026239395,"45":0.05353183299303055,"46":0.012278699316084385,"47":-0.10455303639173508,"48":0.1790444403886795,"49":0.036711547523736954,"50":-0.05922091007232666,"51":0.009886551648378372,"52":0.1405591070652008,"53":0.06630909442901611,"54":0.012929566204547882,"55":0.15214960277080536,"56":-0.193490132689476,"57":0.15045025944709778,"58":0.1445215791463852,"59":-0.12354188412427902,"60":-0.1601175218820572,"61":-0.22992004454135895,"62":-0.040774155408144,"63":-0.09643752872943878,"64":-0.3811500668525696,"65":0.023621780797839165,"66":-0.24636952579021454,"67":-0.13933728635311127,"68":-0.1518416702747345,"69":-0.11721555143594742,"70":0.07864756882190704,"71":-0.13521556556224823,"72":-0.22205916047096252,"73":-0.16600055992603302,"74":-0.12985004484653473,"75":-0.2250010371208191,"76":-0.2147321105003357,"77":-0.28601276874542236,"78":-0.1264059692621231,"79":-0.22680841386318207,"80":0.15472853183746338,"81":0.004988029599189758,"82":-0.3311041593551636,"83":-0.08642877638339996,"84":-0.09428671002388,"85":-0.11342914402484894,"86":-0.1726476401090622,"87":-0.043848562985658646,"88":0.07951430231332779,"89":0.11673901230096817,"90":-0.07557748258113861,"91":-0.17752845585346222,"92":-0.24228712916374207,"93":-0.1503571718931198,"94":0.04914610832929611,"95":-0.23581254482269287,"96":-0.21021676063537598,"97":0.08658666908740997,"98":0.15309326350688934,"99":0.004200119059532881}},"1":{"bias":0.06742087006568909,"weights":{"0":0.06596241146326065,"1":-0.06537816673517227,"2":-0.029577195644378662,"3":0.014713880605995655,"4":0.08724343031644821,"5":0.12010888755321503,"6":0.17709843814373016,"7":-0.11440225690603256,"8":0.17916740477085114,"9":-0.09399431198835373,"10":-0.055933695286512375,"11":-0.032799627631902695,"12":0.13877932727336884,"13":-0.06503228843212128,"14":-0.01971721462905407,"15":0.09827949851751328,"16":-0.06996126472949982,"17":0.12032787501811981,"18":-0.129204660654068,"19":-0.11442062258720398,"20":-0.07815764844417572,"21":-0.08003252744674683,"22":-0.1322663277387619,"23":0.17187240719795227,"24":0.08972145617008209,"25":0.15195710957050323,"26":0.17893922328948975,"27":-0.12215303629636765,"28":-0.12650538980960846,"29":-0.04751649126410484,"30":0.1579386442899704,"31":-0.12882359325885773,"32":-0.043596651405096054,"33":0.2053500860929489,"34":0.23288629949092865,"35":0.030378839001059532,"36":0.06721168756484985,"37":-0.080497607588768,"38":-0.16890333592891693,"39":0.025495635345578194,"40":0.14560601115226746,"41":-0.15144559741020203,"42":-0.07931458204984665,"43":-0.03581520915031433,"44":-0.1402331292629242,"45":-0.10435619205236435,"46":0.12955522537231445,"47":0.08972693234682083,"48":-0.1438271403312683,"49":-0.11062029749155045,"50":-0.06968224048614502,"51":0.20368371903896332,"52":-0.10252311825752258,"53":0.04631589353084564,"54":-0.1235363632440567,"55":0.04231519252061844,"56":0.061421144753694534,"57":-0.09252017736434937,"58":0.14961226284503937,"59":-0.03645895794034004,"60":0.037063684314489365,"61":0.09169792383909225,"62":-0.0096729202196002,"63":-0.13925115764141083,"64":-0.020205285400152206,"65":0.08190252631902695,"66":-0.02653607912361622,"67":-0.1412428915500641,"68":0.053525619208812714,"69":0.11838860809803009,"70":0.1583353877067566,"71":0.029841478914022446,"72":0.142054945230484,"73":-0.09087835252285004,"74":0.20210550725460052,"75":0.0966765433549881,"76":-0.15372683107852936,"77":-0.09308596700429916,"78":0.03576602041721344,"79":0.07326549291610718,"80":-0.15347975492477417,"81":-0.18587271869182587,"82":0.044922687113285065,"83":-0.11783245950937271,"84":0.11059045046567917,"85":-0.06860189139842987,"86":0.16087019443511963,"87":-0.1007717177271843,"88":-0.1285383552312851,"89":0.025964006781578064,"90":-0.19963720440864563,"91":0.15968500077724457,"92":-0.14594557881355286,"93":-0.2025294154882431,"94":0.02030170150101185,"95":-0.10227038711309433,"96":-0.215188130736351,"97":-0.07380445301532745,"98":0.0982433408498764,"99":-0.057088274508714676}},"2":{"bias":0.02015554904937744,"weights":{"0":-0.18905805051326752,"1":-0.1202009990811348,"2":0.06328489631414413,"3":-0.1706281304359436,"4":0.10353967547416687,"5":-0.08091248571872711,"6":-0.05742865428328514,"7":0.19483360648155212,"8":0.16707997024059296,"9":-0.1237848624587059,"10":0.0164742823690176,"11":-0.11296137422323227,"12":0.08858519047498703,"13":-0.17301131784915924,"14":0.05067070946097374,"15":0.17103278636932373,"16":0.05318817123770714,"17":-0.10440394282341003,"18":0.03594980388879776,"19":-0.02605614624917507,"20":0.14408832788467407,"21":-0.16040946543216705,"22":0.3447876274585724,"23":0.2728098928928375,"24":0.28271669149398804,"25":0.03487468138337135,"26":0.1685621291399002,"27":0.0046297162771224976,"28":0.09937714040279388,"29":-0.04700927808880806,"30":0.12807011604309082,"31":0.1593187153339386,"32":-0.18909287452697754,"33":-0.16912272572517395,"34":-0.13523288071155548,"35":0.12850205600261688,"36":0.057566627860069275,"37":0.07580965757369995,"38":0.1547040343284607,"39":-0.13981153070926666,"40":-0.1545218825340271,"41":0.06406915187835693,"42":0.027889834716916084,"43":-0.08284062147140503,"44":-0.12476760894060135,"45":0.22457395493984222,"46":0.03947412222623825,"47":0.1545308381319046,"48":0.2713797390460968,"49":-0.05518302321434021,"50":-0.03290842846035957,"51":-0.18201470375061035,"52":0.2989504039287567,"53":0.3333320617675781,"54":0.22029680013656616,"55":0.23138242959976196,"56":0.2857012450695038,"57":0.0895976796746254,"58":0.08718501776456833,"59":-0.02656671591103077,"60":0.1862218827009201,"61":0.053264956921339035,"62":-0.22092536091804504,"63":-0.11350720375776291,"64":0.04336133599281311,"65":-0.14791980385780334,"66":-0.34294432401657104,"67":-0.24003107845783234,"68":-0.07648593187332153,"69":-0.1570650041103363,"70":0.03231378644704819,"71":-0.03527668118476868,"72":-0.2175479531288147,"73":-0.22668412327766418,"74":-0.11983566731214523,"75":-0.11221073567867279,"76":-0.0554942712187767,"77":-0.2053646594285965,"78":-0.1656402200460434,"79":-0.050520703196525574,"80":0.18128174543380737,"81":0.09928169846534729,"82":0.14843906462192535,"83":0.16280636191368103,"84":-0.062172409147024155,"85":-0.03821424022316933,"86":0.20839570462703705,"87":0.2249172180891037,"88":-0.027605682611465454,"89":-0.0014509842731058598,"90":0.0839705765247345,"91":0.17214198410511017,"92":0.14395588636398315,"93":0.017368441447615623,"94":0.05442991107702255,"95":0.041356973350048065,"96":-0.013365475460886955,"97":0.14047077298164368,"98":-0.1172129288315773,"99":-0.027857301756739616}},"3":{"bias":0.0068785627372562885,"weights":{"0":0.19291719794273376,"1":0.14720815420150757,"2":-0.040421366691589355,"3":-0.0332062765955925,"4":-0.11644957214593887,"5":-0.18977555632591248,"6":-0.17801620066165924,"7":0.14857107400894165,"8":-0.1235516369342804,"9":-0.0055150180123746395,"10":0.03738497197628021,"11":0.06403205543756485,"12":0.05651048198342323,"13":0.03459662199020386,"14":0.13404497504234314,"15":-0.15479689836502075,"16":0.10493910312652588,"17":-0.07906022667884827,"18":0.16535361111164093,"19":-0.11851922422647476,"20":0.06486871838569641,"21":-0.1618085503578186,"22":-0.3697931468486786,"23":-0.02854006551206112,"24":-0.020669253543019295,"25":-0.26028236746788025,"26":-0.45141226053237915,"27":-0.06075013056397438,"28":-0.1150878369808197,"29":0.08006482571363449,"30":0.18407881259918213,"31":-0.009559931233525276,"32":-0.25214552879333496,"33":-0.1546422690153122,"34":-0.1493348926305771,"35":-0.00821029581129551,"36":-0.2982345223426819,"37":0.060574010014534,"38":-0.029769614338874817,"39":-0.13779857754707336,"40":0.02673487178981304,"41":0.1857367306947708,"42":0.20697751641273499,"43":0.06725747883319855,"44":0.19366206228733063,"45":0.15647642314434052,"46":0.06283654272556305,"47":0.04285665601491928,"48":0.08800777792930603,"49":-0.1588025838136673,"50":-0.10926757752895355,"51":-0.03182278573513031,"52":-0.040512289851903915,"53":0.12787173688411713,"54":-0.023536162450909615,"55":0.1513054072856903,"56":0.15162715315818787,"57":-0.11686302721500397,"58":0.01412073615938425,"59":-0.10470649600028992,"60":-0.1038578450679779,"61":-0.021291717886924744,"62":-0.28707945346832275,"63":-0.1545562893152237,"64":-0.163643017411232,"65":-0.1869286745786667,"66":-0.19519804418087006,"67":-0.11526705324649811,"68":-0.22394537925720215,"69":-0.07130789011716843,"70":-0.15534481406211853,"71":0.15107792615890503,"72":-0.15613490343093872,"73":-0.2585597634315491,"74":-0.07496663928031921,"75":-0.37996771931648254,"76":-0.08249013870954514,"77":-0.37469741702079773,"78":-0.22355027496814728,"79":-0.18911823630332947,"80":-0.031910307705402374,"81":-0.11575692892074585,"82":-0.34604406356811523,"83":-0.1974431574344635,"84":-0.032352566719055176,"85":-0.05861964821815491,"86":-0.30311140418052673,"87":-0.021498190239071846,"88":-0.17555305361747742,"89":-0.18752695620059967,"90":-0.005233702715486288,"91":-0.2014310210943222,"92":-0.05205579102039337,"93":-0.22938288748264313,"94":-0.2422654926776886,"95":-0.09506605565547943,"96":-0.25047042965888977,"97":-0.14657995104789734,"98":-0.1734209954738617,"99":-0.08671954274177551}},"4":{"bias":-0.17707964777946472,"weights":{"0":-0.07570279389619827,"1":0.16563482582569122,"2":-0.17711882293224335,"3":-0.04674283415079117,"4":-0.11996322125196457,"5":0.035652004182338715,"6":0.1543523073196411,"7":0.13465987145900726,"8":0.17495398223400116,"9":-0.17632603645324707,"10":0.11748066544532776,"11":-0.011002174578607082,"12":0.17580783367156982,"13":0.1457151174545288,"14":-0.07123592495918274,"15":-0.010644967667758465,"16":-0.13402672111988068,"17":0.06438670307397842,"18":0.08519994467496872,"19":0.038106344640254974,"20":0.02120298519730568,"21":-0.07573850452899933,"22":0.011275826022028923,"23":-0.0012911680387333035,"24":-0.023140551522374153,"25":0.14170239865779877,"26":-0.10382746905088425,"27":-0.04158759489655495,"28":-0.10938113182783127,"29":-0.1528780609369278,"30":0.14266371726989746,"31":0.0707579031586647,"32":-0.1570473313331604,"33":-0.01621907204389572,"34":0.42762133479118347,"35":0.21388541162014008,"36":0.1275692731142044,"37":-0.05178274214267731,"38":-0.023880504071712494,"39":0.08767209947109222,"40":-0.112448550760746,"41":-0.08370282500982285,"42":0.010883920826017857,"43":0.041712529957294464,"44":-0.23244577646255493,"45":-0.06325767934322357,"46":0.007348244544118643,"47":-0.06977693736553192,"48":-0.1231212317943573,"49":0.13806505501270294,"50":0.01512701902538538,"51":-0.018954584375023842,"52":-0.09927117824554443,"53":-0.16421203315258026,"54":-0.30098000168800354,"55":-0.11805164813995361,"56":0.0021184247452765703,"57":0.18045304715633392,"58":0.2566148638725281,"59":0.10759418457746506,"60":-0.08655035495758057,"61":-0.05975666269659996,"62":0.06921839714050293,"63":0.15185590088367462,"64":0.15359632670879364,"65":0.15255381166934967,"66":0.14643703401088715,"67":0.2607004940509796,"68":0.20364786684513092,"69":0.016169724985957146,"70":-0.08474290370941162,"71":0.04588807746767998,"72":0.13175402581691742,"73":0.046851079910993576,"74":0.08296039700508118,"75":-0.05361906811594963,"76":0.21144205331802368,"77":0.24778269231319427,"78":0.0580432191491127,"79":0.06744902580976486,"80":-0.1754692941904068,"81":0.08828172087669373,"82":-0.22076474130153656,"83":-0.03579394891858101,"84":-0.310664564371109,"85":-0.012069023214280605,"86":-0.25035229325294495,"87":-0.051962535828351974,"88":0.009028919041156769,"89":-0.09519043564796448,"90":-0.003571554319933057,"91":-0.13133938610553741,"92":-0.17146317660808563,"93":-0.04371994361281395,"94":0.08647795021533966,"95":0.00822400115430355,"96":-0.017997058108448982,"97":0.07030703127384186,"98":-0.01728837564587593,"99":0.152456134557724}},"5":{"bias":-0.1055663675069809,"weights":{"0":0.012806041166186333,"1":-0.0017816980835050344,"2":0.04221951216459274,"3":-0.028650689870119095,"4":-0.07117178291082382,"5":0.1259966790676117,"6":0.12412568181753159,"7":-0.030669458210468292,"8":0.07694993913173676,"9":-0.13653850555419922,"10":0.06988011300563812,"11":-0.19540178775787354,"12":-0.08715452253818512,"13":-0.12869594991207123,"14":0.10755857825279236,"15":-0.003574748756363988,"16":-0.01523908507078886,"17":0.05968019366264343,"18":-0.10725555568933487,"19":0.04238329082727432,"20":0.1263522505760193,"21":-0.13660642504692078,"22":0.15168257057666779,"23":0.26625481247901917,"24":-0.04811100289225578,"25":-0.11933722347021103,"26":0.5161773562431335,"27":0.06074674800038338,"28":0.01409127190709114,"29":0.07215681672096252,"30":0.1625683605670929,"31":0.06658998876810074,"32":-0.011387218721210957,"33":0.05951656401157379,"34":-0.45022162795066833,"35":-0.21659468114376068,"36":0.08799959719181061,"37":-0.015544706955552101,"38":0.00890496838837862,"39":0.09827135503292084,"40":0.1500670164823532,"41":0.10093031823635101,"42":0.2424934357404709,"43":-0.08765429258346558,"44":-0.10381446778774261,"45":0.15961146354675293,"46":0.11182533204555511,"47":-0.10312608629465103,"48":0.23678721487522125,"49":0.10418503731489182,"50":0.10507133603096008,"51":-0.09587714076042175,"52":0.16791704297065735,"53":-0.020212626084685326,"54":-0.02946297451853752,"55":0.2560601830482483,"56":0.14549830555915833,"57":-0.06861667335033417,"58":-0.10373015701770782,"59":-0.2538815140724182,"60":-0.20435357093811035,"61":-0.24477863311767578,"62":-0.005937951151281595,"63":0.15861225128173828,"64":-0.18064779043197632,"65":-0.04948081448674202,"66":-0.3030180335044861,"67":-0.049227505922317505,"68":-0.3505426347255707,"69":-0.14883826673030853,"70":0.020302535966038704,"71":-0.18376922607421875,"72":0.10643971711397171,"73":0.05636419355869293,"74":-0.15659046173095703,"75":0.09675871580839157,"76":-0.06565719097852707,"77":0.031439486891031265,"78":-0.30493101477622986,"79":-0.17235450446605682,"80":-0.1585908830165863,"81":-0.11034693568944931,"82":0.008865912444889545,"83":0.35994264483451843,"84":0.18279574811458588,"85":0.24814501404762268,"86":0.29375410079956055,"87":0.18855874240398407,"88":0.12412870675325394,"89":-0.0847034603357315,"90":0.088016077876091,"91":0.10106071084737778,"92":0.12926696240901947,"93":-0.03382108360528946,"94":-0.03791336342692375,"95":-0.056141458451747894,"96":0.036906640976667404,"97":-0.026432784274220467,"98":-0.0023187389597296715,"99":0.0914776548743248}},"6":{"bias":-0.09486383944749832,"weights":{"0":-0.006952893454581499,"1":0.04646173119544983,"2":0.09930053353309631,"3":-0.17727093398571014,"4":-0.1964268833398819,"5":-0.09851618856191635,"6":0.08698680251836777,"7":0.1834021359682083,"8":0.15794292092323303,"9":-0.1249784603714943,"10":0.08378484100103378,"11":0.1358266919851303,"12":-0.025293054059147835,"13":0.05484333634376526,"14":-0.007956563495099545,"15":-0.04113480821251869,"16":0.02164209447801113,"17":-0.17417769134044647,"18":0.025652071461081505,"19":-0.12118437886238098,"20":0.07074957340955734,"21":-0.05255125090479851,"22":-0.2045484334230423,"23":-0.17761081457138062,"24":-0.14979562163352966,"25":-0.21912488341331482,"26":-0.40414857864379883,"27":0.012791692279279232,"28":-0.15204937756061554,"29":-0.14687319099903107,"30":-0.020025910809636116,"31":-0.13014063239097595,"32":0.16344207525253296,"33":0.08632664382457733,"34":0.13794095814228058,"35":0.004170834086835384,"36":0.0029795002192258835,"37":-0.09529537707567215,"38":-0.11559057980775833,"39":-0.07932555675506592,"40":-0.07226938009262085,"41":0.14849242568016052,"42":-0.030631152912974358,"43":-0.12933887541294098,"44":-0.03553393855690956,"45":0.0533311553299427,"46":-0.16248421370983124,"47":0.047756392508745193,"48":-0.04435211792588234,"49":0.16897939145565033,"50":-0.1224760040640831,"51":0.11060845851898193,"52":-0.23533539474010468,"53":0.0218655988574028,"54":-0.1259576380252838,"55":0.13884279131889343,"56":-0.08508773893117905,"57":-0.12477631121873856,"58":0.16153572499752045,"59":-0.03199775516986847,"60":0.07422856241464615,"61":0.09554458409547806,"62":0.20493844151496887,"63":-0.06766457110643387,"64":-0.11761529743671417,"65":0.10548437386751175,"66":0.0027964941691607237,"67":0.126413032412529,"68":0.3456622064113617,"69":0.1111832708120346,"70":0.014622016809880733,"71":-0.08639650046825409,"72":-0.09362180531024933,"73":0.024840764701366425,"74":-0.13538885116577148,"75":-0.11551661789417267,"76":0.2306218147277832,"77":0.20607416331768036,"78":0.010384310968220234,"79":0.11697372794151306,"80":0.16976134479045868,"81":0.11527275294065475,"82":-0.008577647618949413,"83":-0.05759096518158913,"84":-0.20801155269145966,"85":-0.2805425822734833,"86":-0.18077926337718964,"87":-0.3300251066684723,"88":-0.2634792625904083,"89":0.06183644011616707,"90":-0.07692733407020569,"91":-0.04629497975111008,"92":-0.015311501920223236,"93":-0.16815285384655,"94":-0.04989275708794594,"95":-0.24281130731105804,"96":-0.2510053813457489,"97":-0.20580986142158508,"98":-0.0927310511469841,"99":0.060493871569633484}},"7":{"bias":-0.10485389828681946,"weights":{"0":0.11926653236150742,"1":-0.08310448378324509,"2":-0.1201460212469101,"3":-0.07518050074577332,"4":-0.09372423589229584,"5":-0.011828161776065826,"6":0.06220896542072296,"7":0.10212133079767227,"8":0.09728159010410309,"9":0.09314364194869995,"10":-0.04313373193144798,"11":0.02034071832895279,"12":0.09990321844816208,"13":-0.18082557618618011,"14":0.19953785836696625,"15":-0.0441850870847702,"16":-0.05080808699131012,"17":0.016941675916314125,"18":-0.11926503479480743,"19":-0.18230096995830536,"20":0.1519865095615387,"21":-0.04347170889377594,"22":0.316813588142395,"23":0.18437662720680237,"24":0.01940642111003399,"25":-0.11685165762901306,"26":0.2997128665447235,"27":0.11884254962205887,"28":0.19863229990005493,"29":-0.039204977452754974,"30":-0.1945943385362625,"31":0.10045718401670456,"32":-0.10522431880235672,"33":0.11011887341737747,"34":-0.6479316353797913,"35":-0.4739748239517212,"36":0.18145497143268585,"37":0.3083629310131073,"38":0.1528211086988449,"39":-0.15464375913143158,"40":-0.13863904774188995,"41":-0.06699038296937943,"42":0.3109579384326935,"43":0.27946770191192627,"44":0.2341058999300003,"45":-0.08383114635944366,"46":0.0964629054069519,"47":0.05990460887551308,"48":-0.045355670154094696,"49":0.11996433883905411,"50":0.07175493985414505,"51":-0.10723595321178436,"52":-0.017659258097410202,"53":0.22385253012180328,"54":0.3199707269668579,"55":0.0889546275138855,"56":-0.05691598355770111,"57":-0.25320982933044434,"58":-0.07922579348087311,"59":0.0284265223890543,"60":0.05331407114863396,"61":0.004953643772751093,"62":-0.17596535384655,"63":-0.08713111281394958,"64":-0.1044212058186531,"65":-0.12214289605617523,"66":-0.14430226385593414,"67":-0.37733331322669983,"68":-0.17888227105140686,"69":-0.04035116732120514,"70":0.18316936492919922,"71":-0.14496932923793793,"72":0.0035872687585651875,"73":-0.2853807806968689,"74":-0.26612743735313416,"75":-0.2604296803474426,"76":-0.24116435647010803,"77":-0.2669298052787781,"78":-0.21733458340168,"79":0.1019238755106926,"80":-0.18980947136878967,"81":0.03239795193076134,"82":0.351448655128479,"83":0.34904053807258606,"84":0.30039191246032715,"85":0.2851897180080414,"86":0.2760276198387146,"87":0.08281781524419785,"88":0.2144206017255783,"89":-0.0781717300415039,"90":0.04893670603632927,"91":-0.07364476472139359,"92":0.2849067449569702,"93":0.1291894018650055,"94":-0.11151396483182907,"95":0.20962932705879211,"96":0.057821840047836304,"97":0.1410253643989563,"98":0.04578079655766487,"99":-0.14265605807304382}},"8":{"bias":0.1973128467798233,"weights":{"0":0.0998314619064331,"1":0.024485426023602486,"2":0.14989976584911346,"3":-0.15274664759635925,"4":-0.1427205353975296,"5":0.005696749780327082,"6":-0.051789380609989166,"7":-0.093198262155056,"8":0.10475330799818039,"9":0.19174592196941376,"10":-0.09303474426269531,"11":0.019711364060640335,"12":-0.01848774217069149,"13":0.16005435585975647,"14":-0.04105144366621971,"15":-0.07883979380130768,"16":0.18539370596408844,"17":0.06761826574802399,"18":0.07720902562141418,"19":0.11064866930246353,"20":-0.16461482644081116,"21":0.021730506792664528,"22":-0.4355280101299286,"23":-0.15325263142585754,"24":-0.08870214968919754,"25":-0.060684267431497574,"26":-0.5027361512184143,"27":-0.10431092977523804,"28":0.032538123428821564,"29":-0.1912989318370819,"30":0.12533919513225555,"31":0.04949245974421501,"32":0.0912245437502861,"33":0.0833982303738594,"34":0.48112252354621887,"35":0.13421529531478882,"36":-0.002099013887345791,"37":-0.33774489164352417,"38":-0.003747300710529089,"39":0.19402481615543365,"40":0.02183331735432148,"41":-0.1761253923177719,"42":-0.27608081698417664,"43":0.02151823416352272,"44":-0.201117604970932,"45":0.1427699774503708,"46":-0.2395360916852951,"47":-0.22503341734409332,"48":-0.09075258672237396,"49":-0.19840209186077118,"50":0.03550628572702408,"51":0.01001978013664484,"52":-0.03934815153479576,"53":-0.1224890872836113,"54":-0.01702556386590004,"55":0.036943692713975906,"56":0.01379756536334753,"57":-0.07603369653224945,"58":-0.031096959486603737,"59":0.13998329639434814,"60":0.16869884729385376,"61":0.21004870533943176,"62":0.1297643631696701,"63":-0.16522996127605438,"64":0.1731722205877304,"65":0.16966231167316437,"66":0.05197816342115402,"67":0.16348226368427277,"68":0.17814800143241882,"69":0.19260838627815247,"70":-0.03317857161164284,"71":0.04192069172859192,"72":-0.006790210027247667,"73":0.1010163351893425,"74":0.10841783881187439,"75":0.15375246107578278,"76":0.030337704345583916,"77":-0.14171765744686127,"78":0.42221295833587646,"79":0.013920703902840614,"80":-0.07121942937374115,"81":-0.1858520805835724,"82":-0.25968626141548157,"83":-0.2423456907272339,"84":-0.3532105088233948,"85":-0.16140523552894592,"86":-0.12846477329730988,"87":-0.2691572904586792,"88":-0.28549924492836,"89":-0.03780638799071312,"90":0.08712994307279587,"91":-0.2808830142021179,"92":-0.24365849792957306,"93":0.05451183393597603,"94":0.06102645769715309,"95":-0.16240006685256958,"96":-0.2301790714263916,"97":-0.03902296721935272,"98":0.056756481528282166,"99":-0.19804120063781738}},"9":{"bias":0.05958203598856926,"weights":{"0":0.035301677882671356,"1":0.11150532960891724,"2":-0.008350291289389133,"3":-0.04825180396437645,"4":0.13969522714614868,"5":0.053306348621845245,"6":-0.11507189273834229,"7":0.16583196818828583,"8":-0.1465548276901245,"9":-0.0762515440583229,"10":-0.1710009127855301,"11":0.1892494261264801,"12":-0.13485823571681976,"13":-0.009045707061886787,"14":0.1610182523727417,"15":0.17850081622600555,"16":-0.1800374537706375,"17":0.16899441182613373,"18":-0.19833111763000488,"19":-0.07650934159755707,"20":0.0925309881567955,"21":0.1355818510055542,"22":-0.03359416127204895,"23":0.11433062702417374,"24":-0.11340634524822235,"25":-0.17699748277664185,"26":-0.09991275519132614,"27":-0.16416078805923462,"28":0.10664528608322144,"29":-0.06095458194613457,"30":0.09845300763845444,"31":-0.11878811568021774,"32":0.12948930263519287,"33":0.001585970283485949,"34":0.11730727553367615,"35":0.2671915590763092,"36":-0.007883879356086254,"37":-0.22674430906772614,"38":-0.18739230930805206,"39":-0.15122927725315094,"40":0.02486874908208847,"41":0.1563286930322647,"42":-0.00470347236841917,"43":-0.15193167328834534,"44":-0.15197408199310303,"45":0.0358206182718277,"46":-0.1882401406764984,"47":-0.003957606852054596,"48":-0.20149017870426178,"49":-0.05438726022839546,"50":-0.015935635194182396,"51":0.03352982550859451,"52":-0.2476169914007187,"53":-0.05122431367635727,"54":-0.01653372310101986,"55":-0.13063976168632507,"56":0.05584172531962395,"57":-0.09249796718358994,"58":-0.1006350889801979,"59":0.24984502792358398,"60":0.15172623097896576,"61":0.1792227029800415,"62":0.0755675733089447,"63":0.13427631556987762,"64":0.03254540264606476,"65":0.21181242167949677,"66":0.29715028405189514,"67":0.27010470628738403,"68":0.07613309472799301,"69":-0.12786540389060974,"70":-0.06662160903215408,"71":-0.1306009292602539,"72":-0.16790758073329926,"73":0.15222357213497162,"74":0.18414516746997833,"75":0.1243826150894165,"76":0.113971047103405,"77":0.20509831607341766,"78":0.27003398537635803,"79":-0.08485222607851028,"80":0.1836092174053192,"81":-0.07402067631483078,"82":0.04693906381726265,"83":-0.12366131693124771,"84":-0.1871737241744995,"85":-0.2319573312997818,"86":-0.2629640996456146,"87":-0.1920030117034912,"88":0.025931470096111298,"89":0.18373018503189087,"90":0.02743872068822384,"91":-0.13060706853866577,"92":-0.23227143287658691,"93":-0.046175096184015274,"94":0.08395066857337952,"95":-0.21193058788776398,"96":-0.03303428366780281,"97":0.01231295894831419,"98":0.15740041434764862,"99":-0.002016681246459484}},"10":{"bias":-0.044166840612888336,"weights":{"0":-0.0802517756819725,"1":0.1935197412967682,"2":0.13755883276462555,"3":-0.18080955743789673,"4":-0.004318590741604567,"5":-0.024569034576416016,"6":0.11724008619785309,"7":0.1808207780122757,"8":0.17727623879909515,"9":0.031270671635866165,"10":-0.08638589829206467,"11":-0.10495193302631378,"12":0.04747292399406433,"13":-0.11868615448474884,"14":-0.02487909235060215,"15":-0.06307584047317505,"16":-0.10803111642599106,"17":-0.08329180628061295,"18":0.05075022950768471,"19":-0.06894297897815704,"20":0.08930639922618866,"21":0.028171077370643616,"22":-0.0000627715780865401,"23":0.32239407300949097,"24":0.4853383004665375,"25":0.13516023755073547,"26":-0.03086342290043831,"27":0.17261554300785065,"28":-0.04355912655591965,"29":0.01651711016893387,"30":-0.057849280536174774,"31":-0.18286344408988953,"32":-0.04347624629735947,"33":0.0473802424967289,"34":0.3894490897655487,"35":0.552412748336792,"36":0.34934625029563904,"37":0.05905761569738388,"38":0.1510825753211975,"39":0.046429987996816635,"40":-0.12421358376741409,"41":0.13783107697963715,"42":-0.22317370772361755,"43":-0.20592324435710907,"44":-0.22399473190307617,"45":-0.08215822279453278,"46":-0.011221293359994888,"47":-0.148903489112854,"48":-0.054631128907203674,"49":-0.16861918568611145,"50":0.15482431650161743,"51":-0.05677923187613487,"52":0.016777746379375458,"53":-0.25836971402168274,"54":-0.1608676314353943,"55":0.15940450131893158,"56":-0.061701349914073944,"57":0.035318851470947266,"58":0.01993563026189804,"59":-0.012962698005139828,"60":0.1996423602104187,"61":0.06459150463342667,"62":0.25400838255882263,"63":0.43496453762054443,"64":0.13571062684059143,"65":0.4016261398792267,"66":0.4882114827632904,"67":0.17459294199943542,"68":0.25987380743026733,"69":-0.009990764781832695,"70":0.0260832030326128,"71":0.206061452627182,"72":0.38583919405937195,"73":0.3272190988063812,"74":0.37291231751441956,"75":0.18243134021759033,"76":0.10867521166801453,"77":0.4069981276988983,"78":0.4376766085624695,"79":0.1302814781665802,"80":-0.0408870130777359,"81":-0.14585883915424347,"82":0.15442319214344025,"83":-0.09384363144636154,"84":0.16502824425697327,"85":-0.01523327175527811,"86":0.0994306430220604,"87":0.10651780664920807,"88":0.035057101398706436,"89":-0.009146316908299923,"90":-0.1461106836795807,"91":-0.05638241395354271,"92":0.16459238529205322,"93":0.015681179240345955,"94":-0.11828213930130005,"95":-0.12265600264072418,"96":0.1524035483598709,"97":-0.029834890738129616,"98":-0.11222270876169205,"99":0.18620507419109344}},"11":{"bias":0.07692604511976242,"weights":{"0":-0.07576220482587814,"1":0.14487840235233307,"2":0.09953770786523819,"3":0.004770820494741201,"4":0.012704906985163689,"5":-0.088686004281044,"6":0.1407536119222641,"7":0.09649187326431274,"8":0.17513613402843475,"9":0.052696067839860916,"10":-0.04139774665236473,"11":-0.1848377138376236,"12":-0.15820996463298798,"13":-0.020262258127331734,"14":-0.004903406370431185,"15":-0.1644287109375,"16":-0.09194204211235046,"17":0.004954608157277107,"18":-0.14616093039512634,"19":-0.16366446018218994,"20":-0.16260561347007751,"21":-0.18099918961524963,"22":-0.23663659393787384,"23":0.037640348076820374,"24":-0.20877902209758759,"25":-0.1562587171792984,"26":-0.46575164794921875,"27":-0.19551117718219757,"28":-0.024043716490268707,"29":0.0748371034860611,"30":0.10381808876991272,"31":-0.17943796515464783,"32":0.14338639378547668,"33":-0.14177876710891724,"34":0.10073007643222809,"35":-0.11753427982330322,"36":-0.26339948177337646,"37":0.017731010913848877,"38":0.03786888346076012,"39":-0.09955299645662308,"40":0.010528473183512688,"41":-0.18464520573616028,"42":0.10263898223638535,"43":-0.021710094064474106,"44":0.12753728032112122,"45":0.04936520755290985,"46":-0.1362839639186859,"47":-0.05108391121029854,"48":-0.04426475614309311,"49":-0.13089114427566528,"50":0.17976506054401398,"51":0.08176055550575256,"52":-0.030712736770510674,"53":-0.05583608150482178,"54":0.049072325229644775,"55":-0.05093139410018921,"56":-0.0361240990459919,"57":0.155589297413826,"58":0.15356512367725372,"59":-0.02460666373372078,"60":0.15464340150356293,"61":0.21955212950706482,"62":-0.19193655252456665,"63":-0.18667536973953247,"64":0.048889074474573135,"65":-0.012007498182356358,"66":0.17194512486457825,"67":0.13632699847221375,"68":0.04500357434153557,"69":0.08518844097852707,"70":-0.11480781435966492,"71":0.007710928097367287,"72":0.01271017175167799,"73":-0.0819120854139328,"74":0.026219554245471954,"75":-0.11071238666772842,"76":-0.023069432005286217,"77":0.02600325457751751,"78":0.22220101952552795,"79":-0.1150941401720047,"80":-0.15918217599391937,"81":-0.20689795911312103,"82":-0.22308607399463654,"83":-0.022216666489839554,"84":-0.12181804329156876,"85":-0.034926410764455795,"86":-0.21474474668502808,"87":-0.21502289175987244,"88":0.030682949349284172,"89":0.0660199299454689,"90":-0.06811507046222687,"91":-0.14642168581485748,"92":0.04151323437690735,"93":-0.18461166322231293,"94":0.07928036898374557,"95":-0.2594350576400757,"96":-0.16436219215393066,"97":-0.08124476671218872,"98":-0.17142176628112793,"99":-0.1485636830329895}},"12":{"bias":0.007381245959550142,"weights":{"0":0.10882493108510971,"1":0.10406254976987839,"2":-0.13388659060001373,"3":0.14539514482021332,"4":0.03986848145723343,"5":0.15349869430065155,"6":-0.07213759422302246,"7":-0.08489222824573517,"8":0.02204916626214981,"9":-0.020533576607704163,"10":-0.0826626569032669,"11":0.1278458535671234,"12":-0.129727303981781,"13":0.02533598802983761,"14":-0.0416048988699913,"15":-0.13867782056331635,"16":0.08774213492870331,"17":-0.06137968972325325,"18":0.18280261754989624,"19":0.028271058574318886,"20":0.14587119221687317,"21":0.062120694667100906,"22":0.1893300712108612,"23":0.0376327820122242,"24":-0.16713392734527588,"25":-0.10979016125202179,"26":0.15985934436321259,"27":0.04270568862557411,"28":-0.07626339793205261,"29":0.0036449807230383158,"30":0.16332228481769562,"31":-0.09712351113557816,"32":0.0373975895345211,"33":0.048179347068071365,"34":-0.1391119509935379,"35":-0.014764110557734966,"36":-0.06533109396696091,"37":0.25362667441368103,"38":-0.05158102512359619,"39":0.1146911233663559,"40":-0.07982230931520462,"41":-0.014311987906694412,"42":0.13504473865032196,"43":0.1671067178249359,"44":0.08584438264369965,"45":0.02250581979751587,"46":-0.14042791724205017,"47":0.13715781271457672,"48":0.24969682097434998,"49":-0.04565785825252533,"50":-0.14706991612911224,"51":-0.020858926698565483,"52":0.025814807042479515,"53":0.13593541085720062,"54":0.1539856642484665,"55":0.218953475356102,"56":-0.06386405229568481,"57":-0.26160287857055664,"58":-0.21313923597335815,"59":-0.16554349660873413,"60":0.0716882050037384,"61":-0.24233219027519226,"62":0.07197859138250351,"63":-0.14913050830364227,"64":0.04006492719054222,"65":-0.20076967775821686,"66":0.008220570161938667,"67":-0.20788806676864624,"68":-0.2916969656944275,"69":-0.011341257952153683,"70":0.1688949316740036,"71":0.02899029478430748,"72":-0.10824514180421829,"73":0.0024494468234479427,"74":0.0920749381184578,"75":-0.10958436131477356,"76":-0.21823802590370178,"77":-0.24748417735099792,"78":-0.29383954405784607,"79":-0.18928878009319305,"80":-0.19834746420383453,"81":0.19856031239032745,"82":0.27081212401390076,"83":0.14840078353881836,"84":0.1846899539232254,"85":0.017805228009819984,"86":0.12494796514511108,"87":0.2675933539867401,"88":0.2462143450975418,"89":-0.12200300395488739,"90":-0.15965105593204498,"91":-0.05771784484386444,"92":-0.004172918852418661,"93":-0.15672336518764496,"94":-0.0539393275976181,"95":-0.11431613564491272,"96":-0.02953227050602436,"97":-0.12764111161231995,"98":0.19800309836864471,"99":0.12481198459863663}},"13":{"bias":-0.18069633841514587,"weights":{"0":-0.010166472755372524,"1":0.19386175274848938,"2":-0.0909196212887764,"3":0.08512995392084122,"4":0.018512267619371414,"5":-0.06378033012151718,"6":-0.058832310140132904,"7":-0.03758061304688454,"8":0.012970570474863052,"9":-0.179273784160614,"10":-0.07875131070613861,"11":0.13385412096977234,"12":0.10221024602651596,"13":0.003196403617039323,"14":0.12183736264705658,"15":-0.01307119894772768,"16":-0.01950354501605034,"17":-0.04319855943322182,"18":-0.05429394170641899,"19":0.057986918836832047,"20":0.13745616376399994,"21":0.012714091688394547,"22":-0.18556883931159973,"23":0.031095420941710472,"24":-0.0025153886526823044,"25":0.09867766499519348,"26":-0.14560472965240479,"27":-0.03367562219500542,"28":0.17904742062091827,"29":0.17618678510189056,"30":0.13501612842082977,"31":-0.16109918057918549,"32":0.1035228744149208,"33":0.09997780621051788,"34":0.08521008491516113,"35":0.18383581936359406,"36":-0.046964529901742935,"37":-0.22322261333465576,"38":-0.13980215787887573,"39":0.019466500729322433,"40":-0.0066265263594686985,"41":-0.17005041241645813,"42":0.11853574961423874,"43":-0.15559488534927368,"44":-0.07165350019931793,"45":0.07833155244588852,"46":0.0461173877120018,"47":-0.13208091259002686,"48":0.10585176199674606,"49":0.027338379994034767,"50":-0.08105839788913727,"51":-0.12970934808254242,"52":0.07891641557216644,"53":0.11367813497781754,"54":-0.27078935503959656,"55":0.09751531481742859,"56":-0.05265042558312416,"57":0.03364434093236923,"58":0.22331058979034424,"59":0.04484928399324417,"60":0.16375063359737396,"61":0.043065596371889114,"62":0.15463584661483765,"63":-0.11729007214307785,"64":0.17027238011360168,"65":0.12143675982952118,"66":0.13786551356315613,"67":0.06086495891213417,"68":0.1163276806473732,"69":0.1598939597606659,"70":-0.08708003908395767,"71":-0.1056143045425415,"72":-0.07117780297994614,"73":-0.11631185561418533,"74":-0.08129000663757324,"75":-0.03893115743994713,"76":0.0952899381518364,"77":0.12857495248317719,"78":-0.015749424695968628,"79":0.029036318883299828,"80":-0.1577276587486267,"81":0.10923314094543457,"82":-0.22174811363220215,"83":-0.06834131479263306,"84":0.04412174969911575,"85":0.15577667951583862,"86":-0.02794269099831581,"87":-0.16709360480308533,"88":-0.023670420050621033,"89":0.056286875158548355,"90":0.020898696035146713,"91":0.015577871352434158,"92":-0.0628165751695633,"93":-0.03164022043347359,"94":-0.22065593302249908,"95":-0.20106194913387299,"96":-0.08606152981519699,"97":-0.15023203194141388,"98":-0.025251349434256554,"99":-0.1695885956287384}},"14":{"bias":-0.12506921589374542,"weights":{"0":-0.11968784034252167,"1":0.11622902750968933,"2":0.15539303421974182,"3":-0.026186874136328697,"4":0.12586019933223724,"5":-0.11509764939546585,"6":0.08653934299945831,"7":0.09831210225820541,"8":0.12395356595516205,"9":0.12456444650888443,"10":-0.11154354363679886,"11":-0.05518435686826706,"12":0.18217302858829498,"13":-0.09291857481002808,"14":0.12840358912944794,"15":-0.09841076284646988,"16":0.13058996200561523,"17":-0.011571712791919708,"18":0.06861591339111328,"19":0.07440316677093506,"20":0.13538675010204315,"21":0.006025170441716909,"22":0.24520482122898102,"23":0.13198013603687286,"24":0.13714894652366638,"25":0.10208994150161743,"26":-0.1409216821193695,"27":0.20948299765586853,"28":0.07502119243144989,"29":-0.14748242497444153,"30":-0.09596893191337585,"31":-0.13782505691051483,"32":0.19157353043556213,"33":0.15675300359725952,"34":-0.08784829080104828,"35":0.11121252179145813,"36":0.19418476521968842,"37":-0.0021870690397918224,"38":-0.1528683751821518,"39":-0.135290265083313,"40":-0.04549463838338852,"41":0.05977063626050949,"42":-0.16560132801532745,"43":0.038577333092689514,"44":0.07153699547052383,"45":-0.16166621446609497,"46":-0.1983451396226883,"47":0.09906095266342163,"48":0.1575474888086319,"49":0.17560157179832458,"50":0.11413480341434479,"51":0.0016907047247514129,"52":-0.21483629941940308,"53":-0.08483581990003586,"54":0.019285298883914948,"55":0.1374257206916809,"56":-0.1342555731534958,"57":-0.03627514839172363,"58":-0.1359741985797882,"59":-0.15021735429763794,"60":-0.04060054570436478,"61":0.09676088392734528,"62":0.11694543808698654,"63":0.15658074617385864,"64":-0.11764514446258545,"65":-0.19773299992084503,"66":-0.09905806928873062,"67":0.08008185029029846,"68":0.15138763189315796,"69":-0.05483001843094826,"70":-0.1320020854473114,"71":-0.1503986418247223,"72":-0.10066664963960648,"73":0.1170925572514534,"74":-0.01942538470029831,"75":-0.0913158655166626,"76":-0.16402894258499146,"77":0.1815004199743271,"78":-0.14847157895565033,"79":-0.056089650839567184,"80":0.1529947817325592,"81":0.10286770015954971,"82":0.018916688859462738,"83":0.1928444355726242,"84":-0.13140223920345306,"85":-0.08596857637166977,"86":0.08518631011247635,"87":0.16181407868862152,"88":-0.03016917034983635,"89":-0.05427756533026695,"90":-0.005824018269777298,"91":0.0022238853853195906,"92":0.09402914345264435,"93":-0.19718311727046967,"94":-0.14663656055927277,"95":0.0030202537309378386,"96":0.07654228806495667,"97":-0.14877864718437195,"98":-0.09426332265138626,"99":0.05442522093653679}},"15":{"bias":0.03784522786736488,"weights":{"0":0.13427715003490448,"1":-0.1108831912279129,"2":-0.10481821000576019,"3":0.010141873732209206,"4":-0.029156487435102463,"5":-0.08946520835161209,"6":-0.009511190466582775,"7":0.13441121578216553,"8":0.12377136200666428,"9":-0.13069108128547668,"10":0.12120974063873291,"11":-0.04097868129611015,"12":0.01867011934518814,"13":-0.01032187044620514,"14":-0.1086987629532814,"15":-0.0691276267170906,"16":-0.0980089008808136,"17":0.07914222776889801,"18":0.14271126687526703,"19":0.049842387437820435,"20":0.049556609243154526,"21":-0.1351020783185959,"22":-0.11514005810022354,"23":-0.1359701305627823,"24":-0.296925812959671,"25":-0.22404350340366364,"26":-0.20582492649555206,"27":-0.08453585207462311,"28":-0.1305323988199234,"29":0.0818876251578331,"30":-0.0745721310377121,"31":-0.030774768441915512,"32":-0.10555828362703323,"33":-0.037982046604156494,"34":-0.043688833713531494,"35":0.0731390044093132,"36":-0.08730591833591461,"37":0.04792454093694687,"38":-0.20429468154907227,"39":0.1976139098405838,"40":-0.0635300800204277,"41":0.005347613710910082,"42":0.07617643475532532,"43":-0.0025808128993958235,"44":-0.10052669048309326,"45":0.011696288362145424,"46":0.047377560287714005,"47":-0.03748093545436859,"48":0.19942837953567505,"49":-0.09592801332473755,"50":0.031300656497478485,"51":-0.006109736394137144,"52":0.1252015382051468,"53":-0.1051487848162651,"54":0.09920153766870499,"55":0.17650018632411957,"56":0.07531161606311798,"57":-0.01877645216882229,"58":0.1312096118927002,"59":-0.11178644001483917,"60":0.1478608250617981,"61":0.032371636480093,"62":-0.2427012324333191,"63":-0.049678657203912735,"64":0.0653098076581955,"65":-0.02550840564072132,"66":-0.14530733227729797,"67":-0.25174611806869507,"68":-0.16163575649261475,"69":0.002778213005512953,"70":0.07030375301837921,"71":-0.17175719141960144,"72":0.003004020545631647,"73":-0.11217319220304489,"74":-0.29176926612854004,"75":0.05211656168103218,"76":-0.2942385971546173,"77":0.0689023807644844,"78":0.07504494488239288,"79":-0.027779145166277885,"80":0.045754723250865936,"81":-0.23400907218456268,"82":-0.11749681085348129,"83":-0.21532529592514038,"84":-0.23464325070381165,"85":-0.2730211317539215,"86":-0.31015545129776,"87":-0.21043473482131958,"88":-0.06066599860787392,"89":-0.04426535218954086,"90":-0.19464755058288574,"91":-0.17973865568637848,"92":0.09778604656457901,"93":-0.25086453557014465,"94":-0.0910414531826973,"95":-0.15920105576515198,"96":0.06056245043873787,"97":0.1417832225561142,"98":-0.05090954899787903,"99":-0.06702218949794769}},"16":{"bias":0.16464436054229736,"weights":{"0":0.11023072898387909,"1":-0.09096475690603256,"2":0.03138482943177223,"3":-0.05438212305307388,"4":0.18286308646202087,"5":-0.12796294689178467,"6":0.18773320317268372,"7":-0.028927259147167206,"8":0.07930270582437515,"9":0.11429855972528458,"10":0.12249957770109177,"11":-0.15558896958827972,"12":0.1981540322303772,"13":0.04972301796078682,"14":0.03930138424038887,"15":0.14129053056240082,"16":0.042604368180036545,"17":0.06111222133040428,"18":0.004084030166268349,"19":0.0690801739692688,"20":0.09461350739002228,"21":-0.020305056124925613,"22":0.08266488462686539,"23":0.267364501953125,"24":0.3060641586780548,"25":0.09279682487249374,"26":-0.0721815899014473,"27":0.030491052195429802,"28":-0.02043929323554039,"29":0.05058499425649643,"30":0.14940854907035828,"31":-0.1314406841993332,"32":0.2612343430519104,"33":0.030278848484158516,"34":0.4217461943626404,"35":0.10352141410112381,"36":0.23312321305274963,"37":0.0718715488910675,"38":0.1612982153892517,"39":0.1671670526266098,"40":0.10575024038553238,"41":0.07222235947847366,"42":-0.006708679720759392,"43":-0.1280505359172821,"44":-0.26576539874076843,"45":-0.20354361832141876,"46":-0.14618709683418274,"47":0.09124037623405457,"48":-0.14546601474285126,"49":-0.14477747678756714,"50":0.0483095608651638,"51":0.2223762422800064,"52":-0.17582367360591888,"53":-0.1731572151184082,"54":-0.22800393402576447,"55":-0.11181838810443878,"56":0.21700520813465118,"57":-0.09881450980901718,"58":0.10305539518594742,"59":0.032225798815488815,"60":0.12920065224170685,"61":0.1372113823890686,"62":0.35362932085990906,"63":0.01970783621072769,"64":0.14939472079277039,"65":0.13561145961284637,"66":0.17067153751850128,"67":0.32528823614120483,"68":0.39253586530685425,"69":0.1398000717163086,"70":0.12294978648424149,"71":0.2747100293636322,"72":0.037402667105197906,"73":0.09382656961679459,"74":0.07640787959098816,"75":0.039433810859918594,"76":0.2525061070919037,"77":0.2665848731994629,"78":0.22508949041366577,"79":-0.08504898846149445,"80":-0.15555265545845032,"81":-0.17534740269184113,"82":0.09257038682699203,"83":0.20892934501171112,"84":0.10539755970239639,"85":-0.052647776901721954,"86":-0.12487004697322845,"87":0.04667436704039574,"88":0.10838179290294647,"89":0.16276240348815918,"90":-0.0815420001745224,"91":0.11239715665578842,"92":-0.05839791148900986,"93":-0.0853610634803772,"94":-0.10954134911298752,"95":-0.012363296933472157,"96":-0.053439345210790634,"97":0.0812782570719719,"98":-0.10216297954320908,"99":0.09320005774497986}},"17":{"bias":0.049341872334480286,"weights":{"0":0.17726507782936096,"1":0.13330672681331635,"2":0.049278102815151215,"3":-0.06988518685102463,"4":0.003577914321795106,"5":-0.09819856286048889,"6":-0.10737212002277374,"7":-0.18128104507923126,"8":-0.1726691871881485,"9":-0.06618134677410126,"10":-0.042517367750406265,"11":0.1726502925157547,"12":0.1293368637561798,"13":0.16374951601028442,"14":0.13856998085975647,"15":-0.18845915794372559,"16":-0.10215502977371216,"17":0.03788750618696213,"18":0.021146737039089203,"19":-0.1894873082637787,"20":0.1808595359325409,"21":0.0780426561832428,"22":-0.3175697922706604,"23":-0.06750450283288956,"24":-0.22552257776260376,"25":-0.007943821139633656,"26":-0.3868947923183441,"27":-0.09464964270591736,"28":-0.1464778482913971,"29":0.009022749029099941,"30":0.12467186152935028,"31":-0.18069440126419067,"32":-0.05926280841231346,"33":-0.20866289734840393,"34":-0.08639207482337952,"35":0.0631912350654602,"36":-0.22563235461711884,"37":-0.052358999848365784,"38":0.012216068804264069,"39":0.1758233904838562,"40":-0.04423647001385689,"41":-0.07216272503137589,"42":0.1189897209405899,"43":-0.19199588894844055,"44":-0.020884374156594276,"45":0.1671292781829834,"46":0.07559383660554886,"47":-0.1220891922712326,"48":-0.0035702078603208065,"49":0.12151984125375748,"50":-0.13297469913959503,"51":0.032116588205099106,"52":0.1315462440252304,"53":0.1770474761724472,"54":0.03988092392683029,"55":-0.03482271730899811,"56":-0.08284135162830353,"57":0.1072872132062912,"58":-0.11280152946710587,"59":0.07852210849523544,"60":-0.1666760891675949,"61":0.2025722861289978,"62":-0.03789249807596207,"63":0.06855707615613937,"64":0.05448834225535393,"65":0.08276074379682541,"66":-0.21377596259117126,"67":0.028476417064666748,"68":-0.2109641134738922,"69":0.16456161439418793,"70":-0.19096359610557556,"71":0.19863465428352356,"72":-0.22181160748004913,"73":-0.20629970729351044,"74":-0.05900043249130249,"75":0.11288292706012726,"76":-0.10305199772119522,"77":-0.18195943534374237,"78":0.027249783277511597,"79":0.20467600226402283,"80":-0.007720806635916233,"81":-0.19925715029239655,"82":-0.31639930605888367,"83":-0.22968915104866028,"84":-0.29597240686416626,"85":-0.16364476084709167,"86":0.08877446502447128,"87":-0.1492464542388916,"88":-0.23110228776931763,"89":0.09474605321884155,"90":-0.1367580145597458,"91":0.023749371990561485,"92":-0.04107758030295372,"93":-0.10323793441057205,"94":-0.1898595094680786,"95":-0.19568508863449097,"96":-0.17911972105503082,"97":-0.008773050270974636,"98":0.12620584666728973,"99":0.11338460445404053}},"18":{"bias":0.08941255509853363,"weights":{"0":-0.16020280122756958,"1":-0.11565981805324554,"2":-0.18351764976978302,"3":0.038267362862825394,"4":-0.03455677628517151,"5":-0.06577029079198837,"6":-0.17864328622817993,"7":-0.016865743324160576,"8":0.19756843149662018,"9":-0.06239859387278557,"10":0.07411752641201019,"11":0.010558662004768848,"12":0.040732491761446,"13":0.15781937539577484,"14":0.007942356169223785,"15":0.0038168001919984818,"16":0.05746666342020035,"17":0.08420205861330032,"18":0.08556797355413437,"19":-0.07620224356651306,"20":0.038600873202085495,"21":-0.026052990928292274,"22":0.2403026521205902,"23":0.2056710124015808,"24":0.1566600501537323,"25":0.151666522026062,"26":0.08830532431602478,"27":0.23397815227508545,"28":0.0700749009847641,"29":0.163008913397789,"30":0.024674132466316223,"31":0.008238840848207474,"32":-0.061625827103853226,"33":0.1615843027830124,"34":0.07879085838794708,"35":-0.11638367176055908,"36":0.22951172292232513,"37":-0.08904007077217102,"38":-0.0762505903840065,"39":-0.038160983473062515,"40":-0.14324182271957397,"41":0.12718680500984192,"42":0.005029385909438133,"43":-0.16470929980278015,"44":0.008691960945725441,"45":0.12869980931282043,"46":0.11649828404188156,"47":-0.08471834659576416,"48":-0.07261161506175995,"49":0.16551460325717926,"50":-0.17819437384605408,"51":-0.21792829036712646,"52":-0.14885208010673523,"53":0.042440466582775116,"54":-0.0968504473567009,"55":0.1451743096113205,"56":-0.17389598488807678,"57":0.030900077894330025,"58":0.060267940163612366,"59":-0.2098807543516159,"60":-0.10145808756351471,"61":-0.18423180282115936,"62":0.16198423504829407,"63":-0.11842254549264908,"64":0.01768101379275322,"65":0.0612470880150795,"66":-0.003972852136939764,"67":-0.18765738606452942,"68":-0.24519306421279907,"69":-0.18231438100337982,"70":-0.17679943144321442,"71":-0.031764574348926544,"72":0.16872452199459076,"73":-0.0452604703605175,"74":-0.04569507762789726,"75":0.10170964896678925,"76":-0.18716135621070862,"77":-0.17921555042266846,"78":-0.0372181311249733,"79":0.16270442306995392,"80":0.06750772148370743,"81":0.14472228288650513,"82":0.01740838587284088,"83":0.29726269841194153,"84":0.0874217301607132,"85":0.13032568991184235,"86":0.03286709263920784,"87":0.21323688328266144,"88":-0.0018923612078651786,"89":0.11280443519353867,"90":0.12215536832809448,"91":-0.1207144558429718,"92":0.012401062063872814,"93":0.13374097645282745,"94":0.18469461798667908,"95":-0.018428223207592964,"96":-0.1586330682039261,"97":-0.05165575444698334,"98":-0.11732154339551926,"99":-0.16889242827892303}},"19":{"bias":-0.016012277454137802,"weights":{"0":-0.16281794011592865,"1":-0.10267017781734467,"2":0.03298080340027809,"3":0.1702142357826233,"4":-0.18133686482906342,"5":-0.10651197284460068,"6":0.0032912096939980984,"7":-0.005627595353871584,"8":-0.17292480170726776,"9":-0.12879417836666107,"10":-0.000019012879420188256,"11":-0.055933382362127304,"12":-0.07809951156377792,"13":0.09398964792490005,"14":0.010664362460374832,"15":0.15230178833007812,"16":-0.16071993112564087,"17":-0.09571351855993271,"18":0.006722743157297373,"19":0.16890650987625122,"20":-0.11619437485933304,"21":-0.14777347445487976,"22":0.11534959822893143,"23":-0.12262973189353943,"24":-0.16181355714797974,"25":0.004336550831794739,"26":0.31038135290145874,"27":0.11968381702899933,"28":0.15917836129665375,"29":-0.06983236223459244,"30":0.16038143634796143,"31":0.01993241347372532,"32":-0.008869965560734272,"33":0.14726576209068298,"34":-0.15482421219348907,"35":-0.2241334766149521,"36":-0.17583416402339935,"37":0.00405541667714715,"38":0.1795661449432373,"39":-0.19911348819732666,"40":-0.06333638727664948,"41":-0.016280686482787132,"42":0.21192480623722076,"43":0.1001627966761589,"44":0.12773963809013367,"45":-0.12383294105529785,"46":0.12980157136917114,"47":-0.08280514925718307,"48":-0.10139017552137375,"49":0.19282548129558563,"50":-0.18519321084022522,"51":0.14968857169151306,"52":-0.1795753538608551,"53":0.16338741779327393,"54":-0.018005410209298134,"55":0.00417619664222002,"56":-0.025617744773626328,"57":0.051650796085596085,"58":0.1324765980243683,"59":-0.12015128880739212,"60":0.17786286771297455,"61":-0.26093795895576477,"62":0.028978629037737846,"63":0.008821179158985615,"64":0.013474476523697376,"65":-0.10782210528850555,"66":-0.30063262581825256,"67":0.06060922145843506,"68":-0.21914973855018616,"69":-0.19046902656555176,"70":-0.08914849162101746,"71":-0.21690678596496582,"72":0.10974296927452087,"73":-0.15605564415454865,"74":-0.1565721035003662,"75":0.08674190193414688,"76":-0.06796444952487946,"77":-0.01313877198845148,"78":-0.3916311264038086,"79":-0.17748655378818512,"80":0.17077578604221344,"81":0.20851977169513702,"82":0.10001229494810104,"83":0.14682435989379883,"84":0.21711911261081696,"85":0.07619898021221161,"86":-0.09910894185304642,"87":-0.04503868892788887,"88":-0.03568273037672043,"89":0.018610624596476555,"90":0.060650043189525604,"91":-0.1321021467447281,"92":0.19317848980426788,"93":0.09703370928764343,"94":-0.13449236750602722,"95":0.17646753787994385,"96":-0.11368022114038467,"97":-0.19127817451953888,"98":-0.00428550923243165,"99":-0.1861095279455185}},"20":{"bias":-0.0392284020781517,"weights":{"0":-0.015559820458292961,"1":0.18338967859745026,"2":0.05373290926218033,"3":0.08261504024267197,"4":-0.04312510043382645,"5":-0.09626652300357819,"6":0.02976297028362751,"7":0.1722334623336792,"8":-0.04921292886137962,"9":0.10195386409759521,"10":0.06465045362710953,"11":-0.12067217379808426,"12":-0.14404284954071045,"13":0.06874225288629532,"14":0.19467736780643463,"15":-0.016389815136790276,"16":-0.05873165652155876,"17":0.18056520819664001,"18":-0.13320963084697723,"19":0.1718432605266571,"20":0.059970613569021225,"21":-0.06511732935905457,"22":0.17233170568943024,"23":0.24308645725250244,"24":-0.00928169209510088,"25":0.3032858669757843,"26":0.41740450263023376,"27":0.14957131445407867,"28":0.06548658013343811,"29":-0.1458313912153244,"30":-0.156446635723114,"31":-0.11381455510854721,"32":0.07708412408828735,"33":0.09136885404586792,"34":-0.11807361245155334,"35":-0.04903338477015495,"36":0.009611299261450768,"37":0.08244358748197556,"38":0.12188519537448883,"39":-0.04654310643672943,"40":0.04046764224767685,"41":0.009411482140421867,"42":0.18742594122886658,"43":-0.16887493431568146,"44":-0.09160320460796356,"45":0.03122333437204361,"46":0.0570676326751709,"47":0.006788881029933691,"48":-0.1419307440519333,"49":-0.06309156119823456,"50":0.0009922748431563377,"51":-0.12655244767665863,"52":0.03572826832532883,"53":0.034281231462955475,"54":-0.04177935793995857,"55":-0.13167066872119904,"56":-0.025202760472893715,"57":0.017639867961406708,"58":-0.09265995025634766,"59":-0.18729227781295776,"60":-0.14368177950382233,"61":-0.04454002529382706,"62":-0.02975299023091793,"63":0.03423043340444565,"64":-0.04439931735396385,"65":-0.30708616971969604,"66":0.04043887183070183,"67":0.06729450821876526,"68":-0.01828812062740326,"69":-0.13356149196624756,"70":0.04472373425960541,"71":-0.057459231466054916,"72":-0.11326579004526138,"73":-0.09026742726564407,"74":-0.04009661078453064,"75":0.1249212846159935,"76":0.09358526766300201,"77":0.0496935099363327,"78":-0.060449469834566116,"79":-0.08430881798267365,"80":0.06168178468942642,"81":0.19074353575706482,"82":0.30316227674484253,"83":0.17035731673240662,"84":0.40595531463623047,"85":-0.0004551279707811773,"86":0.2823648750782013,"87":0.26078563928604126,"88":0.11316214501857758,"89":0.14954417943954468,"90":-0.17001673579216003,"91":0.09390410035848618,"92":0.2826184630393982,"93":0.020144322887063026,"94":0.14133787155151367,"95":-0.006348038092255592,"96":-0.06011143699288368,"97":-0.1724472939968109,"98":-0.13270513713359833,"99":-0.13478751480579376}},"21":{"bias":0.02714482694864273,"weights":{"0":-0.1875242292881012,"1":-0.04697234556078911,"2":-0.19316650927066803,"3":0.09001646190881729,"4":0.07096562534570694,"5":0.0034267636947333813,"6":0.1599917858839035,"7":-0.1891433447599411,"8":-0.10773439705371857,"9":0.02069755271077156,"10":0.19572344422340393,"11":0.09461268037557602,"12":-0.147894948720932,"13":0.007487564813345671,"14":0.12178776413202286,"15":-0.13098067045211792,"16":-0.1403832882642746,"17":-0.11330970376729965,"18":0.1440282166004181,"19":0.048392411321401596,"20":-0.0008686543442308903,"21":0.1957046538591385,"22":-0.24096889793872833,"23":-0.051074206829071045,"24":-0.06740020960569382,"25":0.07841907441616058,"26":-0.020080221816897392,"27":-0.1699976921081543,"28":0.14840386807918549,"29":-0.057140059769153595,"30":0.11033971607685089,"31":0.1518399864435196,"32":-0.005003891419619322,"33":0.017765019088983536,"34":0.13244947791099548,"35":0.17960767447948456,"36":0.205040842294693,"37":0.07413017004728317,"38":0.10533786565065384,"39":-0.18614107370376587,"40":-0.10050086677074432,"41":-0.08458185195922852,"42":-0.15226882696151733,"43":-0.0005400925292633474,"44":-0.23524223268032074,"45":-0.14558596909046173,"46":0.10602814704179764,"47":0.098848856985569,"48":-0.2657330632209778,"49":0.05912652984261513,"50":0.14636455476284027,"51":0.03215453773736954,"52":0.10399756580591202,"53":-0.14644800126552582,"54":-0.11770898848772049,"55":0.07428963482379913,"56":-0.08281830698251724,"57":-0.10380708426237106,"58":0.2204819619655609,"59":0.11942023783922195,"60":-0.09257097542285919,"61":0.07206311076879501,"62":0.25719669461250305,"63":0.07929442077875137,"64":-0.018348749727010727,"65":0.13452298939228058,"66":-0.01764347217977047,"67":0.2571890950202942,"68":0.25086674094200134,"69":-0.05421061813831329,"70":-0.1966756135225296,"71":0.184932678937912,"72":-0.12183721363544464,"73":0.16945283114910126,"74":0.04493216052651405,"75":0.18423715233802795,"76":-0.01152370497584343,"77":0.026532163843512535,"78":0.2206064760684967,"79":-0.1002616360783577,"80":-0.04773065447807312,"81":-0.17349044978618622,"82":-0.17567799985408783,"83":0.0040189847350120544,"84":0.10364028066396713,"85":-0.1106090322136879,"86":-0.18493887782096863,"87":-0.2386307269334793,"88":0.047095999121665955,"89":-0.11273589730262756,"90":0.013570639304816723,"91":-0.032156188040971756,"92":-0.08284363895654678,"93":0.13560308516025543,"94":0.03878127411007881,"95":0.0023889162112027407,"96":0.050018686801195145,"97":-0.07725656777620316,"98":-0.0684552788734436,"99":-0.16872891783714294}},"22":{"bias":-0.11473877727985382,"weights":{"0":0.16488447785377502,"1":0.05515507608652115,"2":0.10226426273584366,"3":0.11894189566373825,"4":-0.021098656579852104,"5":0.14300161600112915,"6":-0.14154383540153503,"7":0.08583589643239975,"8":0.10984321683645248,"9":-0.15460117161273956,"10":-0.10075069218873978,"11":-0.042935170233249664,"12":-0.10705050826072693,"13":-0.11963853240013123,"14":0.11508901417255402,"15":-0.07429372519254684,"16":-0.038776930421590805,"17":-0.03507569804787636,"18":0.17184686660766602,"19":0.17553402483463287,"20":-0.0668986588716507,"21":0.04040446877479553,"22":0.26274797320365906,"23":0.26796504855155945,"24":0.23710890114307404,"25":0.006882473826408386,"26":0.03458395227789879,"27":-0.09994132071733475,"28":-0.07774423062801361,"29":0.07174534350633621,"30":0.1880364716053009,"31":-0.18444117903709412,"32":0.10463660210371017,"33":-0.08816265314817429,"34":0.11375387758016586,"35":0.046065863221883774,"36":-0.08239419013261795,"37":-0.04097861424088478,"38":-0.08233033120632172,"39":-0.05416658893227577,"40":0.1753002554178238,"41":0.15439707040786743,"42":-0.15956993401050568,"43":0.13705629110336304,"44":0.006121309939771891,"45":-0.21754834055900574,"46":0.15260860323905945,"47":-0.2093334048986435,"48":-0.23874595761299133,"49":-0.01098460704088211,"50":-0.0933389961719513,"51":0.0723738893866539,"52":-0.07905904203653336,"53":0.1028115376830101,"54":-0.05547063797712326,"55":-0.06815026700496674,"56":0.18359442055225372,"57":0.11351174116134644,"58":-0.04669605568051338,"59":0.17191609740257263,"60":0.01816527359187603,"61":0.036723796278238297,"62":0.16928474605083466,"63":0.048094939440488815,"64":0.18533915281295776,"65":0.11089044064283371,"66":0.059300873428583145,"67":0.19747062027454376,"68":-0.12077641487121582,"69":0.06068519875407219,"70":-0.010926343500614166,"71":0.15672212839126587,"72":0.08490036427974701,"73":0.045049380511045456,"74":0.17043235898017883,"75":0.029288817197084427,"76":0.20314808189868927,"77":0.08808818459510803,"78":-0.10104763507843018,"79":-0.19049672782421112,"80":0.10943307727575302,"81":-0.11373427510261536,"82":-0.030843796208500862,"83":0.1118936613202095,"84":-0.05812026187777519,"85":-0.06206033006310463,"86":0.028932102024555206,"87":0.18249724805355072,"88":0.07718483358621597,"89":-0.15939055383205414,"90":-0.18177811801433563,"91":-0.1503327488899231,"92":0.08856493979692459,"93":-0.145012766122818,"94":-0.06406719982624054,"95":0.19290395081043243,"96":0.20618762075901031,"97":0.053704213351011276,"98":-0.15492698550224304,"99":0.18847019970417023}},"23":{"bias":0.20957635343074799,"weights":{"0":-0.16621027886867523,"1":0.1484123170375824,"2":0.11725354194641113,"3":0.050334107130765915,"4":0.10151881724596024,"5":0.0007663950091227889,"6":-0.1586282104253769,"7":-0.02213469333946705,"8":0.1953403651714325,"9":-0.13634231686592102,"10":0.1840280443429947,"11":-0.15329930186271667,"12":-0.052867159247398376,"13":-0.059555403888225555,"14":0.16353349387645721,"15":-0.02694426104426384,"16":-0.18905389308929443,"17":-0.07321347296237946,"18":0.11184503883123398,"19":0.018052963539958,"20":0.189558207988739,"21":-0.0835319459438324,"22":-0.5041612386703491,"23":-0.15115071833133698,"24":0.1069413274526596,"25":-0.19749107956886292,"26":-0.45765307545661926,"27":-0.288022518157959,"28":-0.27510517835617065,"29":-0.08377334475517273,"30":0.09689686447381973,"31":-0.009559152647852898,"32":0.11972711235284805,"33":-0.07255915552377701,"34":0.1420649290084839,"35":-0.02222953923046589,"36":0.08651456236839294,"37":0.03412088379263878,"38":0.012874109670519829,"39":0.1812131404876709,"40":-0.14357811212539673,"41":0.02199576608836651,"42":-0.17045427858829498,"43":-0.19839712977409363,"44":-0.04239916428923607,"45":0.09635524451732635,"46":0.14170564711093903,"47":0.017462894320487976,"48":-0.049600083380937576,"49":-0.09054055064916611,"50":-0.10351799428462982,"51":0.04776008799672127,"52":0.12158827483654022,"53":-0.30671584606170654,"54":-0.08796185255050659,"55":0.18489834666252136,"56":-0.1671610176563263,"57":0.048832979053258896,"58":-0.08010952174663544,"59":-0.020640511065721512,"60":0.021722711622714996,"61":0.22269868850708008,"62":-0.15666942298412323,"63":0.1738736778497696,"64":-0.09068881720304489,"65":0.22547215223312378,"66":0.06991150975227356,"67":-0.08496768027544022,"68":0.21681316196918488,"69":0.06281982362270355,"70":0.1368478685617447,"71":-0.04782761260867119,"72":-0.12322530895471573,"73":0.05145305395126343,"74":-0.10304313898086548,"75":-0.07949835807085037,"76":0.04856637120246887,"77":0.13074232637882233,"78":0.3867590129375458,"79":0.0024685864336788654,"80":-0.07136443257331848,"81":-0.08439183235168457,"82":-0.06685999035835266,"83":-0.25200024247169495,"84":-0.21599332988262177,"85":-0.09861991554498672,"86":-0.31812503933906555,"87":-0.3600946068763733,"88":0.01610732637345791,"89":0.09216303378343582,"90":-0.10803946107625961,"91":0.08795182406902313,"92":-0.24951554834842682,"93":-0.29513752460479736,"94":-0.09159490466117859,"95":-0.2085929811000824,"96":-0.008744338527321815,"97":0.08497685194015503,"98":-0.019710656255483627,"99":-0.1461728811264038}},"24":{"bias":-0.04543328657746315,"weights":{"0":0.06507835537195206,"1":-0.015028146095573902,"2":-0.11856147646903992,"3":-0.049329210072755814,"4":-0.01310126855969429,"5":-0.19504642486572266,"6":0.06009892746806145,"7":0.17930825054645538,"8":0.19066335260868073,"9":0.09865561872720718,"10":0.05057831481099129,"11":-0.0900593101978302,"12":0.14530441164970398,"13":0.008271637372672558,"14":-0.1261269897222519,"15":0.02463611774146557,"16":-0.12278040498495102,"17":-0.0628708228468895,"18":0.1258799433708191,"19":-0.10562249273061752,"20":0.10948005318641663,"21":-0.12785576283931732,"22":0.17634053528308868,"23":-0.15981918573379517,"24":-0.11225514858961105,"25":-0.09194041788578033,"26":0.420551061630249,"27":-0.016592416912317276,"28":-0.06548034399747849,"29":0.17873446643352509,"30":-0.05417582392692566,"31":-0.01649956777691841,"32":0.17864234745502472,"33":-0.006244601681828499,"34":-0.14962853491306305,"35":-0.16005940735340118,"36":-0.13853400945663452,"37":-0.08233018219470978,"38":0.2056901603937149,"39":0.02231784723699093,"40":-0.16930325329303741,"41":0.07317569106817245,"42":0.25181150436401367,"43":-0.0234894510358572,"44":-0.014782189391553402,"45":-0.07511850446462631,"46":0.21243445575237274,"47":-0.011489646509289742,"48":0.2921098470687866,"49":-0.13281609117984772,"50":0.05898507684469223,"51":0.0645684152841568,"52":-0.08714132010936737,"53":0.2771625518798828,"54":0.043408095836639404,"55":0.07555469870567322,"56":0.1833599954843521,"57":-0.19490760564804077,"58":0.08935023844242096,"59":0.09276853501796722,"60":0.10355811566114426,"61":-0.058659397065639496,"62":-0.02874908037483692,"63":-0.14661827683448792,"64":0.04355734959244728,"65":-0.2934628129005432,"66":-0.3205648958683014,"67":-0.23137612640857697,"68":-0.33247488737106323,"69":-0.1993478685617447,"70":-0.08756490796804428,"71":0.09711718559265137,"72":-0.09773995727300644,"73":0.07828818261623383,"74":-0.25540560483932495,"75":-0.026269743219017982,"76":0.025476260110735893,"77":-0.1763799488544464,"78":-0.38229382038116455,"79":0.022020187228918076,"80":0.09646965563297272,"81":0.1449054628610611,"82":0.12186873704195023,"83":0.21298907697200775,"84":0.10096613317728043,"85":0.2681503891944885,"86":0.22752487659454346,"87":0.3232446014881134,"88":-0.023333465680480003,"89":-0.17151013016700745,"90":0.06158815324306488,"91":0.11491895467042923,"92":-0.0053774635307490826,"93":0.13942267000675201,"94":0.17089831829071045,"95":0.050775956362485886,"96":0.21643565595149994,"97":0.08950868993997574,"98":-0.039087358862161636,"99":0.024843493476510048}},"25":{"bias":0.03977879136800766,"weights":{"0":0.17274120450019836,"1":0.042848002165555954,"2":-0.17949317395687103,"3":-0.022794008255004883,"4":-0.021132275462150574,"5":-0.10363570600748062,"6":0.0828825980424881,"7":-0.09334317594766617,"8":0.16090689599514008,"9":-0.0552341565489769,"10":-0.07190285623073578,"11":-0.1626202017068863,"12":0.16840702295303345,"13":-0.06406161934137344,"14":-0.16471193730831146,"15":-0.18546253442764282,"16":0.1262834072113037,"17":0.18715082108974457,"18":-0.19681495428085327,"19":0.14453259110450745,"20":-0.1040896475315094,"21":-0.049010563641786575,"22":-0.15616776049137115,"23":-0.23352158069610596,"24":-0.31562286615371704,"25":-0.2248254418373108,"26":-0.1376751810312271,"27":-0.18276041746139526,"28":-0.185531347990036,"29":-0.19733618199825287,"30":0.055038273334503174,"31":-0.15153463184833527,"32":-0.0006800509872846305,"33":-0.27303847670555115,"34":-0.3537701964378357,"35":-0.21807131171226501,"36":-0.38034671545028687,"37":-0.16862094402313232,"38":-0.025031844154000282,"39":-0.13518834114074707,"40":-0.05896683782339096,"41":-0.023915644735097885,"42":0.30916956067085266,"43":0.20332923531532288,"44":0.014639977365732193,"45":0.06910986453294754,"46":0.07144400477409363,"47":-0.00045679748291149735,"48":0.12966175377368927,"49":-0.08900602906942368,"50":0.15669730305671692,"51":-0.1932995468378067,"52":-0.029870668426156044,"53":0.0364595465362072,"54":-0.06501129269599915,"55":0.0871480405330658,"56":0.1246463730931282,"57":-0.0922430008649826,"58":-0.20772685110569,"59":0.16733263432979584,"60":0.17100265622138977,"61":-0.12485513091087341,"62":-0.3609977960586548,"63":-0.18080370128154755,"64":-0.12908436357975006,"65":-0.0529080405831337,"66":-0.35065749287605286,"67":-0.2724580764770508,"68":-0.1816328912973404,"69":-0.10984458774328232,"70":0.1995326578617096,"71":-0.14611954987049103,"72":-0.0662131980061531,"73":-0.10980824381113052,"74":-0.3655312657356262,"75":-0.4077932834625244,"76":-0.4485378563404083,"77":-0.21162527799606323,"78":-0.3927321434020996,"79":-0.006730038672685623,"80":0.07108822464942932,"81":0.02890603430569172,"82":-0.26617977023124695,"83":0.004556629806756973,"84":0.012869058176875114,"85":-0.11118392646312714,"86":-0.15046660602092743,"87":-0.002957722172141075,"88":-0.19440720975399017,"89":-0.148518905043602,"90":0.14040814340114594,"91":0.13863103091716766,"92":-0.1896834373474121,"93":-0.0731251984834671,"94":-0.11744046956300735,"95":-0.05185448378324509,"96":0.12747260928153992,"97":0.08681321144104004,"98":-0.06170818954706192,"99":-0.01208558864891529}},"26":{"bias":0.1561681032180786,"weights":{"0":0.12670962512493134,"1":0.05317206680774689,"2":0.19023945927619934,"3":-0.001977256964892149,"4":0.006466675084084272,"5":-0.13945847749710083,"6":0.17114660143852234,"7":-0.02855604514479637,"8":-0.16545237600803375,"9":-0.14156000316143036,"10":0.04565809667110443,"11":-0.11485205590724945,"12":0.1963452696800232,"13":0.1560816764831543,"14":-0.1829918771982193,"15":0.16379764676094055,"16":0.002281896071508527,"17":-0.17636564373970032,"18":0.10145114362239838,"19":-0.14824898540973663,"20":-0.021047595888376236,"21":0.19543372094631195,"22":-0.46730947494506836,"23":-0.20155973732471466,"24":-0.2043851912021637,"25":-0.11250434070825577,"26":-0.7101781368255615,"27":-0.2759458124637604,"28":0.012561512179672718,"29":-0.02983713522553444,"30":-0.1526525616645813,"31":0.1264428198337555,"32":-0.056616172194480896,"33":-0.11930068582296371,"34":0.3846008777618408,"35":0.2844511866569519,"36":0.009454158134758472,"37":-0.046984028071165085,"38":0.028463637456297874,"39":-0.0572834275662899,"40":0.1757589727640152,"41":-0.17619815468788147,"42":0.05766778066754341,"43":-0.13523010909557343,"44":0.08058518916368484,"45":-0.038856390863657,"46":0.12346843630075455,"47":-0.25143858790397644,"48":-0.09088174998760223,"49":0.005532687529921532,"50":0.03778090700507164,"51":0.24304182827472687,"52":0.14885395765304565,"53":-0.17854411900043488,"54":-0.09657790511846542,"55":-0.10759282112121582,"56":-0.08008156716823578,"57":0.4224760830402374,"58":-0.021055515855550766,"59":0.0027051237411797047,"60":0.09904944896697998,"61":0.13205558061599731,"62":-0.10766317695379257,"63":-0.18896937370300293,"64":-0.007429077289998531,"65":0.08931856602430344,"66":0.27965617179870605,"67":0.18302620947360992,"68":0.341091513633728,"69":0.2696745693683624,"70":-0.08756653219461441,"71":0.23823171854019165,"72":0.18627989292144775,"73":-0.14056599140167236,"74":-0.07239557802677155,"75":-0.05207584798336029,"76":0.1632617563009262,"77":0.04656440019607544,"78":0.48839494585990906,"79":0.010342413559556007,"80":0.18983954191207886,"81":-0.07935728132724762,"82":-0.3379468321800232,"83":-0.46351227164268494,"84":-0.18796862661838531,"85":-0.378793329000473,"86":-0.2166033238172531,"87":-0.3465365767478943,"88":-0.06489540636539459,"89":0.0841485857963562,"90":-0.16843947768211365,"91":-0.08957625925540924,"92":-0.31903132796287537,"93":-0.09913945943117142,"94":0.028344618156552315,"95":-0.13914239406585693,"96":-0.27336519956588745,"97":-0.11600768566131592,"98":-0.04046739637851715,"99":0.09067810326814651}},"27":{"bias":0.0771002545952797,"weights":{"0":0.18944120407104492,"1":0.08561684936285019,"2":-0.026599327102303505,"3":0.17312783002853394,"4":-0.0479125902056694,"5":-0.10414405167102814,"6":-0.09449174255132675,"7":0.012518048286437988,"8":0.17209552228450775,"9":-0.14888152480125427,"10":-0.17687559127807617,"11":0.11648069322109222,"12":-0.1989136040210724,"13":-0.07416859269142151,"14":-0.041536279022693634,"15":-0.07211486250162125,"16":0.09101153165102005,"17":-0.11176029592752457,"18":-0.03963286802172661,"19":-0.07242698222398758,"20":-0.03604523837566376,"21":-0.060754213482141495,"22":0.26122286915779114,"23":0.08685896545648575,"24":0.340957909822464,"25":0.2734137773513794,"26":0.1872941553592682,"27":0.23775894939899445,"28":0.07267990708351135,"29":-0.1751532405614853,"30":0.17513515055179596,"31":0.03754916787147522,"32":0.22335554659366608,"33":0.2596879005432129,"34":0.17855378985404968,"35":0.1062433123588562,"36":0.2040599137544632,"37":0.1891588568687439,"38":-0.10905721038579941,"39":0.06174899637699127,"40":0.13559988141059875,"41":-0.16993047297000885,"42":0.09214789420366287,"43":0.07657600194215775,"44":-0.07713495939970016,"45":-0.25676921010017395,"46":-0.20642311871051788,"47":-0.21413739025592804,"48":-0.17380265891551971,"49":0.11985492706298828,"50":-0.1311224400997162,"51":0.018387680873274803,"52":-0.24135567247867584,"53":-0.06749299168586731,"54":-0.18377414345741272,"55":0.15355725586414337,"56":0.12556283175945282,"57":-0.09195470064878464,"58":0.08306320756673813,"59":0.0432518795132637,"60":-0.11471716314554214,"61":0.08264876157045364,"62":0.09208377450704575,"63":-0.06538589298725128,"64":0.24096672236919403,"65":0.2440348118543625,"66":0.22053483128547668,"67":0.06822463870048523,"68":0.009962949901819229,"69":-0.1661897599697113,"70":-0.10659992694854736,"71":0.13941049575805664,"72":0.03648970276117325,"73":0.15766577422618866,"74":0.2908092141151428,"75":-0.0013099287170916796,"76":0.007360324263572693,"77":-0.06841688603162766,"78":0.15572607517242432,"79":0.06486408412456512,"80":0.17438870668411255,"81":-0.012610604986548424,"82":0.018102750182151794,"83":0.21530432999134064,"84":-0.025175489485263824,"85":0.10851336270570755,"86":0.13166946172714233,"87":0.26433926820755005,"88":-0.08084547519683838,"89":0.11998599767684937,"90":-0.14585129916667938,"91":0.009233151562511921,"92":-0.13978618383407593,"93":-0.08168350160121918,"94":0.006180545315146446,"95":0.18184401094913483,"96":0.17263048887252808,"97":0.08747517317533493,"98":-0.07962000370025635,"99":0.138538658618927}},"28":{"bias":-0.36608392000198364,"weights":{"0":0.054388854652643204,"1":0.10336349159479141,"2":-0.1735672652721405,"3":-0.109235480427742,"4":-0.16440673172473907,"5":-0.07543252408504486,"6":0.06232473626732826,"7":0.05354584380984306,"8":0.10131074488162994,"9":-0.14043064415454865,"10":-0.10514513403177261,"11":-0.026154501363635063,"12":-0.006047787144780159,"13":0.02523181401193142,"14":-0.05961771681904793,"15":0.17363300919532776,"16":0.011144731193780899,"17":0.10135873407125473,"18":-0.012130867689847946,"19":0.1900523602962494,"20":0.06911853700876236,"21":0.11588461697101593,"22":0.5264390707015991,"23":0.021804969757795334,"24":0.037853457033634186,"25":0.2684592008590698,"26":0.5350530743598938,"27":0.28112900257110596,"28":-0.016334490850567818,"29":0.07735520601272583,"30":-0.055171459913253784,"31":0.0896553099155426,"32":0.18622465431690216,"33":-0.07895707339048386,"34":-0.4896281659603119,"35":-0.035364896059036255,"36":0.32001805305480957,"37":0.24965523183345795,"38":0.06887944787740707,"39":-0.16375133395195007,"40":-0.1065448671579361,"41":0.06902257353067398,"42":-0.09123189002275467,"43":0.03154304251074791,"44":0.04954831674695015,"45":-0.05205851420760155,"46":0.07398184388875961,"47":0.1647530496120453,"48":-0.14350320398807526,"49":-0.10589967668056488,"50":-0.06713823974132538,"51":-0.21177539229393005,"52":-0.14518947899341583,"53":-0.05332289636135101,"54":0.14619064331054688,"55":-0.20173189043998718,"56":0.17142906785011292,"57":-0.25681522488594055,"58":0.06680264323949814,"59":-0.09108111262321472,"60":0.1914546638727188,"61":0.024288568645715714,"62":-0.056130196899175644,"63":-0.09258740395307541,"64":0.22858183085918427,"65":-0.23331788182258606,"66":-0.24476173520088196,"67":0.11716150492429733,"68":-0.26707151532173157,"69":0.02359302155673504,"70":0.10735949873924255,"71":0.09411302208900452,"72":0.12705475091934204,"73":0.13486994802951813,"74":-0.12646198272705078,"75":-0.011580381542444229,"76":-0.11354281008243561,"77":0.16026006639003754,"78":-0.4809606969356537,"79":0.008526021614670753,"80":-0.07607914507389069,"81":-0.026795679703354836,"82":0.46913906931877136,"83":0.22807936370372772,"84":0.5108082890510559,"85":0.20893360674381256,"86":0.4009286165237427,"87":0.0818619504570961,"88":0.11202239990234375,"89":0.17456288635730743,"90":-0.11438597738742828,"91":0.05312765762209892,"92":0.13795387744903564,"93":-0.009145473130047321,"94":0.27433404326438904,"95":0.18336628377437592,"96":-0.003779233666136861,"97":0.07334615290164948,"98":-0.1591750830411911,"99":-0.1546192318201065}},"29":{"bias":-0.27469152212142944,"weights":{"0":-0.13697046041488647,"1":0.04076226428151131,"2":-0.14210966229438782,"3":0.04628486931324005,"4":-0.09032478928565979,"5":0.0958256870508194,"6":-0.16984635591506958,"7":-0.05046958848834038,"8":0.016278637573122978,"9":-0.06282401829957962,"10":-0.056163664907217026,"11":-0.11565693467855453,"12":0.12026367336511612,"13":0.08152137696743011,"14":0.03414329141378403,"15":0.17251765727996826,"16":-0.19675038754940033,"17":-0.16454648971557617,"18":-0.1617678701877594,"19":-0.008692823350429535,"20":0.11002424359321594,"21":0.17283610999584198,"22":0.3586712181568146,"23":0.33084484934806824,"24":0.021655011922121048,"25":0.06637251377105713,"26":0.41888460516929626,"27":0.2581084370613098,"28":0.13359610736370087,"29":0.08629556000232697,"30":0.04543492570519447,"31":-0.058419499546289444,"32":0.05474896356463432,"33":0.2496165931224823,"34":0.06556972861289978,"35":0.1155468076467514,"36":0.28381773829460144,"37":0.2500418424606323,"38":0.04664931446313858,"39":0.051893237978219986,"40":0.025440918281674385,"41":-0.07781101018190384,"42":-0.09794925898313522,"43":0.006337224971503019,"44":-0.05747569352388382,"45":-0.06462141871452332,"46":-0.1815038025379181,"47":-0.024034464731812477,"48":0.06553420424461365,"49":0.056982703506946564,"50":0.0035978020168840885,"51":-0.08861605823040009,"52":-0.11298777908086777,"53":-0.1928396373987198,"54":0.080097995698452,"55":0.004201190080493689,"56":0.08164843171834946,"57":-0.2380685806274414,"58":-0.046770837157964706,"59":-0.24463005363941193,"60":-0.1365879327058792,"61":0.05916909873485565,"62":0.22135885059833527,"63":-0.039755478501319885,"64":0.2285192310810089,"65":-0.11686769872903824,"66":-0.10424641519784927,"67":0.10629752278327942,"68":0.18495632708072662,"69":-0.07493468374013901,"70":0.02094588801264763,"71":-0.2077702134847641,"72":0.0005242453771643341,"73":-0.059406016021966934,"74":0.19223523139953613,"75":-0.04615206643939018,"76":-0.04012883082032204,"77":-0.02008138969540596,"78":0.009918914176523685,"79":0.10681533068418503,"80":-0.05375002324581146,"81":0.10423385351896286,"82":0.23638547956943512,"83":0.33139294385910034,"84":0.09062620997428894,"85":0.20809325575828552,"86":0.3468775749206543,"87":0.2208147943019867,"88":-0.01952129229903221,"89":-0.05086584761738777,"90":-0.055168237537145615,"91":0.2231655716896057,"92":-0.052819475531578064,"93":0.06691624969244003,"94":-0.04491989687085152,"95":0.08713816106319427,"96":0.035364024341106415,"97":0.1443711519241333,"98":0.19084595143795013,"99":0.05370461940765381}},"30":{"bias":0.062384460121393204,"weights":{"0":-0.048596370965242386,"1":-0.032582636922597885,"2":0.16224417090415955,"3":-0.0827908143401146,"4":-0.15409351885318756,"5":0.10057500749826431,"6":0.19458530843257904,"7":0.1592751145362854,"8":0.04311763867735863,"9":-0.14338113367557526,"10":0.07822570204734802,"11":-0.07173039019107819,"12":-0.009928690269589424,"13":-0.11205258965492249,"14":0.1308520883321762,"15":-0.1992022544145584,"16":0.19708266854286194,"17":-0.09595495462417603,"18":-0.10296659171581268,"19":-0.12054351717233658,"20":0.04441143944859505,"21":0.17635589838027954,"22":-0.03278398886322975,"23":-0.13538619875907898,"24":0.04712962359189987,"25":-0.18985021114349365,"26":-0.2897021174430847,"27":-0.27588552236557007,"28":0.10627340525388718,"29":-0.04245774820446968,"30":0.18092601001262665,"31":-0.07506018877029419,"32":-0.14829081296920776,"33":-0.1727016270160675,"34":0.20788101851940155,"35":0.17690755426883698,"36":-0.025616519153118134,"37":0.005144465249031782,"38":-0.055622536689043045,"39":0.19781693816184998,"40":0.15061606466770172,"41":-0.024766938760876656,"42":-0.24496690928936005,"43":-0.16341668367385864,"44":0.11228834092617035,"45":0.10786807537078857,"46":-0.14097890257835388,"47":-0.2403286248445511,"48":-0.06371359527111053,"49":-0.13760946691036224,"50":-0.18319746851921082,"51":-0.057961344718933105,"52":-0.046652257442474365,"53":-0.007154996506869793,"54":0.004523362033069134,"55":-0.12273553758859634,"56":-0.04455681890249252,"57":0.1576390117406845,"58":-0.0733751505613327,"59":0.027451394125819206,"60":0.17300328612327576,"61":0.010979071259498596,"62":0.0011885152198374271,"63":0.13161471486091614,"64":-0.0002703983918763697,"65":0.008598556742072105,"66":0.27920088171958923,"67":-0.030798176303505898,"68":0.039355628192424774,"69":0.055478982627391815,"70":-0.03404627740383148,"71":0.03435530140995979,"72":0.15033578872680664,"73":0.06440471112728119,"74":0.11755945533514023,"75":0.17821276187896729,"76":-0.14662276208400726,"77":0.03676234558224678,"78":-0.04961775988340378,"79":-0.0771646574139595,"80":-0.14265680313110352,"81":-0.18649275600910187,"82":-0.10166981816291809,"83":-0.2760293483734131,"84":-0.10530951619148254,"85":-0.24152612686157227,"86":-0.21641170978546143,"87":-0.2809772193431854,"88":0.12294304370880127,"89":0.048005323857069016,"90":0.16918538510799408,"91":-0.10607684403657913,"92":-0.20848143100738525,"93":-0.04923266917467117,"94":0.08077315241098404,"95":-0.07386943697929382,"96":0.04727689176797867,"97":0.0992182046175003,"98":0.10483720898628235,"99":0.05465609207749367}},"31":{"bias":0.07085635513067245,"weights":{"0":0.16587337851524353,"1":-0.18075133860111237,"2":0.13841082155704498,"3":-0.1972353309392929,"4":-0.19078001379966736,"5":0.10839387029409409,"6":-0.06652817875146866,"7":-0.05513280630111694,"8":-0.1416952759027481,"9":-0.1586112231016159,"10":-0.06407683342695236,"11":-0.14059489965438843,"12":-0.06361742317676544,"13":0.0142161063849926,"14":0.03858482465147972,"15":-0.09244254976511002,"16":0.173546701669693,"17":-0.14611299335956573,"18":-0.06068119406700134,"19":-0.09462561458349228,"20":-0.02034337818622589,"21":0.1579558104276657,"22":0.07174614071846008,"23":0.28877753019332886,"24":0.1737157106399536,"25":0.07053312659263611,"26":0.3727836310863495,"27":0.04880297929048538,"28":-0.032175883650779724,"29":0.1849222183227539,"30":-0.16905945539474487,"31":0.13636137545108795,"32":0.12752097845077515,"33":-0.06807445734739304,"34":0.03587818145751953,"35":0.07929688692092896,"36":-0.0467904657125473,"37":-0.03817833960056305,"38":0.015293772332370281,"39":0.09736302495002747,"40":-0.15152278542518616,"41":-0.024355614557862282,"42":0.16497905552387238,"43":-0.06398750096559525,"44":0.007752690464258194,"45":0.11762890219688416,"46":-0.11293233931064606,"47":-0.10487351566553116,"48":-0.11151062697172165,"49":0.2056298702955246,"50":-0.151325523853302,"51":-0.022309528663754463,"52":-0.1706726849079132,"53":-0.07632169872522354,"54":-0.05388690531253815,"55":0.09257864207029343,"56":-0.14937728643417358,"57":-0.18617427349090576,"58":0.10324754565954208,"59":0.13727900385856628,"60":0.02406977117061615,"61":0.03733650594949722,"62":-0.16931073367595673,"63":0.22166675329208374,"64":0.13993492722511292,"65":-0.012570060789585114,"66":-0.08734076470136642,"67":-0.05340773984789848,"68":-0.15364916622638702,"69":0.04554162919521332,"70":0.13653022050857544,"71":-0.15213556587696075,"72":-0.14483711123466492,"73":0.07959958910942078,"74":0.15374985337257385,"75":-0.16217884421348572,"76":0.1715017706155777,"77":0.18418413400650024,"78":-0.1390659064054489,"79":0.0361914299428463,"80":0.1254650354385376,"81":0.0086208526045084,"82":0.34647783637046814,"83":0.04788282513618469,"84":0.157369926571846,"85":0.07282095402479172,"86":0.29968005418777466,"87":0.07155606895685196,"88":0.21366293728351593,"89":0.006227976176887751,"90":-0.08431423455476761,"91":0.18670368194580078,"92":0.09901407361030579,"93":0.2465488612651825,"94":0.018931174650788307,"95":-0.0720297321677208,"96":0.1366083025932312,"97":0.08133062720298767,"98":0.049381766468286514,"99":0.15394553542137146}},"32":{"bias":-0.0452890619635582,"weights":{"0":-0.056014031171798706,"1":0.1318901777267456,"2":0.008564420975744724,"3":0.053334470838308334,"4":-0.14165930449962616,"5":-0.06630829721689224,"6":-0.008372010663151741,"7":0.17732268571853638,"8":-0.1916491836309433,"9":-0.1792994886636734,"10":-0.19608016312122345,"11":-0.15816336870193481,"12":0.07164318114519119,"13":-0.17350395023822784,"14":0.015285775996744633,"15":0.05091957747936249,"16":0.14260274171829224,"17":0.002128325868397951,"18":-0.04150036349892616,"19":-0.09132562577724457,"20":0.07219427824020386,"21":-0.04475145414471626,"22":-0.20812298357486725,"23":0.21932320296764374,"24":-0.029954757541418076,"25":0.045278966426849365,"26":-0.053872816264629364,"27":0.14489531517028809,"28":-0.11380614340305328,"29":-0.13323532044887543,"30":0.09504818171262741,"31":-0.03461591526865959,"32":0.06937006115913391,"33":0.07142336666584015,"34":0.13090132176876068,"35":0.1566602885723114,"36":0.1132805198431015,"37":0.12781894207000732,"38":0.0015907387714833021,"39":0.14120222628116608,"40":-0.14220666885375977,"41":0.032952625304460526,"42":0.11544522643089294,"43":-0.10237565636634827,"44":-0.21651685237884521,"45":-0.1729450821876526,"46":0.12497603893280029,"47":-0.21557779610157013,"48":-0.18982405960559845,"49":-0.17968693375587463,"50":0.10119632631540298,"51":0.20306432247161865,"52":0.12910476326942444,"53":-0.09663751721382141,"54":-0.028570815920829773,"55":0.04614599421620369,"56":-0.14107534289360046,"57":0.10285130888223648,"58":-0.14405955374240875,"59":-0.06732472777366638,"60":-0.09654336422681808,"61":-0.11550280451774597,"62":-0.0665939524769783,"63":-0.04159785434603691,"64":-0.09444178640842438,"65":-0.07771002501249313,"66":0.1396818906068802,"67":-0.005455418024212122,"68":0.01912798546254635,"69":-0.1652321070432663,"70":-0.0008270273101516068,"71":-0.16136659681797028,"72":-0.13024936616420746,"73":-0.19147208333015442,"74":-0.07833527028560638,"75":-0.055670060217380524,"76":-0.12795792520046234,"77":-0.1358407437801361,"78":0.10648573189973831,"79":0.023706920444965363,"80":-0.04877026751637459,"81":0.18719330430030823,"82":0.10144559293985367,"83":-0.1905490905046463,"84":-0.08940061181783676,"85":-0.158250093460083,"86":-0.18023088574409485,"87":-0.011239055544137955,"88":-0.02801777981221676,"89":0.16109232604503632,"90":-0.08078642189502716,"91":-0.09950326383113861,"92":0.1767510324716568,"93":0.048254016786813736,"94":-0.16079193353652954,"95":0.12993447482585907,"96":-0.18822623789310455,"97":-0.1170351579785347,"98":0.18485122919082642,"99":0.01651250384747982}},"33":{"bias":0.16347189247608185,"weights":{"0":0.00592751894146204,"1":-0.11367269605398178,"2":0.036379605531692505,"3":-0.062265731394290924,"4":0.08785247802734375,"5":0.14344017207622528,"6":0.09182775020599365,"7":0.1028110533952713,"8":0.004928089678287506,"9":0.07411060482263565,"10":-0.1858852505683899,"11":0.08101747930049896,"12":-0.06459654122591019,"13":-0.16873815655708313,"14":0.10314999520778656,"15":-0.10289552062749863,"16":0.027188248932361603,"17":0.01938590034842491,"18":0.14810124039649963,"19":0.1363561451435089,"20":0.155032679438591,"21":0.07814817875623703,"22":-0.3294082283973694,"23":-0.16773216426372528,"24":-0.04820280894637108,"25":-0.26237010955810547,"26":-0.19913262128829956,"27":-0.2984914183616638,"28":-0.21063056588172913,"29":-0.11823178827762604,"30":0.12656372785568237,"31":-0.025031885132193565,"32":0.10441437363624573,"33":0.08735200762748718,"34":-0.05570297688245773,"35":0.04389780014753342,"36":-0.013413558714091778,"37":-0.1838512271642685,"38":-0.05062893405556679,"39":-0.13851657509803772,"40":-0.14107757806777954,"41":0.2088659107685089,"42":-0.04322754591703415,"43":0.15453843772411346,"44":0.14853507280349731,"45":-0.1628352850675583,"46":-0.12073397636413574,"47":0.034611936658620834,"48":0.1511756181716919,"49":0.18392017483711243,"50":-0.08597909659147263,"51":0.24214626848697662,"52":0.21445076167583466,"53":0.07404403388500214,"54":-0.14754465222358704,"55":0.05291648209095001,"56":-0.005137002561241388,"57":0.2724522054195404,"58":-0.14515143632888794,"59":0.1947007030248642,"60":0.19100235402584076,"61":-0.052221376448869705,"62":-0.024340514093637466,"63":-0.13614580035209656,"64":-0.20409604907035828,"65":0.1726134568452835,"66":0.17862200736999512,"67":-0.006817610934376717,"68":-0.07561925798654556,"69":-0.1077423095703125,"70":0.09771856665611267,"71":0.07434401661157608,"72":0.03762591630220413,"73":0.05197276175022125,"74":-0.20683170855045319,"75":-0.09437236934900284,"76":-0.15251652896404266,"77":-0.1716742366552353,"78":-0.06759019196033478,"79":-0.142954021692276,"80":0.03060348890721798,"81":0.08791561424732208,"82":-0.39696264266967773,"83":-0.3313967287540436,"84":-0.38645443320274353,"85":-0.0693214163184166,"86":-0.3287610709667206,"87":-0.16026777029037476,"88":0.06978612393140793,"89":-0.030927060171961784,"90":0.14606031775474548,"91":-0.16148608922958374,"92":-0.14251762628555298,"93":0.030068008229136467,"94":-0.19555558264255524,"95":-0.20794236660003662,"96":-0.07299492508172989,"97":0.003360477974638343,"98":-0.012867993675172329,"99":0.07378126680850983}},"34":{"bias":0.028420934453606606,"weights":{"0":0.19649718701839447,"1":-0.17011302709579468,"2":0.006822989322245121,"3":0.1668960303068161,"4":-0.11516903340816498,"5":-0.17868199944496155,"6":-0.05069215968251228,"7":-0.17343837022781372,"8":-0.05433923378586769,"9":0.16088861227035522,"10":0.1590108573436737,"11":-0.08193853497505188,"12":-0.15934960544109344,"13":-0.046725112944841385,"14":0.08825895190238953,"15":0.11887665092945099,"16":-0.1671827733516693,"17":-0.023731615394353867,"18":0.016204461455345154,"19":-0.07716250419616699,"20":-0.0216861292719841,"21":0.06417674571275711,"22":-0.09032867848873138,"23":-0.25670483708381653,"24":-0.28575071692466736,"25":-0.3225928544998169,"26":-0.42898714542388916,"27":-0.10355843603610992,"28":-0.12547780573368073,"29":-0.14343342185020447,"30":0.08271650969982147,"31":-0.02699543908238411,"32":-0.021981818601489067,"33":-0.23951105773448944,"34":-0.24023421108722687,"35":-0.305305540561676,"36":-0.11376024782657623,"37":0.12091095000505447,"38":-0.14166367053985596,"39":0.049039848148822784,"40":-0.05137953534722328,"41":-0.0367853008210659,"42":0.28233054280281067,"43":0.13030336797237396,"44":0.06634142249822617,"45":0.059022482484579086,"46":0.18189100921154022,"47":-0.1564117670059204,"48":0.31232184171676636,"49":-0.13410837948322296,"50":0.10019040107727051,"51":0.10166530311107635,"52":0.1911497712135315,"53":0.11980533599853516,"54":0.04556615278124809,"55":0.02264942228794098,"56":-0.11129537224769592,"57":0.15245527029037476,"58":-0.0684957206249237,"59":-0.09059084951877594,"60":-0.11465592682361603,"61":0.02526397630572319,"62":-0.026628402993083,"63":-0.07622972130775452,"64":-0.24213306605815887,"65":-0.2443162351846695,"66":-0.29815441370010376,"67":-0.3171003460884094,"68":-0.04106378182768822,"69":-0.02922956645488739,"70":-0.13180005550384521,"71":0.0332154706120491,"72":-0.3896685540676117,"73":-0.25165411829948425,"74":-0.13517770171165466,"75":-0.21017886698246002,"76":-0.19508907198905945,"77":-0.17673411965370178,"78":-0.2221631407737732,"79":-0.006196612026542425,"80":-0.18121135234832764,"81":-0.07652007043361664,"82":-0.06809524446725845,"83":-0.33667653799057007,"84":-0.397935688495636,"85":-0.06648990511894226,"86":-0.014150859788060188,"87":-0.07314188778400421,"88":0.038703553378582,"89":-0.049246568232774734,"90":0.19687160849571228,"91":0.09644686430692673,"92":-0.25311994552612305,"93":-0.0860007181763649,"94":-0.2242356538772583,"95":-0.0474148727953434,"96":0.06864717602729797,"97":0.169292151927948,"98":-0.16277055442333221,"99":-0.12030734866857529}},"35":{"bias":0.02196202427148819,"weights":{"0":-0.10032159090042114,"1":0.0502764917910099,"2":-0.08092237263917923,"3":0.061941005289554596,"4":0.05626729875802994,"5":-0.09018083661794662,"6":0.10033878684043884,"7":-0.12436181306838989,"8":0.18987500667572021,"9":-0.06177671626210213,"10":0.011862714774906635,"11":0.1538192480802536,"12":-0.12930572032928467,"13":-0.07449722290039062,"14":0.037102289497852325,"15":0.014021623879671097,"16":0.0009631378343328834,"17":-0.1677841693162918,"18":0.12140782922506332,"19":0.19387084245681763,"20":0.19256745278835297,"21":-0.1140298992395401,"22":-0.0387314148247242,"23":-0.015025926753878593,"24":0.040237803012132645,"25":0.00010140064114239067,"26":0.1974542737007141,"27":0.0001010843479889445,"28":0.20196685194969177,"29":-0.1358393430709839,"30":-0.004298772197216749,"31":0.17847353219985962,"32":0.13496460020542145,"33":-0.05955406278371811,"34":0.08601229637861252,"35":0.1597721427679062,"36":0.05693124234676361,"37":-0.0002259053580928594,"38":-0.11521408706903458,"39":-0.09178879112005234,"40":-0.04701000824570656,"41":0.0686810165643692,"42":-0.09167299419641495,"43":0.0012324870331212878,"44":-0.0740271583199501,"45":-0.1935267299413681,"46":0.015583282336592674,"47":0.1597599983215332,"48":-0.008784150704741478,"49":-0.03439122810959816,"50":0.056813180446624756,"51":0.1480228304862976,"52":-0.041665688157081604,"53":-0.07117067277431488,"54":-0.18148492276668549,"55":-0.03158468380570412,"56":0.016065675765275955,"57":-0.05537807196378708,"58":0.08206523209810257,"59":0.06414040923118591,"60":-0.10387613624334335,"61":-0.18511053919792175,"62":0.20395199954509735,"63":0.06553179025650024,"64":-0.021197427064180374,"65":0.16724078357219696,"66":-0.0054775746539235115,"67":-0.08959808945655823,"68":-0.03227560967206955,"69":0.0029837884940207005,"70":-0.15575627982616425,"71":0.13238780200481415,"72":-0.1561027616262436,"73":0.21805410087108612,"74":0.06796344369649887,"75":-0.008551375940442085,"76":0.18610027432441711,"77":0.175155371427536,"78":0.1114867553114891,"79":-0.08311134576797485,"80":0.1709968000650406,"81":-0.18675105273723602,"82":0.16599315404891968,"83":-0.14593766629695892,"84":0.24417588114738464,"85":0.1366947442293167,"86":-0.04967140778899193,"87":0.1249421089887619,"88":0.16152572631835938,"89":-0.17897117137908936,"90":0.034523606300354004,"91":0.054820239543914795,"92":-0.13126765191555023,"93":-0.07763946056365967,"94":0.16745373606681824,"95":-0.029435845091938972,"96":0.12686678767204285,"97":-0.1147235557436943,"98":0.11097805202007294,"99":-0.023117713630199432}},"36":{"bias":-0.03309919312596321,"weights":{"0":-0.10038254410028458,"1":-0.19718153774738312,"2":-0.19803711771965027,"3":-0.07091899961233139,"4":0.1986483484506607,"5":0.1376645565032959,"6":-0.10836278647184372,"7":0.1979544758796692,"8":0.12850570678710938,"9":-0.13256056606769562,"10":0.005323554389178753,"11":-0.14090479910373688,"12":0.0396573580801487,"13":0.09435409307479858,"14":0.04328906536102295,"15":-0.027324263006448746,"16":0.13429860770702362,"17":-0.08687201142311096,"18":0.012222902849316597,"19":0.11750729382038116,"20":-0.19851751625537872,"21":-0.05771322920918465,"22":0.15636101365089417,"23":-0.07725174725055695,"24":-0.1743883490562439,"25":-0.008482054807245731,"26":0.345554918050766,"27":0.23913632333278656,"28":-0.014068360440433025,"29":-0.06562197953462601,"30":0.16564373672008514,"31":0.1652148813009262,"32":-0.14209510385990143,"33":0.048251911997795105,"34":-0.21188659965991974,"35":0.04730302840471268,"36":0.11692314594984055,"37":-0.059357527643442154,"38":0.15292485058307648,"39":-0.09498825669288635,"40":-0.08624088019132614,"41":0.1936810314655304,"42":0.2872508466243744,"43":-0.11526007205247879,"44":0.12605376541614532,"45":0.10757613927125931,"46":0.014692414551973343,"47":0.1148679330945015,"48":0.21340425312519073,"49":-0.1376839131116867,"50":-0.09484540671110153,"51":0.11832907050848007,"52":0.1033262386918068,"53":0.1343170553445816,"54":0.22168496251106262,"55":-0.0926123782992363,"56":-0.10804323107004166,"57":-0.2882749140262604,"58":-0.1836172640323639,"59":0.022647004574537277,"60":0.030489230528473854,"61":-0.09836189448833466,"62":-0.012290027923882008,"63":-0.1654258668422699,"64":0.1199173554778099,"65":-0.10739068686962128,"66":-0.16858187317848206,"67":-0.24552389979362488,"68":-0.16475115716457367,"69":-0.11046089977025986,"70":0.114145927131176,"71":0.1382269412279129,"72":-0.08066786080598831,"73":0.10901867598295212,"74":-0.0022305380553007126,"75":-0.05376708135008812,"76":-0.0458739697933197,"77":-0.10626338422298431,"78":-0.17759908735752106,"79":-0.20585830509662628,"80":0.1597355157136917,"81":0.09217517822980881,"82":-0.10822158306837082,"83":0.18831880390644073,"84":0.24650681018829346,"85":0.17374728620052338,"86":0.2519385814666748,"87":-0.03998911380767822,"88":0.11444957554340363,"89":0.17033272981643677,"90":0.0671396479010582,"91":-0.10282863676548004,"92":0.11265739798545837,"93":-0.11676615476608276,"94":-0.03783624619245529,"95":0.025622466579079628,"96":-0.03367585688829422,"97":0.021562054753303528,"98":0.08946903049945831,"99":-0.0030040894635021687}},"37":{"bias":0.2951875627040863,"weights":{"0":-0.044591791927814484,"1":-0.00681354571133852,"2":-0.03887716680765152,"3":0.025082750245928764,"4":0.19986285269260406,"5":-0.048349376767873764,"6":-0.06844377517700195,"7":-0.1828458309173584,"8":0.1661689132452011,"9":0.0499127022922039,"10":-0.1744583398103714,"11":0.19193975627422333,"12":0.06815878301858902,"13":0.08200640231370926,"14":0.11049745976924896,"15":0.13250258564949036,"16":0.11445640027523041,"17":0.003998687490820885,"18":0.08944664150476456,"19":-0.005034390836954117,"20":-0.19158640503883362,"21":-0.13104966282844543,"22":-0.5228081345558167,"23":-0.163731649518013,"24":-0.08028759062290192,"25":-0.19069311022758484,"26":-0.5094331502914429,"27":-0.1687960922718048,"28":-0.11896619945764542,"29":0.028806475922465324,"30":-0.0972120389342308,"31":0.13526928424835205,"32":-0.036800675094127655,"33":-0.2305149883031845,"34":0.2665356993675232,"35":0.10410839319229126,"36":-0.15725934505462646,"37":-0.08984800428152084,"38":0.09574801474809647,"39":-0.17827101051807404,"40":-0.00745693314820528,"41":0.019131239503622055,"42":-0.12653173506259918,"43":0.08599060773849487,"44":0.1465558111667633,"45":-0.15631598234176636,"46":0.1483628898859024,"47":0.004217404406517744,"48":-0.09369970113039017,"49":-0.019755536690354347,"50":0.12633492052555084,"51":0.09172213822603226,"52":0.2115202248096466,"53":0.10716577619314194,"54":-0.04767164960503578,"55":-0.059406593441963196,"56":0.002931232564151287,"57":0.23740406334400177,"58":-0.10529954731464386,"59":0.09215252101421356,"60":0.14646002650260925,"61":-0.07371195405721664,"62":0.11694900691509247,"63":-0.18113049864768982,"64":0.08049891144037247,"65":-0.031314074993133545,"66":-0.07644601166248322,"67":-0.019155191257596016,"68":0.09569031745195389,"69":0.03731619194149971,"70":0.18251270055770874,"71":0.2282051146030426,"72":-0.05968711897730827,"73":-0.12635861337184906,"74":-0.20009613037109375,"75":0.07521981745958328,"76":-0.003976104781031609,"77":-0.14007331430912018,"78":0.08042144775390625,"79":-0.0006502378964796662,"80":0.1220654547214508,"81":-0.13681088387966156,"82":-0.19101229310035706,"83":-0.45128241181373596,"84":-0.22476240992546082,"85":-0.3472520709037781,"86":-0.2587890625,"87":-0.2501724362373352,"88":0.011698925867676735,"89":-0.0864744484424591,"90":0.14353495836257935,"91":-0.04363425076007843,"92":-0.24247919023036957,"93":-0.3049289584159851,"94":0.06767402589321136,"95":-0.1791674643754959,"96":-0.30541500449180603,"97":-0.10428250581026077,"98":-0.1037525162100792,"99":0.06418951600790024}},"38":{"bias":0.11513885110616684,"weights":{"0":0.05492173507809639,"1":0.03860482573509216,"2":0.034669142216444016,"3":0.02993766777217388,"4":-0.1299726516008377,"5":0.13681788742542267,"6":-0.01731186918914318,"7":0.04970264062285423,"8":-0.12539878487586975,"9":-0.1049489751458168,"10":-0.030237097293138504,"11":0.027757994830608368,"12":-0.14109930396080017,"13":-0.07927185297012329,"14":0.13725019991397858,"15":-0.16971752047538757,"16":-0.07310328632593155,"17":-0.09002356231212616,"18":0.03373176231980324,"19":0.15313240885734558,"20":0.1535647213459015,"21":0.08095139265060425,"22":-0.24391335248947144,"23":-0.2657942771911621,"24":0.03290519490838051,"25":-0.07539130747318268,"26":-0.36595919728279114,"27":-0.23081189393997192,"28":-0.27013882994651794,"29":-0.14653436839580536,"30":0.10652922093868256,"31":-0.13751113414764404,"32":0.026171933859586716,"33":0.02300502173602581,"34":0.03885326161980629,"35":0.12778592109680176,"36":-0.3011348247528076,