{"model":{"sizes":[400,200,3],"layers":[{"0":{},"1":{},"2":{},"3":{},"4":{},"5":{},"6":{},"7":{},"8":{},"9":{},"10":{},"11":{},"12":{},"13":{},"14":{},"15":{},"16":{},"17":{},"18":{},"19":{},"20":{},"21":{},"22":{},"23":{},"24":{},"25":{},"26":{},"27":{},"28":{},"29":{},"30":{},"31":{},"32":{},"33":{},"34":{},"35":{},"36":{},"37":{},"38":{},"39":{},"40":{},"41":{},"42":{},"43":{},"44":{},"45":{},"46":{},"47":{},"48":{},"49":{},"50":{},"51":{},"52":{},"53":{},"54":{},"55":{},"56":{},"57":{},"58":{},"59":{},"60":{},"61":{},"62":{},"63":{},"64":{},"65":{},"66":{},"67":{},"68":{},"69":{},"70":{},"71":{},"72":{},"73":{},"74":{},"75":{},"76":{},"77":{},"78":{},"79":{},"80":{},"81":{},"82":{},"83":{},"84":{},"85":{},"86":{},"87":{},"88":{},"89":{},"90":{},"91":{},"92":{},"93":{},"94":{},"95":{},"96":{},"97":{},"98":{},"99":{},"100":{},"101":{},"102":{},"103":{},"104":{},"105":{},"106":{},"107":{},"108":{},"109":{},"110":{},"111":{},"112":{},"113":{},"114":{},"115":{},"116":{},"117":{},"118":{},"119":{},"120":{},"121":{},"122":{},"123":{},"124":{},"125":{},"126":{},"127":{},"128":{},"129":{},"130":{},"131":{},"132":{},"133":{},"134":{},"135":{},"136":{},"137":{},"138":{},"139":{},"140":{},"141":{},"142":{},"143":{},"144":{},"145":{},"146":{},"147":{},"148":{},"149":{},"150":{},"151":{},"152":{},"153":{},"154":{},"155":{},"156":{},"157":{},"158":{},"159":{},"160":{},"161":{},"162":{},"163":{},"164":{},"165":{},"166":{},"167":{},"168":{},"169":{},"170":{},"171":{},"172":{},"173":{},"174":{},"175":{},"176":{},"177":{},"178":{},"179":{},"180":{},"181":{},"182":{},"183":{},"184":{},"185":{},"186":{},"187":{},"188":{},"189":{},"190":{},"191":{},"192":{},"193":{},"194":{},"195":{},"196":{},"197":{},"198":{},"199":{},"200":{},"201":{},"202":{},"203":{},"204":{},"205":{},"206":{},"207":{},"208":{},"209":{},"210":{},"211":{},"212":{},"213":{},"214":{},"215":{},"216":{},"217":{},"218":{},"219":{},"220":{},"221":{},"222":{},"223":{},"224":{},"225":{},"226":{},"227":{},"228":{},"229":{},"230":{},"231":{},"232":{},"233":{},"234":{},"235":{},"236":{},"237":{},"238":{},"239":{},"240":{},"241":{},"242":{},"243":{},"244":{},"245":{},"246":{},"247":{},"248":{},"249":{},"250":{},"251":{},"252":{},"253":{},"254":{},"255":{},"256":{},"257":{},"258":{},"259":{},"260":{},"261":{},"262":{},"263":{},"264":{},"265":{},"266":{},"267":{},"268":{},"269":{},"270":{},"271":{},"272":{},"273":{},"274":{},"275":{},"276":{},"277":{},"278":{},"279":{},"280":{},"281":{},"282":{},"283":{},"284":{},"285":{},"286":{},"287":{},"288":{},"289":{},"290":{},"291":{},"292":{},"293":{},"294":{},"295":{},"296":{},"297":{},"298":{},"299":{},"300":{},"301":{},"302":{},"303":{},"304":{},"305":{},"306":{},"307":{},"308":{},"309":{},"310":{},"311":{},"312":{},"313":{},"314":{},"315":{},"316":{},"317":{},"318":{},"319":{},"320":{},"321":{},"322":{},"323":{},"324":{},"325":{},"326":{},"327":{},"328":{},"329":{},"330":{},"331":{},"332":{},"333":{},"334":{},"335":{},"336":{},"337":{},"338":{},"339":{},"340":{},"341":{},"342":{},"343":{},"344":{},"345":{},"346":{},"347":{},"348":{},"349":{},"350":{},"351":{},"352":{},"353":{},"354":{},"355":{},"356":{},"357":{},"358":{},"359":{},"360":{},"361":{},"362":{},"363":{},"364":{},"365":{},"366":{},"367":{},"368":{},"369":{},"370":{},"371":{},"372":{},"373":{},"374":{},"375":{},"376":{},"377":{},"378":{},"379":{},"380":{},"381":{},"382":{},"383":{},"384":{},"385":{},"386":{},"387":{},"388":{},"389":{},"390":{},"391":{},"392":{},"393":{},"394":{},"395":{},"396":{},"397":{},"398":{},"399":{}},{"0":{"bias":-0.06408058106899261,"weights":{"0":0.026321640238165855,"1":-0.14056436717510223,"2":-0.19345644116401672,"3":0.03186150640249252,"4":-0.05529706925153732,"5":0.13569365441799164,"6":0.1813356578350067,"7":-0.08124038577079773,"8":0.07363499701023102,"9":0.08535344898700714,"10":-0.19458231329917908,"11":-0.1442420333623886,"12":0.16561919450759888,"13":-0.11359456181526184,"14":0.030770815908908844,"15":-0.07412828505039215,"16":0.041862040758132935,"17":-0.03442994877696037,"18":-0.04955575242638588,"19":0.1593857854604721,"20":-0.030126864090561867,"21":-0.182890385389328,"22":0.018429378047585487,"23":0.04818687587976456,"24":0.013272692449390888,"25":-0.17225967347621918,"26":-0.04337574169039726,"27":0.02885836362838745,"28":0.0717695951461792,"29":0.04483826085925102,"30":0.16717462241649628,"31":-0.05881065875291824,"32":0.12212657183408737,"33":0.019165487959980965,"34":-0.1987908035516739,"35":0.060506049543619156,"36":-0.1202535405755043,"37":-0.11864807456731796,"38":0.1493673026561737,"39":-0.043363116681575775,"40":0.14639636874198914,"41":0.006463347002863884,"42":0.08043646812438965,"43":-0.0785428136587143,"44":0.09677576273679733,"45":0.12418185919523239,"46":-0.03229445219039917,"47":-0.1750161498785019,"48":-0.0789613425731659,"49":-0.1082129031419754,"50":0.17807221412658691,"51":0.1389191597700119,"52":0.10234984755516052,"53":0.1277473419904709,"54":-0.18262696266174316,"55":-0.023783056065440178,"56":0.028542790561914444,"57":-0.11911951750516891,"58":-0.1481485664844513,"59":-0.019556211307644844,"60":-0.0037986848037689924,"61":0.12288671731948853,"62":-0.07571864128112793,"63":-0.18805429339408875,"64":-0.1760859191417694,"65":0.14659783244132996,"66":-0.044252317398786545,"67":-0.09833647310733795,"68":-0.04315526783466339,"69":-0.037339892238378525,"70":0.04008958116173744,"71":0.1173006221652031,"72":-0.192046657204628,"73":0.027461228892207146,"74":-0.15381558239459991,"75":0.04716267064213753,"76":0.189498633146286,"77":0.004831488709896803,"78":0.08895668387413025,"79":-0.012857996858656406,"80":0.11500143259763718,"81":-0.07218851894140244,"82":-0.13250510394573212,"83":0.103032685816288,"84":0.07101435959339142,"85":-0.1632033735513687,"86":0.05043228715658188,"87":-0.17580120265483856,"88":0.09128974378108978,"89":0.1787860095500946,"90":0.19955764710903168,"91":0.0599198080599308,"92":-0.020306244492530823,"93":-0.14647525548934937,"94":-0.1772870570421219,"95":-0.1068064272403717,"96":-0.07483554631471634,"97":0.022497011348605156,"98":0.04566224291920662,"99":-0.09215516597032547,"100":-0.029913488775491714,"101":0.131619393825531,"102":-0.17767535150051117,"103":-0.09942951053380966,"104":0.15810340642929077,"105":0.1563812643289566,"106":-0.1146249920129776,"107":0.09617884457111359,"108":-0.15923602879047394,"109":0.021545156836509705,"110":-0.011988412588834763,"111":0.11346226185560226,"112":0.1404818892478943,"113":-0.003710375400260091,"114":-0.04744747653603554,"115":-0.0455799326300621,"116":0.00036451886990107596,"117":-0.16370134055614471,"118":-0.01252489723265171,"119":0.07121871411800385,"120":0.05375922843813896,"121":0.19622217118740082,"122":-0.09367694705724716,"123":-0.014026157557964325,"124":-0.006688182707875967,"125":-0.17929339408874512,"126":-0.1703551560640335,"127":-0.03483057767152786,"128":0.09814617037773132,"129":-0.04252281039953232,"130":0.06537213176488876,"131":0.13897688686847687,"132":-0.08992323279380798,"133":-0.16696569323539734,"134":0.06424430757761002,"135":0.0003287652798462659,"136":-0.037668827921152115,"137":-0.03566892072558403,"138":0.19402670860290527,"139":0.10950526595115662,"140":0.17688527703285217,"141":0.09517666697502136,"142":-0.0179495420306921,"143":-0.12001697719097137,"144":-0.060917098075151443,"145":0.1178654283285141,"146":0.10301777720451355,"147":0.1799696385860443,"148":0.13022328913211823,"149":-0.06946413964033127,"150":0.016427751630544662,"151":0.03250649571418762,"152":0.19456163048744202,"153":0.08926655352115631,"154":-0.012957824394106865,"155":0.13341422379016876,"156":0.03633269667625427,"157":-0.19370518624782562,"158":-0.030685994774103165,"159":-0.08798246085643768,"160":-0.17066411674022675,"161":-0.19832803308963776,"162":-0.13340283930301666,"163":-0.15739446878433228,"164":-0.09158051013946533,"165":0.19206646084785461,"166":-0.1558408886194229,"167":-0.014568021520972252,"168":0.020437905564904213,"169":0.04852697253227234,"170":-0.08051181584596634,"171":0.08964747190475464,"172":0.015901001170277596,"173":0.19551418721675873,"174":0.04592503607273102,"175":0.1812625527381897,"176":0.033545102924108505,"177":-0.1021696999669075,"178":0.08135871589183807,"179":0.15925708413124084,"180":0.14998625218868256,"181":-0.12952107191085815,"182":0.10213719308376312,"183":-0.14290988445281982,"184":-0.07255630195140839,"185":-0.16240516304969788,"186":-0.1893773227930069,"187":-0.1795606166124344,"188":0.10295559465885162,"189":-0.014427960850298405,"190":-0.13671165704727173,"191":0.06163372844457626,"192":-0.14737112820148468,"193":0.11018618196249008,"194":0.16723419725894928,"195":-0.16025100648403168,"196":0.008950917050242424,"197":0.07103540003299713,"198":0.008823253214359283,"199":0.189728781580925,"200":0.08527124673128128,"201":0.0177636556327343,"202":-0.06140487268567085,"203":-0.08247701823711395,"204":0.18686847388744354,"205":0.09961991012096405,"206":0.05636952817440033,"207":0.19224360585212708,"208":0.0018779231468215585,"209":-0.13578155636787415,"210":-0.09000825136899948,"211":0.013432271778583527,"212":0.07413976639509201,"213":-0.10549330711364746,"214":0.16540628671646118,"215":-0.1232740581035614,"216":0.06146231293678284,"217":0.16998302936553955,"218":0.029314296320080757,"219":0.005249290261417627,"220":-0.022912004962563515,"221":0.13084331154823303,"222":-0.11298464238643646,"223":0.05116335302591324,"224":0.10502855479717255,"225":0.11299597471952438,"226":0.09866002947092056,"227":0.035673804581165314,"228":-0.1589314341545105,"229":-0.050457913428545,"230":0.013387524522840977,"231":-0.013065925799310207,"232":0.12588535249233246,"233":0.010354318656027317,"234":-0.13934658467769623,"235":-0.17591625452041626,"236":0.13866615295410156,"237":-0.07705409824848175,"238":-0.022183194756507874,"239":-0.1164034977555275,"240":-0.008157503791153431,"241":0.16530653834342957,"242":0.1933135837316513,"243":-0.13713455200195312,"244":-0.036130938678979874,"245":-0.16644924879074097,"246":-0.07948873937129974,"247":-0.129475399851799,"248":0.009483556263148785,"249":0.19121772050857544,"250":0.0366966649889946,"251":0.11116112023591995,"252":0.19068314135074615,"253":0.11328072100877762,"254":-0.15071679651737213,"255":-0.015350800938904285,"256":-0.08171390742063522,"257":0.14340414106845856,"258":-0.20583441853523254,"259":0.12305989116430283,"260":-0.07638628035783768,"261":0.11870051920413971,"262":0.15725870430469513,"263":-0.0000718409355613403,"264":-0.050944458693265915,"265":0.010981065221130848,"266":-0.19166049361228943,"267":-0.043077368289232254,"268":-0.16677209734916687,"269":0.19668778777122498,"270":0.0343405082821846,"271":-0.059514984488487244,"272":0.0039242166094481945,"273":0.05976729840040207,"274":-0.163846954703331,"275":0.15621712803840637,"276":0.04267124459147453,"277":-0.16891062259674072,"278":0.15249723196029663,"279":-0.10770700126886368,"280":0.08396509289741516,"281":0.1521204560995102,"282":-0.02471074089407921,"283":0.04801473766565323,"284":-0.11104464530944824,"285":-0.09545548260211945,"286":-0.11855941265821457,"287":0.00803699903190136,"288":-0.11946921050548553,"289":0.01890520006418228,"290":-0.07235584408044815,"291":0.05565905198454857,"292":-0.1630719006061554,"293":-0.09402665495872498,"294":-0.09640174359083176,"295":-0.1870928555727005,"296":-0.10156488418579102,"297":0.14384011924266815,"298":0.0539264939725399,"299":-0.10291870683431625,"300":0.055603835731744766,"301":0.06939808279275894,"302":0.1463637799024582,"303":0.06181976571679115,"304":-0.07970230281352997,"305":0.1673027127981186,"306":-0.06994825601577759,"307":0.03946882113814354,"308":0.08021385222673416,"309":-0.0019240520196035504,"310":-0.03458340838551521,"311":0.11680629849433899,"312":0.190718874335289,"313":-0.16693957149982452,"314":-0.1360287070274353,"315":0.07002133131027222,"316":-0.12142616510391235,"317":0.19567441940307617,"318":-0.16448694467544556,"319":0.1287207156419754,"320":-0.19250401854515076,"321":0.04857806861400604,"322":-0.13036538660526276,"323":0.07212203741073608,"324":-0.0954996719956398,"325":0.13458365201950073,"326":-0.1890641450881958,"327":-0.11052180081605911,"328":-0.06824730336666107,"329":0.1370992809534073,"330":-0.1847551316022873,"331":-0.02818933315575123,"332":0.19087620079517365,"333":-0.09308850020170212,"334":0.02975071221590042,"335":-0.007089927792549133,"336":0.04421708360314369,"337":0.10364554077386856,"338":0.06812097877264023,"339":0.10208428651094437,"340":-0.13168536126613617,"341":-0.132325679063797,"342":-0.19035620987415314,"343":-0.025597456842660904,"344":0.16949589550495148,"345":0.11520017683506012,"346":0.11594825237989426,"347":0.027593495324254036,"348":0.005533040035516024,"349":0.19829940795898438,"350":-0.08101648092269897,"351":0.22793640196323395,"352":-0.02402123250067234,"353":0.14064711332321167,"354":-0.20307381451129913,"355":0.05451815202832222,"356":-0.16820496320724487,"357":0.16835106909275055,"358":-0.0056326668709516525,"359":-0.0024248380213975906,"360":-0.05800706520676613,"361":0.09473483264446259,"362":-0.08346842974424362,"363":0.09891968965530396,"364":-0.1021672859787941,"365":-0.18366630375385284,"366":0.030399097129702568,"367":-0.012645252980291843,"368":-0.134273499250412,"369":0.1779918223619461,"370":0.15896260738372803,"371":-0.0174665916711092,"372":-0.10397253185510635,"373":0.13475894927978516,"374":0.11983136087656021,"375":0.06796228140592575,"376":-0.07192479819059372,"377":0.028724750503897667,"378":-0.05855678394436836,"379":0.17184188961982727,"380":0.012227652594447136,"381":0.005182131193578243,"382":0.0250913817435503,"383":-0.026874525472521782,"384":0.022811803966760635,"385":0.11370331048965454,"386":-0.15652714669704437,"387":-0.030339188873767853,"388":-0.08799910545349121,"389":0.1989212930202484,"390":-0.16752344369888306,"391":0.22434648871421814,"392":0.09777616709470749,"393":0.3348503112792969,"394":-0.0037339592818170786,"395":0.05288557708263397,"396":0.17465347051620483,"397":0.13957266509532928,"398":-0.13521316647529602,"399":-0.030834564939141273}},"1":{"bias":-0.1728847771883011,"weights":{"0":0.14020636677742004,"1":0.05894174799323082,"2":0.13213437795639038,"3":-0.00619525508955121,"4":-0.023974308744072914,"5":0.11437775194644928,"6":-0.14899441599845886,"7":0.004955272655934095,"8":-0.018218139186501503,"9":-0.080497607588768,"10":-0.011725049465894699,"11":0.1747073233127594,"12":0.1158926859498024,"13":0.04058884456753731,"14":-0.16714897751808167,"15":0.1676916927099228,"16":0.03289974853396416,"17":-0.02173975296318531,"18":0.0544610433280468,"19":0.08945512026548386,"20":0.18472112715244293,"21":-0.07504945993423462,"22":0.17124131321907043,"23":0.10791110247373581,"24":-0.047864869236946106,"25":0.04608654975891113,"26":0.18912312388420105,"27":0.1488613784313202,"28":-0.00019073976727668196,"29":0.028142407536506653,"30":0.0698016881942749,"31":0.18768180906772614,"32":0.042674627155065536,"33":-0.027352459728717804,"34":-0.18965095281600952,"35":0.01102357916533947,"36":0.0031501315534114838,"37":0.025072220712900162,"38":0.08476974815130234,"39":-0.1667434275150299,"40":0.03540210425853729,"41":0.1696566343307495,"42":0.1634344905614853,"43":-0.1539505422115326,"44":0.18762251734733582,"45":-0.011707097291946411,"46":0.16324403882026672,"47":0.03875504434108734,"48":-0.05904053896665573,"49":0.07475749403238297,"50":-0.10017475485801697,"51":0.058346766978502274,"52":0.005432276986539364,"53":0.19427098333835602,"54":0.03975643590092659,"55":0.04216928407549858,"56":-0.09324420988559723,"57":-0.11399870365858078,"58":-0.0020866619888693094,"59":0.0033362277317792177,"60":-0.14631301164627075,"61":0.14475269615650177,"62":0.18387457728385925,"63":-0.08084048330783844,"64":-0.07140108197927475,"65":0.1010645255446434,"66":0.01212422363460064,"67":0.11330284923315048,"68":0.0716266855597496,"69":0.12900014221668243,"70":-0.02663200907409191,"71":0.045345306396484375,"72":-0.15827937424182892,"73":-0.18926016986370087,"74":-0.03395898640155792,"75":0.026649508625268936,"76":0.11959215253591537,"77":-0.15427131950855255,"78":-0.11510118097066879,"79":0.11194439977407455,"80":0.17401710152626038,"81":-0.10754407942295074,"82":0.026390692219138145,"83":0.05376559868454933,"84":0.15726198256015778,"85":-0.044676657766103745,"86":-0.0014861593954265118,"87":0.1244267150759697,"88":0.07035329192876816,"89":-0.11581935733556747,"90":-0.16953910887241364,"91":0.17602260410785675,"92":-0.09135877341032028,"93":0.04859710484743118,"94":-0.01969558373093605,"95":0.07314462959766388,"96":-0.030191317200660706,"97":0.12834514677524567,"98":0.06944412738084793,"99":-0.09732681512832642,"100":0.11945416033267975,"101":0.08887339383363724,"102":0.13432621955871582,"103":-0.09555572271347046,"104":-0.004513052757829428,"105":0.11868397891521454,"106":-0.16119630634784698,"107":-0.17898264527320862,"108":-0.09873983263969421,"109":-0.09287343174219131,"110":0.18575923144817352,"111":0.14100618660449982,"112":-0.10193018615245819,"113":-0.15917141735553741,"114":0.09648150950670242,"115":-0.059215839952230453,"116":0.061783693730831146,"117":-0.10073361545801163,"118":-0.1156584769487381,"119":-0.08217741549015045,"120":-0.11307939887046814,"121":0.17333297431468964,"122":-0.19616401195526123,"123":-0.12139277905225754,"124":0.05731716752052307,"125":-0.16552218794822693,"126":-0.19612973928451538,"127":-0.005031086504459381,"128":0.061308279633522034,"129":-0.07423695921897888,"130":0.0939483642578125,"131":-0.10106921941041946,"132":-0.047306932508945465,"133":-0.19652679562568665,"134":0.0568387508392334,"135":0.1207318976521492,"136":0.044489212334156036,"137":-0.04416138678789139,"138":-0.07297022640705109,"139":0.07377499341964722,"140":-0.00789663102477789,"141":0.015652287751436234,"142":-0.0780237540602684,"143":0.19401106238365173,"144":0.17282181978225708,"145":0.14120078086853027,"146":0.16185350716114044,"147":-0.03606899082660675,"148":-0.11838938295841217,"149":0.05356365814805031,"150":0.19947783648967743,"151":0.01903923973441124,"152":-0.08076099306344986,"153":0.16155673563480377,"154":0.10579214245080948,"155":0.03594392538070679,"156":0.04392048344016075,"157":-0.12100286036729813,"158":0.1995907574892044,"159":-0.01503499411046505,"160":0.14077018201351166,"161":0.10038134455680847,"162":0.1599876880645752,"163":0.05309750884771347,"164":-0.020728839561343193,"165":0.1866248995065689,"166":0.18889638781547546,"167":-0.11267872899770737,"168":-0.09700074046850204,"169":0.19070588052272797,"170":0.19609202444553375,"171":0.195389986038208,"172":-0.006667973008006811,"173":-0.06657090038061142,"174":0.08822145313024521,"175":0.1570354700088501,"176":0.032721444964408875,"177":-0.09839275479316711,"178":0.06005063280463219,"179":-0.1615346372127533,"180":-0.039292845875024796,"181":0.08603522181510925,"182":0.01992904022336006,"183":0.012649091891944408,"184":0.08512665331363678,"185":-0.15973249077796936,"186":0.12024854123592377,"187":-0.09561937302350998,"188":-0.07489940524101257,"189":-0.17683954536914825,"190":-0.15370327234268188,"191":0.03806264325976372,"192":0.05182872340083122,"193":0.00146396248601377,"194":-0.16053172945976257,"195":-0.020389657467603683,"196":-0.14529703557491302,"197":0.06982197612524033,"198":-0.16734609007835388,"199":-0.13491252064704895,"200":0.04337870702147484,"201":-0.1401585042476654,"202":-0.03999551013112068,"203":-0.11645712703466415,"204":-0.112932488322258,"205":-0.1788897067308426,"206":0.12265118211507797,"207":0.07895788550376892,"208":0.17236027121543884,"209":-0.16236652433872223,"210":-0.0949074923992157,"211":-0.16080394387245178,"212":0.10559209436178207,"213":-0.08767238259315491,"214":-0.09313784539699554,"215":-0.19248557090759277,"216":-0.17920571565628052,"217":0.04161827266216278,"218":-0.1331370770931244,"219":0.06645573675632477,"220":0.07342120260000229,"221":0.08149822801351547,"222":-0.12494682520627975,"223":0.026210632175207138,"224":0.17807531356811523,"225":-0.035045720636844635,"226":-0.06203096732497215,"227":-0.05260298401117325,"228":0.1383977234363556,"229":-0.16301295161247253,"230":0.03507475182414055,"231":-0.10470422357320786,"232":-0.11596053093671799,"233":-0.06515802443027496,"234":0.037996407598257065,"235":-0.17340806126594543,"236":-0.07672451436519623,"237":0.13221977651119232,"238":0.10573017597198486,"239":-0.06004529073834419,"240":0.04001016542315483,"241":-0.006101638078689575,"242":0.11372223496437073,"243":-0.0000950703615671955,"244":0.19599789381027222,"245":-0.17200057208538055,"246":0.0816979929804802,"247":-0.03934274986386299,"248":-0.07769639045000076,"249":-0.1679844707250595,"250":0.08381591737270355,"251":-0.024172015488147736,"252":0.07920718193054199,"253":-0.060579873621463776,"254":0.03724483400583267,"255":0.014240918681025505,"256":0.01972348801791668,"257":-0.1423671692609787,"258":0.02974979765713215,"259":-0.21757249534130096,"260":-0.03712334856390953,"261":0.04077087715268135,"262":-0.012968509458005428,"263":0.023808302357792854,"264":0.1633404791355133,"265":0.15799009799957275,"266":0.0614708736538887,"267":-0.08275290578603745,"268":0.10746030509471893,"269":-0.061123985797166824,"270":0.07893873006105423,"271":0.02998187020421028,"272":-0.1872561126947403,"273":0.1826031357049942,"274":0.05375058203935623,"275":0.005854566115885973,"276":-0.09229455888271332,"277":0.047589175403118134,"278":0.03510726988315582,"279":-0.025304002687335014,"280":-0.07976167649030685,"281":0.1421133279800415,"282":0.17685548961162567,"283":-0.01575900986790657,"284":0.1368110030889511,"285":0.15589764714241028,"286":-0.09676825255155563,"287":-0.04845133051276207,"288":0.17104697227478027,"289":0.05830245465040207,"290":-0.19341890513896942,"291":0.12052416801452637,"292":-0.04776797071099281,"293":0.12083426117897034,"294":-0.11607147753238678,"295":-0.11676532030105591,"296":0.06089942529797554,"297":-0.15658701956272125,"298":-0.07909904420375824,"299":0.03909754753112793,"300":0.07899794727563858,"301":-0.03209490329027176,"302":0.1799776703119278,"303":0.09439659863710403,"304":-0.11331872642040253,"305":-0.1951262652873993,"306":-0.1646873652935028,"307":0.07832663506269455,"308":0.0772658959031105,"309":0.018123809248209,"310":-0.12091901898384094,"311":0.017729615792632103,"312":-0.13511060178279877,"313":0.2055027037858963,"314":-0.011718410067260265,"315":0.03407280147075653,"316":0.1570824384689331,"317":0.04118325933814049,"318":-0.12201424688100815,"319":-0.06516604125499725,"320":-0.0047010076232254505,"321":0.10962249338626862,"322":0.10760094970464706,"323":-0.13337035477161407,"324":-0.10860077291727066,"325":0.08505798876285553,"326":-0.18919579684734344,"327":-0.0426759272813797,"328":-0.021558895707130432,"329":-0.06361056864261627,"330":-0.10706708580255508,"331":0.16516026854515076,"332":-0.06301086395978928,"333":-0.00035212526563555,"334":0.23844583332538605,"335":0.08028614521026611,"336":0.07093895971775055,"337":-0.1677509844303131,"338":-0.15158690512180328,"339":-0.1796397566795349,"340":-0.14963068068027496,"341":0.025096101686358452,"342":-0.13232044875621796,"343":-0.16132405400276184,"344":-0.06225547939538956,"345":-0.06487831473350525,"346":-0.10910701006650925,"347":-0.19520330429077148,"348":-0.03794906660914421,"349":-0.022139595821499825,"350":-0.06797874718904495,"351":0.20376332104206085,"352":-0.15315575897693634,"353":0.1386161893606186,"354":0.21280831098556519,"355":-0.11821337044239044,"356":0.08883169293403625,"357":0.12571370601654053,"358":-0.19107741117477417,"359":-0.2172042429447174,"360":-0.037351060658693314,"361":-0.12952673435211182,"362":0.11806268244981766,"363":0.10325141251087189,"364":-0.16837292909622192,"365":0.07094376534223557,"366":-0.02850455418229103,"367":-0.10828851163387299,"368":-0.13532181084156036,"369":-0.15086473524570465,"370":0.034278325736522675,"371":-0.09711167216300964,"372":-0.1213236078619957,"373":0.11588729918003082,"374":0.0969979465007782,"375":0.14196743071079254,"376":0.16497597098350525,"377":0.0628587082028389,"378":0.026890501379966736,"379":0.10063468664884567,"380":-0.004408362787216902,"381":-0.09608777612447739,"382":-0.11843903362751007,"383":0.009411733597517014,"384":0.06377909332513809,"385":-0.15877142548561096,"386":-0.02224717289209366,"387":0.07179654389619827,"388":-0.146222785115242,"389":0.039404839277267456,"390":-0.12472172826528549,"391":0.006462813355028629,"392":-0.12842653691768646,"393":-0.0587630458176136,"394":-0.022434135898947716,"395":-0.12652729451656342,"396":-0.07258589565753937,"397":0.1016215905547142,"398":0.0490792915225029,"399":0.07816611230373383}},"2":{"bias":-0.03999293968081474,"weights":{"0":-0.05649613216519356,"1":-0.18780668079853058,"2":0.0007651413325220346,"3":0.15938852727413177,"4":0.13296405971050262,"5":-0.07003363221883774,"6":0.024032237008213997,"7":0.055757734924554825,"8":0.17054572701454163,"9":0.1216655895113945,"10":0.19752779603004456,"11":0.08704283088445663,"12":0.09474723786115646,"13":0.17901675403118134,"14":0.02469266578555107,"15":-0.002823537914082408,"16":-0.03447563573718071,"17":0.19284595549106598,"18":0.012612249702215195,"19":-0.008584740571677685,"20":-0.07896649092435837,"21":-0.010576360858976841,"22":-0.16363520920276642,"23":-0.07453595846891403,"24":-0.07058875262737274,"25":0.03645205870270729,"26":0.022160591557621956,"27":-0.036046676337718964,"28":-0.1745082587003708,"29":0.04773669317364693,"30":0.09043726325035095,"31":0.026208477094769478,"32":-0.18731750547885895,"33":0.13577516376972198,"34":0.07118654996156693,"35":-0.17629989981651306,"36":0.06911624222993851,"37":-0.1232232078909874,"38":-0.05470214784145355,"39":0.09170310199260712,"40":0.009447630494832993,"41":-0.09511296451091766,"42":0.1930345743894577,"43":-0.11831243336200714,"44":-0.11928249150514603,"45":-0.04970133677124977,"46":0.14017687737941742,"47":-0.030027015134692192,"48":0.18590863049030304,"49":-0.04928802326321602,"50":0.005526360124349594,"51":-0.060760173946619034,"52":-0.08171921223402023,"53":-0.14926789700984955,"54":0.10272414237260818,"55":-0.0185558944940567,"56":-0.1482878476381302,"57":-0.12141664326190948,"58":0.13532862067222595,"59":-0.14702284336090088,"60":-0.029163019731640816,"61":0.1683245748281479,"62":0.020667841657996178,"63":-0.06365840882062912,"64":-0.09035737812519073,"65":0.04136640578508377,"66":-0.10269470512866974,"67":-0.0037451463285833597,"68":-0.030739789828658104,"69":0.1467396765947342,"70":-0.09206464141607285,"71":0.10200811177492142,"72":-0.07746564596891403,"73":-0.16861189901828766,"74":-0.06767518818378448,"75":0.1215372309088707,"76":0.15485374629497528,"77":-0.09645089507102966,"78":0.012491819448769093,"79":-0.14712375402450562,"80":-0.0428231842815876,"81":0.008680379949510098,"82":0.15719562768936157,"83":-0.08229752629995346,"84":0.1670265942811966,"85":-0.16287295520305634,"86":0.16440404951572418,"87":-0.17476141452789307,"88":0.05898315832018852,"89":-0.15345221757888794,"90":0.07616151869297028,"91":0.14000022411346436,"92":0.033484771847724915,"93":-0.07237564772367477,"94":-0.12772047519683838,"95":-0.10144125670194626,"96":-0.0990305244922638,"97":-0.16336874663829803,"98":0.15048451721668243,"99":0.16936665773391724,"100":-0.04470812529325485,"101":-0.027631426230072975,"102":-0.09676319360733032,"103":0.06887810677289963,"104":-0.05381150543689728,"105":-0.08895271271467209,"106":0.07993000745773315,"107":0.04385548457503319,"108":0.07712258398532867,"109":-0.1343993991613388,"110":-0.013060949742794037,"111":0.004889289382845163,"112":0.09288527071475983,"113":-0.14910651743412018,"114":-0.10324040055274963,"115":-0.06995029002428055,"116":0.09616971760988235,"117":-0.048571255058050156,"118":-0.06390362977981567,"119":-0.0400371290743351,"120":-0.13957062363624573,"121":-0.1963319629430771,"122":0.07865133881568909,"123":-0.1419936865568161,"124":0.19341127574443817,"125":-0.15834233164787292,"126":-0.09693142771720886,"127":0.19412878155708313,"128":0.06900320202112198,"129":-0.10345999896526337,"130":0.013488199561834335,"131":-0.1461166888475418,"132":0.018920887261629105,"133":0.05192941054701805,"134":-0.11759955435991287,"135":0.09727587550878525,"136":-0.03513314202427864,"137":0.07898645848035812,"138":-0.0233649630099535,"139":-0.14402301609516144,"140":0.03789187967777252,"141":0.07620356976985931,"142":0.17349231243133545,"143":-0.03883887827396393,"144":0.09512561559677124,"145":0.18720799684524536,"146":-0.07224969565868378,"147":-0.09722506254911423,"148":-0.14038783311843872,"149":-0.024253588169813156,"150":0.13620594143867493,"151":-0.034947678446769714,"152":-0.0813784971833229,"153":-0.17112456262111664,"154":0.018537700176239014,"155":0.1820913553237915,"156":-0.14240968227386475,"157":0.14406254887580872,"158":-0.061397094279527664,"159":-0.12564827501773834,"160":-0.07049772888422012,"161":0.07696568965911865,"162":0.03566943481564522,"163":-0.19132687151432037,"164":-0.14190058410167694,"165":0.13670004904270172,"166":-0.1368236392736435,"167":-0.1599646657705307,"168":0.07895813882350922,"169":0.09071479737758636,"170":0.16795317828655243,"171":-0.05767354369163513,"172":0.006020119413733482,"173":0.0021288711577653885,"174":-0.010749409906566143,"175":-0.15241456031799316,"176":0.17090478539466858,"177":-0.04581603780388832,"178":-0.09890802949666977,"179":0.1470056027173996,"180":-0.11456677317619324,"181":-0.05576295778155327,"182":-0.1947447806596756,"183":-0.020143071189522743,"184":-0.06683199852705002,"185":0.010828681290149689,"186":0.024198371917009354,"187":0.17686694860458374,"188":0.14884568750858307,"189":0.1277266889810562,"190":0.10560611635446548,"191":0.14074596762657166,"192":-0.036242369562387466,"193":0.002176380716264248,"194":-0.0030267878901213408,"195":0.17073583602905273,"196":-0.019053025171160698,"197":0.17566794157028198,"198":0.15253272652626038,"199":0.12742826342582703,"200":0.07871326059103012,"201":-0.12374495714902878,"202":0.14480820298194885,"203":0.18559496104717255,"204":-0.11755480617284775,"205":-0.03696165233850479,"206":-0.16888581216335297,"207":0.024401862174272537,"208":-0.05284886062145233,"209":0.03992870822548866,"210":-0.15857404470443726,"211":0.15835575759410858,"212":0.0015950113302096725,"213":0.013027957640588284,"214":-0.13811759650707245,"215":-0.1679655760526657,"216":0.06428562104701996,"217":0.0750582292675972,"218":-0.023694705218076706,"219":-0.1695980429649353,"220":0.1636388897895813,"221":-0.07008279114961624,"222":0.08118921518325806,"223":0.12830664217472076,"224":0.06035473942756653,"225":0.13003315031528473,"226":-0.11622443050146103,"227":0.08200567960739136,"228":0.03769893944263458,"229":-0.11991101503372192,"230":0.04221844673156738,"231":-0.11476194113492966,"232":-0.19048936665058136,"233":0.03660950809717178,"234":0.0498192273080349,"235":-0.10195506364107132,"236":-0.07331854104995728,"237":-0.05394948273897171,"238":0.03750549256801605,"239":0.13129884004592896,"240":0.10649178177118301,"241":0.02403024397790432,"242":-0.023124530911445618,"243":0.14824485778808594,"244":0.13145391643047333,"245":-0.06482060253620148,"246":0.056338436901569366,"247":-0.0318048894405365,"248":-0.008982411585748196,"249":-0.12913298606872559,"250":0.16673412919044495,"251":0.07277795672416687,"252":0.1327463835477829,"253":0.00796064268797636,"254":-0.13296565413475037,"255":0.09268807619810104,"256":0.17852088809013367,"257":-0.19155935943126678,"258":0.09700512140989304,"259":-0.1821206659078598,"260":-0.0020984322763979435,"261":0.07856477051973343,"262":0.09053347259759903,"263":-0.028787441551685333,"264":0.07738437503576279,"265":-0.056764502078294754,"266":0.17130793631076813,"267":-0.04056280478835106,"268":-0.04534010589122772,"269":-0.19209717214107513,"270":-0.19402718544006348,"271":-0.1452551782131195,"272":0.18170863389968872,"273":0.04281206429004669,"274":0.27822354435920715,"275":-0.050046343356370926,"276":0.09487893432378769,"277":-0.16834713518619537,"278":-0.01787737011909485,"279":0.040639184415340424,"280":0.19441384077072144,"281":-0.1999330371618271,"282":-0.037418100982904434,"283":0.015618519857525826,"284":0.18619023263454437,"285":-0.17347894608974457,"286":-0.11358126997947693,"287":0.017679186537861824,"288":-0.07063784450292587,"289":-0.15764208137989044,"290":-0.08815586566925049,"291":-0.050881803035736084,"292":-0.08424732089042664,"293":0.10017888247966766,"294":0.06091993302106857,"295":-0.14350107312202454,"296":0.08796306699514389,"297":0.05755002796649933,"298":-0.2035580277442932,"299":0.13923197984695435,"300":-0.04773819446563721,"301":0.058602310717105865,"302":-0.027378924190998077,"303":-0.020404161885380745,"304":-0.033775925636291504,"305":0.07006386667490005,"306":-0.1626780778169632,"307":-0.18065303564071655,"308":-0.1555120050907135,"309":-0.10705343633890152,"310":0.024254247546195984,"311":0.17577233910560608,"312":0.18908171355724335,"313":0.04708440974354744,"314":0.0922677218914032,"315":-0.16062293946743011,"316":-0.08303702622652054,"317":0.08710860460996628,"318":-0.222721129655838,"319":-0.0235758014023304,"320":-0.04461368918418884,"321":-0.1929105669260025,"322":0.07672009617090225,"323":0.12041981518268585,"324":-0.12050886452198029,"325":0.17889702320098877,"326":0.17152999341487885,"327":0.11634498834609985,"328":0.1483401358127594,"329":0.11317956447601318,"330":-0.03640792518854141,"331":0.07039199769496918,"332":0.16421987116336823,"333":0.22734284400939941,"334":-0.08174270391464233,"335":0.11595416069030762,"336":0.08612067252397537,"337":0.13226361572742462,"338":-0.05656580254435539,"339":-0.161251038312912,"340":0.14631251990795135,"341":0.06921998411417007,"342":-0.0027884752489626408,"343":0.13487423956394196,"344":-0.16372324526309967,"345":0.16691328585147858,"346":-0.10462754219770432,"347":0.05980583280324936,"348":-0.07363000512123108,"349":-0.05914445221424103,"350":0.19212427735328674,"351":-0.1349693238735199,"352":0.18425671756267548,"353":0.17761735618114471,"354":0.11974272131919861,"355":0.13050778210163116,"356":0.07836398482322693,"357":0.180238276720047,"358":-0.1640845239162445,"359":0.07843434810638428,"360":0.19601678848266602,"361":0.15154072642326355,"362":0.03628906235098839,"363":-0.1709745228290558,"364":-0.1351294219493866,"365":-0.004722576588392258,"366":-0.11594566702842712,"367":0.18575860559940338,"368":0.11309929192066193,"369":-0.07227609306573868,"370":-0.08567124605178833,"371":-0.0738145187497139,"372":-0.1487085074186325,"373":0.0026695257984101772,"374":0.14742274582386017,"375":0.010596444830298424,"376":0.1792927086353302,"377":-0.18611791729927063,"378":-0.14029540121555328,"379":-0.011240857653319836,"380":0.09055245667695999,"381":-0.16049714386463165,"382":-0.16384513676166534,"383":0.15721511840820312,"384":0.15247464179992676,"385":0.18246421217918396,"386":-0.009780294261872768,"387":0.02049717865884304,"388":-0.0011890146415680647,"389":-0.05435735732316971,"390":0.03946172073483467,"391":0.141757071018219,"392":-0.19001995027065277,"393":-0.31653332710266113,"394":0.1987444907426834,"395":0.009062259458005428,"396":-0.04508892074227333,"397":-0.21705852448940277,"398":-0.19913624227046967,"399":0.14650776982307434}},"3":{"bias":0.02589237503707409,"weights":{"0":0.035661470144987106,"1":0.11743038147687912,"2":0.15971392393112183,"3":0.02972390502691269,"4":0.041051045060157776,"5":-0.06382869929075241,"6":-0.05158863589167595,"7":0.009433913044631481,"8":0.08752886950969696,"9":-0.15607374906539917,"10":-0.06235522776842117,"11":0.02867051772773266,"12":-0.14530892670154572,"13":-0.07183929532766342,"14":-0.09425605088472366,"15":0.15511789917945862,"16":0.010017510503530502,"17":-0.09600327163934708,"18":-0.10455195605754852,"19":0.009672240354120731,"20":-0.1663854420185089,"21":0.03405480459332466,"22":0.08313193172216415,"23":0.1823008954524994,"24":-0.18074549734592438,"25":-0.059659820050001144,"26":0.1443333774805069,"27":-0.1770542860031128,"28":-0.025120796635746956,"29":-0.13603216409683228,"30":0.14848004281520844,"31":0.15486150979995728,"32":-0.13678869605064392,"33":0.17604197561740875,"34":0.09842457622289658,"35":0.02676314115524292,"36":0.05767048895359039,"37":0.08719991892576218,"38":0.1970261186361313,"39":0.1358339488506317,"40":0.17875641584396362,"41":-0.14145421981811523,"42":-0.10420156270265579,"43":-0.01817898266017437,"44":0.12608616054058075,"45":-0.17561957240104675,"46":-0.02612854540348053,"47":-0.01743241399526596,"48":-0.00815813709050417,"49":-0.06331855058670044,"50":-0.01180617231875658,"51":-0.1260099858045578,"52":0.06167463958263397,"53":0.13835304975509644,"54":-0.10009607672691345,"55":0.18327553570270538,"56":0.13382448256015778,"57":-0.011860104277729988,"58":-0.11332385987043381,"59":-0.091387540102005,"60":-0.1900433599948883,"61":0.12509308755397797,"62":0.1360076516866684,"63":0.06919142603874207,"64":-0.0738300159573555,"65":0.008949167095124722,"66":-0.11810092628002167,"67":0.1614934206008911,"68":-0.011140907183289528,"69":-0.19116461277008057,"70":-0.10468896478414536,"71":-0.05684898421168327,"72":0.1267077624797821,"73":-0.0713893473148346,"74":0.010391426272690296,"75":-0.14928627014160156,"76":-0.06971872597932816,"77":0.14939525723457336,"78":0.1386014223098755,"79":0.07616695016622543,"80":0.04210151359438896,"81":-0.19490621984004974,"82":0.053416624665260315,"83":-0.19056880474090576,"84":-0.1418462097644806,"85":0.11972683668136597,"86":-0.015477333217859268,"87":0.030363861471414566,"88":-0.18963515758514404,"89":0.196231871843338,"90":0.035637348890304565,"91":-0.012390130199491978,"92":0.15578022599220276,"93":0.02067900449037552,"94":0.14141793549060822,"95":0.09586413204669952,"96":-0.06749584525823593,"97":-0.07656770944595337,"98":0.02142171561717987,"99":-0.14621329307556152,"100":0.06344050914049149,"101":-0.15838362276554108,"102":-0.18878933787345886,"103":-0.06265939027070999,"104":-0.007335911970585585,"105":-0.16161905229091644,"106":0.0523558147251606,"107":0.1660682111978531,"108":0.10107986629009247,"109":-0.1574927717447281,"110":0.14580580592155457,"111":0.0814579501748085,"112":-0.09970995038747787,"113":-0.018168730661273003,"114":-0.1066521629691124,"115":-0.14353586733341217,"116":-0.019392361864447594,"117":-0.01832619123160839,"118":0.06569187343120575,"119":0.046156998723745346,"120":-0.07718627154827118,"121":0.14756691455841064,"122":0.013402532786130905,"123":0.022532327100634575,"124":-0.18272075057029724,"125":0.02719736471772194,"126":-0.06698936223983765,"127":-0.005275357980281115,"128":0.023783283308148384,"129":-0.18401837348937988,"130":-0.015640880912542343,"131":0.18729521334171295,"132":0.19860106706619263,"133":0.015347789973020554,"134":-0.1639731228351593,"135":-0.1793941706418991,"136":0.01808302477002144,"137":-0.024389460682868958,"138":-0.15003791451454163,"139":0.15347355604171753,"140":0.13154512643814087,"141":0.15658235549926758,"142":0.05036037787795067,"143":-0.032318148761987686,"144":0.019287455826997757,"145":0.09245450794696808,"146":0.14533871412277222,"147":0.16281408071517944,"148":-0.07170466333627701,"149":0.1648457646369934,"150":-0.042940061539411545,"151":0.14411401748657227,"152":-0.11366749554872513,"153":-0.02397274784743786,"154":-0.03987216576933861,"155":0.18649688363075256,"156":0.17601746320724487,"157":0.122532419860363,"158":-0.10913489758968353,"159":-0.13331815600395203,"160":0.051646217703819275,"161":-0.16667033731937408,"162":0.026583487167954445,"163":0.10626117140054703,"164":0.15382418036460876,"165":0.07832883298397064,"166":0.08622802048921585,"167":-0.19884976744651794,"168":0.07634933292865753,"169":0.09822116047143936,"170":-0.09026635438203812,"171":0.11655402928590775,"172":0.04724859446287155,"173":-0.15924836695194244,"174":0.027381859719753265,"175":-0.05310428515076637,"176":0.1663534790277481,"177":0.17969423532485962,"178":-0.17946501076221466,"179":0.056570082902908325,"180":0.07990828156471252,"181":0.10382465273141861,"182":-0.19028611481189728,"183":0.11483261734247208,"184":0.12874722480773926,"185":-0.1326085925102234,"186":-0.1397314816713333,"187":0.04887097328901291,"188":0.18122901022434235,"189":0.04972349852323532,"190":0.19203947484493256,"191":-0.1508582979440689,"192":0.056061625480651855,"193":-0.12403532862663269,"194":0.1339777112007141,"195":0.12491878122091293,"196":-0.19718779623508453,"197":0.05825040489435196,"198":-0.12064237892627716,"199":0.048502713441848755,"200":-0.13250890374183655,"201":-0.04020290821790695,"202":-0.05151030421257019,"203":0.05914369970560074,"204":0.042425647377967834,"205":-0.10048768669366837,"206":-0.03829675912857056,"207":-0.07566004246473312,"208":0.034238848835229874,"209":-0.05329422652721405,"210":-0.13895028829574585,"211":-0.018092354759573936,"212":0.08200772851705551,"213":0.09686782211065292,"214":-0.18103070557117462,"215":0.03761117905378342,"216":-0.16104601323604584,"217":-0.17006957530975342,"218":-0.02784530073404312,"219":-0.04588247463107109,"220":0.008583812974393368,"221":-0.14483189582824707,"222":-0.14851009845733643,"223":0.022135041654109955,"224":0.0025844972115010023,"225":-0.03249156102538109,"226":0.07715972512960434,"227":0.13381770253181458,"228":-0.08281145989894867,"229":-0.1949373036623001,"230":0.08176660537719727,"231":-0.1442912369966507,"232":0.09905505925416946,"233":0.04842095449566841,"234":0.08910626918077469,"235":-0.19325940310955048,"236":-0.13742226362228394,"237":0.10557161271572113,"238":0.016991065815091133,"239":0.17028433084487915,"240":-0.09053339064121246,"241":-0.008485730737447739,"242":-0.14838442206382751,"243":-0.06139259412884712,"244":-0.07980484515428543,"245":0.06357821077108383,"246":0.04351405054330826,"247":-0.19465294480323792,"248":-0.06072625517845154,"249":0.019909773021936417,"250":-0.017832815647125244,"251":0.11047562956809998,"252":-0.06939496845006943,"253":-0.007267240900546312,"254":-0.132720947265625,"255":-0.19154900312423706,"256":0.031095657497644424,"257":-0.18848277628421783,"258":-0.14578038454055786,"259":-0.007558851968497038,"260":0.08752711117267609,"261":0.053074248135089874,"262":0.03170326352119446,"263":0.1255129873752594,"264":0.09195353835821152,"265":0.17623600363731384,"266":0.15757949650287628,"267":-0.1847051978111267,"268":0.15424205362796783,"269":0.06595977395772934,"270":0.1604022979736328,"271":0.13808366656303406,"272":0.19300055503845215,"273":-0.1469319462776184,"274":-0.1075366660952568,"275":-0.17185014486312866,"276":-0.07229888439178467,"277":-0.045232806354761124,"278":-0.0979708880186081,"279":0.15844683349132538,"280":-0.14598166942596436,"281":0.14976467192173004,"282":-0.00550044747069478,"283":0.04824261739850044,"284":0.12282100319862366,"285":-0.06316199898719788,"286":0.10043097287416458,"287":-0.04798559844493866,"288":-0.04554775729775429,"289":-0.07452986389398575,"290":0.07957454770803452,"291":-0.0032146009616553783,"292":0.07111852616071701,"293":-0.17562448978424072,"294":0.007811496965587139,"295":0.07050379365682602,"296":0.1273011565208435,"297":0.009692640043795109,"298":-0.16309070587158203,"299":0.03872464969754219,"300":0.15310412645339966,"301":0.09271428734064102,"302":0.12153234332799911,"303":0.13764867186546326,"304":-0.11657208949327469,"305":-0.1662013828754425,"306":-0.054183412343263626,"307":0.04234202951192856,"308":-0.1975788176059723,"309":-0.04784250259399414,"310":0.16467873752117157,"311":-0.17406760156154633,"312":0.08643794059753418,"313":-0.1254008561372757,"314":0.16056056320667267,"315":0.0533200241625309,"316":-0.1582104116678238,"317":-0.0282676350325346,"318":0.051150791347026825,"319":-0.11391892284154892,"320":0.12391974031925201,"321":0.0897677019238472,"322":0.01378809753805399,"323":-0.17033372819423676,"324":0.07618273049592972,"325":-0.027949258685112,"326":-0.1633593738079071,"327":-0.1904669553041458,"328":0.16316580772399902,"329":-0.08423963189125061,"330":-0.03721876069903374,"331":0.07954109460115433,"332":-0.04673551768064499,"333":0.08281319588422775,"334":0.1856459081172943,"335":-0.10044995695352554,"336":-0.13241276144981384,"337":-0.12196510285139084,"338":0.11378442496061325,"339":-0.11029063165187836,"340":-0.19034524261951447,"341":0.0800255835056305,"342":-0.08399302512407303,"343":-0.020755190402269363,"344":-0.052585236728191376,"345":0.11608318239450455,"346":-0.1787426471710205,"347":0.11965801566839218,"348":-0.0011388182174414396,"349":0.1759064495563507,"350":0.1562875509262085,"351":0.07930859178304672,"352":-0.06859711557626724,"353":-0.14286725223064423,"354":0.047126010060310364,"355":-0.24212230741977692,"356":-0.041386958211660385,"357":0.044648248702287674,"358":0.07811594009399414,"359":-0.14323246479034424,"360":0.016584590077400208,"361":-0.11081275343894958,"362":-0.005045333877205849,"363":0.12129943072795868,"364":0.18081416189670563,"365":-0.15761874616146088,"366":0.10849668085575104,"367":0.016425520181655884,"368":0.045608699321746826,"369":0.13942144811153412,"370":0.19710388779640198,"371":0.16508258879184723,"372":-0.08115442097187042,"373":-0.030980288982391357,"374":-0.09066309034824371,"375":0.06417396664619446,"376":-0.11555418372154236,"377":0.006928267423063517,"378":0.12551459670066833,"379":0.15159781277179718,"380":-0.0851234570145607,"381":-0.1485419124364853,"382":-0.11323501914739609,"383":-0.10527237504720688,"384":-0.018324872478842735,"385":0.0650106742978096,"386":-0.08324779570102692,"387":-0.036755334585905075,"388":-0.1076037809252739,"389":-0.008774501271545887,"390":0.044651586562395096,"391":0.1510184109210968,"392":-0.15991228818893433,"393":0.22285610437393188,"394":0.13162659108638763,"395":-0.026820020750164986,"396":0.02950434759259224,"397":0.13562624156475067,"398":-0.15694116055965424,"399":-0.1231960654258728}},"4":{"bias":0.1666366457939148,"weights":{"0":-0.1002788171172142,"1":0.114277683198452,"2":-0.022116657346487045,"3":-0.15754686295986176,"4":0.17319311201572418,"5":-0.016265220940113068,"6":-0.023519711568951607,"7":-0.07001074403524399,"8":0.14785103499889374,"9":0.19017724692821503,"10":-0.14945535361766815,"11":0.1290307193994522,"12":-0.18469446897506714,"13":0.10323470085859299,"14":-0.1989738792181015,"15":0.014914211817085743,"16":0.19058635830879211,"17":-0.15965096652507782,"18":0.17574653029441833,"19":0.07467656582593918,"20":-0.09534519165754318,"21":0.029929256066679955,"22":-0.10030040889978409,"23":0.0351763516664505,"24":-0.007291906047612429,"25":-0.12884484231472015,"26":0.04322913661599159,"27":-0.08981085568666458,"28":0.03619575873017311,"29":-0.07757463306188583,"30":-0.06543917208909988,"31":-0.053667761385440826,"32":-0.009747142903506756,"33":0.04813897982239723,"34":-0.1884913444519043,"35":-0.10317081958055496,"36":-0.0937032699584961,"37":0.06073994189500809,"38":0.12222101539373398,"39":0.07725484669208527,"40":-0.12811896204948425,"41":-0.006008386146277189,"42":-0.0645747184753418,"43":-0.021618325263261795,"44":-0.1625508815050125,"45":0.1761804223060608,"46":0.12070322036743164,"47":0.029909029603004456,"48":-0.13950525224208832,"49":0.11066926270723343,"50":0.1284109503030777,"51":-0.1425098478794098,"52":0.03470724821090698,"53":-0.028252745047211647,"54":-0.08519623428583145,"55":-0.055599045008420944,"56":0.10151979327201843,"57":0.09881098568439484,"58":-0.11861837655305862,"59":-0.030084278434515,"60":-0.17078369855880737,"61":0.10920600593090057,"62":0.11534928530454636,"63":0.09947274625301361,"64":-0.1119283065199852,"65":-0.1985185444355011,"66":-0.021682817488908768,"67":-0.1391540765762329,"68":-0.009830860421061516,"69":0.010908260010182858,"70":-0.0008084083092398942,"71":-0.05479595065116882,"72":0.054627906531095505,"73":0.1430463045835495,"74":0.1550207883119583,"75":0.09848835319280624,"76":0.06768034398555756,"77":-0.08846524357795715,"78":0.19522875547409058,"79":0.13737225532531738,"80":-0.19782699644565582,"81":0.00006125708023319021,"82":0.0427277497947216,"83":0.180600106716156,"84":-0.15300263464450836,"85":0.04935453459620476,"86":-0.018884941935539246,"87":-0.14186035096645355,"88":-0.04247032105922699,"89":0.0608103945851326,"90":0.04081641137599945,"91":0.17397436499595642,"92":-0.1593404859304428,"93":0.03379177302122116,"94":0.016656354069709778,"95":0.16371245682239532,"96":-0.0356806255877018,"97":-0.0037215312477201223,"98":-0.18375621736049652,"99":-0.15084755420684814,"100":-0.19954191148281097,"101":0.07226811349391937,"102":-0.14731769263744354,"103":0.08593910932540894,"104":0.02037501335144043,"105":0.04290281608700752,"106":-0.15823812782764435,"107":-0.13305819034576416,"108":-0.07891291379928589,"109":-0.02418559417128563,"110":-0.060234006494283676,"111":-0.046878453344106674,"112":-0.00024796780780889094,"113":0.10818564146757126,"114":-0.02300933375954628,"115":0.10379276424646378,"116":0.11580894142389297,"117":-0.07753733545541763,"118":0.03185892477631569,"119":-0.0932823196053505,"120":-0.19837559759616852,"121":-0.1249040961265564,"122":0.18681296706199646,"123":-0.07869751751422882,"124":0.10864011943340302,"125":0.12483759969472885,"126":0.006937338039278984,"127":0.18073000013828278,"128":0.04841073974967003,"129":0.036822691559791565,"130":-0.13185769319534302,"131":0.15081216394901276,"132":0.045987408608198166,"133":-0.10233084857463837,"134":0.10905200988054276,"135":-0.02074093371629715,"136":0.011041464284062386,"137":0.12384921312332153,"138":-0.015216628089547157,"139":-0.047044552862644196,"140":-0.01398465596139431,"141":-0.12280460447072983,"142":0.1817774921655655,"143":-0.11536729335784912,"144":-0.1782579869031906,"145":-0.0015472121303901076,"146":-0.0028387093916535378,"147":-0.13047029078006744,"148":-0.1353064477443695,"149":-0.05541117861866951,"150":0.08706634491682053,"151":-0.09881091862916946,"152":-0.1550929844379425,"153":-0.04368007183074951,"154":-0.024746974930167198,"155":-0.1495417058467865,"156":0.09909963607788086,"157":0.005863233469426632,"158":-0.07871758937835693,"159":-0.10607297718524933,"160":0.030888978391885757,"161":-0.15632364153862,"162":-0.07261816412210464,"163":-0.16447100043296814,"164":-0.09949953854084015,"165":-0.030170239508152008,"166":0.028941556811332703,"167":-0.15015535056591034,"168":-0.11667482554912567,"169":-0.039962563663721085,"170":0.052003733813762665,"171":0.07103406637907028,"172":-0.02533266879618168,"173":0.021225420758128166,"174":0.03515632450580597,"175":0.05835457518696785,"176":0.003498323727399111,"177":0.1968604028224945,"178":0.11390096694231033,"179":0.1209593266248703,"180":0.10602753609418869,"181":0.08610447496175766,"182":0.07659484446048737,"183":-0.07632716745138168,"184":-0.12482181936502457,"185":0.05357107147574425,"186":-0.1462050825357437,"187":0.15530981123447418,"188":0.19062887132167816,"189":0.07563545554876328,"190":-0.027455149218440056,"191":-0.05965440720319748,"192":0.17060351371765137,"193":-0.15087461471557617,"194":0.17268027365207672,"195":-0.07648580521345139,"196":0.13863250613212585,"197":0.031623173505067825,"198":-0.05131414160132408,"199":-0.1310291886329651,"200":-0.02971666306257248,"201":0.1630891114473343,"202":0.15856200456619263,"203":0.08375904709100723,"204":-0.10341808944940567,"205":-0.15398232638835907,"206":-0.032763030380010605,"207":-0.06528273969888687,"208":0.05728527158498764,"209":0.09213849902153015,"210":0.15004275739192963,"211":-0.0811864584684372,"212":-0.1347547471523285,"213":-0.010705869644880295,"214":0.040547456592321396,"215":0.030300935730338097,"216":-0.10781189054250717,"217":-0.12426187843084335,"218":-0.0778888612985611,"219":0.030395299196243286,"220":-0.11856193840503693,"221":0.08022724837064743,"222":-0.1679431051015854,"223":-0.016202254220843315,"224":-0.11051654070615768,"225":-0.05676022171974182,"226":0.05266416072845459,"227":0.12726333737373352,"228":0.03845636919140816,"229":0.15179038047790527,"230":-0.047574084252119064,"231":0.1606421321630478,"232":-0.07643378525972366,"233":0.157025545835495,"234":0.08192355930805206,"235":0.028512274846434593,"236":0.14468221366405487,"237":0.16321980953216553,"238":-0.17099890112876892,"239":-0.11336065828800201,"240":-0.164191335439682,"241":-0.1971205323934555,"242":0.1749894618988037,"243":-0.14579059183597565,"244":-0.1488957405090332,"245":0.11277506500482559,"246":-0.04508458450436592,"247":0.10675592720508575,"248":0.08176370710134506,"249":0.044822122901678085,"250":-0.05864063650369644,"251":0.13995994627475739,"252":0.060292597860097885,"253":-0.09831000119447708,"254":0.23207999765872955,"255":0.010662850923836231,"256":-0.1786838322877884,"257":0.10910239070653915,"258":-0.034208670258522034,"259":0.08026937395334244,"260":-0.12758290767669678,"261":-0.08966947346925735,"262":-0.15951529145240784,"263":0.011571154929697514,"264":-0.033679768443107605,"265":0.13179221749305725,"266":0.0679936558008194,"267":0.11413564532995224,"268":0.0839044377207756,"269":-0.13529591262340546,"270":0.08405989408493042,"271":0.11383473128080368,"272":0.16775749623775482,"273":-0.15585264563560486,"274":0.27245497703552246,"275":0.13758043944835663,"276":0.09339133650064468,"277":-0.20543651282787323,"278":-0.1301988959312439,"279":0.13287417590618134,"280":0.03576916828751564,"281":0.19970272481441498,"282":-0.17591507732868195,"283":-0.05768619477748871,"284":-0.0720113143324852,"285":0.018261227756738663,"286":0.09752348065376282,"287":-0.08130436390638351,"288":0.03127269819378853,"289":0.1170140951871872,"290":-0.0020410465076565742,"291":0.14675717055797577,"292":-0.1684015393257141,"293":0.1954062283039093,"294":-0.01692051626741886,"295":-0.12966817617416382,"296":-0.10524522513151169,"297":-0.09236866235733032,"298":-0.03027941659092903,"299":-0.1519508957862854,"300":0.019752364605665207,"301":-0.01335573848336935,"302":-0.07352233678102493,"303":0.11853528767824173,"304":0.06632392108440399,"305":-0.02999560534954071,"306":-0.03888797014951706,"307":0.011558585800230503,"308":0.043237872421741486,"309":-0.12099076062440872,"310":0.06860990822315216,"311":0.03710465133190155,"312":0.14441078901290894,"313":0.03220488503575325,"314":0.06537378579378128,"315":-0.16776013374328613,"316":0.19265902042388916,"317":0.1729443520307541,"318":-0.18493753671646118,"319":0.14981207251548767,"320":-0.04212310537695885,"321":0.07023338228464127,"322":-0.0014679321320727468,"323":0.07952271401882172,"324":-0.14270444214344025,"325":-0.06558051705360413,"326":0.020946519449353218,"327":-0.12835702300071716,"328":0.053656481206417084,"329":0.055876102298498154,"330":0.19319649040699005,"331":-0.19454757869243622,"332":0.038984160870313644,"333":-0.10069874674081802,"334":0.097934789955616,"335":0.1442464292049408,"336":-0.04696708545088768,"337":0.06117548048496246,"338":-0.1755766123533249,"339":-0.110460065305233,"340":-0.1390521079301834,"341":-0.1031024232506752,"342":-0.15327195823192596,"343":-0.09327571839094162,"344":0.12277573347091675,"345":0.11172138154506683,"346":0.13107389211654663,"347":-0.06591184437274933,"348":-0.1732901781797409,"349":-0.007914436049759388,"350":0.11737988889217377,"351":-0.08595532178878784,"352":-0.1008266881108284,"353":0.11963242292404175,"354":-0.12152012437582016,"355":0.05520446226000786,"356":0.04123825207352638,"357":-0.04620920121669769,"358":-0.09677750617265701,"359":0.10458003729581833,"360":-0.06799231469631195,"361":0.09058314561843872,"362":-0.03733982890844345,"363":-0.061310555785894394,"364":0.17521385848522186,"365":-0.13919934630393982,"366":0.18627995252609253,"367":0.14687180519104004,"368":-0.14108218252658844,"369":0.0849827453494072,"370":0.06175955757498741,"371":-0.05367870628833771,"372":-0.07473649829626083,"373":-0.3311225473880768,"374":0.05407075583934784,"375":-0.19114629924297333,"376":-0.05210518091917038,"377":0.15708662569522858,"378":-0.1691187173128128,"379":-0.07609199732542038,"380":0.057795971632003784,"381":-0.1636403501033783,"382":-0.10611504316329956,"383":0.016252869740128517,"384":-0.10922493040561676,"385":-0.08705141395330429,"386":-0.014342634938657284,"387":-0.13030953705310822,"388":0.1710837483406067,"389":-0.17743147909641266,"390":0.05548160523176193,"391":-0.1475345343351364,"392":-0.012333210557699203,"393":-0.2242763638496399,"394":-0.02327301912009716,"395":-0.06625993549823761,"396":0.09042219072580338,"397":-0.16144825518131256,"398":-0.01467884797602892,"399":-0.16152556240558624}},"5":{"bias":-0.03476690128445625,"weights":{"0":0.18857042491436005,"1":-0.09563948214054108,"2":0.15745194256305695,"3":-0.11458040773868561,"4":-0.1734561026096344,"5":-0.03630521148443222,"6":-0.10285825282335281,"7":-0.00455976277589798,"8":0.18292222917079926,"9":0.0679306909441948,"10":0.07859597355127335,"11":-0.193124920129776,"12":0.18761545419692993,"13":0.14173570275306702,"14":-0.11245299130678177,"15":-0.17472268640995026,"16":0.13045530021190643,"17":-0.09001944214105606,"18":0.1509023904800415,"19":0.09404345601797104,"20":0.06619156152009964,"21":0.013213974423706532,"22":0.06962519884109497,"23":0.03900224715471268,"24":0.07131277024745941,"25":0.07251322269439697,"26":-0.17580734193325043,"27":-0.018519315868616104,"28":0.14523322880268097,"29":0.045129358768463135,"30":-0.18163342773914337,"31":0.04867444932460785,"32":0.016450006514787674,"33":-0.11614766716957092,"34":0.15173690021038055,"35":0.06775455176830292,"36":0.0940786749124527,"37":-0.05832146108150482,"38":0.17927704751491547,"39":0.04061398655176163,"40":0.16329163312911987,"41":-0.01484728418290615,"42":-0.11536968499422073,"43":0.17760540544986725,"44":-0.021853959187865257,"45":-0.14366944134235382,"46":-0.12431042641401291,"47":0.07053936272859573,"48":-0.03637872636318207,"49":-0.05314650386571884,"50":-0.13682477176189423,"51":-0.18058589100837708,"52":0.037863217294216156,"53":-0.06614846736192703,"54":0.14283251762390137,"55":-0.02376975677907467,"56":0.11732634156942368,"57":-0.141159325838089,"58":-0.17887116968631744,"59":0.13136638700962067,"60":0.05158180370926857,"61":-0.012921175919473171,"62":0.16553720831871033,"63":0.19737780094146729,"64":0.0723990648984909,"65":0.08892831951379776,"66":-0.04947588965296745,"67":0.1770828515291214,"68":0.08829345554113388,"69":-0.18066540360450745,"70":-0.09489479660987854,"71":-0.07126663625240326,"72":-0.07024572789669037,"73":0.15926821529865265,"74":0.19641277194023132,"75":-0.07732196897268295,"76":0.113739512860775,"77":-0.11935969442129135,"78":0.1323564499616623,"79":-0.012313992716372013,"80":0.18303588032722473,"81":-0.18568852543830872,"82":0.1260235458612442,"83":0.015821831300854683,"84":0.14367923140525818,"85":-0.0977734923362732,"86":-0.03865642473101616,"87":0.0125156594440341,"88":0.1305236518383026,"89":-0.194477379322052,"90":0.18382422626018524,"91":-0.1524662971496582,"92":-0.12229792028665543,"93":-0.022819872945547104,"94":0.17481514811515808,"95":0.07461093366146088,"96":-0.1361921727657318,"97":0.18788889050483704,"98":0.13868078589439392,"99":0.014551134780049324,"100":-0.08926165103912354,"101":-0.029672250151634216,"102":0.11337068676948547,"103":0.018302317708730698,"104":0.090520478785038,"105":0.06764457374811172,"106":0.14589066803455353,"107":0.13234993815422058,"108":0.029433447867631912,"109":-0.19969719648361206,"110":-0.09127477556467056,"111":0.1919863075017929,"112":0.08260440826416016,"113":-0.042144548147916794,"114":-0.12368528544902802,"115":0.1340668648481369,"116":0.06870599091053009,"117":-0.021794674918055534,"118":0.009240711107850075,"119":0.15262237191200256,"120":-0.12976878881454468,"121":-0.04838861897587776,"122":0.12252180278301239,"123":0.00513827009126544,"124":0.00719090411439538,"125":0.1299024522304535,"126":0.14706960320472717,"127":0.15213322639465332,"128":0.09313370287418365,"129":0.09901581704616547,"130":0.046698279678821564,"131":-0.18830636143684387,"132":0.17083151638507843,"133":-0.12058150768280029,"134":0.12882579863071442,"135":0.03278016671538353,"136":-0.027008214965462685,"137":0.09354238957166672,"138":0.11312444508075714,"139":0.04268905147910118,"140":-0.0153285451233387,"141":-0.030761463567614555,"142":0.00029637591796927154,"143":-0.011202593334019184,"144":0.037086181342601776,"145":0.08418314903974533,"146":0.15437231957912445,"147":0.06665074080228806,"148":-0.19063463807106018,"149":0.17725683748722076,"150":0.005948854610323906,"151":0.15749195218086243,"152":-0.15759366750717163,"153":0.11346790939569473,"154":0.07504419982433319,"155":0.10173545032739639,"156":-0.13857319951057434,"157":-0.03416023030877113,"158":-0.07146009802818298,"159":0.12706893682479858,"160":-0.03910446912050247,"161":-0.18696348369121552,"162":-0.030148496851325035,"163":0.16758334636688232,"164":-0.1187889501452446,"165":0.171971395611763,"166":0.08833179622888565,"167":0.16568559408187866,"168":-0.07068566977977753,"169":-0.04772357642650604,"170":0.015478111803531647,"171":-0.15392951667308807,"172":-0.1616891473531723,"173":0.19854292273521423,"174":0.0877426266670227,"175":-0.07255634665489197,"176":-0.10731823742389679,"177":-0.09980734437704086,"178":-0.11973007768392563,"179":0.1102052628993988,"180":-0.05182386562228203,"181":-0.021462304517626762,"182":0.1273803859949112,"183":0.17256811261177063,"184":0.04416773095726967,"185":0.13483375310897827,"186":0.19808728992938995,"187":0.16437683999538422,"188":-0.06754247099161148,"189":-0.02149900794029236,"190":-0.0997447520494461,"191":0.14377106726169586,"192":0.19280214607715607,"193":0.037471890449523926,"194":-0.07746484875679016,"195":-0.08570802211761475,"196":0.019045380875468254,"197":0.17825277149677277,"198":0.018674444407224655,"199":-0.07274553924798965,"200":-0.08129656314849854,"201":-0.09596391767263412,"202":-0.038675568997859955,"203":-0.05326584726572037,"204":-0.11018217355012894,"205":-0.04216315224766731,"206":-0.09128665179014206,"207":-0.08938738703727722,"208":0.17510680854320526,"209":-0.15326717495918274,"210":0.03518139570951462,"211":0.1501057744026184,"212":0.14014245569705963,"213":-0.1488044410943985,"214":-0.06446519494056702,"215":0.09623581916093826,"216":-0.09722796082496643,"217":0.042078275233507156,"218":0.17381519079208374,"219":0.16232602298259735,"220":0.04224236309528351,"221":-0.08288934081792831,"222":0.1541878879070282,"223":-0.051190126687288284,"224":0.13448484241962433,"225":-0.04266529157757759,"226":0.18444325029850006,"227":0.00336261629126966,"228":0.15250694751739502,"229":0.06370068341493607,"230":0.1744859218597412,"231":-0.06470007449388504,"232":0.11047755926847458,"233":-0.11341802030801773,"234":-0.12240306288003922,"235":0.0640275776386261,"236":-0.055272821336984634,"237":0.1538584977388382,"238":0.14146828651428223,"239":0.10408710688352585,"240":-0.11635614931583405,"241":0.1300346702337265,"242":0.19681936502456665,"243":0.03508375212550163,"244":-0.18792136013507843,"245":-0.06523247063159943,"246":0.026559246703982353,"247":-0.1484125554561615,"248":0.1887621283531189,"249":0.1814417839050293,"250":-0.002092623384669423,"251":-0.18331287801265717,"252":0.19344517588615417,"253":0.020351063460111618,"254":-0.1269237995147705,"255":-0.1510261744260788,"256":0.0746866762638092,"257":0.06646760553121567,"258":0.16869264841079712,"259":0.001832127571105957,"260":-0.1618790328502655,"261":-0.031617674976587296,"262":-0.12212476134300232,"263":0.048927191644907,"264":0.002695162780582905,"265":0.17925871908664703,"266":0.12334121018648148,"267":-0.16292284429073334,"268":0.0801096186041832,"269":0.0013201518449932337,"270":0.1069326400756836,"271":-0.19619540870189667,"272":0.08035159856081009,"273":-0.08006958663463593,"274":0.004104468040168285,"275":-0.07468709349632263,"276":0.09503726661205292,"277":-0.04531828686594963,"278":-0.09435485303401947,"279":-0.029953939840197563,"280":-0.18456882238388062,"281":-0.03866640478372574,"282":0.1482170820236206,"283":-0.05622071772813797,"284":0.15847599506378174,"285":0.15991981327533722,"286":0.07469135522842407,"287":-0.056605055928230286,"288":0.10691290348768234,"289":0.18773135542869568,"290":0.07010090351104736,"291":0.14771424233913422,"292":0.09612113982439041,"293":0.06463276594877243,"294":-0.25715726613998413,"295":-0.09256134182214737,"296":0.13919271528720856,"297":0.14278408885002136,"298":0.11293202638626099,"299":-0.09476166218519211,"300":0.11890684813261032,"301":-0.0653814971446991,"302":0.002574745798483491,"303":0.08502352237701416,"304":-0.16704784333705902,"305":0.11140640079975128,"306":-0.18182377517223358,"307":0.14768913388252258,"308":0.035865914076566696,"309":0.11033910512924194,"310":0.17822259664535522,"311":0.10532796382904053,"312":-0.12332455813884735,"313":0.044399674981832504,"314":-0.1082858070731163,"315":-0.1200815886259079,"316":0.05139578878879547,"317":0.15982289612293243,"318":-0.13928009569644928,"319":0.08517999202013016,"320":0.11653492599725723,"321":0.11281382292509079,"322":0.19798727333545685,"323":0.037142496556043625,"324":-0.03989294916391373,"325":0.13332147896289825,"326":-0.02187213860452175,"327":0.05887575447559357,"328":-0.025026166811585426,"329":0.046626415103673935,"330":-0.07679847627878189,"331":-0.10610705614089966,"332":0.13359948992729187,"333":-0.16667255759239197,"334":-0.14297088980674744,"335":0.16693058609962463,"336":-0.14109428226947784,"337":0.08220630139112473,"338":-0.04292294755578041,"339":0.006878201849758625,"340":-0.04550312086939812,"341":-0.10082799941301346,"342":-0.07575421035289764,"343":0.051785875111818314,"344":0.09762547165155411,"345":-0.12628154456615448,"346":-0.11940203607082367,"347":0.15788517892360687,"348":-0.14334796369075775,"349":-0.14006586372852325,"350":0.11553972959518433,"351":0.1443752944469452,"352":0.015724804252386093,"353":0.07779937237501144,"354":-0.1907023787498474,"355":0.14458143711090088,"356":0.04568744823336601,"357":0.02472423017024994,"358":0.04674980416893959,"359":0.08527840673923492,"360":-0.13025686144828796,"361":-0.173304483294487,"362":-0.1326463520526886,"363":-0.023066550493240356,"364":0.1495039463043213,"365":0.10310209542512894,"366":-0.1052107959985733,"367":-0.1483711302280426,"368":-0.006004062946885824,"369":-0.19398310780525208,"370":-0.04105382785201073,"371":-0.17393410205841064,"372":-0.06639280170202255,"373":0.1607781946659088,"374":0.12471987307071686,"375":0.13840702176094055,"376":-0.06894692778587341,"377":-0.13404580950737,"378":-0.11848406493663788,"379":0.014687176793813705,"380":-0.16254444420337677,"381":-0.09432414174079895,"382":-0.05834385007619858,"383":0.05236111953854561,"384":-0.11692515015602112,"385":-0.03954555094242096,"386":-0.05724436417222023,"387":0.041307926177978516,"388":0.040500134229660034,"389":0.1586780995130539,"390":-0.015168577432632446,"391":-0.20714721083641052,"392":0.1586349904537201,"393":-0.04440436512231827,"394":-0.17004603147506714,"395":-0.14803214371204376,"396":0.032755497843027115,"397":0.07171700894832611,"398":0.19087384641170502,"399":-0.030377505347132683}},"6":{"bias":0.004100234713405371,"weights":{"0":-0.005805002059787512,"1":0.17445936799049377,"2":0.0275155957788229,"3":-0.08534637093544006,"4":-0.19144411385059357,"5":0.174449160695076,"6":0.17723903059959412,"7":-0.1806136667728424,"8":0.16534508764743805,"9":0.02818537876009941,"10":0.009606782346963882,"11":-0.15221358835697174,"12":-0.05055033043026924,"13":-0.02736007608473301,"14":-0.036394767463207245,"15":0.15245641767978668,"16":0.06132357940077782,"17":-0.09426891803741455,"18":0.023231031373143196,"19":-0.12720638513565063,"20":-0.0699632316827774,"21":0.055187009274959564,"22":0.16575419902801514,"23":-0.15033270418643951,"24":0.15397046506404877,"25":-0.12259886413812637,"26":-0.16146866977214813,"27":0.08268281072378159,"28":-0.12065111845731735,"29":-0.10885223001241684,"30":-0.1911059319972992,"31":-0.043338220566511154,"32":-0.026804456487298012,"33":0.11482463777065277,"34":-0.19869500398635864,"35":0.035382919013500214,"36":-0.14695560932159424,"37":0.06009555608034134,"38":0.06646962463855743,"39":-0.06798313558101654,"40":0.09696488082408905,"41":0.16442954540252686,"42":-0.09105829894542694,"43":0.198414146900177,"44":-0.15520355105400085,"45":-0.13808666169643402,"46":-0.14709581434726715,"47":-0.1152200847864151,"48":-0.01906842738389969,"49":-0.1895553022623062,"50":-0.04509958252310753,"51":-0.17810653150081635,"52":-0.041194070130586624,"53":-0.19467677175998688,"54":-0.12916307151317596,"55":-0.10858117043972015,"56":-0.08627913892269135,"57":0.02136065997183323,"58":-0.12334226816892624,"59":0.1938023418188095,"60":0.06097797676920891,"61":0.18557319045066833,"62":0.10688331723213196,"63":0.16860584914684296,"64":-0.06689915060997009,"65":-0.18911013007164001,"66":0.014881586655974388,"67":0.031702037900686264,"68":0.03159625455737114,"69":0.1723223179578781,"70":-0.014912944287061691,"71":0.08563803881406784,"72":0.15214543044567108,"73":-0.024635184556245804,"74":0.08953774720430374,"75":-0.10803556442260742,"76":0.05094994977116585,"77":-0.17983126640319824,"78":-0.07297639548778534,"79":0.119842030107975,"80":0.02573252096772194,"81":-0.14667703211307526,"82":-0.051874201744794846,"83":-0.1980476975440979,"84":-0.06957119703292847,"85":-0.11388009041547775,"86":-0.100282683968544,"87":-0.0015965210041031241,"88":0.11571714282035828,"89":0.04236791282892227,"90":-0.07290804386138916,"91":0.11552395671606064,"92":0.0856543704867363,"93":-0.018732616677880287,"94":-0.1749366670846939,"95":0.017883501946926117,"96":-0.02698764018714428,"97":-0.1519058644771576,"98":-0.11877310276031494,"99":0.10124785453081131,"100":-0.07386504858732224,"101":-0.13307282328605652,"102":0.086891770362854,"103":0.158125638961792,"104":-0.1515854299068451,"105":0.14430105686187744,"106":-0.11788618564605713,"107":-0.07517427951097488,"108":0.11540745198726654,"109":0.07115336507558823,"110":-0.08287838101387024,"111":0.08201909810304642,"112":0.16389982402324677,"113":0.03213183209300041,"114":-0.14560949802398682,"115":0.1844445914030075,"116":0.15587909519672394,"117":-0.02812211588025093,"118":-0.11848323792219162,"119":0.03919553756713867,"120":-0.14801260828971863,"121":-0.07734939455986023,"122":-0.09751614183187485,"123":0.1287735551595688,"124":-0.028824644163250923,"125":-0.03633808717131615,"126":0.11686306446790695,"127":0.16452987492084503,"128":-0.1813107132911682,"129":-0.06107350066304207,"130":0.012522852048277855,"131":0.0001777032157406211,"132":-0.07351528853178024,"133":-0.016606148332357407,"134":-0.0967646986246109,"135":0.12223286926746368,"136":-0.13036176562309265,"137":-0.09293443709611893,"138":-0.12016353756189346,"139":-0.19940049946308136,"140":-0.08571331202983856,"141":0.00047813571291044354,"142":-0.005227913614362478,"143":0.0912507176399231,"144":-0.03332415968179703,"145":-0.0018480450380593538,"146":-0.17286725342273712,"147":-0.08514007925987244,"148":-0.1685837209224701,"149":-0.11226513981819153,"150":0.12836264073848724,"151":0.1923031508922577,"152":-0.0947151705622673,"153":0.09565121680498123,"154":-0.08142029494047165,"155":-0.1860162615776062,"156":0.1932709515094757,"157":-0.04273120313882828,"158":-0.0795784518122673,"159":0.10466964542865753,"160":-0.17695987224578857,"161":0.19701848924160004,"162":0.062068380415439606,"163":-0.04434414952993393,"164":0.11521872878074646,"165":0.06598687916994095,"166":0.11463708430528641,"167":0.1271793693304062,"168":-0.04894004762172699,"169":0.05983680114150047,"170":-0.17566776275634766,"171":0.03622012585401535,"172":-0.16450731456279755,"173":0.17501097917556763,"174":0.08183389157056808,"175":0.013711202889680862,"176":-0.0780530720949173,"177":-0.010175100527703762,"178":-0.0069008031859993935,"179":0.04859668388962746,"180":-0.16081500053405762,"181":0.17073890566825867,"182":0.006001821719110012,"183":-0.058590684086084366,"184":0.1338944286108017,"185":0.004115097690373659,"186":-0.00984944123774767,"187":0.1168224886059761,"188":0.19914382696151733,"189":0.12397915869951248,"190":0.0070999967865645885,"191":0.06922301650047302,"192":0.13193203508853912,"193":-0.18364763259887695,"194":0.1615259349346161,"195":-0.18796107172966003,"196":-0.12359628081321716,"197":0.07441548258066177,"198":0.09464193880558014,"199":0.1694364994764328,"200":-0.19627438485622406,"201":0.009073330089449883,"202":0.05899776890873909,"203":0.15055181086063385,"204":0.0401681587100029,"205":0.005015387199819088,"206":0.06341253966093063,"207":-0.18133072555065155,"208":0.03789716586470604,"209":-0.1627824455499649,"210":0.1546907275915146,"211":0.04417506605386734,"212":0.0009011726942844689,"213":-0.1890023797750473,"214":0.1310710310935974,"215":0.14426185190677643,"216":0.14639583230018616,"217":0.09223152697086334,"218":-0.06748418509960175,"219":0.15272299945354462,"220":-0.1912883073091507,"221":-0.1824081838130951,"222":-0.1990138590335846,"223":0.18128451704978943,"224":0.05333177372813225,"225":0.055613137781620026,"226":0.02046888880431652,"227":0.15000669658184052,"228":0.14870846271514893,"229":0.15258769690990448,"230":0.048197194933891296,"231":0.16215582191944122,"232":0.09300319850444794,"233":-0.1765112280845642,"234":0.15929056704044342,"235":-0.16567789018154144,"236":0.15465869009494781,"237":0.12155518680810928,"238":-0.09137720614671707,"239":0.08225923776626587,"240":0.07023626565933228,"241":-0.13955740630626678,"242":-0.11418739706277847,"243":-0.11026071012020111,"244":0.16324225068092346,"245":0.1475539207458496,"246":-0.0902494490146637,"247":0.07641227543354034,"248":-0.0449184812605381,"249":-0.18024849891662598,"250":0.06690988689661026,"251":-0.07332894206047058,"252":0.19394393265247345,"253":0.20955534279346466,"254":0.03863389045000076,"255":0.010922148823738098,"256":-0.009938167408108711,"257":0.13540169596672058,"258":0.029107127338647842,"259":-0.1834983080625534,"260":0.16696994006633759,"261":0.03915911912918091,"262":0.16273342072963715,"263":0.028283918276429176,"264":-0.06522472947835922,"265":0.14200043678283691,"266":-0.138938307762146,"267":-0.1569276750087738,"268":-0.03304891660809517,"269":-0.19704309105873108,"270":-0.013444943353533745,"271":0.1355738788843155,"272":0.12334086745977402,"273":-0.11054626852273941,"274":-0.020459787920117378,"275":-0.1494482457637787,"276":-0.002930225105956197,"277":0.1941656917333603,"278":-0.17175525426864624,"279":0.09875524044036865,"280":-0.09317474812269211,"281":-0.13787375390529633,"282":0.0010203176643699408,"283":0.16280992329120636,"284":0.12355615198612213,"285":-0.017605766654014587,"286":0.040148548781871796,"287":-0.027058329433202744,"288":0.17695747315883636,"289":-0.1298198401927948,"290":-0.1634194701910019,"291":-0.18019573390483856,"292":-0.11279147863388062,"293":-0.06827414780855179,"294":-0.027951933443546295,"295":0.14431531727313995,"296":-0.0050858063623309135,"297":-0.16495215892791748,"298":0.03347676619887352,"299":-0.12572167813777924,"300":-0.1857520341873169,"301":-0.15339328348636627,"302":-0.07066045701503754,"303":-0.17336411774158478,"304":-0.05320588871836662,"305":-0.08548092842102051,"306":0.04313415661454201,"307":-0.06424260139465332,"308":0.06897801160812378,"309":-0.14993053674697876,"310":0.05122867226600647,"311":-0.15872368216514587,"312":0.018400942906737328,"313":0.17780573666095734,"314":0.00626948568969965,"315":0.024204207584261894,"316":-0.031211884692311287,"317":-0.18788424134254456,"318":-0.10478243976831436,"319":0.15679286420345306,"320":-0.00003684368130052462,"321":0.07086949050426483,"322":0.013253039680421352,"323":0.10817866772413254,"324":0.08411047607660294,"325":-0.0062740035355091095,"326":0.19908636808395386,"327":0.03287515416741371,"328":-0.08428014814853668,"329":-0.18047146499156952,"330":-0.19295574724674225,"331":0.05887278541922569,"332":-0.09330376982688904,"333":-0.10398095101118088,"334":-0.14704489707946777,"335":0.13397222757339478,"336":-0.11281759291887283,"337":0.17797651886940002,"338":-0.19905704259872437,"339":-0.18830247223377228,"340":0.11706210672855377,"341":0.12207116931676865,"342":-0.07051301002502441,"343":-0.15116269886493683,"344":-0.05775368586182594,"345":-0.1449662297964096,"346":-0.04695709049701691,"347":0.016392312943935394,"348":0.10328604280948639,"349":-0.18435733020305634,"350":-0.08334317058324814,"351":-0.05801234021782875,"352":-0.10686146467924118,"353":0.140780970454216,"354":-0.1780606061220169,"355":0.0034440106246620417,"356":-0.16721361875534058,"357":0.1447744369506836,"358":-0.044782400131225586,"359":0.1906639188528061,"360":0.05677904933691025,"361":0.06959948688745499,"362":0.1547548472881317,"363":0.01787978783249855,"364":0.1012323871254921,"365":-0.14098013937473297,"366":-0.1935216188430786,"367":-0.10655003786087036,"368":0.020501915365457535,"369":0.1690731793642044,"370":0.12000317126512527,"371":-0.17892085015773773,"372":-0.04247703775763512,"373":0.04799933359026909,"374":-0.02513696253299713,"375":-0.1387159526348114,"376":0.19290904700756073,"377":0.11524591594934464,"378":-0.013305559754371643,"379":-0.09535611420869827,"380":-0.08220527321100235,"381":0.19763989746570587,"382":0.11697234958410263,"383":0.11953616142272949,"384":-0.09242910146713257,"385":-0.1440470814704895,"386":-0.013961856253445148,"387":-0.055083129554986954,"388":-0.017220189794898033,"389":-0.17683950066566467,"390":0.001227622153237462,"391":0.04009697213768959,"392":-0.1489506959915161,"393":0.14288204908370972,"394":0.1272752583026886,"395":-0.09806524217128754,"396":-0.0994754210114479,"397":-0.17160476744174957,"398":-0.17173968255519867,"399":0.12428870052099228}},"7":{"bias":0.041264940053224564,"weights":{"0":-0.04828907549381256,"1":0.1975991427898407,"2":0.15077966451644897,"3":-0.17784443497657776,"4":0.02174202911555767,"5":-0.06523924320936203,"6":0.05704192444682121,"7":0.12092473357915878,"8":-0.12680701911449432,"9":-0.15009644627571106,"10":-0.04121919721364975,"11":-0.04359282925724983,"12":-0.10349348932504654,"13":-0.12709783017635345,"14":-0.03330867737531662,"15":-0.1262076497077942,"16":0.11606035381555557,"17":-0.15463808178901672,"18":-0.12557435035705566,"19":0.17130380868911743,"20":0.17390920221805573,"21":-0.17335467040538788,"22":-0.03100629709661007,"23":0.13757099211215973,"24":0.031529445201158524,"25":0.15021099150180817,"26":-0.18174603581428528,"27":-0.09332365542650223,"28":-0.06907030940055847,"29":0.17938514053821564,"30":0.15608423948287964,"31":-0.03883221372961998,"32":0.07382019609212875,"33":0.18859733641147614,"34":-0.14817476272583008,"35":0.015113896690309048,"36":-0.14063896238803864,"37":0.12200672924518585,"38":-0.09562334418296814,"39":0.10533810406923294,"40":-0.1748134344816208,"41":0.1762383133172989,"42":0.06218462809920311,"43":-0.1815161108970642,"44":-0.07095303386449814,"45":-0.10545087605714798,"46":0.1360558271408081,"47":-0.1791449338197708,"48":0.002731070853769779,"49":-0.016928482800722122,"50":-0.06879231333732605,"51":0.052030958235263824,"52":0.06143299862742424,"53":0.09888776391744614,"54":-0.04240316152572632,"55":0.09188948571681976,"56":0.0067258309572935104,"57":-0.00016664175200276077,"58":0.0017073381459340453,"59":-0.15253092348575592,"60":0.12959212064743042,"61":0.03391169756650925,"62":0.06235019490122795,"63":-0.16041187942028046,"64":-0.010481642559170723,"65":0.12846650183200836,"66":0.08390744030475616,"67":0.014006609097123146,"68":-0.09117668122053146,"69":0.11586105823516846,"70":0.12396586686372757,"71":0.11528865247964859,"72":0.16776327788829803,"73":-0.004945059772580862,"74":-0.025961490347981453,"75":0.08186165243387222,"76":-0.04287967085838318,"77":-0.026323210448026657,"78":-0.005806794390082359,"79":-0.01275994535535574,"80":0.18211092054843903,"81":0.1578761786222458,"82":0.11289574205875397,"83":0.046507108956575394,"84":0.16024494171142578,"85":0.11604960262775421,"86":0.025946320965886116,"87":0.12673234939575195,"88":-0.16616903245449066,"89":0.09203741699457169,"90":0.037168409675359726,"91":0.14055871963500977,"92":-0.14472109079360962,"93":-0.0025599084328860044,"94":0.00005569044878939167,"95":0.08154622465372086,"96":-0.0858379602432251,"97":-0.14959466457366943,"98":0.14105969667434692,"99":0.17467723786830902,"100":-0.05604195594787598,"101":0.17970140278339386,"102":0.0014953172067180276,"103":-0.06576427072286606,"104":-0.16848596930503845,"105":-0.09951093047857285,"106":-0.03862403705716133,"107":0.08013728260993958,"108":0.005575094372034073,"109":0.006109963171184063,"110":0.12625037133693695,"111":0.10662243515253067,"112":0.029169602319598198,"113":0.006480012089014053,"114":-0.0740310400724411,"115":0.14959651231765747,"116":0.00020062056137248874,"117":-0.1301935911178589,"118":-0.0973171666264534,"119":0.17151401937007904,"120":0.16579817235469818,"121":-0.1738993376493454,"122":-0.03367117419838905,"123":-0.16103047132492065,"124":0.166006401181221,"125":-0.11068423092365265,"126":-0.05847063660621643,"127":0.046106886118650436,"128":0.194157212972641,"129":-0.11611732840538025,"130":-0.18284478783607483,"131":-0.16406670212745667,"132":0.18252520263195038,"133":0.17484764754772186,"134":-0.1472996324300766,"135":0.13687871396541595,"136":-0.17795750498771667,"137":-0.10930662602186203,"138":0.047101978212594986,"139":-0.11846636980772018,"140":0.14681819081306458,"141":0.003930167760699987,"142":0.07667422294616699,"143":0.10655444115400314,"144":0.15352191030979156,"145":-0.071095310151577,"146":0.055071745067834854,"147":-0.11077788472175598,"148":0.020573042333126068,"149":0.010953471064567566,"150":-0.1673586368560791,"151":-0.032049886882305145,"152":-0.11030295491218567,"153":0.13216324150562286,"154":0.16376535594463348,"155":0.19511409103870392,"156":-0.020445507019758224,"157":-0.19289089739322662,"158":-0.0628097876906395,"159":-0.17984212934970856,"160":-0.06263658404350281,"161":-0.038209185004234314,"162":-0.017609190195798874,"163":0.12852944433689117,"164":0.05800721049308777,"165":0.17280292510986328,"166":0.13306014239788055,"167":-0.13747476041316986,"168":-0.04044150933623314,"169":0.16900022327899933,"170":-0.07348986715078354,"171":0.11043114960193634,"172":0.12089653313159943,"173":-0.11284183710813522,"174":0.06314979493618011,"175":-0.14673945307731628,"176":0.05402260646224022,"177":-0.0431278757750988,"178":-0.041553154587745667,"179":-0.19411249458789825,"180":0.15179018676280975,"181":0.02499288134276867,"182":0.19415606558322906,"183":-0.1485576033592224,"184":0.18581093847751617,"185":-0.1689269244670868,"186":0.19313335418701172,"187":-0.1251947581768036,"188":0.029564253985881805,"189":-0.13917849957942963,"190":0.03579401969909668,"191":0.12599557638168335,"192":0.15119683742523193,"193":-0.09100320935249329,"194":0.11935199052095413,"195":0.118114173412323,"196":0.14752639830112457,"197":-0.18015150725841522,"198":0.13324744999408722,"199":0.2138146311044693,"200":-0.1530732661485672,"201":-0.13303866982460022,"202":0.16486918926239014,"203":-0.009527839720249176,"204":-0.1591673195362091,"205":0.10948481410741806,"206":0.1768249124288559,"207":0.12891367077827454,"208":0.11144088208675385,"209":0.13012145459651947,"210":-0.03759762644767761,"211":-0.10454847663640976,"212":0.1468176394701004,"213":0.09762649983167648,"214":0.1547224074602127,"215":0.10012705624103546,"216":-0.17018797993659973,"217":-0.0011722724884748459,"218":0.2448231726884842,"219":0.21012912690639496,"220":-0.014925116673111916,"221":0.13821962475776672,"222":0.034819066524505615,"223":0.033453356474637985,"224":-0.08725422620773315,"225":0.0170337725430727,"226":0.0418173111975193,"227":0.057006143033504486,"228":0.1734844148159027,"229":0.1047329232096672,"230":-0.09153848886489868,"231":-0.1896711140871048,"232":0.0370604544878006,"233":-0.013812027871608734,"234":0.16541585326194763,"235":0.0015446220058947802,"236":0.19761669635772705,"237":0.1737932413816452,"238":0.1555967926979065,"239":0.12282908707857132,"240":0.1603030562400818,"241":-0.052901286631822586,"242":0.14304324984550476,"243":-0.19042210280895233,"244":0.12182467430830002,"245":-0.08276265114545822,"246":0.16060589253902435,"247":0.19013024866580963,"248":0.17517434060573578,"249":-0.18726687133312225,"250":-0.1187746599316597,"251":-0.1265474408864975,"252":0.17326857149600983,"253":0.06132161617279053,"254":0.12738756835460663,"255":-0.16872872412204742,"256":0.04435187578201294,"257":0.061873868107795715,"258":-0.0451594702899456,"259":0.06111979857087135,"260":0.049672044813632965,"261":-0.18654656410217285,"262":0.05881298705935478,"263":-0.14386975765228271,"264":-0.08103125542402267,"265":-0.052842944860458374,"266":-0.14245423674583435,"267":-0.07093025743961334,"268":0.09475767612457275,"269":0.1237267553806305,"270":0.16761420667171478,"271":-0.14189773797988892,"272":-0.18320129811763763,"273":0.08537117391824722,"274":0.23992064595222473,"275":-0.11439094692468643,"276":0.11454212665557861,"277":-0.11044486612081528,"278":-0.0682605728507042,"279":0.18906770646572113,"280":-0.031290993094444275,"281":0.09380130469799042,"282":0.11786939948797226,"283":0.1014527678489685,"284":-0.002891374519094825,"285":-0.08573420345783234,"286":0.14303530752658844,"287":0.0914195105433464,"288":0.08456583321094513,"289":0.14781570434570312,"290":-0.04836984723806381,"291":-0.13490551710128784,"292":-0.00655029620975256,"293":-0.07896337658166885,"294":0.12745368480682373,"295":-0.06589490920305252,"296":-0.18937328457832336,"297":-0.1525551676750183,"298":-0.036616940051317215,"299":-0.011154280975461006,"300":0.16281037032604218,"301":0.04941962659358978,"302":0.18899580836296082,"303":0.14310196042060852,"304":0.08051499724388123,"305":-0.1602517068386078,"306":0.05379272624850273,"307":-0.0560917891561985,"308":0.10682602226734161,"309":0.07175622880458832,"310":0.13363595306873322,"311":0.06850700825452805,"312":0.09420110285282135,"313":0.1327870637178421,"314":0.03460264950990677,"315":-0.045236848294734955,"316":0.08016505837440491,"317":0.08433698117733002,"318":0.1437016725540161,"319":0.0037473842967301607,"320":0.16315943002700806,"321":0.06412916630506516,"322":-0.09483668953180313,"323":-0.19441699981689453,"324":0.05819454789161682,"325":-0.11283454298973083,"326":0.05924239382147789,"327":0.13281437754631042,"328":0.17436383664608002,"329":-0.04363678768277168,"330":0.15673376619815826,"331":-0.24240782856941223,"332":-0.0293098334223032,"333":0.03267146274447441,"334":-0.2140481024980545,"335":0.24282224476337433,"336":-0.12912918627262115,"337":0.004021646920591593,"338":0.08330652862787247,"339":0.13658520579338074,"340":-0.11844605207443237,"341":0.0887313038110733,"342":-0.0747501477599144,"343":-0.15203309059143066,"344":-0.13816522061824799,"345":0.06357835978269577,"346":0.011977304704487324,"347":-0.1486314833164215,"348":-0.12629345059394836,"349":-0.07663668692111969,"350":-0.1708812266588211,"351":-0.18752625584602356,"352":0.1352921724319458,"353":-0.1267450600862503,"354":-0.21278606355190277,"355":-0.08409048616886139,"356":0.12244477868080139,"357":0.14077645540237427,"358":-0.10808148235082626,"359":0.20971664786338806,"360":0.08323564380407333,"361":-0.007041397504508495,"362":0.036332473158836365,"363":0.042763303965330124,"364":0.01708730310201645,"365":0.11705674231052399,"366":-0.05330058932304382,"367":-0.10973060876131058,"368":0.12146945297718048,"369":0.12365018576383591,"370":-0.17176194489002228,"371":-0.2250172644853592,"372":-0.13131044805049896,"373":-0.3429442346096039,"374":-0.05746937543153763,"375":-0.015230577439069748,"376":-0.026354866102337837,"377":-0.2128531038761139,"378":0.0009515525889582932,"379":0.07946942746639252,"380":0.1335172951221466,"381":-0.19071219861507416,"382":0.1970091313123703,"383":-0.1006564274430275,"384":-0.12822295725345612,"385":0.19549869000911713,"386":-0.16254673898220062,"387":0.10278704762458801,"388":0.16639839112758636,"389":-0.10147780925035477,"390":-0.08445701748132706,"391":-0.20264002680778503,"392":0.034773729741573334,"393":-0.2364632785320282,"394":-0.12765410542488098,"395":-0.0398237481713295,"396":-0.013982449658215046,"397":0.10646358132362366,"398":-0.08155112713575363,"399":0.14208246767520905}},"8":{"bias":0.019118845462799072,"weights":{"0":0.0681832954287529,"1":0.00466658640652895,"2":-0.0919971689581871,"3":0.06435398757457733,"4":0.027340278029441833,"5":-0.18150824308395386,"6":0.10009533166885376,"7":-0.016597092151641846,"8":-0.12089617550373077,"9":0.13083097338676453,"10":0.09035434573888779,"11":0.16302180290222168,"12":-0.032599031925201416,"13":-0.12546323239803314,"14":0.13928323984146118,"15":0.07006940990686417,"16":-0.14372332394123077,"17":-0.11459928750991821,"18":0.08193609118461609,"19":0.0023859317880123854,"20":-0.17891456186771393,"21":-0.07477251440286636,"22":0.1521531194448471,"23":-0.004082819912582636,"24":-0.1228359043598175,"25":0.17925992608070374,"26":0.15238484740257263,"27":0.04085443168878555,"28":-0.13573716580867767,"29":-0.15533511340618134,"30":0.17404361069202423,"31":-0.06125996261835098,"32":-0.11671129614114761,"33":0.06442424654960632,"34":-0.18258121609687805,"35":0.10639331489801407,"36":0.09212569892406464,"37":-0.14731037616729736,"38":-0.11945729702711105,"39":0.10189671069383621,"40":0.1917668581008911,"41":0.15418869256973267,"42":0.19728690385818481,"43":0.05324733257293701,"44":0.13267311453819275,"45":0.09050872176885605,"46":0.11945901066064835,"47":0.13689643144607544,"48":-0.037189990282058716,"49":0.18787157535552979,"50":-0.04052509739995003,"51":-0.15389259159564972,"52":-0.10361229628324509,"53":-0.014748255722224712,"54":-0.004426109604537487,"55":0.10498205572366714,"56":-0.13178066909313202,"57":-0.018483396619558334,"58":-0.14478792250156403,"59":0.014733833260834217,"60":0.02835506573319435,"61":-0.03212207183241844,"62":0.06133551895618439,"63":-0.028823556378483772,"64":-0.07826760411262512,"65":-0.10925119370222092,"66":0.045034829527139664,"67":0.10929881781339645,"68":-0.14412331581115723,"69":-0.11081438511610031,"70":-0.027066029608249664,"71":-0.0952807366847992,"72":0.04882599785923958,"73":0.02826913632452488,"74":0.0611393116414547,"75":0.13047708570957184,"76":-0.06732779741287231,"77":-0.06202260032296181,"78":-0.04646147042512894,"79":0.17933741211891174,"80":-0.1546044498682022,"81":0.060450341552495956,"82":-0.1282951533794403,"83":0.046175144612789154,"84":0.19229577481746674,"85":0.1003393605351448,"86":0.10279388725757599,"87":-0.026299163699150085,"88":0.11716242134571075,"89":-0.0007092299638316035,"90":-0.05786817893385887,"91":0.18178090453147888,"92":0.026720287278294563,"93":-0.07298272103071213,"94":-0.010079817846417427,"95":0.13236621022224426,"96":-0.19297748804092407,"97":-0.1661754995584488,"98":0.04624755680561066,"99":0.004795598331838846,"100":0.01706053875386715,"101":-0.1904400885105133,"102":0.034123510122299194,"103":-0.1489957571029663,"104":-0.01799839176237583,"105":0.06657540053129196,"106":0.18826887011528015,"107":0.11971266567707062,"108":-0.1914392113685608,"109":-0.056074995547533035,"110":-0.05491019785404205,"111":0.09459120035171509,"112":0.18170087039470673,"113":-0.14676174521446228,"114":0.15443527698516846,"115":0.16690240800380707,"116":-0.14816798269748688,"117":0.042337652295827866,"118":0.17740415036678314,"119":0.12587006390094757,"120":0.0020051312167197466,"121":0.14902739226818085,"122":-0.10973025113344193,"123":-0.07265155017375946,"124":-0.01107744500041008,"125":-0.16332745552062988,"126":0.0267872903496027,"127":0.13798196613788605,"128":-0.19034406542778015,"129":-0.10245385020971298,"130":-0.04393552243709564,"131":0.08082402497529984,"132":-0.14775486290454865,"133":-0.0341414138674736,"134":-0.07805255800485611,"135":-0.0057838610373437405,"136":0.139803946018219,"137":-0.1790037751197815,"138":0.10054443776607513,"139":-0.11709058284759521,"140":-0.1510787159204483,"141":-0.019470524042844772,"142":0.17588846385478973,"143":0.0737958550453186,"144":-0.012029921635985374,"145":-0.15901276469230652,"146":-0.055490221828222275,"147":-0.07742630690336227,"148":-0.14109951257705688,"149":0.0339437834918499,"150":-0.1675414890050888,"151":0.18011917173862457,"152":-0.0968170240521431,"153":-0.11393289268016815,"154":-0.07591049373149872,"155":-0.01490059494972229,"156":-0.14544638991355896,"157":-0.04303091764450073,"158":0.16122573614120483,"159":0.1939023733139038,"160":0.12337132543325424,"161":-0.04147956147789955,"162":0.18132945895195007,"163":0.04940507560968399,"164":0.1086762398481369,"165":-0.04115637391805649,"166":-0.0798640325665474,"167":0.166028693318367,"168":-0.11438954621553421,"169":0.0757397934794426,"170":-0.019663050770759583,"171":-0.06092885509133339,"172":-0.03555247187614441,"173":0.1765870600938797,"174":-0.04504641890525818,"175":-0.14458948373794556,"176":0.032022878527641296,"177":-0.03368053212761879,"178":-0.1335340291261673,"179":0.1656564325094223,"180":-0.010710467584431171,"181":0.042237088084220886,"182":0.013560034334659576,"183":-0.08739953488111496,"184":0.08705983310937881,"185":0.1679631471633911,"186":-0.041342463344335556,"187":-0.112071692943573,"188":0.11705242097377777,"189":0.0229781661182642,"190":0.11427302658557892,"191":0.18294934928417206,"192":-0.09411363303661346,"193":-0.040518619120121,"194":-0.07711267471313477,"195":0.10134420543909073,"196":-0.15158560872077942,"197":-0.19582200050354004,"198":-0.007470028940588236,"199":0.03099946305155754,"200":-0.10823503881692886,"201":-0.11529328674077988,"202":0.11988190561532974,"203":-0.13411667943000793,"204":0.1286366581916809,"205":0.024154169484972954,"206":-0.06409342586994171,"207":-0.15797899663448334,"208":0.12308735400438309,"209":0.146495059132576,"210":-0.16291379928588867,"211":-0.17921486496925354,"212":-0.023492170497775078,"213":-0.13967806100845337,"214":0.15241704881191254,"215":-0.11119453608989716,"216":-0.1304192692041397,"217":0.10312297940254211,"218":0.05571124702692032,"219":-0.16868937015533447,"220":-0.005325844045728445,"221":0.14860036969184875,"222":0.17569683492183685,"223":-0.15162940323352814,"224":-0.0692189410328865,"225":0.045079585164785385,"226":0.08373681455850601,"227":-0.021554889157414436,"228":0.15255996584892273,"229":0.18358056247234344,"230":-0.14478765428066254,"231":-0.03524278476834297,"232":-0.18800562620162964,"233":0.020851662382483482,"234":-0.11422289162874222,"235":0.0028164794202893972,"236":-0.14491456747055054,"237":0.05150022357702255,"238":-0.011120831593871117,"239":0.0029421397484838963,"240":-0.16243299841880798,"241":0.0492001511156559,"242":-0.06199118122458458,"243":-0.14470413327217102,"244":-0.042306676506996155,"245":-0.15438894927501678,"246":0.04875163361430168,"247":0.021019168198108673,"248":-0.15926910936832428,"249":0.149673730134964,"250":0.17878761887550354,"251":0.01710953190922737,"252":-0.08423745632171631,"253":0.18440455198287964,"254":0.09628654271364212,"255":-0.1828322410583496,"256":0.13087408244609833,"257":-0.12796686589717865,"258":0.23315173387527466,"259":0.08851832151412964,"260":-0.01599656231701374,"261":0.03409367427229881,"262":0.08682411164045334,"263":-0.09596355259418488,"264":0.13326747715473175,"265":-0.0658562108874321,"266":0.16733509302139282,"267":0.09339144825935364,"268":-0.19685997068881989,"269":-0.022078759968280792,"270":0.015142060816287994,"271":0.09292115271091461,"272":0.15668217837810516,"273":0.012618129141628742,"274":0.19416777789592743,"275":0.08889022469520569,"276":-0.04567607864737511,"277":-0.010562045499682426,"278":-0.0148921525105834,"279":-0.15464112162590027,"280":-0.1911374181509018,"281":0.09202934801578522,"282":0.0879722610116005,"283":0.05431758984923363,"284":-0.03570592403411865,"285":0.026754755526781082,"286":-0.05524877458810806,"287":0.18893171846866608,"288":-0.1289321631193161,"289":-0.1745588481426239,"290":-0.1890566498041153,"291":-0.08351939171552658,"292":-0.057333339005708694,"293":-0.00007730310608167201,"294":-0.010890592820942402,"295":-0.09911571443080902,"296":0.061425406485795975,"297":-0.011584159918129444,"298":0.1679297834634781,"299":-0.08946169167757034,"300":-0.10256976634263992,"301":0.022934557870030403,"302":-0.08382640033960342,"303":-0.04477328434586525,"304":0.009730462916195393,"305":0.14144597947597504,"306":-0.055823612958192825,"307":-0.07857189327478409,"308":-0.03683144971728325,"309":-0.13594479858875275,"310":0.05002019926905632,"311":-0.2195562869310379,"312":0.07289581000804901,"313":0.12391392886638641,"314":0.1363825798034668,"315":0.08621532469987869,"316":0.05700976029038429,"317":-0.012574349530041218,"318":-0.1467197835445404,"319":-0.0013805589405819774,"320":-0.17444510757923126,"321":0.08376698940992355,"322":0.06195187568664551,"323":-0.18518924713134766,"324":-0.0489504411816597,"325":0.17827057838439941,"326":0.15884621441364288,"327":-0.17655186355113983,"328":0.142684668302536,"329":0.1412348747253418,"330":0.08640272170305252,"331":-0.09120338410139084,"332":-0.08874302357435226,"333":-0.08285093307495117,"334":0.09984034299850464,"335":0.09979357570409775,"336":-0.02044403739273548,"337":0.13484011590480804,"338":0.07864579558372498,"339":-0.037583816796541214,"340":0.025452041998505592,"341":0.15195399522781372,"342":0.016157496720552444,"343":0.07792744785547256,"344":0.07109468430280685,"345":-0.10145647823810577,"346":-0.0505899079144001,"347":0.17059209942817688,"348":0.12234717607498169,"349":0.06229051202535629,"350":0.1086859181523323,"351":-0.08951043337583542,"352":-0.035526782274246216,"353":-0.10630911588668823,"354":0.1520608514547348,"355":0.22942569851875305,"356":0.05715817213058472,"357":0.05589902028441429,"358":-0.1872035712003708,"359":0.14495782554149628,"360":-0.05743999779224396,"361":-0.07355929911136627,"362":-0.1476244032382965,"363":-0.11257146298885345,"364":0.1282307505607605,"365":0.13148202002048492,"366":0.13517731428146362,"367":0.12947863340377808,"368":0.10486241430044174,"369":-0.09540096670389175,"370":-0.0127980662509799,"371":-0.2347547709941864,"372":-0.07497504353523254,"373":-0.05955658480525017,"374":0.0260954350233078,"375":0.14512139558792114,"376":-0.15232640504837036,"377":0.03188339248299599,"378":0.07003254443407059,"379":0.12518157064914703,"380":0.1499171108007431,"381":0.015004279091954231,"382":-0.07268788665533066,"383":-0.10961062461137772,"384":-0.0008191866218112409,"385":0.10411646217107773,"386":-0.12907518446445465,"387":-0.15950098633766174,"388":0.0004273694648873061,"389":0.08934219926595688,"390":-0.017764555290341377,"391":-0.14307478070259094,"392":-0.02727549709379673,"393":-0.15120761096477509,"394":0.00785144604742527,"395":-0.068552665412426,"396":0.16309349238872528,"397":-0.030411887913942337,"398":0.05052295699715614,"399":0.07076676934957504}},"9":{"bias":0.006134261842817068,"weights":{"0":-0.08170498162508011,"1":0.09167110174894333,"2":-0.05982937663793564,"3":-0.02126883529126644,"4":0.14106227457523346,"5":0.16657546162605286,"6":0.11884491890668869,"7":0.047283969819545746,"8":0.026196327060461044,"9":-0.0861813873052597,"10":0.026024583727121353,"11":-0.17392386496067047,"12":0.1843889057636261,"13":-0.18220943212509155,"14":-0.19026412069797516,"15":-0.1948588341474533,"16":-0.04726998135447502,"17":0.08300932496786118,"18":0.056640785187482834,"19":-0.17040018737316132,"20":0.09180179238319397,"21":-0.16857360303401947,"22":-0.06481829285621643,"23":0.08549124747514725,"24":-0.17400142550468445,"25":-0.06119489669799805,"26":0.10601232200860977,"27":-0.1442278027534485,"28":-0.1834309995174408,"29":-0.09564706683158875,"30":0.19869054853916168,"31":0.02597413957118988,"32":0.14634330570697784,"33":-0.15953613817691803,"34":-0.13209369778633118,"35":-0.12316231429576874,"36":0.14920049905776978,"37":-0.1211504191160202,"38":0.11183343827724457,"39":0.027910565957427025,"40":0.047082141041755676,"41":0.09393298625946045,"42":-0.13225455582141876,"43":0.15328428149223328,"44":0.08516093343496323,"45":-0.04261386767029762,"46":-0.07463442534208298,"47":-0.0201870147138834,"48":-0.17954185605049133,"49":-0.14825880527496338,"50":0.18375863134860992,"51":-0.043328020721673965,"52":-0.020727967843413353,"53":-0.1443731039762497,"54":-0.16743138432502747,"55":-0.050860241055488586,"56":-0.1305307000875473,"57":-0.1815802901983261,"58":0.05265256389975548,"59":0.12191241979598999,"60":-0.08977051079273224,"61":0.06171702221035957,