{"model":{"sizes":[400,200,16],"layers":[{"0":{},"1":{},"2":{},"3":{},"4":{},"5":{},"6":{},"7":{},"8":{},"9":{},"10":{},"11":{},"12":{},"13":{},"14":{},"15":{},"16":{},"17":{},"18":{},"19":{},"20":{},"21":{},"22":{},"23":{},"24":{},"25":{},"26":{},"27":{},"28":{},"29":{},"30":{},"31":{},"32":{},"33":{},"34":{},"35":{},"36":{},"37":{},"38":{},"39":{},"40":{},"41":{},"42":{},"43":{},"44":{},"45":{},"46":{},"47":{},"48":{},"49":{},"50":{},"51":{},"52":{},"53":{},"54":{},"55":{},"56":{},"57":{},"58":{},"59":{},"60":{},"61":{},"62":{},"63":{},"64":{},"65":{},"66":{},"67":{},"68":{},"69":{},"70":{},"71":{},"72":{},"73":{},"74":{},"75":{},"76":{},"77":{},"78":{},"79":{},"80":{},"81":{},"82":{},"83":{},"84":{},"85":{},"86":{},"87":{},"88":{},"89":{},"90":{},"91":{},"92":{},"93":{},"94":{},"95":{},"96":{},"97":{},"98":{},"99":{},"100":{},"101":{},"102":{},"103":{},"104":{},"105":{},"106":{},"107":{},"108":{},"109":{},"110":{},"111":{},"112":{},"113":{},"114":{},"115":{},"116":{},"117":{},"118":{},"119":{},"120":{},"121":{},"122":{},"123":{},"124":{},"125":{},"126":{},"127":{},"128":{},"129":{},"130":{},"131":{},"132":{},"133":{},"134":{},"135":{},"136":{},"137":{},"138":{},"139":{},"140":{},"141":{},"142":{},"143":{},"144":{},"145":{},"146":{},"147":{},"148":{},"149":{},"150":{},"151":{},"152":{},"153":{},"154":{},"155":{},"156":{},"157":{},"158":{},"159":{},"160":{},"161":{},"162":{},"163":{},"164":{},"165":{},"166":{},"167":{},"168":{},"169":{},"170":{},"171":{},"172":{},"173":{},"174":{},"175":{},"176":{},"177":{},"178":{},"179":{},"180":{},"181":{},"182":{},"183":{},"184":{},"185":{},"186":{},"187":{},"188":{},"189":{},"190":{},"191":{},"192":{},"193":{},"194":{},"195":{},"196":{},"197":{},"198":{},"199":{},"200":{},"201":{},"202":{},"203":{},"204":{},"205":{},"206":{},"207":{},"208":{},"209":{},"210":{},"211":{},"212":{},"213":{},"214":{},"215":{},"216":{},"217":{},"218":{},"219":{},"220":{},"221":{},"222":{},"223":{},"224":{},"225":{},"226":{},"227":{},"228":{},"229":{},"230":{},"231":{},"232":{},"233":{},"234":{},"235":{},"236":{},"237":{},"238":{},"239":{},"240":{},"241":{},"242":{},"243":{},"244":{},"245":{},"246":{},"247":{},"248":{},"249":{},"250":{},"251":{},"252":{},"253":{},"254":{},"255":{},"256":{},"257":{},"258":{},"259":{},"260":{},"261":{},"262":{},"263":{},"264":{},"265":{},"266":{},"267":{},"268":{},"269":{},"270":{},"271":{},"272":{},"273":{},"274":{},"275":{},"276":{},"277":{},"278":{},"279":{},"280":{},"281":{},"282":{},"283":{},"284":{},"285":{},"286":{},"287":{},"288":{},"289":{},"290":{},"291":{},"292":{},"293":{},"294":{},"295":{},"296":{},"297":{},"298":{},"299":{},"300":{},"301":{},"302":{},"303":{},"304":{},"305":{},"306":{},"307":{},"308":{},"309":{},"310":{},"311":{},"312":{},"313":{},"314":{},"315":{},"316":{},"317":{},"318":{},"319":{},"320":{},"321":{},"322":{},"323":{},"324":{},"325":{},"326":{},"327":{},"328":{},"329":{},"330":{},"331":{},"332":{},"333":{},"334":{},"335":{},"336":{},"337":{},"338":{},"339":{},"340":{},"341":{},"342":{},"343":{},"344":{},"345":{},"346":{},"347":{},"348":{},"349":{},"350":{},"351":{},"352":{},"353":{},"354":{},"355":{},"356":{},"357":{},"358":{},"359":{},"360":{},"361":{},"362":{},"363":{},"364":{},"365":{},"366":{},"367":{},"368":{},"369":{},"370":{},"371":{},"372":{},"373":{},"374":{},"375":{},"376":{},"377":{},"378":{},"379":{},"380":{},"381":{},"382":{},"383":{},"384":{},"385":{},"386":{},"387":{},"388":{},"389":{},"390":{},"391":{},"392":{},"393":{},"394":{},"395":{},"396":{},"397":{},"398":{},"399":{}},{"0":{"bias":0.016961976885795593,"weights":{"0":-0.054304447025060654,"1":-0.11095337569713593,"2":0.057992346584796906,"3":-0.025978947058320045,"4":0.183377206325531,"5":-0.16958434879779816,"6":-0.18850398063659668,"7":-0.12145572900772095,"8":0.171540766954422,"9":0.16726277768611908,"10":-0.1184401586651802,"11":0.09049093723297119,"12":-0.14237840473651886,"13":0.17198936641216278,"14":0.12783533334732056,"15":0.14886778593063354,"16":-0.188920259475708,"17":0.1803242266178131,"18":0.17928753793239594,"19":0.06621991097927094,"20":0.1850692331790924,"21":-0.1991090625524521,"22":0.07693488150835037,"23":-0.08091965317726135,"24":-0.17931754887104034,"25":-0.06038019061088562,"26":0.08989565819501877,"27":0.1107172742486,"28":-0.1805919110774994,"29":0.06221317499876022,"30":0.04357614368200302,"31":-0.11862985044717789,"32":0.07702246308326721,"33":0.1631646305322647,"34":0.1083652675151825,"35":-0.09559237211942673,"36":0.18688452243804932,"37":-0.009443315677344799,"38":-0.1896611899137497,"39":0.02829589881002903,"40":-0.13278567790985107,"41":-0.1811629980802536,"42":-0.12329674512147903,"43":-0.03074970841407776,"44":0.10631115734577179,"45":-0.19439923763275146,"46":0.17933617532253265,"47":-0.15851759910583496,"48":-0.04741382971405983,"49":-0.08080169558525085,"50":0.15349335968494415,"51":-0.09035452455282211,"52":0.05593687295913696,"53":-0.015203718096017838,"54":-0.011627835221588612,"55":0.09455689042806625,"56":0.14566539227962494,"57":-0.061360642313957214,"58":-0.15043526887893677,"59":-0.06383253633975983,"60":0.14641469717025757,"61":-0.1593194156885147,"62":-0.03282112255692482,"63":0.12241499871015549,"64":-0.19762666523456573,"65":-0.04947572574019432,"66":-0.1656586229801178,"67":-0.16226287186145782,"68":-0.12748436629772186,"69":0.18574044108390808,"70":0.040379706770181656,"71":-0.1261901706457138,"72":0.11925587058067322,"73":0.12716928124427795,"74":-0.029703540727496147,"75":-0.1309012621641159,"76":-0.16119205951690674,"77":-0.09555667638778687,"78":-0.032164134085178375,"79":0.03043220192193985,"80":-0.011114081367850304,"81":-0.03762509673833847,"82":0.08372632414102554,"83":0.08985884487628937,"84":0.16550306975841522,"85":-0.12282413989305496,"86":-0.06962480396032333,"87":0.1252107173204422,"88":-0.1975775957107544,"89":0.18935519456863403,"90":0.027720332145690918,"91":-0.15359365940093994,"92":0.06276053935289383,"93":0.16331255435943604,"94":0.01583617925643921,"95":0.09867547452449799,"96":0.18789276480674744,"97":-0.17044052481651306,"98":-0.07824865728616714,"99":-0.0367143489420414,"100":0.18279831111431122,"101":0.08529023826122284,"102":0.11057481914758682,"103":-0.1722874641418457,"104":-0.08128739148378372,"105":-0.027609406039118767,"106":-0.0898098424077034,"107":-0.026543589308857918,"108":0.18321272730827332,"109":0.06010383367538452,"110":0.10164151340723038,"111":-0.020208371803164482,"112":-0.16375038027763367,"113":-0.10506545007228851,"114":-0.13021503388881683,"115":-0.007817094214260578,"116":0.035429637879133224,"117":0.1588551253080368,"118":0.05782485753297806,"119":0.053526654839515686,"120":-0.045672912150621414,"121":0.024492299184203148,"122":-0.052911464124917984,"123":-0.04693232849240303,"124":-0.056054823100566864,"125":0.04789254069328308,"126":-0.11766078323125839,"127":0.02924862690269947,"128":-0.15706849098205566,"129":0.1085224598646164,"130":0.08374112099409103,"131":0.13993585109710693,"132":0.1797599196434021,"133":0.07134506851434708,"134":0.14340418577194214,"135":0.08314196765422821,"136":-0.048182036727666855,"137":-0.06716173887252808,"138":0.007042390294373035,"139":-0.056174375116825104,"140":-0.09866512566804886,"141":-0.041966650635004044,"142":0.050794292241334915,"143":0.004746887367218733,"144":0.007179050240665674,"145":-0.07195079326629639,"146":0.052560146898031235,"147":-0.08264099061489105,"148":0.0409897081553936,"149":-0.1836102157831192,"150":0.12378212809562683,"151":0.0669039860367775,"152":-0.04499993845820427,"153":0.1796826422214508,"154":0.13118472695350647,"155":-0.0848245695233345,"156":0.024202311411499977,"157":-0.1325421929359436,"158":-0.13306847214698792,"159":-0.005459585692733526,"160":0.11062443256378174,"161":0.029917201027274132,"162":-0.16810785233974457,"163":0.10877002775669098,"164":-0.03863225504755974,"165":-0.08429157733917236,"166":-0.1877889484167099,"167":0.016412237659096718,"168":0.12322134524583817,"169":-0.009060720913112164,"170":0.018510807305574417,"171":-0.0901419147849083,"172":-0.09848511219024658,"173":-0.02323474921286106,"174":0.08572545647621155,"175":-0.0018484783358871937,"176":0.003299243515357375,"177":-0.14191369712352753,"178":0.11091732233762741,"179":0.13029325008392334,"180":0.05594027042388916,"181":0.02963370271027088,"182":-0.12065235525369644,"183":0.17467425763607025,"184":-0.029879847541451454,"185":0.17369060218334198,"186":-0.06853152066469193,"187":0.1972896158695221,"188":0.13448619842529297,"189":0.09600695222616196,"190":0.15775145590305328,"191":-0.1000090166926384,"192":-0.07911384105682373,"193":0.0469418503344059,"194":0.16596443951129913,"195":0.1829092800617218,"196":-0.03592139855027199,"197":0.13339878618717194,"198":-0.015341022051870823,"199":0.1937616467475891,"200":0.09359496831893921,"201":-0.0424748957157135,"202":0.12178759276866913,"203":0.03978201001882553,"204":0.1599004864692688,"205":-0.11881646513938904,"206":-0.07951659709215164,"207":0.2151637077331543,"208":0.10252273082733154,"209":0.01710064336657524,"210":0.1925305873155594,"211":-0.057600438594818115,"212":-0.04148699343204498,"213":0.09725108742713928,"214":-0.1775089055299759,"215":-0.19600403308868408,"216":0.039658281952142715,"217":-0.2380061000585556,"218":-0.12822803854942322,"219":0.20395420491695404,"220":0.18619230389595032,"221":-0.19069908559322357,"222":-0.03188611567020416,"223":-0.032472893595695496,"224":-0.19039611518383026,"225":0.09683261066675186,"226":-0.11367189884185791,"227":-0.21188385784626007,"228":0.1814514696598053,"229":-0.011538309045135975,"230":-0.004946273751556873,"231":0.0161530040204525,"232":0.020883942022919655,"233":0.14557689428329468,"234":-0.16545720398426056,"235":-0.003524131840094924,"236":-0.13234218955039978,"237":-0.17499271035194397,"238":0.07685250788927078,"239":0.23932582139968872,"240":-0.08427387475967407,"241":0.09820706397294998,"242":-0.020965907722711563,"243":0.11957860738039017,"244":-0.08266515284776688,"245":0.031133221462368965,"246":0.06439262628555298,"247":-0.1971958577632904,"248":0.1048552617430687,"249":0.1317882537841797,"250":-0.13158899545669556,"251":-0.24916821718215942,"252":-0.15173721313476562,"253":-0.036584507673978806,"254":-0.18838566541671753,"255":0.19512785971164703,"256":-0.11076193302869797,"257":0.1008443683385849,"258":-0.03677889332175255,"259":0.22114533185958862,"260":-0.09962078928947449,"261":-0.06507274508476257,"262":-0.12589606642723083,"263":-0.16331981122493744,"264":0.005196034908294678,"265":-0.008482284843921661,"266":-0.11272455006837845,"267":0.07307703047990799,"268":0.022605586796998978,"269":-0.01631944440305233,"270":-0.20077413320541382,"271":0.04543760418891907,"272":-0.02599012479186058,"273":0.0713774710893631,"274":-0.22381232678890228,"275":0.1089206114411354,"276":0.17831693589687347,"277":-0.0884833037853241,"278":0.09377643465995789,"279":0.04648781940340996,"280":-0.16634154319763184,"281":-0.10756547749042511,"282":-0.12086977809667587,"283":0.11047481745481491,"284":0.061716724187135696,"285":0.002547747688367963,"286":-0.1443006843328476,"287":0.00027757586212828755,"288":-0.12896616756916046,"289":-0.02378753386437893,"290":-0.18333272635936737,"291":-0.0007555228658020496,"292":-0.16477467119693756,"293":-0.07247693836688995,"294":-0.12403801828622818,"295":0.16474612057209015,"296":0.09966254234313965,"297":0.06966669112443924,"298":-0.0384337343275547,"299":0.15317121148109436,"300":-0.07279177010059357,"301":-0.14328686892986298,"302":0.05449360981583595,"303":-0.050709109753370285,"304":0.08568067103624344,"305":0.10441995412111282,"306":-0.08807659894227982,"307":0.1415930539369583,"308":-0.07754164189100266,"309":-0.14826907217502594,"310":0.16582168638706207,"311":-0.17028924822807312,"312":0.07664311677217484,"313":0.07421540468931198,"314":-0.08759085088968277,"315":-0.04258885607123375,"316":0.1018681675195694,"317":-0.20131973922252655,"318":-0.03749489784240723,"319":-0.08873745054006577,"320":-0.17279814183712006,"321":-0.0733746886253357,"322":-0.10172796249389648,"323":0.18411405384540558,"324":0.032702624797821045,"325":0.010191567242145538,"326":-0.21291084587574005,"327":0.020424846559762955,"328":-0.008192223496735096,"329":0.1859237551689148,"330":0.03660966455936432,"331":0.01523507572710514,"332":0.1268141120672226,"333":0.10834450274705887,"334":-0.1595136821269989,"335":0.19264498353004456,"336":0.058740630745887756,"337":-0.08154700696468353,"338":0.09162650257349014,"339":0.043300557881593704,"340":-0.1995747983455658,"341":0.07612098753452301,"342":0.17292581498622894,"343":-0.1339585781097412,"344":-0.09220834076404572,"345":0.09177832305431366,"346":-0.1636979877948761,"347":0.12497718632221222,"348":-0.20949162542819977,"349":-0.1183721125125885,"350":-0.14781363308429718,"351":-0.1816660463809967,"352":0.12760336697101593,"353":0.012665245682001114,"354":0.011270338669419289,"355":0.1261071264743805,"356":-0.045111700892448425,"357":-0.21160061657428741,"358":0.16798007488250732,"359":-0.16290254890918732,"360":-0.1576436460018158,"361":0.13574054837226868,"362":-0.02694711647927761,"363":-0.17506366968154907,"364":-0.20251314342021942,"365":-0.07045780122280121,"366":0.008756779134273529,"367":0.08060544729232788,"368":0.013852514326572418,"369":0.12295275181531906,"370":-0.08209310472011566,"371":0.14057013392448425,"372":0.09447105973958969,"373":-0.05630519241094589,"374":-0.19649836421012878,"375":0.09733828902244568,"376":-0.14594760537147522,"377":-0.2149139642715454,"378":-0.14311254024505615,"379":-0.18477873504161835,"380":-0.042028117924928665,"381":-0.08622049540281296,"382":-0.10867413133382797,"383":-0.15131627023220062,"384":-0.06797638535499573,"385":-0.012622907757759094,"386":-0.013987843878567219,"387":-0.07311031967401505,"388":0.05612590163946152,"389":0.0480523519217968,"390":-0.09778343141078949,"391":-0.1569443941116333,"392":0.008945989422500134,"393":-0.1973627507686615,"394":0.0826117992401123,"395":0.13592204451560974,"396":-0.1782142072916031,"397":-0.24506482481956482,"398":0.05939000844955444,"399":0.17040370404720306}},"1":{"bias":-0.1776290237903595,"weights":{"0":0.16872109472751617,"1":-0.0162039902061224,"2":-0.11004418134689331,"3":-0.12995140254497528,"4":-0.10687845945358276,"5":0.06794380396604538,"6":0.11206328123807907,"7":-0.1713111400604248,"8":-0.1389707624912262,"9":-0.018469661474227905,"10":0.10275943577289581,"11":-0.06102917343378067,"12":-0.06498073041439056,"13":0.1972450315952301,"14":0.059578608721494675,"15":0.16341546177864075,"16":0.1651647388935089,"17":-0.1852368861436844,"18":-0.05325833708047867,"19":0.03545627370476723,"20":0.012512747198343277,"21":0.036992426961660385,"22":-0.0797397717833519,"23":0.17885541915893555,"24":0.04992175102233887,"25":-0.10807377099990845,"26":-0.007730669341981411,"27":0.0985281690955162,"28":0.03611355647444725,"29":0.06061660498380661,"30":0.17262646555900574,"31":-0.10175614804029465,"32":-0.1901630312204361,"33":-0.19444891810417175,"34":0.010713649913668633,"35":-0.09046462923288345,"36":0.1567884087562561,"37":0.19651974737644196,"38":0.016900181770324707,"39":-0.045408427715301514,"40":0.06232313811779022,"41":0.11336930096149445,"42":0.011911589652299881,"43":-0.08103535324335098,"44":-0.12928985059261322,"45":0.06194942817091942,"46":-0.14587460458278656,"47":-0.005939912982285023,"48":-0.049413301050662994,"49":-0.19510917365550995,"50":-0.07562163472175598,"51":0.08296556770801544,"52":0.008749276399612427,"53":0.09570799022912979,"54":0.10865490138530731,"55":-0.1865423172712326,"56":0.07478493452072144,"57":0.008661264553666115,"58":0.018798604607582092,"59":-0.10155092179775238,"60":-0.10221502929925919,"61":0.1745752990245819,"62":-0.19606827199459076,"63":-0.03540802747011185,"64":0.022635705769062042,"65":-0.037121355533599854,"66":0.19871802628040314,"67":0.11103448271751404,"68":-0.029433617368340492,"69":-0.12958762049674988,"70":0.10062217712402344,"71":-0.10535600781440735,"72":0.0367913655936718,"73":-0.14576883614063263,"74":0.0159117691218853,"75":-0.0023549948818981647,"76":-0.14862237870693207,"77":0.09216134995222092,"78":0.030434368178248405,"79":-0.12326177209615707,"80":0.07901550829410553,"81":-0.14710712432861328,"82":0.17713752388954163,"83":-0.049502965062856674,"84":0.006714400835335255,"85":0.18984127044677734,"86":0.08168300241231918,"87":-0.11946751922369003,"88":-0.13125012814998627,"89":0.1977205127477646,"90":0.0978497564792633,"91":0.018015418201684952,"92":-0.1178416982293129,"93":-0.10787203907966614,"94":-0.01596667617559433,"95":0.019255390390753746,"96":-0.12199855595827103,"97":-0.11724688857793808,"98":-0.19650788605213165,"99":0.09202379733324051,"100":-0.18729518353939056,"101":-0.08122138679027557,"102":-0.14188000559806824,"103":0.18139739334583282,"104":-0.0004445865924935788,"105":0.0301285982131958,"106":0.00693237129598856,"107":0.14596302807331085,"108":-0.02735716477036476,"109":-0.17742839455604553,"110":0.06274572759866714,"111":0.20653529465198517,"112":-0.036539457738399506,"113":0.06377547979354858,"114":0.06055478751659393,"115":-0.024504071101546288,"116":-0.1546711027622223,"117":-0.09069960564374924,"118":0.185609370470047,"119":-0.035574398934841156,"120":0.15943996608257294,"121":-0.02606717124581337,"122":0.017961882054805756,"123":-0.005300539545714855,"124":-0.1390235722064972,"125":-0.05301753059029579,"126":0.008298167027533054,"127":0.1019672304391861,"128":0.13923749327659607,"129":0.12315357476472855,"130":-0.03905726224184036,"131":0.025919809937477112,"132":0.1317000836133957,"133":0.040380172431468964,"134":0.11448734253644943,"135":0.019964996725320816,"136":-0.11372806131839752,"137":0.06922366470098495,"138":-0.19183993339538574,"139":0.12085697799921036,"140":-0.11860355734825134,"141":-0.14388041198253632,"142":0.06737277656793594,"143":-0.022532129660248756,"144":-0.19003760814666748,"145":-0.13799786567687988,"146":-0.17119240760803223,"147":-0.14012117683887482,"148":-0.10942431539297104,"149":-0.008361567743122578,"150":0.1438089907169342,"151":0.10486005991697311,"152":-0.19374550879001617,"153":-0.15751442313194275,"154":-0.11088800430297852,"155":-0.16747255623340607,"156":0.18289142847061157,"157":0.028227681294083595,"158":0.1267247200012207,"159":-0.09774503856897354,"160":-0.056960057467222214,"161":0.16505278646945953,"162":0.16781747341156006,"163":0.19507384300231934,"164":0.11695205420255661,"165":-0.0025866322685033083,"166":-0.18694454431533813,"167":0.04954995587468147,"168":-0.16289211809635162,"169":0.1707361489534378,"170":0.13652244210243225,"171":0.10126268863677979,"172":-0.06816242635250092,"173":0.028354596346616745,"174":0.005228676367551088,"175":-0.04490857198834419,"176":0.011096877045929432,"177":-0.1324647068977356,"178":0.004651774186640978,"179":0.17401906847953796,"180":-0.03944997489452362,"181":-0.035298679023981094,"182":0.1700691282749176,"183":0.12435300648212433,"184":0.031939130276441574,"185":0.024974696338176727,"186":-0.1667023003101349,"187":-0.11304943263530731,"188":-0.18907348811626434,"189":-0.10202723741531372,"190":-0.12612877786159515,"191":-0.0003300807729829103,"192":0.043332815170288086,"193":-0.12549354135990143,"194":0.06940345466136932,"195":-0.1507861614227295,"196":0.08741315454244614,"197":-0.1238425076007843,"198":0.12644705176353455,"199":0.005191158503293991,"200":0.03014315292239189,"201":-0.08083420991897583,"202":-0.18457701802253723,"203":-0.1489081084728241,"204":-0.08865749090909958,"205":-0.044589824974536896,"206":0.01072214636951685,"207":-0.21040816605091095,"208":-0.17085938155651093,"209":0.06569116562604904,"210":0.08070431649684906,"211":0.09174684435129166,"212":0.10695824027061462,"213":0.016262246295809746,"214":-0.045449141412973404,"215":0.020275648683309555,"216":0.09338495880365372,"217":-0.20326462388038635,"218":0.17095157504081726,"219":0.08657687157392502,"220":0.12915164232254028,"221":0.12058630585670471,"222":-0.17670392990112305,"223":0.02691454067826271,"224":0.07564162462949753,"225":0.21691618859767914,"226":-0.06252124905586243,"227":-0.18288777768611908,"228":-0.0772557333111763,"229":0.08319789916276932,"230":0.027431201189756393,"231":-0.17518454790115356,"232":0.19919341802597046,"233":-0.07199704647064209,"234":0.19111931324005127,"235":-0.0992003083229065,"236":0.09635049104690552,"237":-0.11522313952445984,"238":-0.08804987370967865,"239":-0.17244566977024078,"240":0.18969997763633728,"241":-0.19376599788665771,"242":-0.035246964544057846,"243":-0.005619807634502649,"244":-0.026964504271745682,"245":0.05842012166976929,"246":0.008385718800127506,"247":-0.18815730512142181,"248":-0.1318054348230362,"249":0.16974453628063202,"250":-0.03883706405758858,"251":-0.18667417764663696,"252":0.2372220903635025,"253":-0.08431895822286606,"254":0.04285135120153427,"255":0.037526339292526245,"256":-0.04071088880300522,"257":0.10956410318613052,"258":-0.12274166196584702,"259":-0.17729489505290985,"260":-0.07522515207529068,"261":-0.14014486968517303,"262":0.13422445952892303,"263":0.09189900755882263,"264":0.07437185198068619,"265":0.15198156237602234,"266":-0.05770651623606682,"267":-0.1247430369257927,"268":0.01686841808259487,"269":-0.11515580862760544,"270":-0.10841919481754303,"271":0.12358565628528595,"272":0.06518206745386124,"273":0.21209017932415009,"274":0.03643938526511192,"275":0.16227003931999207,"276":-0.13820716738700867,"277":0.12430679798126221,"278":-0.1441265344619751,"279":-0.09082676470279694,"280":0.07387740164995193,"281":-0.06026410683989525,"282":0.0018752064788714051,"283":0.16352610290050507,"284":0.12810657918453217,"285":-0.024063587188720703,"286":-0.018042253330349922,"287":0.08913008868694305,"288":0.09913697838783264,"289":-0.01170574501156807,"290":-0.0032225358299911022,"291":0.2077483981847763,"292":-0.06294503062963486,"293":0.1437535285949707,"294":0.21944820880889893,"295":0.18791502714157104,"296":-0.10327480733394623,"297":0.16086989641189575,"298":0.1432226151227951,"299":-0.11125335097312927,"300":0.0319257453083992,"301":0.07392475008964539,"302":-0.028048532083630562,"303":-0.13460981845855713,"304":0.03598975017666817,"305":-0.11851755529642105,"306":0.0895773395895958,"307":0.16772878170013428,"308":0.11286994069814682,"309":-0.0009259841754101217,"310":-0.12369882315397263,"311":0.10128288716077805,"312":0.07475806772708893,"313":-0.11491697281599045,"314":-0.14195148646831512,"315":0.09081459790468216,"316":0.08481211215257645,"317":0.07547963410615921,"318":0.10082511603832245,"319":-0.13484761118888855,"320":0.055433519184589386,"321":-0.018914075568318367,"322":-0.12413889914751053,"323":-0.04156438261270523,"324":0.14057177305221558,"325":0.10912826657295227,"326":-0.021400317549705505,"327":0.22978410124778748,"328":0.08623797446489334,"329":0.0667327418923378,"330":-0.1541113704442978,"331":0.07162412256002426,"332":0.15373997390270233,"333":-0.06673382222652435,"334":-0.06421758979558945,"335":-0.0911661759018898,"336":0.2406052201986313,"337":0.11212456971406937,"338":-0.0089292386546731,"339":-0.19735422730445862,"340":0.04972252622246742,"341":-0.1745034009218216,"342":0.08398741483688354,"343":-0.07227322459220886,"344":0.20053601264953613,"345":0.09820418804883957,"346":-0.07346539944410324,"347":0.134659543633461,"348":0.17831963300704956,"349":0.08714980632066727,"350":0.007880299352109432,"351":-0.13393422961235046,"352":0.00961308367550373,"353":0.062126100063323975,"354":-0.049953535199165344,"355":0.15590408444404602,"356":0.1238737627863884,"357":0.10975683480501175,"358":-0.16734004020690918,"359":0.09418969601392746,"360":-0.14760564267635345,"361":-0.15872667729854584,"362":-0.030114132910966873,"363":-0.032775942236185074,"364":-0.15217798948287964,"365":-0.26770666241645813,"366":-0.02350779063999653,"367":-0.07064621895551682,"368":0.13210076093673706,"369":-0.12776722013950348,"370":-0.0463726706802845,"371":-0.08925481885671616,"372":0.07676997780799866,"373":0.021495847031474113,"374":-0.09950009733438492,"375":0.13924546539783478,"376":0.02449035458266735,"377":0.16910479962825775,"378":-0.09451016783714294,"379":-0.1426621377468109,"380":0.0993189662694931,"381":-0.08004985749721527,"382":0.08672969788312912,"383":0.08021523803472519,"384":-0.05119453743100166,"385":0.051242440938949585,"386":-0.10392743349075317,"387":0.14799636602401733,"388":0.1900826394557953,"389":-0.033159855753183365,"390":0.105643630027771,"391":0.030805159360170364,"392":-0.05546202138066292,"393":-0.09094855934381485,"394":0.1706276386976242,"395":-0.12060730904340744,"396":-0.03428970277309418,"397":0.08253897726535797,"398":0.03616245090961456,"399":-0.227630615234375}},"2":{"bias":-0.12089014053344727,"weights":{"0":-0.04475817456841469,"1":0.10642926394939423,"2":-0.1696845144033432,"3":-0.18526650965213776,"4":-0.0727284625172615,"5":0.0036157213617116213,"6":0.042106419801712036,"7":0.16966129839420319,"8":-0.11958523839712143,"9":-0.1282699853181839,"10":0.0316939614713192,"11":0.10071489959955215,"12":-0.121023990213871,"13":-0.004379131831228733,"14":-0.09279385209083557,"15":0.03959671035408974,"16":-0.15561051666736603,"17":-0.08906499296426773,"18":0.16705068945884705,"19":-0.18539249897003174,"20":0.16959920525550842,"21":-0.13517285883426666,"22":-0.17666073143482208,"23":0.08726777136325836,"24":-0.0511026456952095,"25":0.15669342875480652,"26":-0.17118465900421143,"27":0.11006046831607819,"28":-0.1959959864616394,"29":-0.12070207297801971,"30":-0.1847222000360489,"31":0.11600027233362198,"32":-0.060772113502025604,"33":0.004444737918674946,"34":0.05824921280145645,"35":0.07290766388177872,"36":0.05000918358564377,"37":0.027900058776140213,"38":-0.036275073885917664,"39":-0.1367083191871643,"40":0.104969322681427,"41":0.16800473630428314,"42":0.028272364288568497,"43":0.14394019544124603,"44":-0.14033494889736176,"45":-0.05594949424266815,"46":-0.16439706087112427,"47":-0.11153648048639297,"48":-0.14860296249389648,"49":0.19476152956485748,"50":-0.1525575816631317,"51":-0.15698179602622986,"52":0.06311479955911636,"53":0.0779024139046669,"54":0.1173725500702858,"55":-0.17580313980579376,"56":0.05101529881358147,"57":0.13399606943130493,"58":-0.08026264607906342,"59":0.17074106633663177,"60":-0.051281917840242386,"61":-0.12301367521286011,"62":-0.15247824788093567,"63":-0.05695921927690506,"64":-0.12549439072608948,"65":-0.10254282504320145,"66":0.13116687536239624,"67":-0.04482407495379448,"68":-0.015775665640830994,"69":0.10132577270269394,"70":-0.1821054071187973,"71":0.18390189111232758,"72":0.1282450258731842,"73":0.17108039557933807,"74":0.16531819105148315,"75":0.047133494168519974,"76":-0.012544547207653522,"77":0.18149404227733612,"78":0.084073007106781,"79":0.0836690366268158,"80":-0.020579125732183456,"81":-0.067729651927948,"82":0.05527456849813461,"83":-0.007897574454545975,"84":-0.06067044660449028,"85":-0.01983378268778324,"86":0.1274995505809784,"87":-0.04973964765667915,"88":0.18971377611160278,"89":-0.06137732416391373,"90":-0.050072573125362396,"91":-0.0474352166056633,"92":0.03534465655684471,"93":0.11442077904939651,"94":-0.0965040922164917,"95":0.1369430273771286,"96":-0.09288810193538666,"97":-0.11027621477842331,"98":0.17689117789268494,"99":-0.13687188923358917,"100":0.18142817914485931,"101":0.07737135887145996,"102":0.007285794243216515,"103":-0.05157267674803734,"104":0.1400032788515091,"105":-0.04769129306077957,"106":-0.011887948960065842,"107":-0.19078846275806427,"108":-0.219502255320549,"109":-0.20077763497829437,"110":0.1204562559723854,"111":-0.01648389734327793,"112":0.12347803264856339,"113":-0.102696493268013,"114":0.12747861444950104,"115":0.1688281148672104,"116":0.02659110724925995,"117":-0.16775058209896088,"118":0.10265189409255981,"119":-0.12133264541625977,"120":0.15738435089588165,"121":0.06220589205622673,"122":0.08488459885120392,"123":-0.1468781977891922,"124":-0.16774411499500275,"125":0.048453591763973236,"126":0.08162354677915573,"127":-0.07426424324512482,"128":-0.05971843749284744,"129":0.012131907977163792,"130":-0.14763258397579193,"131":-0.15598511695861816,"132":-0.14062918722629547,"133":-0.029269106686115265,"134":-0.190143421292305,"135":0.12374348193407059,"136":-0.17702853679656982,"137":-0.0578739158809185,"138":-0.1443134993314743,"139":-0.022637061774730682,"140":-0.13777483999729156,"141":-0.10383755713701248,"142":0.03942091390490532,"143":0.0657758116722107,"144":-0.0993809774518013,"145":-0.058964889496564865,"146":-0.04315037280321121,"147":0.0692751482129097,"148":0.12301050126552582,"149":-0.16199761629104614,"150":0.05436239019036293,"151":-0.11821442097425461,"152":-0.06913593411445618,"153":0.09909609705209732,"154":-0.0792720690369606,"155":0.022530538961291313,"156":0.20464853942394257,"157":0.19615203142166138,"158":-0.17484638094902039,"159":-0.047263387590646744,"160":-0.19577524065971375,"161":-0.17195188999176025,"162":0.09888508915901184,"163":0.11523845046758652,"164":0.138816699385643,"165":-0.2125708907842636,"166":0.10815820097923279,"167":0.102702796459198,"168":0.08865480124950409,"169":-0.2354709804058075,"170":-0.007153909187763929,"171":-0.005384518764913082,"172":0.059390775859355927,"173":-0.1315367966890335,"174":0.026081478223204613,"175":0.02917744219303131,"176":-0.04643019288778305,"177":0.03786090388894081,"178":-0.2479751706123352,"179":-0.10550561547279358,"180":0.10338158160448074,"181":-0.046317052096128464,"182":0.13479992747306824,"183":-0.17990447580814362,"184":0.18498902022838593,"185":-0.0921093225479126,"186":-0.017796186730265617,"187":-0.02849624864757061,"188":-0.07032618671655655,"189":-0.2488355040550232,"190":-0.011866908520460129,"191":0.1247687041759491,"192":0.02803405001759529,"193":-0.055418502539396286,"194":0.12718415260314941,"195":0.07412464916706085,"196":-0.06359109282493591,"197":-0.02740316651761532,"198":-0.10783277451992035,"199":0.12061598151922226,"200":0.07353230565786362,"201":0.0047294991090893745,"202":0.050258245319128036,"203":0.08469290286302567,"204":-0.19837071001529694,"205":-0.21818388998508453,"206":-0.16980133950710297,"207":-0.16623716056346893,"208":-0.19937682151794434,"209":-0.26507139205932617,"210":0.17979949712753296,"211":-0.03291245922446251,"212":-0.12309595942497253,"213":0.16372404992580414,"214":-0.018290160223841667,"215":-0.04482032358646393,"216":0.039659518748521805,"217":-0.12653622031211853,"218":-0.08303829282522202,"219":0.00017839136125985533,"220":0.08597113937139511,"221":-0.18294663727283478,"222":-0.1392153799533844,"223":-0.12748247385025024,"224":0.0733981505036354,"225":0.015653502196073532,"226":-0.1957915723323822,"227":0.10475408285856247,"228":-0.18465852737426758,"229":-0.1534004509449005,"230":-0.23276400566101074,"231":-0.02906729467213154,"232":-0.04431615769863129,"233":-0.08010074496269226,"234":-0.10505739599466324,"235":0.10300867259502411,"236":-0.14949341118335724,"237":0.05345122516155243,"238":-0.14728939533233643,"239":-0.05200096219778061,"240":0.1329154223203659,"241":-0.07133667171001434,"242":-0.19847023487091064,"243":0.1711840033531189,"244":-0.03004741668701172,"245":-0.035199832171201706,"246":0.03459398075938225,"247":0.07603829354047775,"248":0.009837129153311253,"249":-0.23639774322509766,"250":-0.02316124550998211,"251":-0.07166900485754013,"252":-0.10419464856386185,"253":-0.14984111487865448,"254":0.10829411447048187,"255":-0.17453248798847198,"256":0.04632224887609482,"257":-0.15906664729118347,"258":-0.17952774465084076,"259":-0.04870756343007088,"260":-0.15437676012516022,"261":-0.007653253618627787,"262":0.008948315866291523,"263":0.07435724139213562,"264":0.14746038615703583,"265":0.19484621286392212,"266":0.07818093150854111,"267":0.06578380614519119,"268":0.10663915425539017,"269":0.07084177434444427,"270":-0.010761981830000877,"271":0.1423385590314865,"272":0.002064776374027133,"273":0.13980451226234436,"274":0.17865441739559174,"275":-0.1805000901222229,"276":0.13203231990337372,"277":0.018106041476130486,"278":0.009219152852892876,"279":-0.21260559558868408,"280":-0.1445397287607193,"281":-0.07243736833333969,"282":0.124688059091568,"283":-0.10764693468809128,"284":0.15751276910305023,"285":-0.003279362339526415,"286":-0.20582634210586548,"287":-0.17186474800109863,"288":-0.19477993249893188,"289":0.003988166805356741,"290":0.12904758751392365,"291":-0.04935436695814133,"292":0.0921674370765686,"293":0.12886007130146027,"294":-0.19160640239715576,"295":-0.2406996339559555,"296":-0.19035875797271729,"297":-0.07911312580108643,"298":-0.006493890192359686,"299":-0.173233762383461,"300":-0.04695616662502289,"301":-0.16239358484745026,"302":0.026922306045889854,"303":-0.04365096613764763,"304":-0.18512950837612152,"305":-0.044632840901613235,"306":0.034060511738061905,"307":-0.039774391800165176,"308":-0.017749696969985962,"309":-0.02271418832242489,"310":-0.23527711629867554,"311":-0.14309442043304443,"312":-0.09171964973211288,"313":-0.0860973596572876,"314":0.07421063631772995,"315":-0.13538101315498352,"316":0.02663576602935791,"317":-0.1335611194372177,"318":0.14464813470840454,"319":-0.00856150034815073,"320":0.17543093860149384,"321":0.0019839659798890352,"322":0.08179158717393875,"323":-0.13790713250637054,"324":-0.028396058827638626,"325":0.1400398463010788,"326":0.04381901025772095,"327":-0.19387675821781158,"328":-0.0994761511683464,"329":-0.12179254740476608,"330":0.054757680743932724,"331":-0.056581445038318634,"332":0.14420810341835022,"333":0.07178341597318649,"334":-0.048185087740421295,"335":0.06071650609374046,"336":-0.22281081974506378,"337":0.0154027808457613,"338":-0.06257519870996475,"339":-0.17369641363620758,"340":0.1294478327035904,"341":0.1978289932012558,"342":0.0504746213555336,"343":-0.025373665615916252,"344":-0.03430180624127388,"345":-0.022819848731160164,"346":-0.08439160138368607,"347":-0.10655318945646286,"348":-0.22984765470027924,"349":-0.11125214397907257,"350":0.1229131817817688,"351":-0.06354910135269165,"352":0.07133902609348297,"353":0.24444685876369476,"354":0.055563412606716156,"355":-0.012019637040793896,"356":0.15500515699386597,"357":0.16475026309490204,"358":0.14769713580608368,"359":-0.06223014369606972,"360":-0.10597609728574753,"361":0.19778048992156982,"362":0.19296292960643768,"363":0.05509451776742935,"364":0.17605024576187134,"365":0.013523334637284279,"366":-0.08231473714113235,"367":-0.045096028596162796,"368":0.16068094968795776,"369":-0.22067643702030182,"370":0.1731412261724472,"371":0.08960701525211334,"372":-0.04991874471306801,"373":0.21509712934494019,"374":-0.15536122024059296,"375":0.05541194975376129,"376":0.15950991213321686,"377":-0.05671919509768486,"378":0.17482969164848328,"379":-0.11388985812664032,"380":0.1764100342988968,"381":0.05129684880375862,"382":-0.01637006178498268,"383":-0.1032598540186882,"384":-0.09935427457094193,"385":-0.005080970004200935,"386":0.0364217534661293,"387":-0.19833379983901978,"388":0.12303980439901352,"389":-0.012469352222979069,"390":-0.16899678111076355,"391":-0.007829048670828342,"392":0.22085602581501007,"393":0.10506990551948547,"394":-0.03483940288424492,"395":0.17467015981674194,"396":0.20438434183597565,"397":0.1781105250120163,"398":0.15815071761608124,"399":-0.1003628671169281}},"3":{"bias":-0.023410644382238388,"weights":{"0":-0.14273419976234436,"1":-0.03479931503534317,"2":-0.170970618724823,"3":0.12189982831478119,"4":-0.00090076494961977,"5":-0.057536207139492035,"6":-0.0455179437994957,"7":0.06326921284198761,"8":0.19612155854701996,"9":0.031097304075956345,"10":0.07477755099534988,"11":0.028240038082003593,"12":-0.07305175065994263,"13":0.01654575951397419,"14":0.1377255618572235,"15":0.19280074536800385,"16":0.19002404808998108,"17":-0.09344498068094254,"18":-0.12896700203418732,"19":0.040908608585596085,"20":-0.07630915939807892,"21":0.14633376896381378,"22":-0.09890073537826538,"23":0.13566187024116516,"24":-0.10680276155471802,"25":-0.1785183995962143,"26":-0.006089653819799423,"27":-0.02576918713748455,"28":-0.042930904775857925,"29":0.11860667914152145,"30":-0.18412184715270996,"31":-0.08994879573583603,"32":-0.033707913011312485,"33":0.031414713710546494,"34":0.08202321827411652,"35":-0.15608429908752441,"36":0.05326782539486885,"37":0.07769090682268143,"38":0.026027055457234383,"39":0.060456033796072006,"40":0.17663441598415375,"41":-0.06830674409866333,"42":0.11412472277879715,"43":-0.05465611442923546,"44":0.05202075466513634,"45":-0.04735088720917702,"46":0.18253915011882782,"47":-0.15762396156787872,"48":0.05968282371759415,"49":0.1621687263250351,"50":-0.17242956161499023,"51":0.08712136745452881,"52":-0.08357296884059906,"53":-0.14566226303577423,"54":-0.18300727009773254,"55":-0.01569182798266411,"56":-0.18140704929828644,"57":-0.15540722012519836,"58":0.0042995186522603035,"59":0.02791217900812626,"60":0.18548211455345154,"61":0.03491486236453056,"62":0.11814706772565842,"63":0.03732329234480858,"64":-0.027343159541487694,"65":0.13703127205371857,"66":0.1583133488893509,"67":-0.05882125720381737,"68":-0.15125353634357452,"69":0.053007930517196655,"70":-0.17495205998420715,"71":0.17558038234710693,"72":0.05836399644613266,"73":-0.02611307054758072,"74":0.05368472635746002,"75":0.026344507932662964,"76":-0.14863277971744537,"77":-0.03854464739561081,"78":-0.0690130740404129,"79":0.0037811920046806335,"80":0.1115097776055336,"81":0.1898239552974701,"82":-0.02169276401400566,"83":0.1754445731639862,"84":0.17780806124210358,"85":0.03823200240731239,"86":0.010593361221253872,"87":0.020772652700543404,"88":-0.006988409906625748,"89":0.16171559691429138,"90":0.14078032970428467,"91":-0.18469278514385223,"92":-0.06649984419345856,"93":0.12200677394866943,"94":0.06739602982997894,"95":-0.04964206740260124,"96":-0.19248470664024353,"97":0.12588852643966675,"98":-0.06849076598882675,"99":-0.1437525749206543,"100":-0.01802031509578228,"101":-0.006910754833370447,"102":-0.057316843420267105,"103":0.06511351466178894,"104":-0.13673560321331024,"105":0.07035797834396362,"106":0.1896512508392334,"107":-0.11911149322986603,"108":-0.09444151073694229,"109":-0.15135914087295532,"110":-0.1557590216398239,"111":0.020926272496581078,"112":0.14706701040267944,"113":0.10852757841348648,"114":-0.1344420611858368,"115":-0.046489134430885315,"116":0.01539754681289196,"117":-0.18427297472953796,"118":0.07142530381679535,"119":-0.17917418479919434,"120":-0.17959532141685486,"121":-0.12825527787208557,"122":0.1139209121465683,"123":0.16647140681743622,"124":-0.0815243348479271,"125":-0.14063401520252228,"126":-0.11564142256975174,"127":0.1520584374666214,"128":-0.1843971163034439,"129":-0.155549094080925,"130":0.03360159322619438,"131":-0.027115659788250923,"132":0.18764422833919525,"133":-0.1916871815919876,"134":0.11560074239969254,"135":-0.11573649942874908,"136":0.005433407612144947,"137":0.14077068865299225,"138":-0.1097785085439682,"139":-0.09427033364772797,"140":0.16837656497955322,"141":0.05563487485051155,"142":0.12000393867492676,"143":0.13135740160942078,"144":-0.10362683236598969,"145":-0.08969746530056,"146":0.14422279596328735,"147":-0.17820407450199127,"148":0.07521241903305054,"149":0.11400824785232544,"150":0.09387751668691635,"151":-0.1018022894859314,"152":0.18081142008304596,"153":-0.1684805452823639,"154":0.15131498873233795,"155":0.10044683516025543,"156":0.05796542391180992,"157":0.028432777151465416,"158":0.15752775967121124,"159":-0.20089121162891388,"160":-0.16832642257213593,"161":0.09930630773305893,"162":0.04983833059668541,"163":0.0995730310678482,"164":-0.044582758098840714,"165":-0.12403253465890884,"166":0.04662167653441429,"167":0.194791778922081,"168":0.012753748334944248,"169":-0.1971658319234848,"170":0.03888704255223274,"171":-0.16313201189041138,"172":-0.22211168706417084,"173":-0.04127821326255798,"174":-0.08658971637487411,"175":-0.18198294937610626,"176":-0.15348456799983978,"177":-0.18708118796348572,"178":-0.07420849800109863,"179":0.0499141551554203,"180":-0.09983477741479874,"181":-0.14156903326511383,"182":0.16843724250793457,"183":0.028002876788377762,"184":0.086130790412426,"185":-0.14627598226070404,"186":0.09507130086421967,"187":0.10327623784542084,"188":0.06892836093902588,"189":0.06828208267688751,"190":-0.19965767860412598,"191":-0.23519539833068848,"192":-0.08291713148355484,"193":0.057625241577625275,"194":-0.11019822210073471,"195":-0.03818051517009735,"196":-0.17997777462005615,"197":0.030478164553642273,"198":0.011081951670348644,"199":-0.14776714146137238,"200":0.19931595027446747,"201":-0.05279824882745743,"202":0.06815346330404282,"203":-0.14493928849697113,"204":0.20402593910694122,"205":0.017871664837002754,"206":0.13288027048110962,"207":0.017250459641218185,"208":-0.05922313034534454,"209":0.06451787799596786,"210":-0.059598658233881,"211":0.09843021631240845,"212":-0.09710612893104553,"213":0.0579969584941864,"214":-0.21958528459072113,"215":-0.00924336165189743,"216":-0.22128593921661377,"217":-0.08908611536026001,"218":-0.19988270103931427,"219":0.18837377429008484,"220":-0.06286656856536865,"221":-0.003173630917444825,"222":-0.15391598641872406,"223":-0.08004894107580185,"224":0.14700442552566528,"225":-0.016755100339651108,"226":-0.03830971568822861,"227":-0.0058449264615774155,"228":-0.1693766713142395,"229":-0.2375146448612213,"230":-0.14050574600696564,"231":0.09137795865535736,"232":0.12241968512535095,"233":-0.182965949177742,"234":0.08055630326271057,"235":-0.08278129249811172,"236":-0.06651623547077179,"237":0.0897487998008728,"238":0.05961481109261513,"239":-0.16696161031723022,"240":0.1724182814359665,"241":0.10794426500797272,"242":0.13502974808216095,"243":0.14082039892673492,"244":0.18251670897006989,"245":-0.14218881726264954,"246":0.0222624558955431,"247":0.07328671216964722,"248":-0.12237242609262466,"249":0.042888324707746506,"250":-0.17797239124774933,"251":-0.25537142157554626,"252":-0.07225875556468964,"253":-0.18426941335201263,"254":-0.20554696023464203,"255":-0.08109954744577408,"256":0.14056329429149628,"257":-0.020673176273703575,"258":-0.15762662887573242,"259":0.11252890527248383,"260":0.048860594630241394,"261":0.17131094634532928,"262":-0.1347637176513672,"263":-0.13227872550487518,"264":0.17882287502288818,"265":0.01356291864067316,"266":-0.028670577332377434,"267":0.036281753331422806,"268":-0.03441491723060608,"269":-0.06129501014947891,"270":0.08596210926771164,"271":0.17325085401535034,"272":-0.12190677225589752,"273":0.12798574566841125,"274":-0.06319680064916611,"275":0.0022631119936704636,"276":-0.009574213065207005,"277":-0.10773338377475739,"278":0.014942464418709278,"279":0.04093198478221893,"280":0.14494119584560394,"281":-0.10906961560249329,"282":0.1749909222126007,"283":0.052277181297540665,"284":0.01095828227698803,"285":-0.11093796044588089,"286":-0.1643708348274231,"287":-0.0575152151286602,"288":-0.11256755143404007,"289":-0.029504410922527313,"290":0.020830674096941948,"291":-0.11826440691947937,"292":0.017748437821865082,"293":0.07890878617763519,"294":0.04516761377453804,"295":0.10286810994148254,"296":0.207458958029747,"297":0.17722900211811066,"298":-0.013525927439332008,"299":-0.011531997472047806,"300":0.020788315683603287,"301":0.15323922038078308,"302":-0.09180005639791489,"303":-0.12093416601419449,"304":0.11094529181718826,"305":-0.022513391450047493,"306":0.08670353144407272,"307":-0.060300931334495544,"308":0.10907810181379318,"309":-0.16037686169147491,"310":0.02967873215675354,"311":-0.01968160644173622,"312":0.2230837047100067,"313":0.20065727829933167,"314":-0.06729159504175186,"315":0.1989014595746994,"316":0.07091756910085678,"317":-0.0859123021364212,"318":0.08469158411026001,"319":-0.1724824607372284,"320":0.11434605717658997,"321":0.12070076167583466,"322":-0.12648224830627441,"323":0.06529279798269272,"324":-0.10367322713136673,"325":0.1817452609539032,"326":0.14200454950332642,"327":-0.19580724835395813,"328":0.1250673234462738,"329":0.08727037161588669,"330":0.15348440408706665,"331":-0.059083666652441025,"332":-0.06528541445732117,"333":-0.00978692527860403,"334":0.19204187393188477,"335":-0.07208803296089172,"336":-0.08198986947536469,"337":0.028954103589057922,"338":0.09203163534402847,"339":-0.14125142991542816,"340":-0.08729256689548492,"341":-0.16020287573337555,"342":-0.055584169924259186,"343":0.034999117255210876,"344":-0.00868113525211811,"345":-0.012739044614136219,"346":0.216605544090271,"347":-0.051115598529577255,"348":-0.1728706955909729,"349":0.1656733900308609,"350":0.08595991134643555,"351":-0.04301013424992561,"352":0.01715056598186493,"353":-0.13336102664470673,"354":0.18395543098449707,"355":-0.1015729084610939,"356":0.1514064073562622,"357":-0.09680082648992538,"358":-0.06830425560474396,"359":0.0027438735123723745,"360":0.020042067393660545,"361":0.06353602558374405,"362":0.07852831482887268,"363":0.015200312249362469,"364":-0.09152022749185562,"365":-0.05236027017235756,"366":0.05306633561849594,"367":-0.1223616898059845,"368":-0.12657347321510315,"369":0.050772588700056076,"370":0.1366094946861267,"371":-0.16204793751239777,"372":0.1547064185142517,"373":0.001983936643227935,"374":0.034548286348581314,"375":0.13988737761974335,"376":0.02594282478094101,"377":0.06910867989063263,"378":-0.15823133289813995,"379":-0.0184857826679945,"380":-0.08781203627586365,"381":0.17819394171237946,"382":-0.08034239709377289,"383":0.047819461673498154,"384":-0.18066918849945068,"385":0.1832273006439209,"386":-0.06980253010988235,"387":-0.03417219966650009,"388":-0.08413276076316833,"389":-0.09095001220703125,"390":0.14096367359161377,"391":0.12577572464942932,"392":-0.12769415974617004,"393":0.01638394594192505,"394":-0.01821357198059559,"395":0.04534898325800896,"396":0.14616018533706665,"397":-0.023473335430026054,"398":0.18776491284370422,"399":0.01062012929469347}},"4":{"bias":0.10083243995904922,"weights":{"0":-0.17456994950771332,"1":0.13387718796730042,"2":-0.05013048276305199,"3":-0.17211401462554932,"4":-0.18778713047504425,"5":0.18869657814502716,"6":0.198395773768425,"7":0.19732141494750977,"8":-0.16480599343776703,"9":-0.05959232896566391,"10":0.00852221343666315,"11":-0.11855722218751907,"12":0.1968383938074112,"13":-0.04332941025495529,"14":0.1446293145418167,"15":-0.12232133746147156,"16":-0.1212998703122139,"17":0.10210677236318588,"18":0.030250977724790573,"19":-0.06327354907989502,"20":-0.11218436062335968,"21":-0.19543178379535675,"22":0.11208033561706543,"23":0.1255742460489273,"24":-0.12781628966331482,"25":-0.11048863083124161,"26":0.05135580524802208,"27":0.01705210842192173,"28":0.00997502077370882,"29":0.016772719100117683,"30":-0.1739729940891266,"31":-0.1450936645269394,"32":0.011151803657412529,"33":0.03309687599539757,"34":0.1690598577260971,"35":0.19709046185016632,"36":0.06687191128730774,"37":0.03422961011528969,"38":0.10004887729883194,"39":-0.16570253670215607,"40":0.11145813018083572,"41":0.10365807265043259,"42":0.05948170647025108,"43":-0.11203145235776901,"44":-0.00919065997004509,"45":-0.1739056408405304,"46":0.13089469075202942,"47":0.10349588841199875,"48":-0.13592371344566345,"49":-0.18447567522525787,"50":0.08866805583238602,"51":-0.025249779224395752,"52":-0.1873101145029068,"53":0.05221952870488167,"54":0.11547880619764328,"55":-0.19752182066440582,"56":-0.08818002045154572,"57":-0.04314924031496048,"58":0.004368750844150782,"59":0.1742784082889557,"60":0.0032250084914267063,"61":0.1245112270116806,"62":-0.08301644772291183,"63":0.18968498706817627,"64":-0.1315673589706421,"65":-0.1337776631116867,"66":0.005140278954058886,"67":-0.11818904429674149,"68":0.004114430397748947,"69":-0.1451411098241806,"70":-0.0022135793697088957,"71":0.18578769266605377,"72":0.05344318971037865,"73":-0.08783818781375885,"74":0.06492814421653748,"75":-0.14763273298740387,"76":-0.18419215083122253,"77":0.16252169013023376,"78":-0.10892439633607864,"79":-0.1883288323879242,"80":-0.18390566110610962,"81":0.08986512571573257,"82":-0.16555163264274597,"83":-0.03587441146373749,"84":0.17830272018909454,"85":-0.11180590838193893,"86":-0.10826587677001953,"87":0.18197102844715118,"88":-0.10324156284332275,"89":-0.18160006403923035,"90":-0.08377658575773239,"91":-0.005369884893298149,"92":-0.10452117770910263,"93":0.16971689462661743,"94":-0.09424183517694473,"95":-0.15666982531547546,"96":-0.0028464235365390778,"97":0.052392710000276566,"98":0.009488360956311226,"99":-0.13898764550685883,"100":0.03667035698890686,"101":-0.17159640789031982,"102":-0.05694645270705223,"103":0.1565174013376236,"104":0.03908945620059967,"105":0.16222068667411804,"106":0.0895393118262291,"107":-0.08552996069192886,"108":0.21641571819782257,"109":0.07263332605361938,"110":-0.099887914955616,"111":0.18294477462768555,"112":0.027165155857801437,"113":0.11958952993154526,"114":-0.05433868244290352,"115":-0.005271869245916605,"116":0.169314444065094,"117":0.04677453264594078,"118":0.09727073460817337,"119":-0.15523922443389893,"120":0.050504170358181,"121":0.05441077798604965,"122":0.08959871530532837,"123":0.029967427253723145,"124":-0.17919614911079407,"125":0.14932836592197418,"126":-0.025003714486956596,"127":-0.0528978556394577,"128":-0.07546647638082504,"129":0.0410328172147274,"130":-0.015879370272159576,"131":-0.01210668683052063,"132":0.0007472103461623192,"133":0.057116273790597916,"134":-0.024308301508426666,"135":0.023904336616396904,"136":-0.15356801450252533,"137":-0.06444638967514038,"138":0.12849725782871246,"139":-0.03032955713570118,"140":0.0623471699655056,"141":0.05773376300930977,"142":0.016192646697163582,"143":-0.1093699187040329,"144":-0.19007405638694763,"145":-0.07391539961099625,"146":-0.12112630158662796,"147":0.08498735725879669,"148":-0.014919053763151169,"149":-0.13308046758174896,"150":-0.2147524058818817,"151":-0.1672178953886032,"152":-0.14830906689167023,"153":-0.19776342809200287,"154":0.11687612533569336,"155":0.20158208906650543,"156":0.11360250413417816,"157":-0.08479674160480499,"158":0.024076858535408974,"159":-0.1692895144224167,"160":0.1884516030550003,"161":-0.17735084891319275,"162":-0.09737291932106018,"163":-0.07914333790540695,"164":0.10965900123119354,"165":0.17363756895065308,"166":0.19609016180038452,"167":-0.032353561371564865,"168":0.01665738970041275,"169":-0.1973462849855423,"170":-0.005401489790529013,"171":-0.17496861517429352,"172":0.006663328502327204,"173":-0.1917276382446289,"174":-0.018653742969036102,"175":-0.05914982408285141,"176":-0.13714253902435303,"177":-0.10052768886089325,"178":0.02821306511759758,"179":-0.13339677453041077,"180":0.00993189588189125,"181":-0.148256316781044,"182":-0.10557094216346741,"183":-0.12139232456684113,"184":-0.18241360783576965,"185":-0.06379030644893646,"186":-0.10980527102947235,"187":-0.15729518234729767,"188":-0.10960759967565536,"189":0.10567547380924225,"190":0.026372557505965233,"191":-0.21598471701145172,"192":0.11645389348268509,"193":-0.272580623626709,"194":-0.216104194521904,"195":-0.14996570348739624,"196":-0.1590622365474701,"197":-0.21226109564304352,"198":-0.09610362350940704,"199":-0.11635079979896545,"200":0.10942096263170242,"201":-0.06844625622034073,"202":-0.1597594916820526,"203":0.12581168115139008,"204":-0.13574551045894623,"205":0.027250023558735847,"206":-0.0458051972091198,"207":0.05374714359641075,"208":-0.029070455580949783,"209":-0.10572691261768341,"210":-0.04334001988172531,"211":-0.20032255351543427,"212":0.025459449738264084,"213":-0.0027734925970435143,"214":0.06577915698289871,"215":0.06821228563785553,"216":0.16957999765872955,"217":-0.12043184041976929,"218":0.11684626340866089,"219":-0.02004007250070572,"220":0.1275956928730011,"221":-0.003676736494526267,"222":0.04535819962620735,"223":-0.10405144095420837,"224":-0.007471037562936544,"225":0.11085492372512817,"226":-0.03331346809864044,"227":0.03772490844130516,"228":-0.14352712035179138,"229":0.010725253261625767,"230":0.09363454580307007,"231":-0.05936458706855774,"232":-0.11201409250497818,"233":-0.09355506300926208,"234":-0.04524851217865944,"235":0.1338174194097519,"236":-0.19491735100746155,"237":-0.017741717398166656,"238":-0.2010667771100998,"239":0.14604108035564423,"240":0.04836127161979675,"241":0.09134536981582642,"242":0.051963068544864655,"243":0.0888012945652008,"244":0.07594464719295502,"245":-0.17148154973983765,"246":0.07486037909984589,"247":-0.05912746489048004,"248":-0.13214829564094543,"249":0.01206942554563284,"250":-0.08028344064950943,"251":-0.09044951945543289,"252":0.1902727335691452,"253":0.1577295958995819,"254":-0.1693422645330429,"255":0.0822460800409317,"256":-0.054560866206884384,"257":-0.12527984380722046,"258":0.13462774455547333,"259":-0.027270864695310593,"260":0.1259278953075409,"261":-0.18269741535186768,"262":-0.15849755704402924,"263":-0.04753847420215607,"264":-0.017699064686894417,"265":-0.00738757336512208,"266":0.14271986484527588,"267":-0.080908864736557,"268":-0.0938156396150589,"269":0.16564449667930603,"270":0.1654474437236786,"271":0.11715205013751984,"272":0.10557752102613449,"273":-0.16447699069976807,"274":-0.06800833344459534,"275":-0.15279732644557953,"276":-0.10258675366640091,"277":0.11876223236322403,"278":-0.027506902813911438,"279":0.0568852461874485,"280":0.15486057102680206,"281":-0.046962134540081024,"282":-0.10659726709127426,"283":-0.09395124018192291,"284":-0.06411917507648468,"285":0.044093821197748184,"286":0.06127282977104187,"287":0.017351888120174408,"288":-0.025940265506505966,"289":0.18173068761825562,"290":0.0835176333785057,"291":0.16101624071598053,"292":-0.04454740881919861,"293":-0.04426254332065582,"294":0.059870652854442596,"295":-0.008404633030295372,"296":0.14148801565170288,"297":-0.03934770077466965,"298":0.215463325381279,"299":0.21611779928207397,"300":-0.13281865417957306,"301":0.10599887371063232,"302":-0.12499500066041946,"303":-0.04181408882141113,"304":0.07841446995735168,"305":0.06545451283454895,"306":-0.047588273882865906,"307":-0.052475325763225555,"308":0.16052958369255066,"309":-0.13530030846595764,"310":-0.08007477223873138,"311":0.0037457686848938465,"312":-0.0941833034157753,"313":0.05206473544239998,"314":-0.1446075588464737,"315":0.1469842791557312,"316":-0.10803854465484619,"317":-0.15803146362304688,"318":-0.16077829897403717,"319":0.02634798362851143,"320":-0.13802434504032135,"321":-0.030327698215842247,"322":0.04581831395626068,"323":-0.058499082922935486,"324":-0.10391680151224136,"325":-0.14502915740013123,"326":-0.1391381025314331,"327":0.11750359833240509,"328":0.050651051104068756,"329":0.08642969280481339,"330":-0.0066592879593372345,"331":-0.08485567569732666,"332":-0.05641787499189377,"333":0.14631740748882294,"334":-0.10279545187950134,"335":0.15302760899066925,"336":0.035255081951618195,"337":0.11965082585811615,"338":-0.09259410947561264,"339":0.1089775487780571,"340":-0.004906128626316786,"341":0.1820925623178482,"342":0.04273676499724388,"343":0.06172595173120499,"344":0.010377557948231697,"345":-0.08497621864080429,"346":-0.06516975909471512,"347":0.2508131265640259,"348":0.2361036092042923,"349":0.14808203279972076,"350":0.09674724191427231,"351":0.061934683471918106,"352":0.22447910904884338,"353":0.11949838697910309,"354":-0.2088397592306137,"355":-0.10744849592447281,"356":-0.11286628246307373,"357":0.07317834347486496,"358":-0.15155868232250214,"359":-0.07741926610469818,"360":0.18748065829277039,"361":-0.08709457516670227,"362":-0.05000121891498566,"363":-0.10901717841625214,"364":0.03212770074605942,"365":0.1171964779496193,"366":-0.0786290317773819,"367":-0.1038198247551918,"368":0.11089064925909042,"369":0.0025731411296874285,"370":-0.18237631022930145,"371":0.15035301446914673,"372":0.048485640436410904,"373":-0.24164161086082458,"374":-0.04742966964840889,"375":0.03345708176493645,"376":0.016158314421772957,"377":0.04902542009949684,"378":0.024569028988480568,"379":-0.05584936961531639,"380":-0.10595037788152695,"381":0.19125862419605255,"382":0.08200981467962265,"383":-0.10914812237024307,"384":-0.02996702492237091,"385":0.004891959484666586,"386":-0.14241093397140503,"387":0.1928749680519104,"388":0.16751493513584137,"389":0.12142318487167358,"390":-0.22707894444465637,"391":0.15017788112163544,"392":0.0010982358362525702,"393":-0.1483917236328125,"394":-0.10504045337438583,"395":-0.20261640846729279,"396":0.07711420953273773,"397":-0.0732523649930954,"398":-0.07329674810171127,"399":-0.03948486968874931}},"5":{"bias":-0.1662459671497345,"weights":{"0":0.17345477640628815,"1":0.17729613184928894,"2":0.06169455498456955,"3":0.0660807266831398,"4":0.028732558712363243,"5":0.007811659015715122,"6":0.13499270379543304,"7":0.12924130260944366,"8":-0.0093919038772583,"9":0.00845518708229065,"10":-0.1086089238524437,"11":0.03254023194313049,"12":0.020914798602461815,"13":-0.1851867288351059,"14":0.17218993604183197,"15":-0.11337371915578842,"16":0.06533266603946686,"17":-0.0451146624982357,"18":-0.10272032767534256,"19":-0.0026605671737343073,"20":-0.061010412871837616,"21":0.004000409040600061,"22":-0.14013972878456116,"23":-0.11954931169748306,"24":-0.08373626321554184,"25":-0.18039432168006897,"26":-0.16352985799312592,"27":-0.09003652632236481,"28":0.08776147663593292,"29":0.03817647323012352,"30":-0.17365698516368866,"31":0.04626986384391785,"32":0.13969409465789795,"33":-0.028882155194878578,"34":0.022423885762691498,"35":-0.04128674045205116,"36":0.1313823163509369,"37":-0.12203842401504517,"38":-0.041309453547000885,"39":0.12167232483625412,"40":0.12668634951114655,"41":0.025463512167334557,"42":-0.1301177740097046,"43":-0.15596430003643036,"44":-0.074320487678051,"45":0.16144341230392456,"46":-0.058119647204875946,"47":-0.0650019720196724,"48":0.0636797845363617,"49":0.1617652177810669,"50":-0.05650792643427849,"51":-0.04540819674730301,"52":0.18893705308437347,"53":-0.15772946178913116,"54":-0.18625469505786896,"55":-0.17085915803909302,"56":-0.17599324882030487,"57":0.03629019483923912,"58":-0.03475264832377434,"59":-0.10063949227333069,"60":0.04584559053182602,"61":0.08716031908988953,"62":0.14114168286323547,"63":0.16024962067604065,"64":-0.027285510674118996,"65":-0.1090594232082367,"66":-0.06812083721160889,"67":-0.10204824060201645,"68":-0.1856827735900879,"69":-0.18275681138038635,"70":0.08662530034780502,"71":-0.02011934481561184,"72":0.027525145560503006,"73":0.105779729783535,"74":-0.1994079053401947,"75":-0.15350164473056793,"76":-0.042459651827812195,"77":0.06726426631212234,"78":0.05792124941945076,"79":0.14489851891994476,"80":-0.004595377016812563,"81":-0.004275316838175058,"82":-0.16397857666015625,"83":-0.07647871226072311,"84":0.09769561141729355,"85":-0.13946165144443512,"86":0.034708812832832336,"87":-0.09258460253477097,"88":0.1973162293434143,"89":-0.07036450505256653,"90":0.016761787235736847,"91":0.009614166803658009,"92":-0.017796631902456284,"93":0.009442220441997051,"94":0.10899946093559265,"95":0.015987953171133995,"96":0.13440929353237152,"97":-0.18729808926582336,"98":-0.15989337861537933,"99":-0.04971066862344742,"100":0.06645199656486511,"101":-0.04400705546140671,"102":0.019505970180034637,"103":-0.04800606891512871,"104":0.12630532681941986,"105":-0.06982272118330002,"106":0.06900011003017426,"107":-0.15346451103687286,"108":0.04726647958159447,"109":-0.13401104509830475,"110":0.1897420734167099,"111":0.13034169375896454,"112":-0.10969258844852448,"113":-0.17498336732387543,"114":-0.05986073613166809,"115":0.15291717648506165,"116":-0.06275229901075363,"117":0.06982265412807465,"118":0.008314532227814198,"119":0.09900321066379547,"120":-0.032548751682043076,"121":0.14945845305919647,"122":-0.11231323331594467,"123":0.151325061917305,"124":0.13013577461242676,"125":-0.13733920454978943,"126":0.1534513682126999,"127":-0.012632841244339943,"128":-0.18376530706882477,"129":-0.10912886261940002,"130":0.027677172794938087,"131":0.07662484794855118,"132":-0.12979182600975037,"133":0.10261747241020203,"134":-0.17600971460342407,"135":-0.16324660181999207,"136":-0.005508678965270519,"137":0.0011401899391785264,"138":-0.1792912483215332,"139":-0.0516517236828804,"140":0.17097316682338715,"141":0.11330994963645935,"142":0.04115670919418335,"143":-0.05009119585156441,"144":-0.07959789782762527,"145":-0.173333540558815,"146":-0.20834435522556305,"147":0.13590176403522491,"148":-0.045882698148489,"149":0.02367095649242401,"150":0.16497792303562164,"151":-0.17816247045993805,"152":-0.09065711498260498,"153":0.1251898556947708,"154":0.014606771990656853,"155":0.04696342721581459,"156":-0.06309419870376587,"157":-0.09568855166435242,"158":-0.06852705776691437,"159":-0.002127168932929635,"160":-0.010200676508247852,"161":0.18710483610630035,"162":-0.08470120280981064,"163":-0.010344073176383972,"164":0.0289582759141922,"165":0.17808790504932404,"166":-0.1520553082227707,"167":0.010363170877099037,"168":-0.14801308512687683,"169":-0.14385582506656647,"170":-0.0325947143137455,"171":-0.07551780343055725,"172":-0.16581009328365326,"173":-0.02819349430501461,"174":-0.15745483338832855,"175":-0.10217580199241638,"176":0.06466712057590485,"177":0.04291750490665436,"178":-0.11106961220502853,"179":0.05243644863367081,"180":-0.1868429332971573,"181":-0.0787295252084732,"182":-0.05142343416810036,"183":-0.05927173048257828,"184":-0.11968345195055008,"185":-0.018172437325119972,"186":0.030652053654193878,"187":0.007479653228074312,"188":0.10864600539207458,"189":0.18192563951015472,"190":0.16310623288154602,"191":0.18307852745056152,"192":-0.07326501607894897,"193":-0.12980635464191437,"194":0.09310281276702881,"195":0.20583443343639374,"196":0.15190811455249786,"197":-0.12515564262866974,"198":-0.15852439403533936,"199":0.18136902153491974,"200":0.07776866853237152,"201":-0.1481376439332962,"202":0.15206128358840942,"203":-0.1518986076116562,"204":0.010253378190100193,"205":0.12972940504550934,"206":-0.14525045454502106,"207":0.1876317411661148,"208":-0.1460036188364029,"209":-0.07548736780881882,"210":-0.1604830026626587,"211":0.06409744173288345,"212":-0.1035236343741417,"213":-0.04174467548727989,"214":-0.12651416659355164,"215":-0.122062087059021,"216":0.005449538119137287,"217":-0.09577558934688568,"218":-0.00003488908623694442,"219":0.06345409154891968,"220":-0.19704724848270416,"221":0.05933282896876335,"222":0.038489483296871185,"223":0.17554254829883575,"224":0.16436827182769775,"225":-0.19164620339870453,"226":0.013608275912702084,"227":-0.16086676716804504,"228":-0.015547058545053005,"229":0.006906323134899139,"230":0.19058260321617126,"231":-0.03030310571193695,"232":0.022638749331235886,"233":0.005038613453507423,"234":-0.09414074569940567,"235":-0.048852626234292984,"236":0.045793499797582626,"237":-0.07807885110378265,"238":-0.16144584119319916,"239":-0.026810606941580772,"240":-0.08306770026683807,"241":0.024647431448101997,"242":-0.1129310205578804,"243":0.1843472272157669,"244":0.04578978568315506,"245":0.189283087849617,"246":-0.18997043371200562,"247":-0.23937508463859558,"248":0.13166362047195435,"249":0.1678437888622284,"250":-0.2230556458234787,"251":0.03448379039764404,"252":-0.15488354861736298,"253":0.13749688863754272,"254":0.12040741741657257,"255":0.12898601591587067,"256":0.016527507454156876,"257":-0.018245669081807137,"258":-0.1311517357826233,"259":-0.15687213838100433,"260":-0.08726812899112701,"261":-0.16814272105693817,"262":-0.00765141611918807,"263":-0.04460639879107475,"264":-0.050436653196811676,"265":0.09353057295084,"266":0.09638787060976028,"267":0.04473203420639038,"268":-0.06539613008499146,"269":0.08708664029836655,"270":-0.1981717050075531,"271":-0.03573155030608177,"272":-0.11991055309772491,"273":0.12563587725162506,"274":-0.007610688451677561,"275":-0.22665371000766754,"276":0.13403202593326569,"277":0.047795940190553665,"278":-0.02406000718474388,"279":-0.038558509200811386,"280":0.057580795139074326,"281":0.0718490406870842,"282":-0.10639162361621857,"283":0.15912610292434692,"284":0.15885525941848755,"285":0.06469880044460297,"286":0.09739217162132263,"287":0.0722697526216507,"288":0.09505072981119156,"289":0.03861555457115173,"290":0.08601758629083633,"291":-0.20241554081439972,"292":-0.018835535272955894,"293":-0.17523373663425446,"294":-0.10676530003547668,"295":0.07061543315649033,"296":-0.12541231513023376,"297":-0.20805318653583527,"298":-0.20395541191101074,"299":-0.10238658636808395,"300":-0.15707798302173615,"301":-0.1358177810907364,"302":0.13464567065238953,"303":0.19250093400478363,"304":-0.013859218917787075,"305":-0.046946439892053604,"306":0.05749408155679703,"307":-0.21708670258522034,"308":0.15007945895195007,"309":0.1423557549715042,"310":0.030013976618647575,"311":-0.1807461380958557,"312":0.07140298932790756,"313":-0.12649211287498474,"314":-0.05245951935648918,"315":-0.18297727406024933,"316":-0.037458714097738266,"317":0.06292648613452911,"318":-0.08510939031839371,"319":-0.1847674548625946,"320":0.13014601171016693,"321":0.031814608722925186,"322":-0.1052112802863121,"323":0.0657983273267746,"324":0.08896573632955551,"325":-0.1417466104030609,"326":0.021790554746985435,"327":-0.00826350413262844,"328":0.03369562327861786,"329":0.19888558983802795,"330":0.02034558542072773,"331":-0.20813311636447906,"332":0.1350148320198059,"333":-0.16323861479759216,"334":-0.1281285434961319,"335":-0.16600872576236725,"336":-0.12847822904586792,"337":-0.09542147070169449,"338":-0.12987403571605682,"339":-0.13802601397037506,"340":-0.12873110175132751,"341":0.1997220367193222,"342":-0.0589606836438179,"343":-0.060724351555109024,"344":0.17905935645103455,"345":0.02523777447640896,"346":-0.0823758915066719,"347":0.014927194453775883,"348":-0.10212142765522003,"349":0.024011023342609406,"350":-0.1329178512096405,"351":0.08381855487823486,"352":0.0875936895608902,"353":0.2090025395154953,"354":-0.17611022293567657,"355":-0.05044116452336311,"356":-0.00343150133267045,"357":-0.1959012746810913,"358":0.017248451709747314,"359":0.17660443484783173,"360":0.10111672431230545,"361":-0.03294737637042999,"362":-0.03800217807292938,"363":0.15490394830703735,"364":-0.10342813283205032,"365":0.0870235413312912,"366":0.06488031148910522,"367":0.0666779950261116,"368":-0.1996377557516098,"369":0.1381518393754959,"370":-0.06637315452098846,"371":0.17194689810276031,"372":0.11985521763563156,"373":0.015089290216565132,"374":-0.02279115654528141,"375":-0.06212104111909866,"376":-0.1741478443145752,"377":-0.11093548685312271,"378":0.14998751878738403,"379":0.061283282935619354,"380":-0.03981225565075874,"381":-0.03697584196925163,"382":-0.11817456036806107,"383":0.09158115833997726,"384":0.1229233369231224,"385":0.060554057359695435,"386":-0.16323715448379517,"387":-0.15249164402484894,"388":-0.05750978738069534,"389":0.1810894012451172,"390":-0.08873070031404495,"391":0.08160974085330963,"392":-0.028334062546491623,"393":-0.183593288064003,"394":-0.14389628171920776,"395":-0.115382120013237,"396":-0.03289834409952164,"397":0.10936569422483444,"398":-0.06743529438972473,"399":-0.10909506678581238}},"6":{"bias":0.10500934720039368,"weights":{"0":-0.09838217496871948,"1":0.12308844178915024,"2":0.02535710297524929,"3":-0.06452353298664093,"4":0.11293420940637589,"5":0.06782680749893188,"6":0.17428822815418243,"7":-0.042056482285261154,"8":0.0016648272285237908,"9":-0.0006199057097546756,"10":0.003711056662723422,"11":0.16123270988464355,"12":0.0770401656627655,"13":-0.027372343465685844,"14":0.02582717500627041,"15":-0.16944709420204163,"16":-0.1467302441596985,"17":-0.06393295526504517,"18":0.16742633283138275,"19":-0.051364701241254807,"20":-0.139200821518898,"21":-0.1072673574090004,"22":-0.17597556114196777,"23":0.046033065766096115,"24":-0.12184354662895203,"25":-0.044289954006671906,"26":-0.06612047553062439,"27":0.10614518076181412,"28":0.18616874516010284,"29":-0.17215856909751892,"30":-0.12182547152042389,"31":0.18570302426815033,"32":0.058344703167676926,"33":-0.19099199771881104,"34":0.14199893176555634,"35":0.06954938918352127,"36":0.07536359131336212,"37":-0.14387643337249756,"38":-0.12505213916301727,"39":0.08731669187545776,"40":0.04897880554199219,"41":0.13778656721115112,"42":-0.059437233954668045,"43":-0.004831946920603514,"44":0.10802529752254486,"45":0.19679170846939087,"46":-0.03298207372426987,"47":-0.027895450592041016,"48":0.09666308015584946,"49":0.18693944811820984,"50":0.041897520422935486,"51":-0.1454097479581833,"52":-0.14074112474918365,"53":-0.1388717144727707,"54":0.19619683921337128,"55":0.09034505486488342,"56":-0.10140898078680038,"57":0.029705975204706192,"58":0.16077183187007904,"59":-0.16833165287971497,"60":-0.05661818012595177,"61":0.07825648039579391,"62":-0.17771394550800323,"63":-0.052613742649555206,"64":0.11642754077911377,"65":-0.10633595287799835,"66":-0.11107704043388367,"67":0.030284617096185684,"68":0.15187017619609833,"69":-0.16688691079616547,"70":0.05273136869072914,"71":0.13661713898181915,"72":-0.16145578026771545,"73":-0.1806093156337738,"74":0.19450697302818298,"75":-0.13929396867752075,"76":-0.1349022388458252,"77":0.019882405176758766,"78":0.018399793654680252,"79":-0.14723791182041168,"80":-0.027779750525951385,"81":-0.09648256003856659,"82":0.19610218703746796,"83":0.14254260063171387,"84":0.09671344608068466,"85":0.018956538289785385,"86":-0.05810887739062309,"87":0.02307795360684395,"88":0.08586995303630829,"89":0.14994344115257263,"90":0.09217651933431625,"91":-0.1724202036857605,"92":-0.004918686579912901,"93":0.05955556780099869,"94":0.00972630362957716,"95":-0.01437318418174982,"96":0.051965925842523575,"97":0.09981950372457504,"98":0.17960090935230255,"99":-0.15843996405601501,"100":-0.10035690665245056,"101":-0.06508558243513107,"102":-0.13384346663951874,"103":-0.1298850029706955,"104":-0.1265505999326706,"105":-0.138703852891922,"106":0.05334772169589996,"107":-0.11966543644666672,"108":-0.11048250645399094,"109":-0.052430108189582825,"110":0.15198805928230286,"111":-0.1221587210893631,"112":0.14921267330646515,"113":0.10022186487913132,"114":-0.13241173326969147,"115":-0.038953933864831924,"116":0.01646067574620247,"117":-0.06964774429798126,"118":-0.0020720784086734056,"119":0.09940879791975021,"120":-0.03881314396858215,"121":-0.057054124772548676,"122":0.18451686203479767,"123":-0.043755803257226944,"124":0.1540631204843521,"125":-0.15775460004806519,"126":0.007970078848302364,"127":0.1287110596895218,"128":-0.12587931752204895,"129":0.07243013381958008,"130":-0.09651682525873184,"131":-0.1677640825510025,"132":0.07453925162553787,"133":-0.0013638128293678164,"134":-0.13177938759326935,"135":0.05571207404136658,"136":-0.020230866968631744,"137":0.16068527102470398,"138":-0.08329513669013977,"139":-0.06125057488679886,"140":-0.0758139044046402,"141":-0.04511670768260956,"142":0.04535543918609619,"143":0.04456004500389099,"144":-0.12063001841306686,"145":0.1503380984067917,"146":0.008157902397215366,"147":-0.24598979949951172,"148":-0.1511225551366806,"149":0.12498923391103745,"150":-0.06303660571575165,"151":0.1455785036087036,"152":0.05105157569050789,"153":0.12882263958454132,"154":-0.2030254453420639,"155":0.0560154914855957,"156":0.006439851131290197,"157":-0.13398593664169312,"158":0.11787284165620804,"159":-0.21712207794189453,"160":-0.0792374536395073,"161":0.17335309088230133,"162":-0.045895516872406006,"163":0.13120532035827637,"164":0.07898648828268051,"165":-0.013464812189340591,"166":-0.15837326645851135,"167":-0.22002194821834564,"168":-0.07412916421890259,"169":-0.22576673328876495,"170":-0.2620603144168854,"171":0.07706775516271591,"172":-0.16965621709823608,"173":-0.28759676218032837,"174":-0.14543047547340393,"175":-0.016562702134251595,"176":-0.10646606236696243,"177":0.1060909777879715,"178":-0.12717434763908386,"179":0.045712992548942566,"180":0.07783719152212143,"181":0.07175534963607788,"182":0.1448855996131897,"183":-0.14375190436840057,"184":-0.09275324642658234,"185":-0.09372260421514511,"186":-0.19761323928833008,"187":0.0294529739767313,"188":-0.020368533208966255,"189":0.14537186920642853,"190":-0.03201917186379433,"191":-0.23067575693130493,"192":-0.23006318509578705,"193":-0.10882257670164108,"194":-0.19144846498966217,"195":-0.06535109877586365,"196":-0.022180359810590744,"197":0.005525536369532347,"198":-0.2846538722515106,"199":-0.0026308961678296328,"200":-0.04201709106564522,"201":-0.15885768830776215,"202":0.18179675936698914,"203":0.00900178775191307,"204":0.0371231846511364,"205":0.03793742507696152,"206":-0.21919022500514984,"207":-0.11847859621047974,"208":-0.21828679740428925,"209":0.06382729113101959,"210":-0.04664618521928787,"211":0.026161424815654755,"212":-0.1408637911081314,"213":0.0202189814299345,"214":-0.19351273775100708,"215":0.1349935531616211,"216":-0.015312434174120426,"217":0.04303742200136185,"218":-0.11589183658361435,"219":-0.1709386706352234,"220":-0.09465330094099045,"221":-0.06738485395908356,"222":-0.038775961846113205,"223":-0.1638929396867752,"224":-0.030659202486276627,"225":-0.016556162387132645,"226":0.010078352876007557,"227":-0.17926037311553955,"228":-0.090640589594841,"229":-0.1554976850748062,"230":-0.14941692352294922,"231":-0.15912500023841858,"232":0.06488081812858582,"233":0.0088321752846241,"234":-0.04351076856255531,"235":-0.20197594165802002,"236":0.022831162437796593,"237":-0.23806437849998474,"238":0.12517358362674713,"239":-0.23663727939128876,"240":0.046866871416568756,"241":-0.18481756746768951,"242":-0.12930986285209656,"243":0.013577633537352085,"244":0.11678633838891983,"245":-0.024011852219700813,"246":-0.20479539036750793,"247":-0.11359843611717224,"248":-0.16288888454437256,"249":-0.11028897762298584,"250":0.1271323710680008,"251":-0.06378263980150223,"252":-0.08336219191551208,"253":-0.11696690320968628,"254":-0.20743247866630554,"255":0.11781904101371765,"256":0.17435432970523834,"257":0.13673536479473114,"258":0.1744198054075241,"259":-0.12970416247844696,"260":-0.0062927138060331345,"261":-0.13813172280788422,"262":-0.12888672947883606,"263":-0.14789614081382751,"264":-0.14605970680713654,"265":0.11313209682703018,"266":0.12622252106666565,"267":0.08101635426282883,"268":-0.06778144091367722,"269":-0.05851615592837334,"270":-0.14541134238243103,"271":0.17935630679130554,"272":-0.03199624642729759,"273":-0.07179807871580124,"274":0.0996488407254219,"275":-0.16127507388591766,"276":0.14324526488780975,"277":-0.03573897108435631,"278":0.06341229379177094,"279":0.18577490746974945,"280":0.06887080520391464,"281":-0.026549119502305984,"282":-0.003369470126926899,"283":0.11777830868959427,"284":0.030665067955851555,"285":-0.08791407197713852,"286":0.08778765052556992,"287":-0.1424601525068283,"288":-0.019640909507870674,"289":0.23752228915691376,"290":0.1504850834608078,"291":0.20801079273223877,"292":0.1625758707523346,"293":-0.04610878974199295,"294":-0.01488764863461256,"295":-0.1520354449748993,"296":0.048970308154821396,"297":0.07707670331001282,"298":0.13918332755565643,"299":0.1982240080833435,"300":-0.18130265176296234,"301":0.03493688255548477,"302":-0.008882655762135983,"303":0.01547897607088089,"304":0.13802950084209442,"305":0.20278553664684296,"306":-0.13071537017822266,"307":-0.12733027338981628,"308":-0.13752594590187073,"309":0.23092679679393768,"310":-0.10200119018554688,"311":0.04467203468084335,"312":0.16190463304519653,"313":0.09624681621789932,"314":-0.08454953879117966,"315":-0.04362280294299126,"316":0.06290509551763535,"317":0.06446991860866547,"318":-0.09425435215234756,"319":0.11943597346544266,"320":-0.19429850578308105,"321":-0.17573656141757965,"322":-0.07535707205533981,"323":-0.018770484253764153,"324":0.02335871011018753,"325":-0.13902075588703156,"326":0.17798061668872833,"327":0.15261201560497284,"328":0.1496247500181198,"329":0.12898539006710052,"330":-0.09039528667926788,"331":-0.015464449301362038,"332":0.1471736580133438,"333":0.044171810150146484,"334":0.1363576203584671,"335":-0.025656167417764664,"336":0.18177907168865204,"337":-0.012540255673229694,"338":-0.20883405208587646,"339":0.04344329237937927,"340":-0.16081583499908447,"341":-0.1818431168794632,"342":-0.05985633656382561,"343":0.1531306505203247,"344":0.16321924328804016,"345":-0.17676585912704468,"346":0.12325359880924225,"347":-0.10391601920127869,"348":0.03413129970431328,"349":-0.07765361666679382,"350":-0.15111280977725983,"351":-0.14749303460121155,"352":-0.13054396212100983,"353":-0.02702745795249939,"354":-0.15167732536792755,"355":0.13486512005329132,"356":-0.1810360699892044,"357":-0.2665456235408783,"358":-0.10123304277658463,"359":-0.09146690368652344,"360":-0.025766102597117424,"361":-0.17083540558815002,"362":0.11096798628568649,"363":0.13826186954975128,"364":-0.1870204210281372,"365":0.08090885728597641,"366":0.06656816601753235,"367":0.10053301602602005,"368":0.005694471299648285,"369":0.08525056391954422,"370":0.07968472689390182,"371":-0.06767550855875015,"372":0.1183839812874794,"373":0.08953656256198883,"374":0.11523007601499557,"375":0.014273520559072495,"376":0.03613225370645523,"377":-0.14874817430973053,"378":-0.1731361746788025,"379":-0.07839091867208481,"380":0.18445134162902832,"381":-0.12829194962978363,"382":0.09859609603881836,"383":-0.16831044852733612,"384":-0.16506552696228027,"385":-0.06438814103603363,"386":0.17159803211688995,"387":0.03878839686512947,"388":0.09490685164928436,"389":-0.1459355354309082,"390":-0.16437803208827972,"391":0.030474640429019928,"392":0.15167680382728577,"393":0.1279125064611435,"394":-0.24866199493408203,"395":0.03359931707382202,"396":0.16229908168315887,"397":-0.25641679763793945,"398":0.004175052512437105,"399":0.18088553845882416}},"7":{"bias":-0.034754637628793716,"weights":{"0":-0.19823560118675232,"1":0.12750984728336334,"2":0.13253943622112274,"3":-0.09872755408287048,"4":0.14773280918598175,"5":-0.10496160387992859,"6":0.14933769404888153,"7":0.12641887366771698,"8":0.031968217343091965,"9":-0.17929619550704956,"10":-0.0962071493268013,"11":0.001590239116922021,"12":-0.04806700348854065,"13":0.1692311316728592,"14":0.0733204185962677,"15":0.1539444476366043,"16":0.10708614438772202,"17":-0.053049542009830475,"18":-0.002039046958088875,"19":-0.07150670140981674,"20":0.16734881699085236,"21":-0.038163766264915466,"22":-0.06195283681154251,"23":-0.18776679039001465,"24":0.1656017303466797,"25":0.08961121737957001,"26":-0.08730965852737427,"27":0.0575428232550621,"28":-0.12064214050769806,"29":0.050890304148197174,"30":-0.09305544197559357,"31":0.1044665277004242,"32":-0.08304182440042496,"33":-0.19847647845745087,"34":-0.0501825176179409,"35":0.023976996541023254,"36":0.03351147845387459,"37":0.11949490010738373,"38":-0.17103800177574158,"39":0.1880270093679428,"40":-0.10328390449285507,"41":-0.022136980667710304,"42":-0.03166169300675392,"43":0.08649977296590805,"44":-0.07813119888305664,"45":0.07365909218788147,"46":-0.1625184267759323,"47":0.11324803531169891,"48":-0.1868651807308197,"49":-0.031248098239302635,"50":-0.1340276300907135,"51":-0.10148799419403076,"52":-0.10137449204921722,"53":0.07351330667734146,"54":-0.19376368820667267,"55":0.0434911884367466,"56":0.1101519763469696,"57":0.11863712966442108,"58":-0.1606225073337555,"59":0.11239192634820938,"60":0.19905991852283478,"61":0.05459173023700714,"62":0.16136974096298218,"63":-0.002682911930605769,"64":-0.027337638661265373,"65":-0.09180246293544769,"66":-0.05594303831458092,"67":0.1595287173986435,"68":0.10294333100318909,"69":0.06850598752498627,"70":0.04918134957551956,"71":-0.03474611043930054,"72":-0.09628498554229736,"73":-0.08819648623466492,"74":-0.1417086124420166,"75":-0.004520112182945013,"76":-0.14299115538597107,"77":-0.05757879093289375,"78":0.13543938100337982,"79":-0.14360719919204712,"80":-0.0019046282395720482,"81":0.19252803921699524,"82":0.07210737466812134,"83":-0.10446331650018692,"84":0.14331594109535217,"85":-0.19461651146411896,"86":0.08237496763467789,"87":-0.11101515591144562,"88":0.1235240027308464,"89":0.07383482158184052,"90":-0.16301678121089935,"91":0.11015765368938446,"92":-0.14425523579120636,"93":0.12437212467193604,"94":0.18470638990402222,"95":-0.18290628492832184,"96":0.020296357572078705,"97":-0.08877459168434143,"98":-0.0800403580069542,"99":0.0768103152513504,"100":0.03961702808737755,"101":-0.19408433139324188,"102":-0.19906491041183472,"103":-0.02444607950747013,"104":-0.14690959453582764,"105":0.10356036573648453,"106":-0.2055439054965973,"107":0.11978001147508621,"108":-0.17615975439548492,"109":0.15113277733325958,"110":-0.07855083793401718,"111":-0.09057619422674179,"112":0.15425078570842743,"113":-0.14444275200366974,"114":-0.16237179934978485,"115":-0.048293910920619965,"116":-0.1798209547996521,"117":-0.22817809879779816,"118":0.12661558389663696,"119":0.0019059564219787717,"120":0.17907986044883728,"121":-0.1740567535161972,"122":0.13395585119724274,"123":-0.1303774118423462,"124":-0.05063089728355408,"125":0.04327906295657158,"126":0.19328132271766663,"127":0.04104989767074585,"128":-0.0717579573392868,"129":-0.17449310421943665,"130":-0.1394941359758377,"131":-0.09852730482816696,"132":0.1571654975414276,"133":0.15312139689922333,"134":0.19925040006637573,"135":0.17811301350593567,"136":0.19831401109695435,"137":-0.006235141772776842,"138":0.07415647804737091,"139":-0.16017384827136993,"140":-0.049018338322639465,"141":-0.02691883221268654,"142":0.05939934402704239,"143":-0.09199678152799606,"144":0.1429605633020401,"145":-0.08849909156560898,"146":-0.008688428439199924,"147":0.21864616870880127,"148":0.05541393905878067,"149":-0.13938646018505096,"150":0.13476057350635529,"151":0.02777886763215065,"152":0.05044098198413849,"153":0.03694019839167595,"154":0.14833730459213257,"155":-0.06553715467453003,"156":0.14535346627235413,"157":-0.05873240530490875,"158":0.15517066419124603,"159":0.14492203295230865,"160":0.11280201375484467,"161":0.12821291387081146,"162":0.0494825504720211,"163":-0.19571025669574738,"164":-0.10070862621068954,"165":0.1889798790216446,"166":0.16316482424736023,"167":-0.019087934866547585,"168":-0.047121405601501465,"169":-0.0352376364171505,"170":0.22992165386676788,"171":0.21483491361141205,"172":-0.01418916042894125,"173":-0.060754403471946716,"174":0.18085773289203644,"175":0.10715394467115402,"176":0.23566731810569763,"177":0.12288736552000046,"178":-0.08647097647190094,"179":0.12501224875450134,"180":-0.02826591394841671,"181":0.11473112553358078,"182":-0.040064144879579544,"183":-0.033096589148044586,"184":-0.06474984437227249,"185":-0.09806153923273087,"186":-0.07493658363819122,"187":-0.055970657616853714,"188":-0.15801557898521423,"189":-0.15392376482486725,"190":-0.14025670289993286,"191":0.035405825823545456,"192":0.18483036756515503,"193":-0.006322820205241442,"194":-0.05211186408996582,"195":0.1723240613937378,"196":0.19636158645153046,"197":-0.08046378195285797,"198":0.23911233246326447,"199":-0.11780593544244766,"200":-0.18915553390979767,"201":-0.10148636251688004,"202":-0.02747717685997486,"203":-0.1414051055908203,"204":-0.19322176277637482,"205":-0.08659856766462326,"206":0.0009992512641474605,"207":0.08229901641607285,"208":-0.14249259233474731,"209":-0.2207958996295929,"210":0.0903775691986084,"211":-0.10228437930345535,"212":-0.13361208140850067,"213":0.12143873423337936,"214":0.16743041574954987,"215":-0.11823181807994843,"216":0.18448872864246368,"217":-0.1554056704044342,"218":-0.09918058663606644,"219":-0.058077841997146606,"220":0.07306812703609467,"221":-0.08190643787384033,"222":0.07047176361083984,"223":-0.06095927581191063,"224":0.07005127519369125,"225":-0.07831931114196777,"226":-0.02949122153222561,"227":-0.013316714204847813,"228":-0.23298107087612152,"229":-0.18146561086177826,"230":-0.12366044521331787,"231":-0.05942840129137039,"232":-0.02646734192967415,"233":0.1360187530517578,"234":0.03618038073182106,"235":-0.08347213268280029,"236":-0.12878155708312988,"237":-0.16382525861263275,"238":0.15539824962615967,"239":-0.0712861642241478,"240":-0.16591186821460724,"241":-0.14619483053684235,"242":-0.1950836181640625,"243":-0.19234363734722137,"244":-0.0725659430027008,"245":-0.1895895153284073,"246":-0.05489183962345123,"247":-0.1726352572441101,"248":-0.029942398890852928,"249":0.07246144860982895,"250":0.08238808810710907,"251":0.02006782405078411,"252":0.09667301177978516,"253":0.07664520293474197,"254":-0.007047202903777361,"255":-0.09458398818969727,"256":0.03212153911590576,"257":-0.13872015476226807,"258":-0.08387789875268936,"259":0.15171514451503754,"260":0.051618535071611404,"261":-0.1759590357542038,"262":-0.015064340084791183,"263":0.15120631456375122,"264":0.06552571058273315,"265":0.18060433864593506,"266":-0.16249461472034454,"267":-0.1550239771604538,"268":-0.15261343121528625,"269":-0.2898193597793579,"270":0.05244085565209389,"271":0.02292640507221222,"272":-0.19212613999843597,"273":-0.2017078548669815,"274":0.007787739858031273,"275":0.09349758177995682,"276":-0.11921315640211105,"277":-0.005706740077584982,"278":0.034647244960069656,"279":-0.06465650349855423,"280":0.08155664801597595,"281":0.11456403881311417,"282":0.1879299134016037,"283":-0.08388905972242355,"284":-0.038571421056985855,"285":0.07447695732116699,"286":0.12733517587184906,"287":-0.08531191200017929,"288":-0.16374088823795319,"289":0.06953587383031845,"290":0.09001576900482178,"291":0.126618891954422,"292":-0.1633758395910263,"293":-0.14513906836509705,"294":0.08592914789915085,"295":0.1642308384180069,"296":0.044242847710847855,"297":0.08287125080823898,"298":-0.061938006430864334,"299":0.11324191093444824,"300":-0.19485677778720856,"301":-0.021526440978050232,"302":0.11327145993709564,"303":0.0691242516040802,"304":0.19187775254249573,"305":0.1021563783288002,"306":0.18020249903202057,"307":0.05965686962008476,"308":-0.17774173617362976,"309":0.08911152929067612,"310":0.055569496005773544,"311":-0.007870882749557495,"312":-0.16961809992790222,"313":0.16792656481266022,"314":-0.17935745418071747,"315":0.07647467404603958,"316":-0.176964670419693,"317":0.06170235201716423,"318":-0.05433154106140137,"319":0.13556067645549774,"320":0.10223472863435745,"321":0.16335591673851013,"322":-0.05472518131136894,"323":0.14800378680229187,"324":0.12301471829414368,"325":0.05876349285244942,"326":-0.01814628206193447,"327":-0.21022407710552216,"328":-0.2210799902677536,"329":-0.11304885149002075,"330":0.14524850249290466,"331":-0.10201980918645859,"332":0.08119332790374756,"333":0.003518773941323161,"334":-0.0983271524310112,"335":-0.06273554265499115,"336":-0.10608910024166107,"337":0.017076393589377403,"338":-0.096525177359581,"339":-0.11008953303098679,"340":-0.16759921610355377,"341":-0.12326270341873169,"342":0.037741344422101974,"343":0.1659945249557495,"344":-0.13154835999011993,"345":-0.12419655174016953,"346":-0.056449249386787415,"347":-0.052844882011413574,"348":-0.13244803249835968,"349":-0.11637554317712784,"350":-0.06685499846935272,"351":0.15805304050445557,"352":0.13895352184772491,"353":0.009967879392206669,"354":-0.14711563289165497,"355":-0.10764948278665543,"356":0.11120433360338211,"357":-0.09685640037059784,"358":0.1692366898059845,"359":-0.0932999849319458,"360":0.08937083929777145,"361":-0.04561334475874901,"362":-0.054069772362709045,"363":0.011372439563274384,"364":-0.13354165852069855,"365":-0.07683631032705307,"366":0.053367674350738525,"367":-0.08114225417375565,"368":0.1544298380613327,"369":0.022967863827943802,"370":0.20423316955566406,"371":0.026883890852332115,"372":-0.09863478690385818,"373":-0.06017456576228142,"374":0.19486874341964722,"375":-0.06637584418058395,"376":0.12875372171401978,"377":0.1912427693605423,"378":-0.03582708537578583,"379":0.2045222669839859,"380":0.0995953232049942,"381":0.08790262043476105,"382":-0.19120165705680847,"383":0.0700431540608406,"384":-0.1686716079711914,"385":-0.03924956172704697,"386":0.22624120116233826,"387":0.1248369812965393,"388":-0.18126967549324036,"389":-0.19955596327781677,"390":-0.1010970026254654,"391":-0.018145140260457993,"392":-0.13269954919815063,"393":0.07464189827442169,"394":-0.09283992648124695,"395":0.02024407498538494,"396":-0.0606030635535717,"397":0.144720196723938,"398":0.08190466463565826,"399":-0.024181434884667397}},"8":{"bias":0.17074821889400482,"weights":{"0":-0.04457922652363777,"1":-0.06254149228334427,"2":0.17280058562755585,"3":0.0879087895154953,"4":-0.10283296555280685,"5":0.13316208124160767,"6":0.0814330130815506,"7":-0.04083440825343132,"8":-0.06573156267404556,"9":0.13971935212612152,"10":0.012348446995019913,"11":0.10284093767404556,"12":0.18360862135887146,"13":-0.044596198946237564,"14":-0.17408864200115204,"15":-0.12257301807403564,"16":-0.11213736236095428,"17":-0.1407933235168457,"18":0.19673022627830505,"19":-0.17695122957229614,"20":-0.1066063940525055,"21":0.14168785512447357,"22":0.14041554927825928,"23":-0.05020834878087044,"24":0.027697894722223282,"25":-0.13730894029140472,"26":0.020685337483882904,"27":-0.16664890944957733,"28":0.047608230262994766,"29":-0.040315087884664536,"30":-0.18327219784259796,"31":-0.12842810153961182,"32":0.12973693013191223,"33":0.07457829266786575,"34":0.09283795952796936,"35":0.02751014195382595,"36":-0.18017083406448364,"37":-0.11805552244186401,"38":0.00008164878090610728,"39":0.08410919457674026,"40":0.03851940110325813,"41":-0.1621689796447754,"42":-0.009024371393024921,"43":0.025393875315785408,"44":0.05609262362122536,"45":0.1820264309644699,"46":-0.19836567342281342,"47":-0.10247870534658432,"48":-0.16078710556030273,"49":-0.009762545116245747,"50":-0.16968470811843872,"51":-0.17596904933452606,"52":0.10229279100894928,"53":0.14771179854869843,"54":0.10388482362031937,"55":-0.07807090133428574,"56":0.09909344464540482,"57":-0.14987260103225708,"58":0.1806139498949051,"59":0.18728499114513397,"60":-0.07339098304510117,"61":-0.10893135517835617,"62":0.037624113261699677,"63":-0.0686640739440918,"64":-0.06111735850572586,"65":-0.09229566156864166,"66":0.08825472742319107,"67":-0.009610222652554512,"68":-0.1621762067079544,"69":0.04081789031624794,"70":0.1411684900522232,"71":0.061483997851610184,"72":0.07418831437826157,"73":-0.07910410314798355,"74":-0.0808669850230217,"75":-0.059506312012672424,"76":0.03916356712579727,"77":0.07442838698625565,"78":-0.08374904841184616,"79":-0.09020745009183884,"80":0.09780102223157883,"81":0.17981263995170593,"82":-0.16523374617099762,"83":0.09278745949268341,"84":0.0912526547908783,"85":0.1429506093263626,"86":-0.03627203777432442,"87":0.01847224310040474,"88":0.02548430860042572,"89":-0.16720442473888397,"90":0.17265275120735168,"91":-0.1557624489068985,"92":0.05814129859209061,"93":-0.14393159747123718,"94":0.12925006449222565,"95":0.19297374784946442,"96":0.13927938044071198,"97":0.017979612573981285,"98":-0.004435286857187748,"99":0.15322652459144592,"100":0.1540725976228714,"101":0.02745167911052704,"102":0.023760085925459862,"103":0.15895038843154907,"104":0.1946856826543808,"105":0.02257559821009636,"106":-0.16559292376041412,"107":-0.055597204715013504,"108":0.05459671467542648,"109":0.09248130768537521,"110":-0.12751348316669464,"111":-0.19416628777980804,"112":0.17514806985855103,"113":-0.030355989933013916,"114":0.0023010368458926678,"115":0.0437079556286335,"116":-0.18700116872787476,"117":-0.003905918449163437,"118":-0.03988058120012283,"119":-0.10166224837303162,"120":-0.1181967630982399,"121":-0.035324547439813614,"122":0.13840650022029877,"123":-0.1625467985868454,"124":0.020251408219337463,"125":-0.165216326713562,"126":-0.04164360836148262,"127":0.10957285016775131,"128":-0.05810357630252838,"129":-0.04277827963232994,"130":-0.1000552773475647,"131":0.12386450916528702,"132":0.018103105947375298,"133":0.005464786663651466,"134":0.11087524890899658,"135":-0.05109977349638939,"136":-0.14085537195205688,"137":-0.09396567195653915,"138":-0.2064698189496994,"139":-0.19474110007286072,"140":-0.038206107914447784,"141":0.12980973720550537,"142":0.12870870530605316,"143":-0.10140432417392731,"144":-0.017592424526810646,"145":-0.17206227779388428,"146":0.02725163847208023,"147":0.17841114103794098,"148":-0.1949547827243805,"149":0.11364094913005829,"150":-0.19513534009456635,"151":-0.09848737716674805,"152":0.13119769096374512,"153":0.17334474623203278,"154":0.05673647299408913,"155":0.05730064585804939,"156":0.040711816400289536,"157":0.17115408182144165,"158":-0.2100171595811844,"159":-0.22203531861305237,"160":0.09264246374368668,"161":-0.15470640361309052,"162":0.1719779670238495,"163":-0.15271666646003723,"164":0.015538672916591167,"165":-0.15641994774341583,"166":-0.18279321491718292,"167":-0.13721652328968048,"168":0.1704157143831253,"169":-0.012697293423116207,"170":-0.18263773620128632,"171":-0.031201854348182678,"172":0.18730607628822327,"173":0.03733145445585251,"174":0.03435654193162918,"175":0.03268740326166153,"176":-0.06666965782642365,"177":0.10109236091375351,"178":0.02486989088356495,"179":-0.20618341863155365,"180":-0.1255209594964981,"181":-0.17140303552150726,"182":0.09984053671360016,"183":-0.17757558822631836,"184":0.1738639622926712,"185":0.030695440247654915,"186":0.0006922041065990925,"187":0.172371968626976,"188":0.18602924048900604,"189":-0.12978556752204895,"190":-0.12370722740888596,"191":-0.25930601358413696,"192":-0.24035649001598358,"193":-0.11676929146051407,"194":-0.005295524839311838,"195":-0.187089204788208,"196":-0.09570078551769257,"197":-0.04956528916954994,"198":0.033020470291376114,"199":-0.21833458542823792,"200":-0.15814274549484253,"201":0.06377893686294556,"202":0.16791857779026031,"203":-0.02802395448088646,"204":0.2053721696138382,"205":-0.1045820489525795,"206":0.13869671523571014,"207":0.07892768085002899,"208":0.12641707062721252,"209":0.0004026041424367577,"210":-0.1214558556675911,"211":0.09826930612325668,"212":-0.211013525724411,"213":0.17630712687969208,"214":0.12272949516773224,"215":-0.24335330724716187,"216":0.045938894152641296,"217":-0.09902749210596085,"218":0.10481523722410202,"219":0.04324094206094742,"220":0.042694222182035446,"221":-0.05011012405157089,"222":-0.0004399993922561407,"223":0.004901248496025801,"224":-0.1328965276479721,"225":0.1209612637758255,"226":-0.1580914407968521,"227":0.026764363050460815,"228":-0.16386161744594574,"229":-0.08425328880548477,"230":-0.18090885877609253,"231":-0.05842285603284836,"232":-0.11393820494413376,"233":-0.12621186673641205,"234":0.12556205689907074,"235":-0.016296733170747757,"236":0.05884450301527977,"237":0.028370756655931473,"238":-0.01613718643784523,"239":0.2168416678905487,"240":-0.047791436314582825,"241":-0.18836456537246704,"242":-0.04021710157394409,"243":-0.15677998960018158,"244":-0.17555806040763855,"245":0.044147901237010956,"246":-0.15269456803798676,"247":-0.14500866830348969,"248":0.06065132096409798,"249":-0.20879176259040833,"250":0.09266781806945801,"251":0.17229293286800385,"252":-0.154898002743721,"253":0.12732939422130585,"254":0.188589408993721,"255":-0.24705295264720917,"256":0.021737830713391304,"257":-0.1800505816936493,"258":-0.02130928821861744,"259":0.17357631027698517,"260":0.058870263397693634,"261":0.07921323925256729,"262":0.09629856050014496,"263":-0.14056149125099182,"264":0.07329849898815155,"265":0.19256046414375305,"266":0.017389213666319847,"267":0.10250712186098099,"268":-0.06443851441144943,"269":-0.1559697687625885,"270":-0.15741118788719177,"271":-0.13331495225429535,"272":-0.1489221304655075,"273":0.0625823363661766,"274":-0.1509973555803299,"275":-0.08511147648096085,"276":-0.0003158898907713592,"277":0.1480513960123062,"278":-0.09117709845304489,"279":-0.16960856318473816,"280":0.05253605172038078,"281":-0.09368100762367249,"282":0.16564513742923737,"283":-0.11584952473640442,"284":0.06390736997127533,"285":0.20462757349014282,"286":0.18267159163951874,"287":-0.10036331415176392,"288":0.033575303852558136,"289":-0.18883170187473297,"290":-0.10980167239904404,"291":-0.15513822436332703,"292":-0.0047745974734425545,"293":0.23676897585391998,"294":0.13895449042320251,"295":0.08729787170886993,"296":0.13483566045761108,"297":0.01328795775771141,"298":0.12016293406486511,"299":0.22343309223651886,"300":0.1758575141429901,"301":-0.0100334407761693,"302":-0.0037236216012388468,"303":0.050061389803886414,"304":-0.1447424292564392,"305":0.021980319172143936,"306":0.02623111754655838,"307":-0.0707944929599762,"308":-0.18780922889709473,"309":-0.025771306827664375,"310":-0.1326877325773239,"311":-0.1645509898662567,"312":0.15923790633678436,"313":-0.07175038754940033,"314":0.03031758964061737,"315":-0.18457503616809845,"316":-0.14276660978794098,"317":0.12074865400791168,"318":0.039137423038482666,"319":0.1603953093290329,"320":0.08918997645378113,"321":-0.08604277670383453,"322":0.15855346620082855,"323":-0.12469436228275299,"324":-0.16093721985816956,"325":0.013058522716164589,"326":-0.13255204260349274,"327":0.052159473299980164,"328":0.12170848995447159,"329":0.03737244755029678,"330":-0.2041395753622055,"331":-0.12559440732002258,"332":0.11120708286762238,"333":0.11784640699625015,"334":-0.1361054629087448,"335":0.13795015215873718,"336":0.012474548071622849,"337":0.15869639813899994,"338":0.16183210909366608,"339":-0.14370253682136536,"340":-0.08728456497192383,"341":0.09378641098737717,"342":0.12405543774366379,"343":-0.03815058246254921,"344":-0.19085237383842468,"345":0.04954487830400467,"346":-0.11528387665748596,"347":-0.026702066883444786,"348":0.022307658568024635,"349":-0.15618842840194702,"350":0.17080555856227875,"351":-0.10439006984233856,"352":0.047091275453567505,"353":-0.14456260204315186,"354":-0.09333686530590057,"355":-0.14563749730587006,"356":-0.2101500928401947,"357":0.04031279683113098,"358":0.2111458033323288,"359":0.0427829772233963,"360":0.1645798534154892,"361":0.11436469107866287,"362":-0.1839791238307953,"363":-0.16641686856746674,"364":0.19452625513076782,"365":0.1459495723247528,"366":0.187954843044281,"367":-0.12754319608211517,"368":0.0998949408531189,"369":-0.032813481986522675,"370":0.1206207126379013,"371":-0.08798686414957047,"372":-0.010004782117903233,"373":0.15715214610099792,"374":-0.018532784655690193,"375":-0.19143593311309814,"376":-0.06201433762907982,"377":-0.07397959381341934,"378":0.11891404539346695,"379":0.20422695577144623,"380":-0.007834406569600105,"381":0.12057455629110336,"382":-0.19730180501937866,"383":-0.02064221352338791,"384":-0.08806547522544861,"385":0.19539782404899597,"386":-0.1373542696237564,"387":-0.1779673546552658,"388":0.05245944857597351,"389":-0.24537917971611023,"390":-0.14055897295475006,"391":-0.0774654746055603,"392":0.08274982124567032,"393":-0.15275928378105164,"394":0.18077312409877777,"395":0.13646391034126282,"396":0.01621069200336933,"397":-0.1694599688053131,"398":-0.058076389133930206,"399":0.03227187693119049}},"9":{"bias":0.07574925571680069,"weights":{"0":0.0022540923673659563,"1":-0.155771404504776,"2":0.11214271187782288,"3":-0.15494464337825775,"4":-0.13109679520130157,"5":0.1536279022693634,"6":0.16234877705574036,"7":0.07013865560293198,"8":-0.15511775016784668,"9":0.13176614046096802,"10":-0.19281959533691406,"11":-0.1801435798406601,"12":-0.07750574499368668,"13":-0.11076688766479492,"14":0.19968552887439728,"15":0.1522080898284912,"16":-0.1622169315814972,"17":0.02033691108226776,"18":0.021003393456339836,"19":-0.016322828829288483,"20":0.11375609040260315,"21":0.007473388221114874,"22":-0.11704890429973602,"23":-0.19595025479793549,"24":-0.19118820130825043,"25":-0.05590797960758209,"26":0.16470855474472046,"27":0.05448256805539131,"28":0.10024972259998322,"29":0.07592422515153885,"30":-0.032698702067136765,"31":-0.11903674155473709,"32":-0.09996997565031052,"33":0.19819927215576172,"34":-0.12716738879680634,"35":0.04474389925599098,"36":0.16943100094795227,"37":-0.19175899028778076,"38":-0.08916959911584854,"39":0.08721211552619934,"40":0.11936895549297333,"41":0.03180859237909317,"42":0.013091623783111572,"43":-0.019115084782242775,"44":-0.10071460157632828,"45":-0.19140957295894623,"46":-0.04236643761396408,"47":0.16919425129890442,"48":-0.19572460651397705,"49":-0.06502882391214371,"50":0.013728819787502289,"51":0.19410115480422974,"52":-0.14753028750419617,"53":0.09284474700689316,"54":-0.048306237906217575,"55":0.0858985036611557,"56":0.1644274890422821,"57":0.007738372776657343,"58":0.018260912969708443,