{"model":{"sizes":[100,50,3],"layers":[{"0":{},"1":{},"2":{},"3":{},"4":{},"5":{},"6":{},"7":{},"8":{},"9":{},"10":{},"11":{},"12":{},"13":{},"14":{},"15":{},"16":{},"17":{},"18":{},"19":{},"20":{},"21":{},"22":{},"23":{},"24":{},"25":{},"26":{},"27":{},"28":{},"29":{},"30":{},"31":{},"32":{},"33":{},"34":{},"35":{},"36":{},"37":{},"38":{},"39":{},"40":{},"41":{},"42":{},"43":{},"44":{},"45":{},"46":{},"47":{},"48":{},"49":{},"50":{},"51":{},"52":{},"53":{},"54":{},"55":{},"56":{},"57":{},"58":{},"59":{},"60":{},"61":{},"62":{},"63":{},"64":{},"65":{},"66":{},"67":{},"68":{},"69":{},"70":{},"71":{},"72":{},"73":{},"74":{},"75":{},"76":{},"77":{},"78":{},"79":{},"80":{},"81":{},"82":{},"83":{},"84":{},"85":{},"86":{},"87":{},"88":{},"89":{},"90":{},"91":{},"92":{},"93":{},"94":{},"95":{},"96":{},"97":{},"98":{},"99":{}},{"0":{"bias":0.07202722132205963,"weights":{"0":0.03410743176937103,"1":0.10854164510965347,"2":0.00557709950953722,"3":-0.0046042175963521,"4":0.046172160655260086,"5":-0.15623851120471954,"6":0.17520268261432648,"7":0.04029742255806923,"8":0.08393674343824387,"9":0.07477734982967377,"10":-0.06676230579614639,"11":0.011013923212885857,"12":0.015094387345016003,"13":-0.251801460981369,"14":-0.15463516116142273,"15":-0.1756448596715927,"16":-0.34480974078178406,"17":0.0907883271574974,"18":0.047966159880161285,"19":0.0828196108341217,"20":-0.12214280664920807,"21":0.2976064085960388,"22":-0.08755652606487274,"23":-0.22270654141902924,"24":-0.22850142419338226,"25":-0.17023073136806488,"26":-0.11139129847288132,"27":-0.2953950762748718,"28":0.1347561627626419,"29":-0.05130985751748085,"30":-0.1130208745598793,"31":0.21218553185462952,"32":-0.03197669982910156,"33":0.03278150409460068,"34":0.009623167105019093,"35":-0.031517963856458664,"36":-0.2581765353679657,"37":-0.0444612093269825,"38":-0.010905173607170582,"39":-0.13278444111347198,"40":0.006439889315515757,"41":0.18085038661956787,"42":-0.14149010181427002,"43":-0.2258688509464264,"44":0.21069477498531342,"45":-0.05217400938272476,"46":-0.3645845651626587,"47":0.29675713181495667,"48":0.31064003705978394,"49":-0.038811326026916504,"50":0.08719481527805328,"51":-0.10631580650806427,"52":0.1465228945016861,"53":-0.46139898896217346,"54":-0.37826061248779297,"55":-0.1572163701057434,"56":-0.23774902522563934,"57":-0.21758313477039337,"58":0.19736304879188538,"59":-0.10292194038629532,"60":0.11011466383934021,"61":0.0023897464852780104,"62":-0.344359815120697,"63":-0.3513476252555847,"64":-0.2812277376651764,"65":-0.3122558891773224,"66":-0.3185200095176697,"67":0.11176979541778564,"68":0.24686744809150696,"69":0.03485966473817825,"70":0.08393022418022156,"71":-0.05978734791278839,"72":-0.12672492861747742,"73":-0.03774193301796913,"74":0.09320876747369766,"75":0.18560318648815155,"76":0.023943230509757996,"77":-0.053408268839120865,"78":0.20998233556747437,"79":-0.04422970116138458,"80":-0.029787590727210045,"81":-0.16239960491657257,"82":-0.04913405328989029,"83":-0.07123903185129166,"84":-0.06344765424728394,"85":-0.14455676078796387,"86":-0.038067031651735306,"87":-0.20715735852718353,"88":0.21485522389411926,"89":-0.09757092595100403,"90":0.019046086817979813,"91":0.1718921959400177,"92":-0.18760345876216888,"93":0.1684429943561554,"94":0.11101143807172775,"95":-0.11202734708786011,"96":-0.16000592708587646,"97":-0.10749555379152298,"98":0.143422931432724,"99":0.0975344255566597}},"1":{"bias":-0.23392751812934875,"weights":{"0":-0.11064282804727554,"1":-0.077865831553936,"2":-0.023651128634810448,"3":0.0688491016626358,"4":-0.02398032136261463,"5":-0.031571466475725174,"6":0.1459577977657318,"7":0.10962744057178497,"8":-0.1203707605600357,"9":-0.05906471982598305,"10":-0.0276271291077137,"11":-0.021620580926537514,"12":0.1835135519504547,"13":-0.04529044032096863,"14":-0.060876719653606415,"15":0.13354484736919403,"16":0.14760518074035645,"17":0.11476361751556396,"18":0.19422541558742523,"19":0.18399538099765778,"20":-0.011482455767691135,"21":-0.20862619578838348,"22":0.11378639191389084,"23":0.06696106493473053,"24":0.12270526587963104,"25":-0.034705400466918945,"26":0.0726623460650444,"27":0.24172621965408325,"28":0.173366516828537,"29":0.01782532036304474,"30":-0.14575275778770447,"31":0.08308134973049164,"32":-0.005817863624542952,"33":0.01989954151213169,"34":-0.08168356120586395,"35":0.26389312744140625,"36":0.15965551137924194,"37":-0.1486644446849823,"38":-0.31933414936065674,"39":-0.16587664186954498,"40":-0.08131909370422363,"41":-0.12716946005821228,"42":0.010479887947440147,"43":0.08765105903148651,"44":0.018239706754684448,"45":0.3584228754043579,"46":0.2004431188106537,"47":-0.041059207171201706,"48":0.0513116791844368,"49":0.00574913015589118,"50":0.060199324041604996,"51":0.25718697905540466,"52":0.040642816573381424,"53":0.17004986107349396,"54":0.20829027891159058,"55":0.07004037499427795,"56":0.029322480782866478,"57":-0.07835566997528076,"58":0.1737411469221115,"59":0.14370276033878326,"60":0.32525739073753357,"61":0.11163932085037231,"62":0.04442298784852028,"63":0.0009852867806330323,"64":-0.11840662360191345,"65":0.09608318656682968,"66":-0.0677998885512352,"67":0.031962208449840546,"68":0.30233055353164673,"69":0.20439964532852173,"70":0.06538024544715881,"71":0.2275381237268448,"72":0.21930661797523499,"73":0.32669374346733093,"74":0.2074759304523468,"75":-0.00538481492549181,"76":0.046620652079582214,"77":-0.026690855622291565,"78":0.15047840774059296,"79":-0.0002985545725096017,"80":-0.12234391272068024,"81":0.05494193732738495,"82":0.053648073226213455,"83":0.08072443306446075,"84":-0.037134815007448196,"85":0.04891371354460716,"86":-0.0709293857216835,"87":-0.020874474197626114,"88":0.0026623746380209923,"89":0.09258484095335007,"90":-0.05197344720363617,"91":-0.02450108528137207,"92":-0.012300181202590466,"93":0.10518298298120499,"94":-0.0011389534920454025,"95":-0.027226131409406662,"96":0.07000038772821426,"97":-0.03644644841551781,"98":0.06886076182126999,"99":0.012117135338485241}},"2":{"bias":-0.07485797256231308,"weights":{"0":-0.03206370025873184,"1":0.16219763457775116,"2":-0.07342991232872009,"3":0.017298351973295212,"4":-0.05664214491844177,"5":-0.12543995678424835,"6":0.0648159459233284,"7":-0.021625377237796783,"8":-0.09379536658525467,"9":-0.06189544498920441,"10":-0.05705375596880913,"11":-0.04637402296066284,"12":-0.12173895537853241,"13":-0.22035987675189972,"14":-0.2233005166053772,"15":-0.18653205037117004,"16":-0.2195344716310501,"17":0.09584753215312958,"18":-0.041816242039203644,"19":0.14029382169246674,"20":0.06001512333750725,"21":0.08732886612415314,"22":-0.13780896365642548,"23":-0.3716089129447937,"24":-0.1187654510140419,"25":-0.047126516699790955,"26":-0.14935556054115295,"27":-0.13894972205162048,"28":0.05514911934733391,"29":0.01119482796639204,"30":-0.18479177355766296,"31":0.1263313591480255,"32":-0.12993288040161133,"33":-0.08463411778211594,"34":0.010531087405979633,"35":-0.27992162108421326,"36":-0.07673340290784836,"37":-0.31609266996383667,"38":-0.13019835948944092,"39":0.06847389787435532,"40":-0.03397895023226738,"41":-0.18675844371318817,"42":0.26053866744041443,"43":-0.21748320758342743,"44":0.14135223627090454,"45":-0.13702519237995148,"46":-0.30865582823753357,"47":-0.17937900125980377,"48":-0.050142355263233185,"49":-0.21203619241714478,"50":0.03909724950790405,"51":0.1462547779083252,"52":-0.14088942110538483,"53":-0.008016874082386494,"54":-0.14854279160499573,"55":-0.1592850685119629,"56":-0.16053803265094757,"57":-0.2156641185283661,"58":0.06962314248085022,"59":0.04233570396900177,"60":-0.04803400859236717,"61":-0.012729947455227375,"62":-0.20379182696342468,"63":0.032643359154462814,"64":-0.252705454826355,"65":-0.06064362823963165,"66":-0.032890088856220245,"67":0.07754945755004883,"68":0.2699255049228668,"69":-0.06293276697397232,"70":0.07749837636947632,"71":-0.05605188012123108,"72":0.10931095480918884,"73":-0.0011133244261145592,"74":0.1659013330936432,"75":0.053621675819158554,"76":0.232376366853714,"77":-0.01116935070604086,"78":0.2435830980539322,"79":-0.0012497558491304517,"80":-0.05886286869645119,"81":0.13612887263298035,"82":-0.2595556080341339,"83":-0.21229080855846405,"84":-0.11594820022583008,"85":0.09445510804653168,"86":-0.1785276085138321,"87":-0.23971395194530487,"88":0.043165601789951324,"89":-0.18421882390975952,"90":0.1895425170660019,"91":0.017742453143000603,"92":-0.0958380475640297,"93":-0.17270520329475403,"94":0.07070942968130112,"95":-0.03993837162852287,"96":-0.018550368025898933,"97":0.1067633405327797,"98":0.0011397764319553971,"99":0.15891212224960327}},"3":{"bias":0.02010553888976574,"weights":{"0":-0.11611141264438629,"1":-0.1337519735097885,"2":-0.12165454775094986,"3":-0.08103980123996735,"4":0.15902742743492126,"5":-0.020735839381814003,"6":0.006677248515188694,"7":0.004696402233093977,"8":-0.1843307912349701,"9":-0.10721033811569214,"10":-0.1828836053609848,"11":0.04498117417097092,"12":0.07325656712055206,"13":-0.17490701377391815,"14":-0.2707681953907013,"15":-0.12284247577190399,"16":-0.26411253213882446,"17":-0.09755326062440872,"18":0.06750892102718353,"19":0.15140846371650696,"20":0.0702337920665741,"21":0.263511598110199,"22":-0.1394261121749878,"23":-0.2171911597251892,"24":-0.1113932654261589,"25":-0.3209693729877472,"26":0.006708139553666115,"27":-0.019934842362999916,"28":0.11923816055059433,"29":0.122360959649086,"30":-0.2181214839220047,"31":0.09842897206544876,"32":0.256428986787796,"33":-0.08127656579017639,"34":0.22504743933677673,"35":0.15634573996067047,"36":-0.25819796323776245,"37":-0.14758281409740448,"38":-0.020408421754837036,"39":0.0076214587315917015,"40":-0.0964006632566452,"41":0.17431201040744781,"42":0.0003524424973875284,"43":-0.31630876660346985,"44":-0.140099436044693,"45":-0.143066868185997,"46":-0.043144527822732925,"47":0.18901947140693665,"48":0.15325571596622467,"49":-0.2645416855812073,"50":0.1522168219089508,"51":-0.05350227281451225,"52":-0.023537246510386467,"53":-0.44259557127952576,"54":-0.3481540083885193,"55":-0.2935543358325958,"56":-0.4242892563343048,"57":-0.06716974079608917,"58":-0.02801625244319439,"59":-0.0422181561589241,"60":0.16356855630874634,"61":0.24250993132591248,"62":-0.35098758339881897,"63":-0.15932615101337433,"64":0.010283255018293858,"65":-0.24002811312675476,"66":-0.213571697473526,"67":-0.16163793206214905,"68":-0.008330419659614563,"69":0.04902112856507301,"70":0.06115752458572388,"71":0.13129094243049622,"72":0.12383415549993515,"73":0.10855744779109955,"74":0.09898784011602402,"75":0.09010776877403259,"76":-0.1252802163362503,"77":0.05226333811879158,"78":0.06435228884220123,"79":0.2381417453289032,"80":0.14259491860866547,"81":0.08778726309537888,"82":-0.2115098387002945,"83":-0.10104414075613022,"84":0.001092935330234468,"85":0.01885462924838066,"86":-0.02642630971968174,"87":-0.2602224051952362,"88":-0.039659783244132996,"89":0.059443067759275436,"90":0.030619822442531586,"91":-0.17618465423583984,"92":-0.1484912931919098,"93":0.13149334490299225,"94":0.024533195421099663,"95":-0.03456038981676102,"96":0.022650858387351036,"97":-0.03562813252210617,"98":0.17452530562877655,"99":0.16599437594413757}},"4":{"bias":-0.24784088134765625,"weights":{"0":0.020453862845897675,"1":0.16868557035923004,"2":-0.012940256856381893,"3":0.07515443861484528,"4":0.059594281017780304,"5":0.026183251291513443,"6":0.04269099980592728,"7":0.07730236649513245,"8":0.16877244412899017,"9":-0.08421865105628967,"10":-0.0358070433139801,"11":-0.07041556388139725,"12":0.18662437796592712,"13":-0.3347780406475067,"14":-0.4292321503162384,"15":-0.38089126348495483,"16":-0.42431512475013733,"17":-0.22140373289585114,"18":-0.06919534504413605,"19":0.008581011556088924,"20":-0.17865929007530212,"21":0.09643881022930145,"22":0.2485005110502243,"23":0.01919054053723812,"24":-0.25221189856529236,"25":-0.2751252055168152,"26":-0.2810182273387909,"27":-0.09776628017425537,"28":0.09243732690811157,"29":0.20304542779922485,"30":-0.0555492602288723,"31":0.09465669095516205,"32":0.32896947860717773,"33":-0.31662651896476746,"34":0.2035960704088211,"35":-0.21151132881641388,"36":-0.3643943667411804,"37":-0.03356819599866867,"38":0.0820215493440628,"39":0.09706732630729675,"40":-0.08615242689847946,"41":0.04572676494717598,"42":0.29933232069015503,"43":-0.16128170490264893,"44":-0.0165349543094635,"45":-0.49975189566612244,"46":-0.09360723942518234,"47":-0.0813346728682518,"48":0.17987561225891113,"49":-0.3167363703250885,"50":0.20305104553699493,"51":0.13953082263469696,"52":0.3535645306110382,"53":-0.10821850597858429,"54":-0.22727178037166595,"55":-0.09264253079891205,"56":-0.028876084834337234,"57":0.23453928530216217,"58":0.45225611329078674,"59":0.2653396725654602,"60":0.14427761733531952,"61":0.5086963772773743,"62":-0.0951659306883812,"63":0.054745543748140335,"64":0.3532361090183258,"65":0.4464787542819977,"66":-0.031728994101285934,"67":0.24717018008232117,"68":0.46237218379974365,"69":-0.08629855513572693,"70":0.06570536643266678,"71":0.35455039143562317,"72":0.007555941119790077,"73":0.0004609132884070277,"74":0.17691324651241302,"75":-0.1227668970823288,"76":0.020169006660580635,"77":-0.02076326496899128,"78":0.15889999270439148,"79":0.32737675309181213,"80":0.05022849142551422,"81":0.1038215309381485,"82":-0.087988942861557,"83":-0.35705089569091797,"84":-0.06533193588256836,"85":-0.22518512606620789,"86":-0.04130564630031586,"87":-0.0990515649318695,"88":-0.17845740914344788,"89":-0.014849239960312843,"90":0.1950046420097351,"91":-0.037647005170583725,"92":-0.21040654182434082,"93":-0.1138414517045021,"94":0.14309774339199066,"95":0.10943427681922913,"96":-0.003085012547671795,"97":0.07208096235990524,"98":0.08602229505777359,"99":0.09670790284872055}},"5":{"bias":0.2512836754322052,"weights":{"0":0.0007337330607697368,"1":-0.08771093189716339,"2":-0.19194334745407104,"3":0.06970353424549103,"4":-0.1077415943145752,"5":0.0790272206068039,"6":-0.1959374099969864,"7":-0.14884227514266968,"8":-0.06917475163936615,"9":-0.17908655107021332,"10":0.19661137461662292,"11":-0.14136257767677307,"12":-0.16266438364982605,"13":-0.15943162143230438,"14":0.016489826142787933,"15":-0.1392011195421219,"16":-0.05638651177287102,"17":0.1487896740436554,"18":0.05034678056836128,"19":-0.1973123848438263,"20":-0.11735019832849503,"21":-0.03089543618261814,"22":-0.11295266449451447,"23":-0.1462603658437729,"24":-0.06191938370466232,"25":-0.2885068356990814,"26":-0.2780841886997223,"27":-0.031231338158249855,"28":-0.2095438539981842,"29":-0.15087634325027466,"30":0.19492430984973907,"31":-0.003342720912769437,"32":-0.1928611695766449,"33":-0.29902809858322144,"34":-0.3375333249568939,"35":-0.43983808159828186,"36":-0.3373095393180847,"37":-0.2985168397426605,"38":-0.1473333090543747,"39":-0.051512569189071655,"40":0.010257259011268616,"41":0.1931363046169281,"42":0.05969803407788277,"43":-0.06017818674445152,"44":-0.31305932998657227,"45":-0.09126143157482147,"46":-0.005978540983051062,"47":-0.01580038294196129,"48":-0.1367236077785492,"49":-0.10267648100852966,"50":-0.12870603799819946,"51":-0.04460565745830536,"52":-0.11580465734004974,"53":-0.3677467107772827,"54":-0.33425143361091614,"55":-0.26736000180244446,"56":-0.34468165040016174,"57":0.11074627935886383,"58":0.2680700719356537,"59":-0.01841355673968792,"60":-0.2463536411523819,"61":0.018785228952765465,"62":0.1367046982049942,"63":-0.11524079740047455,"64":0.18553566932678223,"65":-0.031764209270477295,"66":-0.1899026781320572,"67":0.018605539575219154,"68":0.08449895679950714,"69":-0.22622157633304596,"70":-0.12151892483234406,"71":-0.19133220613002777,"72":-0.27007001638412476,"73":-0.36773258447647095,"74":-0.13613183796405792,"75":-0.12551023066043854,"76":-0.16529567539691925,"77":-0.15323519706726074,"78":-0.3132278323173523,"79":-0.10018240660429001,"80":0.11423518508672714,"81":0.17321361601352692,"82":-0.07419691234827042,"83":-0.021281197667121887,"84":-0.21941415965557098,"85":0.1031300500035286,"86":-0.00775486882776022,"87":0.14284929633140564,"88":0.1570924073457718,"89":0.25994253158569336,"90":-0.03173156827688217,"91":-0.1841454803943634,"92":0.06544231623411179,"93":0.18899016082286835,"94":-0.0726107656955719,"95":-0.08338466286659241,"96":-0.08549460768699646,"97":-0.19597050547599792,"98":-0.09952203184366226,"99":-0.058800797909498215}},"6":{"bias":0.13906565308570862,"weights":{"0":-0.14937157928943634,"1":-0.08416135609149933,"2":0.07670929282903671,"3":0.11052428930997849,"4":-0.042539630085229874,"5":0.1518683135509491,"6":0.05917425453662872,"7":0.13364113867282867,"8":0.19948498904705048,"9":-0.1515156775712967,"10":0.07475166022777557,"11":0.11473844945430756,"12":-0.06015244498848915,"13":0.011004481464624405,"14":-0.0509655736386776,"15":0.09492570161819458,"16":0.29461148381233215,"17":0.07172372937202454,"18":0.032487381249666214,"19":0.03949277102947235,"20":0.10031081736087799,"21":0.09764480590820312,"22":-0.16901297867298126,"23":0.040408920496702194,"24":-0.011799304746091366,"25":0.062081560492515564,"26":-0.12549392879009247,"27":-0.12597356736660004,"28":-0.2226487696170807,"29":0.0768074095249176,"30":-0.12727266550064087,"31":0.22569580376148224,"32":-0.24169336259365082,"33":-0.13664554059505463,"34":-0.018535066395998,"35":0.006668555550277233,"36":0.08745061606168747,"37":-0.15969975292682648,"38":-0.2669960856437683,"39":-0.13560126721858978,"40":-0.05038284510374069,"41":-0.15187019109725952,"42":-0.2016170173883438,"43":-0.1017896756529808,"44":-0.42886215448379517,"45":-0.16890974342823029,"46":-0.29131367802619934,"47":-0.3690848648548126,"48":-0.12907151877880096,"49":-0.05923660472035408,"50":0.13705649971961975,"51":-0.20366868376731873,"52":-0.2650122046470642,"53":-0.2580232620239258,"54":0.046292878687381744,"55":-0.2732352912425995,"56":-0.24422460794448853,"57":-0.029504595324397087,"58":-0.24181970953941345,"59":-0.2543319761753082,"60":-0.09889041632413864,"61":-0.06257998198270798,"62":0.08639699965715408,"63":-0.07139962911605835,"64":0.07896149158477783,"65":-0.07324133813381195,"66":-0.15003955364227295,"67":-0.17616769671440125,"68":-0.22196753323078156,"69":-0.14173105359077454,"70":0.18964456021785736,"71":0.009309272281825542,"72":-0.07153299450874329,"73":-0.22036974132061005,"74":-0.05237962305545807,"75":-0.0007441184134222567,"76":0.0853298008441925,"77":0.024193203076720238,"78":-0.035857412964105606,"79":0.02111581340432167,"80":-0.10087212175130844,"81":-0.047845300287008286,"82":0.17569003999233246,"83":0.03280067443847656,"84":0.22460207343101501,"85":0.001917415065690875,"86":0.20895391702651978,"87":0.09449658542871475,"88":0.08040013909339905,"89":0.30053839087486267,"90":0.05690722167491913,"91":0.07384656369686127,"92":0.15711213648319244,"93":-0.049851201474666595,"94":-0.10717283189296722,"95":-0.042891860008239746,"96":-0.027055038139224052,"97":-0.18846933543682098,"98":0.06900323182344437,"99":0.13964448869228363}},"7":{"bias":0.3448069989681244,"weights":{"0":-0.10194745659828186,"1":-0.13873305916786194,"2":-0.18926426768302917,"3":0.03991037979722023,"4":0.07322777807712555,"5":-0.01766274683177471,"6":-0.1725190281867981,"7":-0.0778813436627388,"8":0.1256062090396881,"9":-0.07335305213928223,"10":-0.03303498029708862,"11":-0.2218349575996399,"12":-0.020564883947372437,"13":-0.28957095742225647,"14":-0.10565333813428879,"15":-0.08286833018064499,"16":-0.07955308258533478,"17":-0.018858404830098152,"18":-0.09164103120565414,"19":-0.11082884669303894,"20":0.2180735319852829,"21":0.1880951076745987,"22":-0.2096719592809677,"23":-0.12435009330511093,"24":-0.09472643584012985,"25":-0.21009895205497742,"26":0.1213637962937355,"27":-0.18504151701927185,"28":0.09962118417024612,"29":-0.08797292411327362,"30":0.11181654036045074,"31":0.177281454205513,"32":-0.05913713201880455,"33":-0.25078248977661133,"34":-0.06912696361541748,"35":-0.12470530718564987,"36":-0.1122036725282669,"37":0.07005197554826736,"38":0.37539124488830566,"39":-0.02206246182322502,"40":-0.1293751746416092,"41":0.3559251129627228,"42":0.035538140684366226,"43":-0.09581837803125381,"44":-0.12953191995620728,"45":-0.38542139530181885,"46":-0.174180805683136,"47":0.24493756890296936,"48":-0.058844421058893204,"49":0.03844812884926796,"50":0.07905075699090958,"51":-0.2892996370792389,"52":-0.10539326071739197,"53":-0.19284112751483917,"54":-0.4705512225627899,"55":-0.2608407437801361,"56":-0.5354923009872437,"57":0.0491209477186203,"58":-0.2333495318889618,"59":-0.03401042893528938,"60":-0.14641371369361877,"61":-0.09833913296461105,"62":-0.11032810062170029,"63":-0.2614535987377167,"64":-0.2708660066127777,"65":-0.41024139523506165,"66":-0.3235664665699005,"67":-0.037079717963933945,"68":-0.015647009015083313,"69":-0.3247125446796417,"70":0.18311707675457,"71":-0.19863605499267578,"72":-0.2346489280462265,"73":-0.4298917055130005,"74":-0.10769177973270416,"75":-0.3020345866680145,"76":-0.11152815818786621,"77":-0.2698848247528076,"78":-0.3178497552871704,"79":0.05856350064277649,"80":0.18854348361492157,"81":0.10787534713745117,"82":-0.14089058339595795,"83":0.015359325334429741,"84":0.04256206378340721,"85":0.10207091271877289,"86":0.09797506034374237,"87":0.003000883851200342,"88":0.01784789189696312,"89":0.30019769072532654,"90":0.12876825034618378,"91":0.1842653751373291,"92":-0.18169952929019928,"93":-0.12618327140808105,"94":-0.12101487815380096,"95":-0.1695413589477539,"96":-0.049136072397232056,"97":-0.10323960334062576,"98":0.006719888187944889,"99":0.03599638119339943}},"8":{"bias":-0.11557406932115555,"weights":{"0":0.19753332436084747,"1":-0.17433226108551025,"2":0.11905129998922348,"3":-0.07156529277563095,"4":-0.10981511324644089,"5":-0.11159178614616394,"6":0.18904265761375427,"7":-0.19373604655265808,"8":0.013668222352862358,"9":-0.02458478882908821,"10":0.06917163729667664,"11":0.05725324526429176,"12":0.21331438422203064,"13":0.11687629669904709,"14":-0.10851947963237762,"15":0.19238097965717316,"16":-0.0967211052775383,"17":0.0024696234613656998,"18":0.10805854201316833,"19":-0.1508679986000061,"20":-0.22879189252853394,"21":-0.11937756091356277,"22":0.16008207201957703,"23":0.02572730742394924,"24":0.14994730055332184,"25":-0.1604447066783905,"26":-0.28922775387763977,"27":0.1711270809173584,"28":0.2499365359544754,"29":0.1490335762500763,"30":-0.11593253910541534,"31":0.06955330073833466,"32":-0.18951933085918427,"33":0.004826962947845459,"34":0.22284185886383057,"35":0.08274512737989426,"36":-0.1159822940826416,"37":0.04249517619609833,"38":0.08686264604330063,"39":0.17715799808502197,"40":0.11402186006307602,"41":-0.01972426474094391,"42":0.1632663905620575,"43":0.14247331023216248,"44":0.03223775699734688,"45":-0.20117643475532532,"46":0.19508244097232819,"47":0.12838955223560333,"48":0.2927808165550232,"49":-0.24472841620445251,"50":0.18585319817066193,"51":0.12412665039300919,"52":0.0698457658290863,"53":-0.17603881657123566,"54":0.04988967254757881,"55":0.09426941722631454,"56":-0.03670487180352211,"57":-0.2504396140575409,"58":-0.1269979625940323,"59":0.06443178653717041,"60":0.20964829623699188,"61":0.20999319851398468,"62":-0.15714584290981293,"63":-0.0735294446349144,"64":0.13577090203762054,"65":-0.047641821205616,"66":0.06288061290979385,"67":0.1715998649597168,"68":0.030717965215444565,"69":0.04886389896273613,"70":-0.05744706839323044,"71":0.04438219964504242,"72":0.12964747846126556,"73":0.05512826144695282,"74":0.16566528379917145,"75":-0.12946458160877228,"76":-0.0944056287407875,"77":-0.13653288781642914,"78":0.37017643451690674,"79":0.25505325198173523,"80":0.18806596100330353,"81":-0.10755286365747452,"82":-0.22773882746696472,"83":-0.22092975676059723,"84":-0.19730564951896667,"85":-0.07781274616718292,"86":-0.16485145688056946,"87":-0.1264675259590149,"88":-0.0969257578253746,"89":-0.0470053032040596,"90":-0.03898419067263603,"91":0.05711393058300018,"92":-0.16396470367908478,"93":0.16329056024551392,"94":0.022452550008893013,"95":-0.13721631467342377,"96":-0.06247636675834656,"97":-0.054965656250715256,"98":-0.020197536796331406,"99":-0.013382893055677414}},"9":{"bias":0.03432048484683037,"weights":{"0":0.0572347454726696,"1":0.005090176127851009,"2":-0.08588249236345291,"3":0.009400354698300362,"4":-0.13612888753414154,"5":0.14403273165225983,"6":-0.15111707150936127,"7":-0.15783682465553284,"8":-0.012835097499191761,"9":-0.06601738929748535,"10":0.21239140629768372,"11":0.004727862309664488,"12":0.2467796355485916,"13":-0.444266140460968,"14":-0.11799290776252747,"15":-0.5877696871757507,"16":-0.5957720875740051,"17":-0.0025286474265158176,"18":-0.16843019425868988,"19":-0.04932638630270958,"20":-0.09170965850353241,"21":0.24955159425735474,"22":0.2887468934059143,"23":0.06688951700925827,"24":-0.03287624567747116,"25":-0.2998087704181671,"26":-0.20125825703144073,"27":-0.105928935110569,"28":0.15596279501914978,"29":0.2887896001338959,"30":-0.06378188729286194,"31":0.23615534603595734,"32":0.5479826331138611,"33":-0.21519598364830017,"34":0.5546215176582336,"35":0.18947657942771912,"36":-0.636516273021698,"37":-0.004184131510555744,"38":0.2713419795036316,"39":0.017450520768761635,"40":0.09532114118337631,"41":0.13892032206058502,"42":-0.0765581801533699,"43":-0.6698065400123596,"44":0.06412167847156525,"45":-0.6388253569602966,"46":-0.09972412884235382,"47":0.5354222655296326,"48":0.5491514205932617,"49":-0.30533942580223083,"50":0.26279133558273315,"51":0.058826979249715805,"52":0.2637113034725189,"53":-0.47108665108680725,"54":-0.2617606818675995,"55":-0.040955886244773865,"56":-0.26805683970451355,"57":0.1418737918138504,"58":0.3422892689704895,"59":0.1775606870651245,"60":0.4412723481655121,"61":0.7736561298370361,"62":-0.3327327072620392,"63":-0.11635563522577286,"64":0.18318989872932434,"65":0.27264291048049927,"66":0.26441264152526855,"67":-0.05552376061677933,"68":-0.1598314344882965,"69":0.014109345152974129,"70":-0.19917410612106323,"71":0.3882504105567932,"72":0.06074009835720062,"73":-0.07649590820074081,"74":0.0016432404518127441,"75":-0.25882086157798767,"76":-0.22636908292770386,"77":-0.1591687947511673,"78":0.2168339192867279,"79":0.5917798280715942,"80":-0.14916783571243286,"81":-0.1460736244916916,"82":-0.291492223739624,"83":-0.40102800726890564,"84":-0.20281994342803955,"85":-0.1703912317752838,"86":-0.016442324966192245,"87":-0.04507576674222946,"88":-0.29256439208984375,"89":-0.22053776681423187,"90":0.1349017322063446,"91":-0.17505495250225067,"92":-0.06768247485160828,"93":-0.18011736869812012,"94":-0.026145782321691513,"95":-0.17426960170269012,"96":0.13346995413303375,"97":-0.20104090869426727,"98":0.13234587013721466,"99":-0.03644470497965813}},"10":{"bias":-0.09815742820501328,"weights":{"0":-0.13359583914279938,"1":0.03935464844107628,"2":-0.051191531121730804,"3":0.00209900108166039,"4":0.09520827978849411,"5":0.1271062046289444,"6":-0.06365188211202621,"7":-0.07812882214784622,"8":0.007738998159766197,"9":0.0835275873541832,"10":-0.15009263157844543,"11":-0.18751539289951324,"12":-0.2161041647195816,"13":-0.06753555685281754,"14":0.06723272800445557,"15":0.08528494089841843,"16":0.014778917655348778,"17":-0.18780860304832458,"18":0.013206953182816505,"19":0.19734936952590942,"20":0.1102730855345726,"21":-0.12888585031032562,"22":-0.239323228597641,"23":-0.2835698127746582,"24":-0.018525544553995132,"25":0.0009801718406379223,"26":-0.03457466885447502,"27":-0.22515800595283508,"28":-0.17403602600097656,"29":-0.02647043578326702,"30":-0.01762724481523037,"31":-0.08758622407913208,"32":-0.01632165163755417,"33":-0.2990413010120392,"34":-0.1004151776432991,"35":-0.3098315894603729,"36":-0.2880980670452118,"37":-0.07088872045278549,"38":0.07907341420650482,"39":-0.11222442239522934,"40":-0.004095521755516529,"41":0.07211530208587646,"42":-0.045812636613845825,"43":-0.20745480060577393,"44":-0.2501096725463867,"45":-0.14262725412845612,"46":-0.37117213010787964,"47":0.07477927207946777,"48":-0.030412649735808372,"49":-0.07173393666744232,"50":0.1823478788137436,"51":-0.00413182657212019,"52":-0.16505426168441772,"53":-0.14037132263183594,"54":0.018855027854442596,"55":-0.14429029822349548,"56":-0.21468864381313324,"57":0.04952969774603844,"58":0.08444301784038544,"59":-0.07248028367757797,"60":0.08975750207901001,"61":-0.08520037680864334,"62":-0.17510072886943817,"63":0.10791011154651642,"64":-0.13437198102474213,"65":-0.2410600185394287,"66":0.021661479026079178,"67":0.15442803502082825,"68":0.10217826813459396,"69":-0.26822230219841003,"70":-0.042077355086803436,"71":0.000011957818969676737,"72":0.06099393963813782,"73":0.1493416130542755,"74":-0.09407985210418701,"75":-0.09522055089473724,"76":-0.10825775563716888,"77":-0.11607453227043152,"78":-0.19301240146160126,"79":-0.06561732292175293,"80":-0.09923766553401947,"81":-0.01564520038664341,"82":0.01932668872177601,"83":-0.23743019998073578,"84":-0.04766416177153587,"85":-0.2356145679950714,"86":-0.1420535296201706,"87":0.1442376971244812,"88":-0.07154075056314468,"89":0.26767632365226746,"90":0.0011676008580252528,"91":0.1510191708803177,"92":0.03372930735349655,"93":-0.13036759197711945,"94":0.08697919547557831,"95":-0.15153147280216217,"96":0.14233678579330444,"97":0.14284421503543854,"98":0.04646501690149307,"99":-0.06899649649858475}},"11":{"bias":0.04190324246883392,"weights":{"0":0.16723480820655823,"1":-0.14436371624469757,"2":-0.1265350878238678,"3":0.11095212399959564,"4":-0.05681503936648369,"5":-0.07941244542598724,"6":-0.14715370535850525,"7":0.11020564287900925,"8":-0.07767723500728607,"9":-0.10425664484500885,"10":-0.02641126699745655,"11":-0.045858364552259445,"12":0.11388570070266724,"13":-0.2294502854347229,"14":-0.3368535041809082,"15":-0.11807404458522797,"16":-0.2919827401638031,"17":-0.15901994705200195,"18":0.05067222937941551,"19":0.13471002876758575,"20":-0.04811009392142296,"21":-0.019988760352134705,"22":0.14979791641235352,"23":0.10056408494710922,"24":0.040643852204084396,"25":-0.28848129510879517,"26":-0.24266843497753143,"27":-0.2174222469329834,"28":0.0034011555835604668,"29":-0.06260912120342255,"30":-0.11753818392753601,"31":0.17225265502929688,"32":0.008624025620520115,"33":-0.5519658327102661,"34":0.22141781449317932,"35":-0.18011604249477386,"36":-0.15815585851669312,"37":-0.16256412863731384,"38":0.2868046462535858,"39":-0.03757868707180023,"40":0.11552655696868896,"41":-0.14497414231300354,"42":0.09065650403499603,"43":-0.0018646279349923134,"44":-0.21678005158901215,"45":-0.4804302752017975,"46":-0.421944797039032,"47":-0.0518411248922348,"48":-0.07224855571985245,"49":0.03212927281856537,"50":0.014496427029371262,"51":-0.13638344407081604,"52":0.19493307173252106,"53":0.12257180362939835,"54":0.17758582532405853,"55":-0.08397512882947922,"56":0.07047992944717407,"57":0.2219729721546173,"58":0.30311325192451477,"59":0.04840685427188873,"60":0.3743603825569153,"61":0.5744273662567139,"62":-0.2655291259288788,"63":0.012387434020638466,"64":0.24830353260040283,"65":0.3451766073703766,"66":0.2098923623561859,"67":0.1606438159942627,"68":0.22950096428394318,"69":0.24592135846614838,"70":-0.007774110417813063,"71":0.14329344034194946,"72":-0.14384445548057556,"73":-0.17327672243118286,"74":0.1146901398897171,"75":-0.020693879574537277,"76":-0.1993393450975418,"77":-0.09676476567983627,"78":-0.08700834959745407,"79":0.36767587065696716,"80":0.19689081609249115,"81":0.09882892668247223,"82":-0.22541873157024384,"83":-0.10637163370847702,"84":-0.0400015190243721,"85":-0.2858114242553711,"86":-0.18192128837108612,"87":-0.30361855030059814,"88":-0.18044739961624146,"89":0.008448377251625061,"90":0.19140224158763885,"91":-0.1993165761232376,"92":0.08387482911348343,"93":-0.21224644780158997,"94":0.13197818398475647,"95":-0.20119594037532806,"96":0.07191221415996552,"97":-0.09487199038267136,"98":-0.010608996264636517,"99":0.05155990272760391}},"12":{"bias":0.39986297488212585,"weights":{"0":-0.1142457127571106,"1":-0.03391600772738457,"2":-0.12816396355628967,"3":-0.19949911534786224,"4":-0.17767444252967834,"5":-0.052336130291223526,"6":-0.021348565816879272,"7":-0.03890455141663551,"8":0.19610591232776642,"9":0.013797333464026451,"10":-0.11198125034570694,"11":-0.10237938165664673,"12":0.019655823707580566,"13":-0.025783153250813484,"14":-0.12123864889144897,"15":0.04192854464054108,"16":-0.12759852409362793,"17":-0.17725543677806854,"18":-0.02088560350239277,"19":0.11223777383565903,"20":0.16647961735725403,"21":0.09504169970750809,"22":-0.10211095213890076,"23":-0.11282946169376373,"24":-0.2707515060901642,"25":-0.2076464146375656,"26":-0.035097815096378326,"27":-0.3161236345767975,"28":0.013010676950216293,"29":-0.14291343092918396,"30":0.03623094782233238,"31":0.3017597198486328,"32":0.13806268572807312,"33":-0.27051979303359985,"34":0.08531739562749863,"35":0.013951192609965801,"36":-0.24586646258831024,"37":-0.2797504961490631,"38":0.304452121257782,"39":-0.0831930860877037,"40":0.13101619482040405,"41":0.23223063349723816,"42":-0.2728368639945984,"43":-0.10024025291204453,"44":-0.37282803654670715,"45":-0.4284357726573944,"46":-0.029895171523094177,"47":0.06383644044399261,"48":-0.01612243428826332,"49":0.0919184461236,"50":0.08525281399488449,"51":-0.24648435413837433,"52":-0.004298286512494087,"53":-0.21352115273475647,"54":-0.10209093242883682,"55":-0.0467594750225544,"56":-0.2775890827178955,"57":-0.0804554745554924,"58":-0.04199916496872902,"59":0.07780074328184128,"60":-0.179742231965065,"61":0.055202413350343704,"62":-0.11377181112766266,"63":0.07397007197141647,"64":-0.11206523329019547,"65":-0.1628587245941162,"66":-0.07004950940608978,"67":-0.05490843951702118,"68":0.019963424652814865,"69":-0.02434220351278782,"70":0.17971140146255493,"71":0.18668384850025177,"72":-0.2990497946739197,"73":-0.25034457445144653,"74":-0.18447048962116241,"75":0.14422370493412018,"76":-0.1698085069656372,"77":0.04024207964539528,"78":-0.2474217265844345,"79":-0.11029938608407974,"80":0.08421613276004791,"81":-0.17579036951065063,"82":0.014068602584302425,"83":-0.22521941363811493,"84":-0.005176585633307695,"85":-0.15236437320709229,"86":-0.2637782394886017,"87":-0.1580413430929184,"88":0.16761139035224915,"89":0.0985008180141449,"90":-0.19172830879688263,"91":0.09348161518573761,"92":-0.041626203805208206,"93":-0.12302716076374054,"94":-0.049144964665174484,"95":0.11237743496894836,"96":0.17307619750499725,"97":-0.01625121757388115,"98":0.03098328411579132,"99":-0.1495908796787262}},"13":{"bias":-0.012638857588171959,"weights":{"0":0.09020832180976868,"1":-0.14439436793327332,"2":0.13214705884456635,"3":-0.16587837040424347,"4":-0.17005714774131775,"5":0.019899453967809677,"6":0.07892479747533798,"7":0.007908838801085949,"8":-0.07693946361541748,"9":-0.020785732194781303,"10":-0.08238637447357178,"11":-0.19729632139205933,"12":-0.22374248504638672,"13":-0.11671292781829834,"14":0.0369134359061718,"15":-0.2614964544773102,"16":0.07201152294874191,"17":-0.09152194112539291,"18":0.10508426278829575,"19":-0.007216028869152069,"20":-0.07183098047971725,"21":0.17160965502262115,"22":-0.036168988794088364,"23":-0.0360935740172863,"24":-0.07039035856723785,"25":-0.2742970585823059,"26":-0.23131266236305237,"27":-0.27992281317710876,"28":0.012667891569435596,"29":-0.21429772675037384,"30":-0.06946248561143875,"31":-0.023795070126652718,"32":-0.20796385407447815,"33":-0.10161371529102325,"34":-0.015255734324455261,"35":-0.10306087136268616,"36":-0.22810348868370056,"37":-0.048118989914655685,"38":0.04295419529080391,"39":-0.09961843490600586,"40":0.18219290673732758,"41":-0.10910721868276596,"42":-0.00038921591476537287,"43":-0.08663680404424667,"44":-0.14161300659179688,"45":-0.3574686050415039,"46":-0.09613003581762314,"47":0.14360229671001434,"48":-0.006325509399175644,"49":0.18038301169872284,"50":-0.0001360048190690577,"51":0.07091403752565384,"52":0.08114685863256454,"53":-0.06037384644150734,"54":-0.19292575120925903,"55":-0.1503181755542755,"56":-0.3405458331108093,"57":-0.21433253586292267,"58":-0.052333179861307144,"59":-0.09546733647584915,"60":0.026023663580417633,"61":0.11408663541078568,"62":-0.12380677461624146,"63":-0.12799227237701416,"64":0.016117559745907784,"65":-0.3454698622226715,"66":-0.13818784058094025,"67":-0.21611139178276062,"68":-0.0239214226603508,"69":-0.038311608135700226,"70":-0.15843042731285095,"71":0.17169705033302307,"72":-0.25604596734046936,"73":-0.0010211131302639842,"74":0.13635540008544922,"75":-0.1304282248020172,"76":-0.06774232536554337,"77":-0.1787361055612564,"78":-0.1702462136745453,"79":-0.006701743695884943,"80":-0.10608386993408203,"81":-0.12257321923971176,"82":-0.002750526648014784,"83":-0.009343763813376427,"84":-0.0176779106259346,"85":-0.2540600895881653,"86":-0.13401202857494354,"87":0.09617529809474945,"88":0.14842253923416138,"89":-0.04648815840482712,"90":-0.12640486657619476,"91":-0.13237813115119934,"92":-0.165456160902977,"93":-0.08066437393426895,"94":-0.20414994657039642,"95":0.1813727617263794,"96":-0.13781099021434784,"97":-0.03761649131774902,"98":-0.045498091727495193,"99":-0.14886316657066345}},"14":{"bias":0.12280629575252533,"weights":{"0":-0.035335514694452286,"1":-0.022555915638804436,"2":-0.10344255715608597,"3":0.023771608248353004,"4":-0.0924357920885086,"5":-0.09054060280323029,"6":0.1578013002872467,"7":0.14981621503829956,"8":0.006658860482275486,"9":-0.14051029086112976,"10":-0.13182418048381805,"11":0.10777443647384644,"12":-0.18633408844470978,"13":-0.13240988552570343,"14":-0.1512998789548874,"15":-0.18715162575244904,"16":-0.06812366098165512,"17":-0.09159082174301147,"18":-0.05578366667032242,"19":-0.030781667679548264,"20":-0.10620255768299103,"21":0.2783406376838684,"22":-0.1770862489938736,"23":0.020380763337016106,"24":-0.31123673915863037,"25":-0.056287020444869995,"26":-0.34678518772125244,"27":-0.19664734601974487,"28":0.10005950182676315,"29":0.04079785570502281,"30":0.09854502230882645,"31":0.16344138979911804,"32":0.19438424706459045,"33":-0.20200544595718384,"34":-0.03841779753565788,"35":-0.2294015735387802,"36":-0.4038337469100952,"37":-0.27803993225097656,"38":0.3043675720691681,"39":0.0029075283091515303,"40":0.05502963438630104,"41":-0.09011354297399521,"42":0.25760477781295776,"43":-0.2854810953140259,"44":0.12077657878398895,"45":-0.13358114659786224,"46":-0.3151049017906189,"47":0.13445276021957397,"48":0.07796148955821991,"49":-0.09275470674037933,"50":0.18356014788150787,"51":0.029441820457577705,"52":0.047671638429164886,"53":-0.34068170189857483,"54":-0.00989770982414484,"55":-0.3234576880931854,"56":-0.2524881660938263,"57":0.11077644675970078,"58":0.07400653511285782,"59":0.08194087445735931,"60":0.23015542328357697,"61":-0.05431589111685753,"62":-0.2551158666610718,"63":-0.35058218240737915,"64":-0.2896276116371155,"65":-0.24754512310028076,"66":-0.1498916745185852,"67":0.08597364276647568,"68":0.28850629925727844,"69":-0.12210477143526077,"70":-0.14849938452243805,"71":0.12966816127300262,"72":0.03489506617188454,"73":0.10584469139575958,"74":0.05870877578854561,"75":0.06493410468101501,"76":-0.0065645696595311165,"77":0.1607045829296112,"78":0.09918402135372162,"79":0.38308098912239075,"80":-0.023240063339471817,"81":-0.09286957234144211,"82":-0.021238958463072777,"83":-0.16921807825565338,"84":-0.222440704703331,"85":-0.056079212576150894,"86":-0.11652104556560516,"87":-0.04553087800741196,"88":0.15658609569072723,"89":-0.12523451447486877,"90":0.1472649723291397,"91":0.041675373911857605,"92":-0.019271748140454292,"93":-0.04058726131916046,"94":-0.12138909101486206,"95":0.12465163320302963,"96":0.10610219836235046,"97":0.10314910858869553,"98":0.09374521672725677,"99":0.1024630144238472}},"15":{"bias":0.4757307767868042,"weights":{"0":-0.11984919011592865,"1":0.15229398012161255,"2":-0.16567419469356537,"3":-0.19651293754577637,"4":0.18805766105651855,"5":0.04874388873577118,"6":0.1962519884109497,"7":-0.008707051165401936,"8":0.10878346860408783,"9":0.017986787483096123,"10":-0.12620176374912262,"11":0.08090609312057495,"12":0.0009638025076128542,"13":0.06345854699611664,"14":0.0008941292762756348,"15":-0.1966300755739212,"16":-0.1217513233423233,"17":-0.08011358976364136,"18":-0.2000788301229477,"19":-0.17301222681999207,"20":0.12562395632266998,"21":0.010854698717594147,"22":-0.33747413754463196,"23":-0.27875450253486633,"24":-0.11839713156223297,"25":-0.26655706763267517,"26":-0.05976584926247597,"27":-0.2688281834125519,"28":-0.17131972312927246,"29":0.02889670617878437,"30":0.12608006596565247,"31":0.2805136442184448,"32":-0.21617810428142548,"33":-0.32068943977355957,"34":-0.2866452634334564,"35":-0.21311542391777039,"36":-0.3820549249649048,"37":-0.24070067703723907,"38":-0.056644048541784286,"39":-0.059310220181941986,"40":0.106235571205616,"41":0.03875277191400528,"42":-0.1428336501121521,"43":-0.05832156911492348,"44":-0.26711952686309814,"45":-0.2999696433544159,"46":-0.3341750502586365,"47":-0.1955907642841339,"48":-0.09683423489332199,"49":-0.006734299473464489,"50":0.08724978566169739,"51":-0.040851984173059464,"52":-0.22573640942573547,"53":-0.23975196480751038,"54":-0.4270361065864563,"55":-0.06823655962944031,"56":-0.14490431547164917,"57":-0.04180328920483589,"58":-0.056956950575113297,"59":0.06662929058074951,"60":-0.044564031064510345,"61":0.23280014097690582,"62":-0.15537633001804352,"63":-0.13478156924247742,"64":0.11626409739255905,"65":-0.25859740376472473,"66":-0.14330889284610748,"67":-0.1747799962759018,"68":0.20750735700130463,"69":-0.2558010518550873,"70":-0.005006679333746433,"71":0.010641088709235191,"72":-0.21181127429008484,"73":-0.2751252353191376,"74":0.10053825378417969,"75":0.06212254613637924,"76":0.08433912694454193,"77":0.05608391389250755,"78":-0.18010589480400085,"79":-0.04169771075248718,"80":-0.17197638750076294,"81":0.10840360075235367,"82":-0.06680640578269958,"83":0.00363063788972795,"84":-0.24787312746047974,"85":0.06988029927015305,"86":-0.04567219689488411,"87":-0.15097671747207642,"88":0.15050509572029114,"89":0.11736666411161423,"90":0.04406467452645302,"91":0.06906605511903763,"92":-0.07289794832468033,"93":0.16545294225215912,"94":-0.22477859258651733,"95":-0.10696113854646683,"96":0.16633370518684387,"97":0.1411394327878952,"98":0.07231947779655457,"99":-0.027203382924199104}},"16":{"bias":0.7635653614997864,"weights":{"0":0.02052547037601471,"1":-0.016316615045070648,"2":-0.194330632686615,"3":0.1911470741033554,"4":0.1014866977930069,"5":-0.18823474645614624,"6":-0.12065529078245163,"7":-0.15974211692810059,"8":-0.051700081676244736,"9":-0.08294777572154999,"10":0.00629007164388895,"11":0.02460487000644207,"12":-0.015902936458587646,"13":-0.1115138977766037,"14":0.08508133888244629,"15":-0.053528085350990295,"16":0.0640631839632988,"17":-0.004257262218743563,"18":-0.18108537793159485,"19":0.03535504266619682,"20":0.22013184428215027,"21":0.04149772599339485,"22":-0.29427143931388855,"23":-0.1129915788769722,"24":-0.1225200816988945,"25":-0.0717281848192215,"26":0.01677742414176464,"27":-0.30984577536582947,"28":-0.11438090354204178,"29":-0.33807843923568726,"30":0.09671788662672043,"31":0.009746210649609566,"32":-0.15924552083015442,"33":-0.37598469853401184,"34":-0.1791173219680786,"35":-0.48621562123298645,"36":-0.33804193139076233,"37":-0.004951878450810909,"38":-0.06058386713266373,"39":0.06740105897188187,"40":0.0665045902132988,"41":0.055082209408283234,"42":-0.1025802493095398,"43":-0.012874308973550797,"44":-0.095286525785923,"45":-0.044544659554958344,"46":-0.4162679612636566,"47":-0.10822926461696625,"48":-0.00515275401994586,"49":0.14872890710830688,"50":0.10618948936462402,"51":-0.2918492257595062,"52":-0.30592745542526245,"53":-0.37414780259132385,"54":-0.4380391836166382,"55":-0.2685081660747528,"56":-0.5357267260551453,"57":0.07829557359218597,"58":0.20485591888427734,"59":-0.17360039055347443,"60":-0.20667296648025513,"61":0.1235824003815651,"62":0.0974171906709671,"63":-0.1373869627714157,"64":0.1152166947722435,"65":-0.00954439677298069,"66":-0.10874553769826889,"67":-0.19203874468803406,"68":-0.07849554717540741,"69":-0.4072412848472595,"70":-0.012432470917701721,"71":-0.17898504436016083,"72":-0.23159123957157135,"73":-0.39825770258903503,"74":-0.23022860288619995,"75":-0.02731531485915184,"76":-0.2140113115310669,"77":-0.16899925470352173,"78":-0.41388723254203796,"79":-0.03674495965242386,"80":0.0760144367814064,"81":-0.1944287121295929,"82":-0.05139312893152237,"83":-0.1360485702753067,"84":0.0013176976935938,"85":-0.1514616310596466,"86":0.13751612603664398,"87":-0.22913183271884918,"88":0.2552450895309448,"89":0.3901585638523102,"90":0.09307987987995148,"91":0.15524820983409882,"92":-0.10352654755115509,"93":-0.028203584253787994,"94":0.08447444438934326,"95":-0.1804398000240326,"96":0.07417169958353043,"97":0.11253242939710617,"98":-0.08686957508325577,"99":-0.16236521303653717}},"17":{"bias":-0.4547140598297119,"weights":{"0":-0.17596855759620667,"1":-0.13368521630764008,"2":-0.003296885872259736,"3":0.12222907692193985,"4":0.009810980409383774,"5":-0.006909362506121397,"6":-0.1505548506975174,"7":-0.14364755153656006,"8":0.02497241087257862,"9":-0.067346952855587,"10":0.12909041345119476,"11":-0.09565265476703644,"12":0.2207234799861908,"13":-0.0721200555562973,"14":-0.0636996403336525,"15":0.17754371464252472,"16":0.36271965503692627,"17":0.033551983535289764,"18":-0.10530101507902145,"19":-0.07985096424818039,"20":0.03207572549581528,"21":-0.04258020594716072,"22":-0.02518089860677719,"23":-0.19784227013587952,"24":0.18438296020030975,"25":0.08127450197935104,"26":-0.11766257882118225,"27":0.003447899129241705,"28":0.021403297781944275,"29":-0.05942719429731369,"30":-0.14862442016601562,"31":-0.3469341993331909,"32":-0.026912042871117592,"33":0.17421863973140717,"34":0.14562661945819855,"35":0.0446363165974617,"36":-0.1397978961467743,"37":0.13931797444820404,"38":-0.03279478847980499,"39":0.13756252825260162,"40":-0.09355581551790237,"41":-0.01927441544830799,"42":0.09262137860059738,"43":0.30467697978019714,"44":0.20196083188056946,"45":0.22333276271820068,"46":0.25847315788269043,"47":-0.10277136415243149,"48":0.06464087963104248,"49":-0.12124640494585037,"50":-0.07787058502435684,"51":0.24505570530891418,"52":0.29277217388153076,"53":0.22336317598819733,"54":0.35743167996406555,"55":0.056267522275447845,"56":0.14281852543354034,"57":-0.22636555135250092,"58":0.033256981521844864,"59":0.028759241104125977,"60":0.17978036403656006,"61":0.007924157194793224,"62":0.26160135865211487,"63":0.022310061380267143,"64":0.08784886449575424,"65":0.03708098456263542,"66":-0.03555390611290932,"67":0.33800452947616577,"68":0.3707023561000824,"69":0.1287628412246704,"70":0.14214956760406494,"71":0.028013737872242928,"72":0.34039050340652466,"73":0.1712678074836731,"74":-0.04484738036990166,"75":0.06857689470052719,"76":-0.0022554760798811913,"77":0.1823616474866867,"78":0.3462126851081848,"79":0.07355249673128128,"80":-0.02530914545059204,"81":0.12731991708278656,"82":0.11837544292211533,"83":0.07453648746013641,"84":0.1575552523136139,"85":0.1235266774892807,"86":0.24073189496994019,"87":0.09941314160823822,"88":-0.1943608820438385,"89":-0.30536949634552,"90":0.008936273865401745,"91":0.11511128395795822,"92":0.16929511725902557,"93":0.12939906120300293,"94":-0.12589244544506073,"95":-0.09261130541563034,"96":0.03813641145825386,"97":-0.08919117599725723,"98":-0.010074556805193424,"99":0.15792253613471985}},"18":{"bias":0.6526299118995667,"weights":{"0":0.16452351212501526,"1":0.12500092387199402,"2":0.1422552466392517,"3":0.17363978922367096,"4":0.13813254237174988,"5":-0.1542969048023224,"6":-0.08075998723506927,"7":-0.15476670861244202,"8":-0.04553305357694626,"9":-0.14913779497146606,"10":-0.09078025817871094,"11":0.07535681873559952,"12":-0.0783391073346138,"13":-0.35488179326057434,"14":-0.4800611436367035,"15":-0.4557916820049286,"16":-0.499816358089447,"17":-0.053260400891304016,"18":0.09037575125694275,"19":0.12747791409492493,"20":-0.0734851285815239,"21":0.4148815870285034,"22":0.05663513392210007,"23":-0.1670321375131607,"24":-0.15662576258182526,"25":-0.2584530711174011,"26":-0.22183753550052643,"27":-0.2789497971534729,"28":0.21985100209712982,"29":0.16569630801677704,"30":0.04069772735238075,"31":0.2277297079563141,"32":0.46492627263069153,"33":-0.5023676753044128,"34":0.48854801058769226,"35":0.0736747607588768,"36":-0.5719901919364929,"37":0.007309400010854006,"38":0.41325628757476807,"39":0.03495948016643524,"40":0.1070273146033287,"41":0.10957641899585724,"42":0.05812070518732071,"43":-0.6500346064567566,"44":0.02526204101741314,"45":-0.5986024737358093,"46":0.019089603796601295,"47":0.5922790765762329,"48":0.28424516320228577,"49":-0.4760816693305969,"50":0.11855660378932953,"51":0.023023398593068123,"52":0.5541961193084717,"53":-0.11672098934650421,"54":-0.16837215423583984,"55":-0.1859995573759079,"56":-0.340477854013443,"57":0.25810426473617554,"58":0.26092466711997986,"59":0.25822827219963074,"60":0.04392308369278908,"61":0.8885828852653503,"62":-0.36186733841896057,"63":0.05304182693362236,"64":0.310653418302536,"65":0.1751764714717865,"66":0.006560219917446375,"67":-0.3073502779006958,"68":0.2751381993293762,"69":-0.11195525527000427,"70":0.08689069002866745,"71":0.5201079249382019,"72":-0.2721882164478302,"73":-0.22413739562034607,"74":-0.0022370154038071632,"75":-0.2113143801689148,"76":-0.1333490014076233,"77":-0.04185006022453308,"78":-0.040763236582279205,"79":0.44252699613571167,"80":-0.1492144614458084,"81":0.06214102730154991,"82":-0.13494271039962769,"83":-0.15937621891498566,"84":-0.3887779116630554,"85":-0.3647870719432831,"86":-0.27105966210365295,"87":-0.29382985830307007,"88":-0.2207784205675125,"89":0.020030681043863297,"90":-0.027520330622792244,"91":0.002766171470284462,"92":0.08056856691837311,"93":0.029825717210769653,"94":-0.18097107112407684,"95":0.059283725917339325,"96":-0.0105489082634449,"97":0.11680854111909866,"98":-0.18839551508426666,"99":0.047908902168273926}},"19":{"bias":0.07117091119289398,"weights":{"0":0.022806214168667793,"1":0.08321353048086166,"2":-0.1438295841217041,"3":-0.1658850908279419,"4":-0.10595961660146713,"5":-0.023729799315333366,"6":0.13830114901065826,"7":-0.13514329493045807,"8":-0.1287062019109726,"9":-0.1365765929222107,"10":0.1834045946598053,"11":-0.046458009630441666,"12":-0.08159211277961731,"13":0.540874183177948,"14":0.28920507431030273,"15":0.4167015850543976,"16":0.2639788091182709,"17":0.21293817460536957,"18":0.04700769856572151,"19":0.1640579104423523,"20":0.15366916358470917,"21":0.0034918286837637424,"22":-0.2699641287326813,"23":-0.08183141052722931,"24":0.11443847417831421,"25":0.14652611315250397,"26":0.2852742075920105,"27":0.2474646419286728,"28":-0.13286641240119934,"29":-0.023757299408316612,"30":0.020999543368816376,"31":0.027872376143932343,"32":-0.190202996134758,"33":0.8795300126075745,"34":-0.054923251271247864,"35":0.2438899278640747,"36":0.3704453110694885,"37":0.07448434084653854,"38":-0.47049108147621155,"39":0.015024554915726185,"40":0.17351728677749634,"41":0.16339096426963806,"42":-0.10426446795463562,"43":0.2984686493873596,"44":0.0803871601819992,"45":0.7542246580123901,"46":0.0927012637257576,"47":0.0036213614512234926,"48":-0.06784669309854507,"49":0.160549134016037,"50":0.023753182962536812,"51":0.1947077065706253,"52":-0.5283239483833313,"53":0.036099210381507874,"54":-0.3182358145713806,"55":-0.14555764198303223,"56":-0.1480000764131546,"57":-0.39580103754997253,"58":-0.06559465080499649,"59":-0.1116555854678154,"60":-0.2642159163951874,"61":-0.8491419553756714,"62":0.26212555170059204,"63":-0.08223530650138855,"64":-0.15070699155330658,"65":-0.6632571816444397,"66":-0.30662161111831665,"67":-0.4036608040332794,"68":-0.49661585688591003,"69":0.051354359835386276,"70":0.1192331612110138,"71":-0.02911764569580555,"72":-0.0715550109744072,"73":0.29142892360687256,"74":0.2325788289308548,"75":0.3581838011741638,"76":0.20527255535125732,"77":0.16899514198303223,"78":-0.1126955971121788,"79":-0.2772407829761505,"80":-0.13225626945495605,"81":-0.13613852858543396,"82":0.39244455099105835,"83":0.1876400113105774,"84":0.30724307894706726,"85":0.07679255306720734,"86":0.1705334186553955,"87":0.36141687631607056,"88":0.06698692589998245,"89":0.33234935998916626,"90":-0.15602757036685944,"91":0.19490483403205872,"92":0.1432705521583557,"93":-0.016855329275131226,"94":0.1113133653998375,"95":0.08545547723770142,"96":0.06682313978672028,"97":0.12579137086868286,"98":0.17557202279567719,"99":-0.18368960916996002}},"20":{"bias":0.041922781616449356,"weights":{"0":0.1812334656715393,"1":0.17240628600120544,"2":0.10604821890592575,"3":0.098298080265522,"4":0.05944932997226715,"5":0.15590490400791168,"6":-0.06536781042814255,"7":-0.07709985226392746,"8":-0.15215198695659637,"9":-0.14501169323921204,"10":-0.10420923680067062,"11":0.14897440373897552,"12":-0.1236438974738121,"13":-0.1368681937456131,"14":-0.04207361117005348,"15":0.09834074229001999,"16":-0.0690668374300003,"17":-0.12922556698322296,"18":-0.08841754496097565,"19":0.15470102429389954,"20":0.22846408188343048,"21":-0.12685589492321014,"22":-0.029360629618167877,"23":-0.2720128893852234,"24":0.012421048246324062,"25":-0.25169509649276733,"26":-0.11588092893362045,"27":0.10002708435058594,"28":-0.06366907805204391,"29":-0.04312219098210335,"30":0.1465904712677002,"31":-0.06611549109220505,"32":-0.2541944682598114,"33":-0.27716362476348877,"34":-0.24211816489696503,"35":0.011152323335409164,"36":-0.07379153370857239,"37":-0.050057657063007355,"38":-0.11328592151403427,"39":-0.13137078285217285,"40":-0.1672033816576004,"41":-0.02438531070947647,"42":-0.20999306440353394,"43":-0.14565618336200714,"44":-0.19113360345363617,"45":-0.0870605856180191,"46":-0.334247887134552,"47":-0.33611997961997986,"48":-0.15463781356811523,"49":-0.004073640331625938,"50":-0.11231319606304169,"51":-0.1622171550989151,"52":-0.24476470053195953,"53":0.06660939007997513,"54":-0.18498189747333527,"55":-0.08316527307033539,"56":-0.1392938643693924,"57":-0.296852707862854,"58":-0.24455180764198303,"59":0.020375538617372513,"60":0.026380019262433052,"61":0.10147459805011749,"62":-0.07319618761539459,"63":-0.08014719933271408,"64":-0.1798357516527176,"65":-0.021084459498524666,"66":-0.06627915799617767,"67":0.05090237781405449,"68":0.05345011129975319,"69":-0.26296716928482056,"70":-0.11758793890476227,"71":0.1478763371706009,"72":0.003769466420635581,"73":0.02341352216899395,"74":-0.13644255697727203,"75":0.13920077681541443,"76":0.018598513677716255,"77":-0.14241719245910645,"78":-0.2905392646789551,"79":-0.006849601864814758,"80":0.12066937983036041,"81":0.13069656491279602,"82":0.1581241339445114,"83":-0.17636710405349731,"84":0.10251624137163162,"85":0.09264525771141052,"86":0.046022068709135056,"87":0.08518891036510468,"88":0.056487567722797394,"89":0.16093809902668,"90":0.17894691228866577,"91":-0.13236527144908905,"92":-0.03189593926072121,"93":-0.033320702612400055,"94":-0.15106041729450226,"95":0.0038627348840236664,"96":-0.17951154708862305,"97":-0.008533105254173279,"98":0.1814611256122589,"99":0.07912467420101166}},"21":{"bias":0.07748422026634216,"weights":{"0":-0.09007685631513596,"1":0.17602479457855225,"2":-0.07223952561616898,"3":0.08673862367868423,"4":0.006646078545600176,"5":0.005877226125448942,"6":0.06788374483585358,"7":0.053382325917482376,"8":0.12225998193025589,"9":0.06251857429742813,"10":-0.06713009625673294,"11":-0.14681316912174225,"12":0.034714944660663605,"13":-0.0385601744055748,"14":-0.047421786934137344,"15":0.14837518334388733,"16":0.0467042401432991,"17":0.03224658593535423,"18":-0.10746441781520844,"19":-0.07431456446647644,"20":-0.021024618297815323,"21":-0.12950767576694489,"22":0.03763452544808388,"23":0.003078182227909565,"24":-0.024226222187280655,"25":-0.19300104677677155,"26":0.006623486056923866,"27":-0.18140973150730133,"28":0.04169296473264694,"29":-0.004311870317906141,"30":0.161622554063797,"31":-0.0254286490380764,"32":-0.10252659767866135,"33":0.09641580283641815,"34":-0.2816261351108551,"35":-0.32307949662208557,"36":0.02206714078783989,"37":-0.03408478945493698,"38":0.1190129742026329,"39":-0.18898440897464752,"40":0.14563137292861938,"41":-0.13871914148330688,"42":-0.12594656646251678,"43":-0.22998440265655518,"44":-0.19290414452552795,"45":-0.1754770427942276,"46":-0.1904214471578598,"47":-0.3415057361125946,"48":-0.11841733008623123,"49":0.08879128098487854,"50":-0.11020110547542572,"51":-0.12395207583904266,"52":-0.21058635413646698,"53":-0.19536469876766205,"54":-0.23612748086452484,"55":-0.15586107969284058,"56":-0.20713956654071808,"57":-0.031485963612794876,"58":-0.1295640617609024,"59":-0.22142791748046875,"60":-0.2523781955242157,"61":-0.0765586867928505,"62":-0.12910044193267822,"63":0.1883532702922821,"64":-0.17440009117126465,"65":-0.11796242743730545,"66":-0.0017678868025541306,"67":-0.14443910121917725,"68":-0.005851310212165117,"69":-0.21335740387439728,"70":0.15197771787643433,"71":-0.13287045061588287,"72":-0.13497963547706604,"73":-0.03301314264535904,"74":0.11470390111207962,"75":0.02521222084760666,"76":-0.11368356645107269,"77":0.06927110999822617,"78":-0.2434820979833603,"79":-0.14841437339782715,"80":0.05656702071428299,"81":-0.09660158306360245,"82":0.18514154851436615,"83":0.09901373088359833,"84":0.012559199705719948,"85":0.050875820219516754,"86":0.19684065878391266,"87":-0.1626633107662201,"88":-0.0685698613524437,"89":0.24352405965328217,"90":-0.0642753392457962,"91":-0.1049758642911911,"92":-0.1837148368358612,"93":0.08526801317930222,"94":0.1515350192785263,"95":-0.03704514726996422,"96":0.03455144166946411,"97":-0.1632622480392456,"98":-0.02727920189499855,"99":0.07150247693061829}},"22":{"bias":0.021500466391444206,"weights":{"0":0.0987251028418541,"1":-0.05353044345974922,"2":-0.03866822272539139,"3":0.06544850766658783,"4":-0.162562757730484,"5":0.0000956645526457578,"6":-0.04163021966814995,"7":-0.030827026814222336,"8":0.18247227370738983,"9":-0.1972677856683731,"10":0.026056746020913124,"11":-0.30913475155830383,"12":0.0587012879550457,"13":0.0912921354174614,"14":0.1095958799123764,"15":0.0787339136004448,"16":0.20111636817455292,"17":-0.15216100215911865,"18":0.07054706662893295,"19":-0.01712217554450035,"20":0.33124831318855286,"21":0.11731477081775665,"22":-0.2721326947212219,"23":0.04566806182265282,"24":0.19799108803272247,"25":0.2747100293636322,"26":0.27819713950157166,"27":0.04759868234395981,"28":-0.037815872579813004,"29":-0.17530286312103271,"30":0.28268879652023315,"31":0.17482687532901764,"32":-0.08931459486484528,"33":0.04583771899342537,"34":-0.09637708961963654,"35":-0.05042964592576027,"36":0.1791217029094696,"37":0.10482190549373627,"38":-0.2614637017250061,"39":0.06078515946865082,"40":-0.058041445910930634,"41":0.26524150371551514,"42":-0.08967491239309311,"43":0.040559154003858566,"44":-0.060844406485557556,"45":0.0951932743191719,"46":-0.23619785904884338,"47":-0.2595912218093872,"48":-0.18608500063419342,"49":0.0638769268989563,"50":0.050724733620882034,"51":-0.27434679865837097,"52":-0.47836169600486755,"53":-0.08233475685119629,"54":-0.256734162569046,"55":-0.11195121705532074,"56":-0.23143745958805084,"57":-0.2830565869808197,"58":0.044454868882894516,"59":0.014113682322204113,"60":-0.30956417322158813,"61":-0.4203975200653076,"62":-0.013959274627268314,"63":-0.27230724692344666,"64":-0.23179280757904053,"65":-0.34219425916671753,"66":-0.18038645386695862,"67":-0.2582332491874695,"68":-0.24154014885425568,"69":-0.1308199167251587,"70":-0.14487728476524353,"71":-0.20490562915802002,"72":-0.2590285837650299,"73":-0.02565981261432171,"74":-0.1172371357679367,"75":-0.04648519679903984,"76":-0.010419260710477829,"77":-0.11458688974380493,"78":-0.2630091607570648,"79":-0.20627854764461517,"80":-0.13718365132808685,"81":0.06865350157022476,"82":-0.06625406444072723,"83":0.2228996306657791,"84":-0.052377570420503616,"85":0.010135752148926258,"86":-0.08192234486341476,"87":-0.08552855998277664,"88":0.06634122133255005,"89":0.004137741401791573,"90":-0.04984457418322563,"91":0.16320116817951202,"92":-0.11081961542367935,"93":-0.006406461354345083,"94":0.19692398607730865,"95":-0.15475915372371674,"96":0.1848239153623581,"97":0.14833666384220123,"98":0.1323336362838745,"99":0.032397009432315826}},"23":{"bias":-0.5349768400192261,"weights":{"0":-0.17648349702358246,"1":-0.054049186408519745,"2":-0.15891553461551666,"3":0.12407831102609634,"4":-0.045702580362558365,"5":0.0671042948961258,"6":-0.06192908063530922,"7":-0.04310232400894165,"8":-0.18187832832336426,"9":-0.0804392546415329,"10":0.10870686173439026,"11":-0.029657114297151566,"12":0.05213344097137451,"13":0.2578902840614319,"14":0.15512773394584656,"15":0.39223966002464294,"16":0.39105889201164246,"17":0.03430071100592613,"18":-0.11513420194387436,"19":0.1186060681939125,"20":0.1354837715625763,"21":-0.09791325777769089,"22":0.22241711616516113,"23":0.173452690243721,"24":0.2687978744506836,"25":0.13088814914226532,"26":0.1904059201478958,"27":0.507185161113739,"28":0.03477666527032852,"29":-0.10028484463691711,"30":0.22139635682106018,"31":-0.06714995950460434,"32":0.11460760980844498,"33":0.3917708098888397,"34":-0.06758768856525421,"35":0.14121034741401672,"36":0.2400914430618286,"37":0.19981896877288818,"38":-0.15062536299228668,"39":0.15529941022396088,"40":0.10166936367750168,"41":-0.2684105932712555,"42":-0.20415817201137543,"43":0.3102807402610779,"44":-0.06401834636926651,"45":0.3112841546535492,"46":-0.2607018053531647,"47":-0.555321991443634,"48":0.06303533166646957,"49":0.29301610589027405,"50":0.14991073310375214,"51":0.02183816209435463,"52":-0.23425821959972382,"53":0.049749452620744705,"54":0.20524749159812927,"55":0.26283693313598633,"56":0.21932481229305267,"57":-0.15198126435279846,"58":-0.07155298441648483,"59":0.0019706287421286106,"60":-0.1847424954175949,"61":-0.02346525341272354,"62":0.7883008718490601,"63":0.488137811422348,"64":0.04631521925330162,"65":0.41281503438949585,"66":0.39737626910209656,"67":-0.14693233370780945,"68":-0.30452266335487366,"69":0.12697821855545044,"70":0.06537307798862457,"71":-0.3000178337097168,"72":0.11965171992778778,"73":-0.13180454075336456,"74":-0.08059947937726974,"75":-0.12982210516929626,"76":-0.07960864156484604,"77":-0.048174191266298294,"78":-0.04256918281316757,"79":-0.14777135848999023,"80":0.06028306856751442,"81":0.15926921367645264,"82":-0.06850384920835495,"83":0.3086269795894623,"84":0.16551455855369568,"85":0.12874022126197815,"86":0.23686698079109192,"87":0.2884977459907532,"88":-0.17880970239639282,"89":-0.14243799448013306,"90":0.05048949643969536,"91":-0.14382001757621765,"92":0.027145087718963623,"93":-0.14641369879245758,"94":0.10257463902235031,"95":-0.09263264387845993,"96":0.2401573657989502,"97":0.22484828531742096,"98":0.08099407702684402,"99":0.1868639588356018}},"24":{"bias":0.21493153274059296,"weights":{"0":-0.15522077679634094,"1":-0.1481994092464447,"2":-0.05409519001841545,"3":-0.1577073633670807,"4":-0.05097877234220505,"5":0.1524277925491333,"6":-0.1119370087981224,"7":0.13429510593414307,"8":0.10228732973337173,"9":-0.19756849110126495,"10":-0.005168632138520479,"11":0.10428991168737411,"12":0.04805406555533409,"13":0.18383274972438812,"14":0.1755337417125702,"15":0.038262493908405304,"16":-0.1595783233642578,"17":-0.07694035023450851,"18":0.09223327040672302,"19":0.11451471596956253,"20":-0.0611543133854866,"21":-0.05347933992743492,"22":0.012303377501666546,"23":0.03737255558371544,"24":-0.24751052260398865,"25":0.0810207799077034,"26":-0.0648915097117424,"27":0.15726730227470398,"28":-0.2459806352853775,"29":-0.2524197995662689,"30":-0.036721084266901016,"31":-0.09808364510536194,"32":-0.49796733260154724,"33":-0.033195432275533676,"34":-0.5117999911308289,"35":-0.3674991726875305,"36":-0.2634342610836029,"37":-0.032364435493946075,"38":-0.24306994676589966,"39":0.15956169366836548,"40":0.06217939034104347,"41":0.27669772505760193,"42":0.010942663066089153,"43":-0.046574916690588,"44":0.08129356801509857,"45":0.0981144830584526,"46":0.10553649067878723,"47":-0.17858709394931793,"48":-0.28938841819763184,"49":-0.056273143738508224,"50":-0.021684352308511734,"51":-0.06839994341135025,"52":-0.3404262661933899,"53":-0.10403114557266235,"54":-0.42260849475860596,"55":-0.1450585573911667,"56":-0.23122148215770721,"57":-0.20107132196426392,"58":-0.1242833212018013,"59":-0.17003978788852692,"60":-0.1291043907403946,"61":0.01918737031519413,"62":0.03991518169641495,"63":-0.09756051748991013,"64":0.04739903658628464,"65":0.14499527215957642,"66":0.05436421558260918,"67":0.12392790615558624,"68":-0.20421947538852692,"69":-0.1124434545636177,"70":0.1270906776189804,"71":-0.1845918744802475,"72":-0.38151469826698303,"73":-0.24242602288722992,"74":-0.23935887217521667,"75":-0.2883733808994293,"76":-0.2881539762020111,"77":0.017234796658158302,"78":-0.2825779616832733,"79":-0.0019909897819161415,"80":0.011518890969455242,"81":-0.15173447132110596,"82":-0.07062851637601852,"83":-0.10909765213727951,"84":-0.0117393359541893,"85":0.0015921570593491197,"86":0.07266265898942947,"87":-0.04225263372063637,"88":0.28560900688171387,"89":0.03433779254555702,"90":-0.16789557039737701,"91":-0.1757475733757019,"92":0.1489352434873581,"93":0.0990353599190712,"94":-0.038095418363809586,"95":-0.04815200716257095,"96":-0.05225518345832825,"97":-0.17253617942333221,"98":0.13168801367282867,"99":-0.053944602608680725}},"25":{"bias":-0.14846058189868927,"weights":{"0":-0.07500988245010376,"1":0.09403293579816818,"2":-0.015452767722308636,"3":-0.003499827813357115,"4":-0.090769924223423,"5":0.08835854381322861,"6":0.19726231694221497,"7":-0.020055685192346573,"8":-0.03836202248930931,"9":-0.093027263879776,"10":-0.02515534684062004,"11":-0.04222969338297844,"12":0.019395029172301292,"13":0.07852177321910858,"14":0.02179449237883091,"15":0.3047117590904236,"16":0.013547739014029503,"17":-0.11934386938810349,"18":0.08677100390195847,"19":-0.022649593651294708,"20":0.045639000833034515,"21":0.013997986912727356,"22":-0.24883928894996643,"23":-0.008162030950188637,"24":0.06004071980714798,"25":-0.06459585577249527,"26":-0.1975753754377365,"27":-0.002200435847043991,"28":-0.20872297883033752,"29":-0.06606411188840866,"30":0.18678976595401764,"31":0.1451503038406372,"32":-0.2546466290950775,"33":-0.008725819177925587,"34":-0.17297856509685516,"35":0.012115752324461937,"36":0.11738835275173187,"37":-0.1652650237083435,"38":-0.026535514742136,"39":-0.043762050569057465,"40":0.17274922132492065,"41":0.0288705937564373,"42":-0.20438426733016968,"43":-0.04612252116203308,"44":-0.2378646433353424,"45":0.09401580691337585,"46":0.04090924561023712,"47":-0.17020761966705322,"48":0.0014936041552573442,"49":0.018215494230389595,"50":0.06725569814443588,"51":0.2016998529434204,"52":0.0417313426733017,"53":-0.09592260420322418,"54":-0.08958517014980316,"55":-0.11280931532382965,"56":-0.01090976968407631,"57":0.08790622651576996,"58":0.1263771951198578,"59":0.07638537138700485,"60":-0.24076315760612488,"61":0.09669101238250732,"62":-0.07448107749223709,"63":0.15671955049037933,"64":0.06072649359703064,"65":-0.2472725659608841,"66":-0.0405605211853981,"67":0.09654296189546585,"68":0.19039632380008698,"69":0.07512017339468002,"70":-0.19706930220127106,"71":0.05019532889127731,"72":-0.051643386483192444,"73":0.07054238021373749,"74":0.21278710663318634,"75":-0.13273882865905762,"76":-0.053661320358514786,"77":-0.17880584299564362,"78":0.06566587090492249,"79":0.060776833444833755,"80":0.0027382124681025743,"81":0.18731608986854553,"82":0.18504729866981506,"83":0.11738037317991257,"84":0.02719157189130783,"85":-0.11414431035518646,"86":0.1116345077753067,"87":-0.0944223552942276,"88":0.21796850860118866,"89":0.08906760066747665,"90":0.1836627572774887,"91":-0.10010677576065063,"92":0.041927509009838104,"93":0.11341696232557297,"94":0.09284553676843643,"95":0.18934592604637146,"96":-0.10575596243143082,"97":0.17963778972625732,"98":0.20146630704402924,"99":-0.13764888048171997}},"26":{"bias":-0.18980994820594788,"weights":{"0":0.08350811153650284,"1":-0.012430643662810326,"2":-0.12781406939029694,"3":0.15495255589485168,"4":0.02342194691300392,"5":0.10605034977197647,"6":0.18240655958652496,"7":0.10463373363018036,"8":0.17265039682388306,"9":0.11877243965864182,"10":0.12335534393787384,"11":0.036628518253564835,"12":-0.049906209111213684,"13":-0.02883116900920868,"14":-0.07104246318340302,"15":0.22869230806827545,"16":-0.008361246436834335,"17":-0.1646665781736374,"18":-0.030725697055459023,"19":-0.05945625156164169,"20":0.08980505168437958,"21":0.054142389446496964,"22":0.20541875064373016,"23":-0.19190101325511932,"24":0.19391338527202606,"25":-0.1862267255783081,"26":-0.19125795364379883,"27":0.11661406606435776,"28":-0.01987680047750473,"29":0.030006177723407745,"30":0.09041879326105118,"31":-0.047689132392406464,"32":-0.11540831625461578,"33":0.1510763317346573,"34":0.277731329202652,"35":0.09044499695301056,"36":-0.050509218126535416,"37":-0.005022021476179361,"38":-0.20119115710258484,"39":-0.033655501902103424,"40":-0.10212107747793198,"41":-0.14447446167469025,"42":0.2511712610721588,"43":0.09058749675750732,"44":0.03343302011489868,"45":0.06899811327457428,"46":-0.024759814143180847,"47":-0.01012378465384245,"48":0.15350838005542755,"49":-0.24999158084392548,"50":0.18016241490840912,"51":0.21767497062683105,"52":0.15502607822418213,"53":0.18219713866710663,"54":0.10180019587278366,"55":0.32584330439567566,"56":0.13183332979679108,"57":0.15977731347084045,"58":-0.13703827559947968,"59":0.25928670167922974,"60":0.25608885288238525,"61":-0.0023740914184600115,"62":-0.028485922142863274,"63":0.24656565487384796,"64":0.010830790735781193,"65":0.14950424432754517,"66":0.02713920921087265,"67":0.3021852672100067,"68":0.3099737763404846,"69":0.3451821804046631,"70":-0.0031752518843859434,"71":0.030851498246192932,"72":0.2989167869091034,"73":0.20464445650577545,"74":0.017028480768203735,"75":0.16617831587791443,"76":0.35857778787612915,"77":-0.026864957064390182,"78":0.5100979804992676,"79":0.1384841650724411,"80":-0.05796318128705025,"81":0.08277798444032669,"82":0.16432172060012817,"83":-0.103928342461586,"84":-0.009396577253937721,"85":0.1833929717540741,"86":0.1716938018798828,"87":0.12099397927522659,"88":-0.27677470445632935,"89":-0.13772524893283844,"90":-0.004643861670047045,"91":-0.182698056101799,"92":0.1715429127216339,"93":0.0796474814414978,"94":-0.03965621441602707,"95":0.0015170046826824546,"96":-0.15067701041698456,"97":-0.05053221061825752,"98":0.10310839861631393,"99":-0.030201435089111328}},"27":{"bias":0.2868853509426117,"weights":{"0":0.1543615162372589,"1":0.19081032276153564,"2":-0.041403304785490036,"3":-0.011144880205392838,"4":-0.08635172247886658,"5":-0.18447576463222504,"6":0.08778539299964905,"7":0.021726982668042183,"8":0.04421726614236832,"9":-0.1400146484375,"10":0.07073263078927994,"11":-0.0667482241988182,"12":-0.27694475650787354,"13":0.08569734543561935,"14":0.07588870823383331,"15":-0.16201238334178925,"16":-0.17359617352485657,"17":-0.18009859323501587,"18":0.05884646251797676,"19":-0.10296550393104553,"20":-0.02376718446612358,"21":-0.028177868574857712,"22":-0.33398449420928955,"23":-0.06039654463529587,"24":0.033043939620256424,"25":0.05723513290286064,"26":0.002907860791310668,"27":-0.1279628425836563,"28":-0.0716363713145256,"29":-0.027217477560043335,"30":0.05894928798079491,"31":0.10286537557840347,"32":-0.19662639498710632,"33":-0.01774616353213787,"34":-0.3616485595703125,"35":-0.3368861973285675,"36":-0.07652129977941513,"37":0.001115228165872395,"38":-0.004422690253704786,"39":0.07896734774112701,"40":0.1314767599105835,"41":0.30744779109954834,"42":0.010172097012400627,"43":-0.23279759287834167,"44":-0.23087988793849945,"45":-0.08013034611940384,"46":-0.20505380630493164,"47":0.16852253675460815,"48":-0.23915281891822815,"49":0.015749217942357063,"50":-0.020235195755958557,"51":-0.030122118070721626,"52":-0.33609291911125183,"53":-0.32011017203330994,"54":-0.18383435904979706,"55":-0.4222160875797272,"56":-0.4330410063266754,"57":0.10284717381000519,"58":0.19138948619365692,"59":-0.20134539902210236,"60":-0.2594507932662964,"61":-0.08610513061285019,"62":-0.14942604303359985,"63":-0.12749576568603516,"64":0.026420293375849724,"65":-0.11200109869241714,"66":-0.2506050765514374,"67":-0.1123420000076294,"68":-0.21533039212226868,"69":-0.11661070585250854,"70":0.01862506940960884,"71":-0.03174116834998131,"72":-0.3786188066005707,"73":-0.4596971571445465,"74":0.005304671358317137,"75":-0.04804317653179169,"76":-0.11980018764734268,"77":-0.08537755161523819,"78":-0.3411206603050232,"79":-0.15765877068042755,"80":0.08401862531900406,"81":-0.10749614983797073,"82":-0.12673091888427734,"83":-0.20028872787952423,"84":0.12186610698699951,"85":0.04232398793101311,"86":-0.046450939029455185,"87":0.050996776670217514,"88":0.019416430965065956,"89":0.24354006350040436,"90":-0.18809348344802856,"91":0.1410788595676422,"92":0.1488279104232788,"93":-0.08553618937730789,"94":0.09243886172771454,"95":0.012219441123306751,"96":-0.12462799996137619,"97":-0.10113416612148285,"98":-0.050691623240709305,"99":0.054987501353025436}},"28":{"bias":0.31916773319244385,"weights":{"0":0.028009286150336266,"1":-0.049034103751182556,"2":-0.050394099205732346,"3":-0.16240999102592468,"4":0.08681897073984146,"5":-0.12809817492961884,"6":-0.0011586702894419432,"7":0.08374636620283127,"8":0.12354783713817596,"9":0.1643240600824356,"10":-0.1442103534936905,"11":-0.006307128816843033,"12":0.0943005308508873,"13":-0.1264183521270752,"14":0.042512282729148865,"15":0.028444698080420494,"16":-0.23548607528209686,"17":0.025944309309124947,"18":-0.008152888156473637,"19":0.10326787084341049,"20":0.14679135382175446,"21":0.1172785758972168,"22":-0.3222702145576477,"23":-0.2544091045856476,"24":-0.05857500061392784,"25":-0.12918169796466827,"26":-0.0007857397431507707,"27":-0.4053570032119751,"28":-0.1361398994922638,"29":0.03390743210911751,"30":0.08758779615163803,"31":0.08412829041481018,"32":-0.13681071996688843,"33":-0.044417910277843475,"34":-0.14961406588554382,"35":-0.3648470640182495,"36":-0.1660807579755783,"37":-0.3086658716201782,"38":0.1390535682439804,"39":-0.15909278392791748,"40":0.19261948764324188,"41":-0.09533058106899261,"42":0.05082766339182854,"43":-0.286607950925827,"44":0.010628964751958847,"45":-0.24256184697151184,"46":-0.23255114257335663,"47":-0.10785116255283356,"48":-0.0855194628238678,"49":-0.11548355966806412,"50":0.18510597944259644,"51":0.1180834099650383,"52":-0.0592653751373291,"53":-0.2469945102930069,"54":-0.14819271862506866,"55":-0.17275306582450867,"56":-0.178179532289505,"57":0.1761666089296341,"58":0.15176238119602203,"59":-0.06521119177341461,"60":-0.18887637555599213,"61":0.03548280522227287,"62":-0.30407601594924927,"63":-0.17635995149612427,"64":-0.1858024299144745,"65":-0.12191255390644073,"66":0.023198965936899185,"67":0.013631708920001984,"68":0.13421973586082458,"69":-0.13426350057125092,"70":-0.1361938714981079,"71":-0.12663589417934418,"72":0.11741381138563156,"73":-0.15337054431438446,"74":0.07496435940265656,"75":-0.14388208091259003,"76":-0.11041152477264404,"77":-0.012437342666089535,"78":0.07360069453716278,"79":0.06780395656824112,"80":-0.19544650614261627,"81":0.07086291164159775,"82":-0.15479648113250732,"83":0.026899654418230057,"84":-0.06198236346244812,"85":-0.18586450815200806,"86":-0.2719477117061615,"87":0.05293858423829079,"88":-0.002138532930985093,"89":0.1105363517999649,"90":-0.055060964077711105,"91":0.02092347852885723,"92":-0.08431761711835861,"93":0.1536983996629715,"94":-0.16755318641662598,"95":-0.07510318607091904,"96":0.006857461296021938,"97":0.0015426614554598927,"98":-0.16122418642044067,"99":0.08569560199975967}},"29":{"bias":-0.15593963861465454,"weights":{"0":0.029233412817120552,"1":0.09297014027833939,"2":-0.07962063699960709,"3":0.040917299687862396,"4":0.013780571520328522,"5":-0.13507315516471863,"6":0.14679132401943207,"7":-0.16789573431015015,"8":0.02411200851202011,"9":0.11898280680179596,"10":0.12394408881664276,"11":0.03745648264884949,"12":0.15896372497081757,"13":0.12234705686569214,"14":0.047002024948596954,"15":0.14736054837703705,"16":0.2773415446281433,"17":-0.08405470103025436,"18":-0.14956538379192352,"19":0.08316773921251297,"20":-0.01955411769449711,"21":-0.12455885112285614,"22":-0.12187395989894867,"23":-0.05809568241238594,"24":-0.16040636599063873,"25":0.07722238451242447,"26":-0.25081172585487366,"27":-0.06038743257522583,"28":0.18054690957069397,"29":-0.10198626667261124,"30":0.09806612133979797,"31":-0.35742607712745667,"32":-0.26100271940231323,"33":0.351709246635437,"34":-0.05903716757893562,"35":0.1627560406923294,"36":0.061126459389925,"37":-0.06790906935930252,"38":-0.3506837487220764,"39":-0.07428066432476044,"40":0.046328719705343246,"41":-0.26639628410339355,"42":0.33031171560287476,"43":0.07883425056934357,"44":-0.03557482361793518,"45":0.3012087643146515,"46":0.18559251725673676,"47":-0.22496920824050903,"48":0.14076098799705505,"49":-0.08260642737150192,"50":-0.12641485035419464,"51":-0.03205953538417816,"52":0.10210587084293365,"53":0.19663426280021667,"54":-0.12935659289360046,"55":-0.03372465819120407,"56":0.009338414296507835,"57":-0.2261049896478653,"58":-0.03667502477765083,"59":0.18681035935878754,"60":0.2468699812889099,"61":-0.16086964309215546,"62":0.2577948272228241,"63":0.22709794342517853,"64":-0.12205194681882858,"65":0.12096607685089111,"66":0.0074101104401052,"67":0.29313376545906067,"68":0.14876912534236908,"69":0.31739094853401184,"70":0.12628775835037231,"71":0.17162303626537323,"72":0.40598931908607483,"73":0.3823990523815155,"74":0.1067991852760315,"75":0.31187134981155396,"76":0.12980397045612335,"77":-0.022661037743091583,"78":0.04334225133061409,"79":0.2836260199546814,"80":-0.1517646312713623,"81":-0.11790921539068222,"82":0.21946963667869568,"83":0.1278040111064911,"84":0.05508928745985031,"85":0.19685402512550354,"86":0.11080072075128555,"87":-0.05025675147771835,"88":0.10408402979373932,"89":-0.20608070492744446,"90":0.1956685483455658,"91":0.08768946677446365,"92":-0.15957774221897125,"93":-0.006978752091526985,"94":0.15174737572669983,"95":-0.14321883022785187,"96":0.13452740013599396,"97":0.021908706054091454,"98":0.11157270520925522,"99":-0.07909059524536133}},"30":{"bias":0.13393253087997437,"weights":{"0":-0.07883607596158981,"1":0.19985732436180115,"2":-0.17497126758098602,"3":-0.037174712866544724,"4":0.10910075157880783,"5":-0.15283924341201782,"6":-0.010623925365507603,"7":-0.1434720903635025,"8":0.11591507494449615,"9":0.05358118936419487,"10":-0.020743440836668015,"11":0.14282633364200592,"12":-0.24763819575309753,"13":-0.0867147371172905,"14":-0.10945045948028564,"15":0.04687551409006119,"16":0.026107266545295715,"17":-0.20611916482448578,"18":-0.20700237154960632,"19":-0.0484716035425663,"20":0.10211329162120819,"21":0.2502724230289459,"22":-0.2246277779340744,"23":-0.09613816440105438,"24":-0.06801590323448181,"25":-0.23371537029743195,"26":-0.08200649172067642,"27":0.07257447391748428,"28":0.053098905831575394,"29":0.12079743295907974,"30":0.031196998432278633,"31":0.17258794605731964,"32":0.2987426221370697,"33":-0.133616104722023,"34":0.06228649243712425,"35":0.06039600074291229,"36":-0.10281939804553986,"37":-0.16172705590724945,"38":0.02956356108188629,"39":-0.07863499224185944,"40":-0.165065199136734,"41":0.17456896603107452,"42":-0.2545444071292877,"43":-0.2968568205833435,"44":-0.09707706421613693,"45":-0.2946275770664215,"46":-0.3239177465438843,"47":0.14646166563034058,"48":0.04448540136218071,"49":0.1439451277256012,"50":0.1726529598236084,"51":-0.200441375374794,"52":-0.22188758850097656,"53":-0.14113543927669525,"54":-0.11802949011325836,"55":-0.28452131152153015,"56":-0.10338129103183746,"57":-0.12320777028799057,"58":-0.04927188903093338,"59":0.14019893109798431,"60":-0.26216045022010803,"61":0.36699217557907104,"62":-0.13184687495231628,"63":0.09215319901704788,"64":-0.05466596037149429,"65":0.0657111331820488,"66":0.020458541810512543,"67":0.020607158541679382,"68":-0.3062624931335449,"69":-0.2768934965133667,"70":0.13076898455619812,"71":0.0467044897377491,"72":-0.06017698720097542,"73":-0.18792545795440674,"74":-0.13765181601047516,"75":0.0389249287545681,"76":-0.14228135347366333,"77":-0.2049257904291153,"78":-0.26262688636779785,"79":0.020455433055758476,"80":0.03053559735417366,"81":-0.0864386186003685,"82":-0.017705418169498444,"83":-0.07145429402589798,"84":0.02418595179915428,"85":-0.1099473088979721,"86":-0.1256241500377655,"87":-0.18922781944274902,"88":0.07261469960212708,"89":-0.011334461160004139,"90":-0.08190076798200607,"91":0.0785265564918518,"92":-0.2101355344057083,"93":-0.1312398910522461,"94":0.01780387945473194,"95":0.17740166187286377,"96":-0.081418476998806,"97":-0.07778865098953247,"98":0.1180841252207756,"99":0.195623517036438}},"31":{"bias":-0.13535383343696594,"weights":{"0":-0.06097002699971199,"1":0.19723422825336456,"2":0.11995167285203934,"3":0.14908377826213837,"4":0.06410861760377884,"5":-0.10460507869720459,"6":0.13692623376846313,"7":0.056382518261671066,"8":-0.06963159888982773,"9":0.01768338680267334,"10":-0.10865170508623123,"11":0.09229327738285065,"12":0.04028458520770073,"13":0.48291078209877014,"14":0.5591393113136292,"15":0.6679562330245972,"16":0.3894058167934418,"17":-0.006028374657034874,"18":-0.04213468357920647,"19":0.10088948160409927,"20":-0.062258072197437286,"21":-0.25195515155792236,"22":-0.10460444539785385,"23":-0.17955902218818665,"24":0.15529334545135498,"25":-0.025168078020215034,"26":0.06918668001890182,"27":0.21406550705432892,"28":-0.28297674655914307,"29":-0.12996621429920197,"30":0.22729060053825378,"31":-0.08345136046409607,"32":-0.2755415737628937,"33":0.6469500064849854,"34":-0.17146018147468567,"35":0.044414471834897995,"36":0.41452786326408386,"37":0.07060910761356354,"38":-0.527471661567688,"39":0.10103587061166763,"40":0.03339384123682976,"41":-0.20801511406898499,"42":-0.3962084650993347,"43":0.09430839121341705,"44":0.08885621279478073,"45":0.5631289482116699,"46":0.3084191679954529,"47":-0.09804130345582962,"48":-0.12261374294757843,"49":0.4578280448913574,"50":-0.27939924597740173,"51":0.100333571434021,"52":-0.3204624056816101,"53":0.011828459799289703,"54":-0.04719792306423187,"55":-0.1129145622253418,"56":-0.0116726728156209,"57":-0.5247257947921753,"58":-0.30122897028923035,"59":-0.0865754634141922,"60":-0.4535028040409088,"61":-0.7637973427772522,"62":0.5465355515480042,"63":0.05210310220718384,"64":-0.03516896441578865,"65":-0.252697616815567,"66":-0.1436755210161209,"67":0.18356773257255554,"68":-0.23744045197963715,"69":0.10999690741300583,"70":-0.0670991986989975,"71":-0.41318923234939575,"72":0.33738747239112854,"73":0.21244537830352783,"74":0.16760510206222534,"75":0.27811959385871887,"76":0.22898006439208984,"77":0.11638907343149185,"78":0.05867643654346466,"79":-0.5060277581214905,"80":-0.17342983186244965,"81":-0.11063028126955032,"82":0.0553128682076931,"83":0.4409870207309723,"84":0.15357717871665955,"85":0.34070414304733276,"86":0.17112252116203308,"87":0.25640982389450073,"88":-0.024256760254502296,"89":0.1295263171195984,"90":0.1468150019645691,"91":0.15432949364185333,"92":-0.05407891049981117,"93":-0.018471604213118553,"94":0.02796482853591442,"95":-0.13619980216026306,"96":0.2296178638935089,"97":0.17441903054714203,"98":-0.01044265367090702,"99":-0.11555641144514084}},"32":{"bias":-0.6281808614730835,"weights":{"0":-0.15174953639507294,"1":0.17850808799266815,"2":0.09124226123094559,"3":0.08176068961620331,"4":-0.19696660339832306,"5":-0.059939101338386536,"6":-0.15432988107204437,"7":-0.0637616291642189,"8":0.03130437806248665,"9":0.07696507126092911,"10":-0.17683696746826172,"11":0.15466918051242828,"12":0.2977500259876251,"13":0.10167442262172699,"14":0.13147081434726715,"15":0.20501181483268738,"16":0.009257124736905098,"17":-0.1302991360425949,"18":0.015581205487251282,"19":-0.1786760538816452,"20":-0.2527397572994232,"21":-0.22325274348258972,"22":-0.011303041130304337,"23":0.10960478335618973,"24":0.1131841167807579,"25":-0.11522308737039566,"26":-0.243614062666893,"27":-0.1545402556657791,"28":0.2005135715007782,"29":0.20989982783794403,"30":0.08214592933654785,"31":-0.15920160710811615,"32":0.23608078062534332,"33":0.3131771385669708,"34":0.3416377902030945,"35":0.3363972008228302,"36":0.10767973214387894,"37":0.09184910356998444,"38":0.06183873862028122,"39":0.05555886775255203,"40":-0.02277454175055027,"41":-0.08209741860628128,"42":0.276445209980011,"43":-0.20259764790534973,"44":-0.04770531877875328,"45":-0.10438404977321625,"46":-0.1951379030942917,"47":0.2616969048976898,"48":0.46966567635536194,"49":0.10053925216197968,"50":0.004975894931703806,"51":0.09378573298454285,"52":0.41682732105255127,"53":0.215488463640213,"54":0.2370106279850006,"55":0.3644878566265106,"56":0.2174193412065506,"57":0.2840527296066284,"58":0.13383817672729492,"59":0.058341529220342636,"60":0.4440622627735138,"61":-0.016117002815008163,"62":-0.023880066350102425,"63":-0.04570871964097023,"64":0.02758200280368328,"65":0.18750934302806854,"66":-0.04122326523065567,"67":0.22426064312458038,"68":0.21866360306739807,"69":0.2470695972442627,"70":0.16212081909179688,"71":0.31012794375419617,"72":0.16313445568084717,"73":0.09646382927894592,"74":0.2280188798904419,"75":0.23478782176971436,"76":-0.045266199856996536,"77":0.12476268410682678,"78":0.5247466564178467,"79":0.4459792375564575,"80":-0.10662055015563965,"81":0.10700777173042297,"82":0.058371834456920624,"83":-0.15355053544044495,"84":-0.0031115550082176924,"85":0.03406203165650368,"86":-0.1674439013004303,"87":-0.06846997886896133,"88":-0.13533534109592438,"89":-0.2524389326572418,"90":-0.05861883983016014,"91":-0.09327828139066696,"92":-0.01026536151766777,"93":-0.001519033219665289,"94":0.022186415269970894,"95":-0.09010124951601028,"96":-0.09223372489213943,"97":-0.011626061052083969,"98":0.19583068788051605,"99":0.18246395885944366}},"33":{"bias":-0.021161574870347977,"weights":{"0":0.19387459754943848,"1":0.01913296990096569,"2":-0.06739424914121628,"3":0.11097288131713867,"4":-0.11664058268070221,"5":0.013584570027887821,"6":-0.14484161138534546,"7":0.13895276188850403,"8":0.13426557183265686,"9":0.13818082213401794,"10":-0.14330226182937622,"11":-0.04558689519762993,"12":0.11563845723867416,"13":-0.10039054602384567,"14":-0.20138607919216156,"15":-0.08409561961889267,"16":-0.08161946386098862,"17":-0.19290463626384735,"18":-0.02422224171459675,"19":-0.11041806638240814,"20":0.19042812287807465,"21":-0.09687907993793488,"22":0.011021117679774761,"23":0.11309029161930084,"24":0.05139867216348648,"25":-0.10942481458187103,"26":-0.05972515791654587,"27":-0.13986246287822723,"28":0.0273281317204237,"29":-0.005782329943031073,"30":-0.16190628707408905,"31":-0.09285654872655869,"32":0.14767268300056458,"33":-0.194898322224617,"34":-0.02974606864154339,"35":0.07735703885555267,"36":-0.22514799237251282,"37":0.18544653058052063,"38":0.21226738393306732,"39":-0.05420544371008873,"40":-0.03891538083553314,"41":0.18795600533485413,"42":-0.05639158561825752,"43":-0.44818639755249023,"44":-0.2753077745437622,"45":-0.4515509009361267,"46":0.09948549419641495,"47":0.21456091105937958,"48":-0.10823247581720352,"49":0.09655767679214478,"50":-0.1434747725725174,"51":0.14401988685131073,"52":0.24050872027873993,"53":-0.08850321173667908,"54":-0.07404389977455139,"55":-0.17246578633785248,"56":-0.15476396679878235,"57":0.28006914258003235,"58":-0.13396970927715302,"59":-0.15090268850326538,"60":-0.14778228104114532,"61":0.2551766633987427,"62":-0.19569234549999237,"63":0.11983990669250488,"64":-0.020186327397823334,"65":0.12649597227573395,"66":-0.16666194796562195,"67":-0.30553194880485535,"68":0.0938073918223381,"69":-0.01675565168261528,"70":0.15511302649974823,"71":0.15708552300930023,"72":-0.29600808024406433,"73":-0.27351608872413635,"74":-0.24637660384178162,"75":-0.12365622818470001,"76":-0.23317231237888336,"77":-0.012803254649043083,"78":0.05793730914592743,"79":0.05503537505865097,"80":-0.004259203560650349,"81":-0.19808362424373627,"82":-0.023446863517165184,"83":-0.1628510057926178,"84":0.036351997405290604,"85":-0.07008203864097595,"86":-0.2858162820339203,"87":-0.014617253094911575,"88":-0.0034266049042344093,"89":0.16897554695606232,"90":-0.08853143453598022,"91":-0.036822594702243805,"92":-0.02664729580283165,"93":0.08568425476551056,"94":0.018599962815642357,"95":0.15617579221725464,"96":0.028713783249258995,"97":0.10393630713224411,"98":-0.17721767723560333,"99":-0.0190623439848423}},"34":{"bias":0.0007003323989920318,"weights":{"0":0.13996650278568268,"1":-0.17443808913230896,"2":0.0029392819851636887,"3":-0.13130062818527222,"4":-0.1944611817598343,"5":-0.13340598344802856,"6":0.10762599110603333,"7":0.13213033974170685,"8":0.195014089345932,"9":-0.04218360409140587,"10":0.21105314791202545,"11":0.12163861095905304,"12":-0.052274905145168304,"13":-0.06319078058004379,"14":-0.09946728497743607,"15":-0.2295580953359604,"16":-0.04511331766843796,"17":-0.2085752636194229,"18":0.015461863949894905,"19":0.15619339048862457,"20":0.1422928273677826,"21":0.07714563608169556,"22":-0.104023277759552,"23":-0.22497177124023438,"24":-0.27197736501693726,"25":-0.24932967126369476,"26":-0.10918806493282318,"27":-0.21429909765720367,"28":-0.2246934473514557,"29":-0.11930054426193237,"30":0.19081349670886993,"31":0.04139608517289162,"32":0.012915887869894505,"33":-0.06903761625289917,"34":-0.016689272597432137,"35":-0.12871487438678741,"36":-0.3498130440711975,"37":-0.18498873710632324,"38":0.00926173385232687,"39":-0.12216529250144958,"40":0.1620471179485321,"41":-0.10792472958564758,"42":0.00806501042097807,"43":0.05455080047249794,"44":-0.19428683817386627,"45":-0.045264601707458496,"46":-0.33757689595222473,"47":0.19154879450798035,"48":-0.042530499398708344,"49":-0.19950518012046814,"50":-0.07452503591775894,"51":0.03644799813628197,"52":0.08016771823167801,"53":-0.030346903949975967,"54":-0.18976113200187683,"55":-0.16969428956508636,"56":-0.27981001138687134,"57":-0.14494498074054718,"58":0.19387546181678772,"59":0.03978310525417328,"60":-0.09542831778526306,"61":0.010649355128407478,"62":-0.386374294757843,"63":-0.2869719862937927,"64":0.04127015173435211,"65":0.018740162253379822,"66":-0.12472932040691376,"67":0.0415860116481781,"68":0.04900297895073891,"69":-0.12843292951583862,"70":0.058099690824747086,"71":0.0102663803845644,"72":0.1750291883945465,"73":-0.0718211755156517,"74":-0.016830235719680786,"75":0.008472259156405926,"76":-0.021379468962550163,"77":0.18716886639595032,"78":0.13602273166179657,"79":-0.013559028506278992,"80":0.19838672876358032,"81":0.04144953191280365,"82":-0.16172531247138977,"83":-0.2563919723033905,"84":-0.22811155021190643,"85":-0.03585219755768776,"86":-0.07065640389919281,"87":0.02637556754052639,"88":-0.08730890601873398,"89":-0.14151893556118011,"90":0.19069266319274902,"91":0.09420201182365417,"92":-0.13684909045696259,"93":-0.12911753356456757,"94":0.06498374044895172,"95":-0.21396689116954803,"96":0.10048068314790726,"97":0.11518173664808273,"98":-0.09604153782129288,"99":0.09770873188972473}},"35":{"bias":-0.12100914865732193,"weights":{"0":0.01617381162941456,"1":-0.185945063829422,"2":-0.07449456304311752,"3":-0.18646672368049622,"4":-0.06489613652229309,"5":0.026913559064269066,"6":0.04946897551417351,"7":0.12403275072574615,"8":0.06213385984301567,"9":0.15120825171470642,"10":0.10228319466114044,"11":0.09011626988649368,"12":0.07802067697048187,"13":-0.12488431483507156,"14":-0.4072595536708832,"15":-0.30512723326683044,"16":-0.09926720708608627,"17":0.019006626680493355,"18":-0.10668063163757324,"19":-0.17246605455875397,"20":-0.220113605260849,"21":0.16032691299915314,"22":0.0071090152487158775,"23":-0.014280215837061405,"24":-0.12474516034126282,"25":-0.1306486278772354,"26":-0.045009054243564606,"27":-0.42956194281578064,"28":0.14367227256298065,"29":0.07840029895305634,"30":-0.04931367561221123,"31":-0.06059396639466286,"32":0.26933613419532776,"33":-0.6309906244277954,"34":0.41606444120407104,"35":-0.053932297974824905,"36":-0.560403048992157,"37":-0.018200378865003586,"38":0.5039064288139343,"39":0.0828183963894844,"40":0.05021868646144867,"41":-0.05654067546129227,"42":0.1566593050956726,"43":-0.3641612231731415,"44":-0.031874556094408035,"45":-0.7271867394447327,"46":0.00820382870733738,"47":0.0022635445930063725,"48":0.1187279224395752,"49":-0.12283551692962646,"50":0.032500263303518295,"51":0.03631215542554855,"52":0.5546229481697083,"53":-0.05814967676997185,"54":0.1609499752521515,"55":0.09521827101707458,"56":-0.03622490167617798,"57":0.32217875123023987,"58":0.179153710603714,"59":0.16137389838695526,"60":0.26441067457199097,"61":0.8036407828330994,"62":-0.2903388738632202,"63":0.2664321959018707,"64":0.46117404103279114,"65":0.21558062732219696,"66":0.21617934107780457,"67":0.14034011960029602,"68":0.49395525455474854,"69":-0.11558219790458679,"70":0.05537394806742668,"71":0.06788384169340134,"72":-0.21550410985946655,"73":-0.18944266438484192,"74":0.008612078614532948,"75":-0.244188591837883,"76":-0.2599084675312042,"77":-0.09320936352014542,"78":0.20691876113414764,"79":0.3236810863018036,"80":-0.04698748141527176,"81":0.15033133327960968,"82":-0.15394383668899536,"83":-0.39978158473968506,"84":-0.07389166206121445,"85":-0.2982325255870819,"86":-0.357316255569458,"87":-0.3436238765716553,"88":-0.23758655786514282,"89":0.0184728242456913,"90":0.10826946794986725,"91":0.019999660551548004,"92":0.15835505723953247,"93":-0.22551241517066956,"94":0.14080069959163666,"95":-0.03348410129547119,"96":-0.1016121655702591,"97":0.06792419403791428,"98":-0.016725029796361923,"99":-0.05433628708124161}},"36":{"bias":0.14288373291492462,"weights":{"0":0.15973782539367676,"1":0.0028576389886438847,"2":-0.13762620091438293,"3":0.10325029492378235,"4":0.029384184628725052,"5":-0.1057688519358635,"6":-0.03118654526770115,"7":-0.07426933199167252,"8":-0.1911776065826416,"9":0.15112847089767456,"10":-0.10793255269527435,"11":0.09982845932245255,"12":-0.0009510639356449246,"13":-0.007918264716863632,"14":-0.0018976667197421193,"15":-0.20265889167785645,"16":0.06609801948070526,"17":-0.10237675160169601,"18":-0.129203662276268,"19":-0.16326381266117096,"20":0.0858541950583458,"21":0.20394885540008545,"22":-0.25395718216896057,"23":-0.1395474672317505,"24":0.030626969411969185,"25":-0.0906321331858635,"26":-0.15502265095710754,"27":-0.25490260124206543,"28":0.03725042566657066,"29":-0.18729445338249207,"30":0.16216732561588287,"31":0.1023690328001976,"32":-0.13692134618759155,"33":0.039930813014507294,"34":-0.3492596745491028,"35":-0.13365556299686432,"36":-0.11889902502298355,"37":-0.018488718196749687,"38":-0.08841113746166229,"39":0.10672970116138458,"40":0.011630692519247532,"41":-0.05875551328063011,"42":-0.23523972928524017,"43":-0.17794840037822723,"44":-0.16888298094272614,"45":-0.25959470868110657,"46":-0.08673937618732452,"47":0.01486286986619234,"48":-0.15313217043876648,"49":0.18183675408363342,"50":0.08307382464408875,"51":-0.009266526438295841,"52":-0.3405022919178009,"53":-0.14759887754917145,"54":-0.09288910031318665,"55":-0.40140363574028015,"56":-0.30836862325668335,"57":0.009221449494361877,"58":-0.17327696084976196,"59":-0.13823221623897552,"60":0.01710626669228077,"61":-0.07618597894906998,"62":0.09270141273736954,"63":-0.21355147659778595,"64":-0.10651873052120209,"65":-0.1850000023841858,"66":-0.023561175912618637,"67":0.07062015682458878,"68":-0.13753078877925873,"69":-0.34418147802352905,"70":0.050757504999637604,"71":0.014498231001198292,"72":-0.08371385186910629,"73":-0.045643776655197144,"74":-0.156188502907753,"75":-0.22791551053524017,"76":0.08622526377439499,"77":-0.09396262466907501,"78":-0.35122936964035034,"79":-0.15228193998336792,"80":-0.16252808272838593,"81":-0.05583403259515762,"82":0.009950428269803524,"83":0.00036175211425870657,"84":0.08439217507839203,"85":-0.09059657901525497,"86":-0.15820638835430145,"87":-0.11075016111135483,"88":0.2181008905172348,"89":0.21880747377872467,"90":0.08923090994358063,"91":-0.13554969429969788,"92":-0.13229119777679443,"93":-0.13201597332954407,"94":0.021774953231215477,"95":0.0794994980096817,"96":0.1578161120414734,"97":-0.04472194239497185,"98":-0.1952359974384308,"99":-0.02961481548845768}},"37":{"bias":-0.20104849338531494,"weights":{"0":0.007366137579083443,"1":0.14096218347549438,"2":0.0030351257883012295,"3":-0.05022023990750313,"4":0.11331579089164734,"5":-0.12905241549015045,"6":0.13325048983097076,"7":0.17182980477809906,"8":0.010889085941016674,"9":0.09791173040866852,"10":0.14766712486743927,"11":-0.002486984943971038,"12":0.23904362320899963,"13":-0.13673125207424164,"14":-0.11624693125486374,"15":-0.11920440942049026,"16":-0.2813419699668884,"17":-0.14778773486614227,"18":-0.01593771204352379,"19":-0.08466057479381561,"20":0.07636262476444244,"21":0.06182831898331642,"22":-0.15250113606452942,"23":-0.1544237732887268,"24":-0.26203709840774536,"25":-0.3980609178543091,"26":-0.3957519233226776,"27":-0.2624775171279907,"28":0.1200542151927948,"29":-0.014520294964313507,"30":0.03904274106025696,"31":0.14455144107341766,"32":-0.19211192429065704,"33":-0.20246165990829468,"34":-0.03280733525753021,"35":0.016865260899066925,"36":-0.8119087815284729,"37":-0.584716260433197,"38":-0.01081053912639618,"39":0.06172427162528038,"40":0.19977743923664093,"41":-0.0753975510597229,"42":0.1379222422838211,"43":-0.2380632758140564,"44":0.16558606922626495,"45":-0.32188063859939575,"46":-0.3616349995136261,"47":0.20294775068759918,"48":0.3897852301597595,"49":-0.32438787817955017,"50":0.229212686419487,"51":-0.029129289090633392,"52":0.24842283129692078,"53":-0.35167640447616577,"54":-0.2541414201259613,"55":-0.43766194581985474,"56":-0.3043941557407379,"57":-0.035489749163389206,"58":-0.012829698622226715,"59":0.006930830422788858,"60":0.026326432824134827,"61":-0.09733935445547104,"62":-0.5403233170509338,"63":-0.32938849925994873,"64":-0.20186711847782135,"65":-0.11724657565355301,"66":-0.4532976448535919,"67":0.12362153083086014,"68":0.4741773307323456,"69":0.09735489636659622,"70":-0.04327224940061569,"71":0.3939859867095947,"72":0.2395319789648056,"73":0.17474237084388733,"74":0.2873680591583252,"75":0.32141727209091187,"76":0.09201022982597351,"77":0.37971946597099304,"78":0.3832548260688782,"79":0.49198195338249207,"80":0.03820820152759552,"81":-0.19665758311748505,"82":-0.2654402554035187,"83":-0.23008768260478973,"84":-0.05698472261428833,"85":-0.1977156549692154,"86":-0.05871360003948212,"87":-0.16668245196342468,"88":0.11642134189605713,"89":-0.20571674406528473,"90":0.167270690202713,"91":0.1612398773431778,"92":-0.0812724232673645,"93":-0.21531423926353455,"94":-0.03291604295372963,"95":0.14050908386707306,"96":-0.17575359344482422,"97":-0.009914031252264977,"98":-0.17152872681617737,"99":0.13131624460220337}},"38":{"bias":-0.1060388907790184,"weights":{"0":-0.07813675701618195,"1":-0.08791092783212662,"2":-0.10964268445968628,"3":-0.11082466691732407,"4":0.12145806103944778,"5":-0.1758366823196411,"6":0.1502852737903595,"7":-0.07201888412237167,"8":0.18812739849090576,"9":-0.02483278326690197,"10":0.0004369845846667886,"11":0.06930731981992722,"12":0.20716793835163116,"13":-0.25320351123809814,"14":-0.19671735167503357,"15":-0.2858394682407379,"16":-0.28592124581336975,"17":0.07117484509944916,"18":-0.18010446429252625,"19":-0.05595526844263077,"20":-0.028175776824355125,"21":-0.1276252567768097,"22":-0.20376043021678925,"23":-0.2980816066265106,"24":-0.11525171250104904,"25":-0.4277541935443878,"26":-0.4501493275165558,"27":-0.3142942190170288,"28":-0.07321558147668839,"29":0.17328280210494995,"30":-0.24198031425476074,"31":0.1269025057554245,"32":-0.11518003791570663,"33":-0.04819023981690407,"34":0.1688055843114853,"35":-0.17903348803520203,"36":-0.43137985467910767,"37":-0.2607394754886627,"38":-0.24722513556480408,