{"model":{"sizes":[400,200,5],"layers":[{"0":{},"1":{},"2":{},"3":{},"4":{},"5":{},"6":{},"7":{},"8":{},"9":{},"10":{},"11":{},"12":{},"13":{},"14":{},"15":{},"16":{},"17":{},"18":{},"19":{},"20":{},"21":{},"22":{},"23":{},"24":{},"25":{},"26":{},"27":{},"28":{},"29":{},"30":{},"31":{},"32":{},"33":{},"34":{},"35":{},"36":{},"37":{},"38":{},"39":{},"40":{},"41":{},"42":{},"43":{},"44":{},"45":{},"46":{},"47":{},"48":{},"49":{},"50":{},"51":{},"52":{},"53":{},"54":{},"55":{},"56":{},"57":{},"58":{},"59":{},"60":{},"61":{},"62":{},"63":{},"64":{},"65":{},"66":{},"67":{},"68":{},"69":{},"70":{},"71":{},"72":{},"73":{},"74":{},"75":{},"76":{},"77":{},"78":{},"79":{},"80":{},"81":{},"82":{},"83":{},"84":{},"85":{},"86":{},"87":{},"88":{},"89":{},"90":{},"91":{},"92":{},"93":{},"94":{},"95":{},"96":{},"97":{},"98":{},"99":{},"100":{},"101":{},"102":{},"103":{},"104":{},"105":{},"106":{},"107":{},"108":{},"109":{},"110":{},"111":{},"112":{},"113":{},"114":{},"115":{},"116":{},"117":{},"118":{},"119":{},"120":{},"121":{},"122":{},"123":{},"124":{},"125":{},"126":{},"127":{},"128":{},"129":{},"130":{},"131":{},"132":{},"133":{},"134":{},"135":{},"136":{},"137":{},"138":{},"139":{},"140":{},"141":{},"142":{},"143":{},"144":{},"145":{},"146":{},"147":{},"148":{},"149":{},"150":{},"151":{},"152":{},"153":{},"154":{},"155":{},"156":{},"157":{},"158":{},"159":{},"160":{},"161":{},"162":{},"163":{},"164":{},"165":{},"166":{},"167":{},"168":{},"169":{},"170":{},"171":{},"172":{},"173":{},"174":{},"175":{},"176":{},"177":{},"178":{},"179":{},"180":{},"181":{},"182":{},"183":{},"184":{},"185":{},"186":{},"187":{},"188":{},"189":{},"190":{},"191":{},"192":{},"193":{},"194":{},"195":{},"196":{},"197":{},"198":{},"199":{},"200":{},"201":{},"202":{},"203":{},"204":{},"205":{},"206":{},"207":{},"208":{},"209":{},"210":{},"211":{},"212":{},"213":{},"214":{},"215":{},"216":{},"217":{},"218":{},"219":{},"220":{},"221":{},"222":{},"223":{},"224":{},"225":{},"226":{},"227":{},"228":{},"229":{},"230":{},"231":{},"232":{},"233":{},"234":{},"235":{},"236":{},"237":{},"238":{},"239":{},"240":{},"241":{},"242":{},"243":{},"244":{},"245":{},"246":{},"247":{},"248":{},"249":{},"250":{},"251":{},"252":{},"253":{},"254":{},"255":{},"256":{},"257":{},"258":{},"259":{},"260":{},"261":{},"262":{},"263":{},"264":{},"265":{},"266":{},"267":{},"268":{},"269":{},"270":{},"271":{},"272":{},"273":{},"274":{},"275":{},"276":{},"277":{},"278":{},"279":{},"280":{},"281":{},"282":{},"283":{},"284":{},"285":{},"286":{},"287":{},"288":{},"289":{},"290":{},"291":{},"292":{},"293":{},"294":{},"295":{},"296":{},"297":{},"298":{},"299":{},"300":{},"301":{},"302":{},"303":{},"304":{},"305":{},"306":{},"307":{},"308":{},"309":{},"310":{},"311":{},"312":{},"313":{},"314":{},"315":{},"316":{},"317":{},"318":{},"319":{},"320":{},"321":{},"322":{},"323":{},"324":{},"325":{},"326":{},"327":{},"328":{},"329":{},"330":{},"331":{},"332":{},"333":{},"334":{},"335":{},"336":{},"337":{},"338":{},"339":{},"340":{},"341":{},"342":{},"343":{},"344":{},"345":{},"346":{},"347":{},"348":{},"349":{},"350":{},"351":{},"352":{},"353":{},"354":{},"355":{},"356":{},"357":{},"358":{},"359":{},"360":{},"361":{},"362":{},"363":{},"364":{},"365":{},"366":{},"367":{},"368":{},"369":{},"370":{},"371":{},"372":{},"373":{},"374":{},"375":{},"376":{},"377":{},"378":{},"379":{},"380":{},"381":{},"382":{},"383":{},"384":{},"385":{},"386":{},"387":{},"388":{},"389":{},"390":{},"391":{},"392":{},"393":{},"394":{},"395":{},"396":{},"397":{},"398":{},"399":{}},{"0":{"bias":0.1421961486339569,"weights":{"0":-0.0868770033121109,"1":0.019423624500632286,"2":0.13231346011161804,"3":-0.12682421505451202,"4":0.12922093272209167,"5":0.03947301208972931,"6":-0.047909606248140335,"7":-0.01274710614234209,"8":0.18444405496120453,"9":0.1393071413040161,"10":0.14005990326404572,"11":-0.13546213507652283,"12":-0.06225147098302841,"13":-0.07951031625270844,"14":-0.19380946457386017,"15":-0.1659759283065796,"16":0.09769546985626221,"17":0.14975586533546448,"18":0.16841478645801544,"19":0.1850520670413971,"20":0.1660943627357483,"21":0.1792309284210205,"22":-0.12935471534729004,"23":-0.13667543232440948,"24":0.19707579910755157,"25":-0.10530482977628708,"26":-0.14081498980522156,"27":0.016882283613085747,"28":0.1259651482105255,"29":0.04643450304865837,"30":-0.162111297249794,"31":0.16167014837265015,"32":0.06428226828575134,"33":-0.1631919890642166,"34":-0.16443940997123718,"35":-0.12061824649572372,"36":0.02558748796582222,"37":-0.044524047523736954,"38":-0.18318018317222595,"39":-0.18069951236248016,"40":-0.008996749296784401,"41":0.16403426229953766,"42":0.06704236567020416,"43":-0.12124568969011307,"44":-0.04285804554820061,"45":-0.050065092742443085,"46":0.16692237555980682,"47":-0.14350907504558563,"48":0.029357491061091423,"49":-0.10873478651046753,"50":0.016410963609814644,"51":-0.1553718000650406,"52":0.1635553240776062,"53":-0.08458483219146729,"54":-0.10597282648086548,"55":-0.10056670755147934,"56":0.07645072042942047,"57":0.16176320612430573,"58":0.09419070929288864,"59":0.14434336125850677,"60":0.11203183233737946,"61":0.0115144532173872,"62":0.12197823822498322,"63":0.1540777087211609,"64":-0.04543640837073326,"65":0.16757012903690338,"66":-0.1982608139514923,"67":0.0894443690776825,"68":0.04140785336494446,"69":-0.13753874599933624,"70":-0.17266900837421417,"71":0.16791534423828125,"72":0.013900485821068287,"73":0.16229861974716187,"74":-0.11603947728872299,"75":-0.17210859060287476,"76":-0.04744145646691322,"77":-0.0059674703516066074,"78":0.050412870943546295,"79":-0.03586354851722717,"80":-0.18175476789474487,"81":-0.15767870843410492,"82":-0.09505094587802887,"83":0.11142262816429138,"84":0.19148142635822296,"85":0.10193922370672226,"86":-0.014831503853201866,"87":0.09854884445667267,"88":0.04509621486067772,"89":0.12589630484580994,"90":-0.12429623305797577,"91":0.07245184481143951,"92":0.17921975255012512,"93":0.0016285293968394399,"94":0.033121153712272644,"95":-0.04862472787499428,"96":-0.08125665038824081,"97":0.003886873135343194,"98":0.10741429030895233,"99":0.09205449372529984,"100":0.1858854740858078,"101":-0.12782764434814453,"102":0.016405895352363586,"103":0.0030468038748949766,"104":-0.05373670533299446,"105":-0.14350593090057373,"106":0.11662101745605469,"107":-0.17150285840034485,"108":0.11033475399017334,"109":-0.1805831342935562,"110":-0.005991565529257059,"111":0.058492302894592285,"112":-0.13772723078727722,"113":0.10983463376760483,"114":-0.01488377433270216,"115":0.05727801099419594,"116":-0.052308935672044754,"117":0.15835456550121307,"118":-0.16713738441467285,"119":0.15325391292572021,"120":0.1949770599603653,"121":-0.04155617952346802,"122":-0.026212165132164955,"123":0.05395614728331566,"124":0.05325319990515709,"125":-0.11393235623836517,"126":0.052941132336854935,"127":-0.018128491938114166,"128":-0.04979274049401283,"129":0.0918845534324646,"130":0.08625832200050354,"131":-0.12327951192855835,"132":-0.22264663875102997,"133":-0.1907244771718979,"134":-0.0384192168712616,"135":0.0033615650609135628,"136":0.11338197439908981,"137":0.03902706131339073,"138":0.1311940997838974,"139":0.010576858185231686,"140":-0.08412806689739227,"141":-0.0035767650697380304,"142":-0.1701766401529312,"143":-0.08498553931713104,"144":-0.02682904154062271,"145":-0.1381639987230301,"146":-0.09882280975580215,"147":0.1958910971879959,"148":-0.1928977072238922,"149":0.10213652998209,"150":-0.1840316504240036,"151":-0.05581966042518616,"152":-0.20118975639343262,"153":-0.13541437685489655,"154":-0.0451623760163784,"155":-0.17706872522830963,"156":-0.15642529726028442,"157":-0.06484030932188034,"158":-0.14862163364887238,"159":0.1517811268568039,"160":0.08904380351305008,"161":0.10403349995613098,"162":0.19568929076194763,"163":-0.09130053967237473,"164":-0.006229723803699017,"165":-0.11878132820129395,"166":-0.07850226759910583,"167":-0.002936644246801734,"168":0.1756056845188141,"169":0.14743514358997345,"170":-0.07355185598134995,"171":0.0866158977150917,"172":-0.03319089487195015,"173":-0.11547726392745972,"174":0.034053437411785126,"175":-0.06345222145318985,"176":0.008253191597759724,"177":0.17345839738845825,"178":0.1309656947851181,"179":-0.00721566891297698,"180":-0.11124565452337265,"181":0.021528905257582664,"182":0.016473572701215744,"183":0.027307720854878426,"184":0.1325424760580063,"185":0.03711825981736183,"186":0.028082527220249176,"187":0.1346951127052307,"188":-0.15427246689796448,"189":0.16027115285396576,"190":0.11272761970758438,"191":0.04141334071755409,"192":0.14041678607463837,"193":-0.09820731729269028,"194":0.03104734979569912,"195":-0.15673533082008362,"196":-0.01581116020679474,"197":-0.10809724032878876,"198":-0.008805222809314728,"199":0.07262673228979111,"200":0.14738257229328156,"201":0.11575707048177719,"202":-0.10768502950668335,"203":0.021368689835071564,"204":0.03920963406562805,"205":0.17195424437522888,"206":0.0017146579921245575,"207":-0.1610683649778366,"208":-0.018111616373062134,"209":-0.15987242758274078,"210":-0.010075828060507774,"211":-0.026775747537612915,"212":-0.21015550196170807,"213":0.02083425037562847,"214":-0.01135216560214758,"215":-0.17854970693588257,"216":0.1351006180047989,"217":0.18025055527687073,"218":0.017659688368439674,"219":-0.25962382555007935,"220":0.05864080414175987,"221":-0.17719031870365143,"222":-0.19829733669757843,"223":-0.08956205099821091,"224":0.16367869079113007,"225":0.05999121814966202,"226":-0.05805603414773941,"227":-0.12095973640680313,"228":-0.09439866244792938,"229":-0.10381826013326645,"230":-0.13682973384857178,"231":0.0421297624707222,"232":0.1435331106185913,"233":0.15028753876686096,"234":0.11493919044733047,"235":-0.23409055173397064,"236":-0.024303879588842392,"237":0.06810496747493744,"238":-0.0979357361793518,"239":0.041850801557302475,"240":0.07190763205289841,"241":-0.19018954038619995,"242":-0.06848807632923126,"243":0.10328219085931778,"244":0.1935364007949829,"245":-0.09059195965528488,"246":-0.15001679956912994,"247":-0.04636061564087868,"248":-0.17752668261528015,"249":-0.10805752873420715,"250":0.14211605489253998,"251":-0.16553887724876404,"252":0.05244649946689606,"253":0.17398148775100708,"254":0.13058795034885406,"255":-0.07059536129236221,"256":-0.005111777689307928,"257":-0.1867934912443161,"258":0.1552196890115738,"259":0.04350638389587402,"260":0.07742473483085632,"261":-0.010298275388777256,"262":0.00525194825604558,"263":0.1602616310119629,"264":0.16347478330135345,"265":0.1545371562242508,"266":0.1831779032945633,"267":-0.1773911416530609,"268":-0.08539387583732605,"269":0.05508315563201904,"270":-0.15302006900310516,"271":0.11700110882520676,"272":-0.07989778369665146,"273":-0.1230400949716568,"274":0.11100897938013077,"275":0.10896742343902588,"276":-0.16332323849201202,"277":0.04139908403158188,"278":-0.017541680485010147,"279":-0.20228664577007294,"280":-0.14653757214546204,"281":-0.012258312664926052,"282":-0.08370217680931091,"283":-0.11800754815340042,"284":0.08766958862543106,"285":-0.020375587046146393,"286":-0.07288850098848343,"287":-0.1684229075908661,"288":0.17540903389453888,"289":-0.028846774250268936,"290":0.05204455927014351,"291":-0.20497703552246094,"292":-0.12278896570205688,"293":-0.11741237342357635,"294":0.17426623404026031,"295":-0.1449301838874817,"296":0.12646837532520294,"297":0.05942796915769577,"298":0.17892929911613464,"299":0.018964407965540886,"300":0.15777836740016937,"301":0.11624286323785782,"302":0.105453260242939,"303":0.1010117381811142,"304":0.11576545983552933,"305":-0.002052571391686797,"306":-0.16541621088981628,"307":-0.012511593289673328,"308":-0.16552294790744781,"309":0.13875094056129456,"310":0.1354530155658722,"311":0.15650872886180878,"312":-0.02449989877641201,"313":0.02247590944170952,"314":0.15723668038845062,"315":-0.15322910249233246,"316":-0.13022984564304352,"317":-0.10414597392082214,"318":-0.1937956064939499,"319":-0.08868763595819473,"320":0.054559625685214996,"321":0.06308745592832565,"322":-0.09403196722269058,"323":-0.09364359825849533,"324":0.15961001813411713,"325":0.1519702523946762,"326":-0.19564394652843475,"327":-0.12334051728248596,"328":-0.050775472074747086,"329":-0.08348184078931808,"330":-0.08708426356315613,"331":0.08278535306453705,"332":-0.029049944132566452,"333":-0.04753582924604416,"334":0.1701216846704483,"335":-0.17060592770576477,"336":-0.10933694243431091,"337":0.120047926902771,"338":-0.11085006594657898,"339":0.15786148607730865,"340":0.10167407989501953,"341":-0.06657931953668594,"342":-0.16214773058891296,"343":-0.15860015153884888,"344":0.155584916472435,"345":0.07272902876138687,"346":-0.039569925516843796,"347":0.017433544620871544,"348":-0.12338406592607498,"349":0.1708199381828308,"350":-0.14672589302062988,"351":-0.14066582918167114,"352":0.0072189150378108025,"353":0.11980418115854263,"354":-0.09506098181009293,"355":-0.13790112733840942,"356":-0.1283070296049118,"357":-0.156866654753685,"358":0.1576140969991684,"359":-0.20156024396419525,"360":-0.0878974199295044,"361":0.0022755181416869164,"362":-0.11638569831848145,"363":0.10908856987953186,"364":-0.09630370885133743,"365":0.022942181676626205,"366":0.027052566409111023,"367":-0.07886683940887451,"368":-0.27987539768218994,"369":-0.07906564325094223,"370":0.04226963594555855,"371":0.07483410835266113,"372":0.14444826543331146,"373":0.036839455366134644,"374":-0.0018063720781356096,"375":0.0656852051615715,"376":0.09652349352836609,"377":0.0020990429911762476,"378":0.04370664432644844,"379":-0.16950570046901703,"380":-0.15791437029838562,"381":-0.0751706063747406,"382":-0.020045269280672073,"383":0.18810977041721344,"384":0.12527059018611908,"385":-0.17310811579227448,"386":-0.08079738169908524,"387":-0.08669201284646988,"388":0.1604936718940735,"389":-0.162086620926857,"390":0.08800380676984787,"391":0.16942410171031952,"392":-0.014367330819368362,"393":0.1778377890586853,"394":-0.03564406931400299,"395":0.0004986589774489403,"396":0.182981938123703,"397":-0.15624400973320007,"398":0.13187357783317566,"399":0.07971647381782532}},"1":{"bias":-0.19498763978481293,"weights":{"0":0.03619157150387764,"1":0.028792699798941612,"2":-0.027661874890327454,"3":0.18394936621189117,"4":-0.0017798859626054764,"5":0.14439657330513,"6":-0.046251341700553894,"7":0.1383303850889206,"8":0.019339976832270622,"9":-0.06887289881706238,"10":-0.14690454304218292,"11":0.12437844276428223,"12":0.18557558953762054,"13":0.15097855031490326,"14":0.07738884538412094,"15":-0.1872628778219223,"16":0.131000354886055,"17":0.03701571375131607,"18":0.0415293388068676,"19":-0.08308398723602295,"20":0.1042390912771225,"21":-0.07119467109441757,"22":-0.03673253580927849,"23":-0.027971811592578888,"24":-0.17108102142810822,"25":-0.137977734208107,"26":-0.00706171290948987,"27":0.07541897892951965,"28":0.1330631822347641,"29":-0.06956811249256134,"30":-0.11849873512983322,"31":0.13994789123535156,"32":-0.19967226684093475,"33":0.11676289141178131,"34":-0.1259973794221878,"35":0.11659171432256699,"36":-0.16737401485443115,"37":-0.014063963666558266,"38":0.19750086963176727,"39":-0.04344407469034195,"40":0.13866707682609558,"41":-0.1431169956922531,"42":-0.11042819917201996,"43":0.16073010861873627,"44":0.18488696217536926,"45":-0.1064704954624176,"46":0.1340075433254242,"47":0.0713106170296669,"48":-0.030596312135457993,"49":-0.09250185638666153,"50":-0.13914912939071655,"51":0.09290852397680283,"52":-0.12071792781352997,"53":-0.14573226869106293,"54":0.03811648488044739,"55":0.1952216923236847,"56":-0.084079310297966,"57":0.013477244414389133,"58":0.06893756240606308,"59":0.14318688213825226,"60":-0.06551956385374069,"61":-0.04411483183503151,"62":0.13123100996017456,"63":0.14432084560394287,"64":-0.08087142556905746,"65":0.14171983301639557,"66":-0.10782782733440399,"67":0.08550644665956497,"68":0.1574515551328659,"69":-0.08328227698802948,"70":0.14905083179473877,"71":0.05802913382649422,"72":0.0744151622056961,"73":-0.10169797390699387,"74":-0.045183245092630386,"75":0.06543148308992386,"76":0.021800480782985687,"77":-0.13321679830551147,"78":-0.05035386234521866,"79":-0.17690524458885193,"80":0.08987037092447281,"81":-0.10629487782716751,"82":-0.11783839762210846,"83":-0.01257255207747221,"84":-0.07979927211999893,"85":0.08669071644544601,"86":0.036530885845422745,"87":0.18010202050209045,"88":-0.014403675682842731,"89":0.04451904445886612,"90":0.07211818546056747,"91":-0.01003071665763855,"92":0.11913719028234482,"93":-0.0680721253156662,"94":-0.11587020009756088,"95":-0.11769717931747437,"96":0.17535458505153656,"97":-0.07798325270414352,"98":0.15842963755130768,"99":-0.1669754832983017,"100":0.07301542907953262,"101":0.18223685026168823,"102":0.11726704984903336,"103":-0.07344868034124374,"104":0.07730135321617126,"105":-0.17961163818836212,"106":-0.08589735627174377,"107":0.1841108649969101,"108":-0.17937427759170532,"109":-0.16357216238975525,"110":0.14615538716316223,"111":0.1630266308784485,"112":0.10312539339065552,"113":-0.05511036515235901,"114":0.18862700462341309,"115":-0.035563454031944275,"116":-0.050061747431755066,"117":0.19407911598682404,"118":0.13572080433368683,"119":0.026854408904910088,"120":-0.06332743167877197,"121":0.09122033417224884,"122":-0.14774416387081146,"123":-0.09167084097862244,"124":0.17658942937850952,"125":0.09386644512414932,"126":0.11535663902759552,"127":-0.10771049559116364,"128":-0.008808615617454052,"129":-0.10224085301160812,"130":-0.19858860969543457,"131":0.1338830143213272,"132":-0.06265942007303238,"133":0.16099813580513,"134":0.03929547965526581,"135":-0.006286290939897299,"136":-0.05038006231188774,"137":0.19639936089515686,"138":0.16169428825378418,"139":0.08423467725515366,"140":-0.14337782561779022,"141":0.1889171153306961,"142":0.10293546319007874,"143":-0.11615189909934998,"144":0.03577222302556038,"145":0.03722995147109032,"146":-0.15152901411056519,"147":0.06955795735120773,"148":-0.0224005039781332,"149":-0.10472233593463898,"150":0.0237833634018898,"151":-0.015438656322658062,"152":-0.17705871164798737,"153":-0.022330185398459435,"154":-0.07548774033784866,"155":0.028575733304023743,"156":-0.10246303677558899,"157":-0.031706489622592926,"158":0.16983555257320404,"159":-0.1700003743171692,"160":0.004275541286915541,"161":-0.0032491260208189487,"162":-0.16886869072914124,"163":-0.010084052570164204,"164":0.09732712805271149,"165":0.14439083635807037,"166":0.18398036062717438,"167":-0.15555353462696075,"168":-0.046939946711063385,"169":-0.13420897722244263,"170":0.04882625490427017,"171":-0.059329740703105927,"172":-0.18304763734340668,"173":0.011852376163005829,"174":0.138896644115448,"175":0.08725718408823013,"176":0.01295662485063076,"177":0.10539168119430542,"178":-0.18538713455200195,"179":0.22128885984420776,"180":0.1572054922580719,"181":-0.12062155455350876,"182":0.0637708380818367,"183":0.02929239720106125,"184":0.12295626848936081,"185":0.008437619544565678,"186":0.06445779651403427,"187":0.188955157995224,"188":0.05279644951224327,"189":0.10995803773403168,"190":-0.1632022112607956,"191":0.05656123161315918,"192":-0.19385240972042084,"193":0.12039024382829666,"194":0.011999743990600109,"195":0.19341954588890076,"196":0.13167166709899902,"197":0.038180019706487656,"198":0.14681005477905273,"199":0.04836079850792885,"200":-0.08661000430583954,"201":-0.09314828366041183,"202":0.09656008332967758,"203":0.041105978190898895,"204":0.07454685866832733,"205":-0.12604637444019318,"206":-0.08741018176078796,"207":-0.11792048811912537,"208":0.04836629703640938,"209":0.058195509016513824,"210":-0.061713770031929016,"211":-0.20647074282169342,"212":-0.19212672114372253,"213":0.16733621060848236,"214":0.028866395354270935,"215":0.2009909301996231,"216":0.18297411501407623,"217":0.21677011251449585,"218":0.19138111174106598,"219":-0.07090417295694351,"220":-0.03028973564505577,"221":0.1345486342906952,"222":-0.14517861604690552,"223":0.0714331790804863,"224":-0.058459386229515076,"225":0.15930186212062836,"226":0.010691499337553978,"227":0.19119881093502045,"228":-0.1929166615009308,"229":-0.09724422544240952,"230":-0.029653485864400864,"231":0.11012332141399384,"232":0.0833841934800148,"233":0.04264656826853752,"234":-0.016471682116389275,"235":0.21344581246376038,"236":-0.07126647979021072,"237":0.1576242744922638,"238":-0.013224980793893337,"239":-0.028872434049844742,"240":-0.18747270107269287,"241":-0.03456256911158562,"242":-0.15841974318027496,"243":0.08300008624792099,"244":0.1567208468914032,"245":0.024919239804148674,"246":0.016541486606001854,"247":0.043849579989910126,"248":-0.17691831290721893,"249":0.11706475913524628,"250":0.02173561044037342,"251":-0.07744099199771881,"252":0.05686564743518829,"253":0.06979968398809433,"254":-0.1586138904094696,"255":0.019523173570632935,"256":0.08085639029741287,"257":-0.019463028758764267,"258":-0.1830705851316452,"259":0.00978770013898611,"260":-0.11174115538597107,"261":-0.08148444443941116,"262":-0.08326739817857742,"263":-0.05360759049654007,"264":-0.14238065481185913,"265":-0.00227355002425611,"266":0.03230975940823555,"267":-0.049605585634708405,"268":-0.0842132493853569,"269":0.06328286230564117,"270":-0.061599843204021454,"271":-0.046021390706300735,"272":-0.14787302911281586,"273":-0.19366787374019623,"274":0.1078825518488884,"275":0.05861986428499222,"276":-0.16375695168972015,"277":-0.11700558662414551,"278":0.03678834065794945,"279":0.032077059149742126,"280":0.10588398575782776,"281":0.027719125151634216,"282":-0.1249920055270195,"283":0.18549706041812897,"284":-0.06516893208026886,"285":0.05449651554226875,"286":-0.008266863413155079,"287":0.15413203835487366,"288":-0.031319521367549896,"289":0.1814935803413391,"290":-0.13359704613685608,"291":0.04140864312648773,"292":-0.09285225719213486,"293":-0.01029393170028925,"294":0.08754142373800278,"295":0.04856666922569275,"296":0.07514115422964096,"297":0.14214852452278137,"298":-0.11347571760416031,"299":0.11495799571275711,"300":-0.11141806840896606,"301":0.0984203889966011,"302":0.09964190423488617,"303":-0.17116570472717285,"304":0.08071215450763702,"305":0.03564801067113876,"306":0.12795940041542053,"307":0.06548512727022171,"308":-0.07235157489776611,"309":0.09834930300712585,"310":0.09152369946241379,"311":0.13403306901454926,"312":0.045260149985551834,"313":0.1187744215130806,"314":-0.16759590804576874,"315":-0.11289296299219131,"316":0.08742303401231766,"317":-0.12420784682035446,"318":-0.055832840502262115,"319":0.019277457147836685,"320":0.12346984446048737,"321":-0.16655708849430084,"322":0.06747778505086899,"323":0.10779470205307007,"324":0.04754998907446861,"325":-0.17585328221321106,"326":0.17236092686653137,"327":0.029424434527754784,"328":0.08528383076190948,"329":0.04930170252919197,"330":0.0769863948225975,"331":-0.09714917093515396,"332":-0.11744324862957001,"333":-0.1507725566625595,"334":0.01534710731357336,"335":-0.10112663358449936,"336":-0.10449323058128357,"337":0.17601671814918518,"338":-0.09378911554813385,"339":0.11317187547683716,"340":-0.19545313715934753,"341":0.022059282287955284,"342":0.1543629765510559,"343":-0.06634268909692764,"344":-0.11673285067081451,"345":-0.14266104996204376,"346":-0.056120213121175766,"347":-0.142868772149086,"348":-0.11402963846921921,"349":-0.1202898621559143,"350":0.08434469997882843,"351":-0.16190168261528015,"352":-0.04797856882214546,"353":0.18034419417381287,"354":-0.09827348589897156,"355":0.2076556533575058,"356":0.08095584809780121,"357":0.1498410999774933,"358":0.13866205513477325,"359":0.1332886815071106,"360":0.1966530829668045,"361":0.15762564539909363,"362":-0.05335867404937744,"363":0.14960357546806335,"364":-0.052543871104717255,"365":-0.03568897396326065,"366":0.01097998395562172,"367":-0.053219813853502274,"368":0.09938639402389526,"369":-0.1731521636247635,"370":-0.01817859709262848,"371":0.02862653322517872,"372":0.014961807988584042,"373":0.009469802491366863,"374":0.15614762902259827,"375":0.051975902169942856,"376":0.14828437566757202,"377":0.0705450102686882,"378":0.14375227689743042,"379":0.15686830878257751,"380":-0.0410054512321949,"381":0.057067856192588806,"382":0.035024333745241165,"383":0.11369523406028748,"384":0.1882379949092865,"385":0.085798479616642,"386":-0.03672334551811218,"387":0.12973375618457794,"388":0.10623590648174286,"389":0.04512634873390198,"390":-0.02024270035326481,"391":-0.13703212141990662,"392":-0.07654920220375061,"393":0.1406363695859909,"394":-0.1552892029285431,"395":0.19833216071128845,"396":0.11530136317014694,"397":-0.11849167943000793,"398":0.09889394789934158,"399":0.17369608581066132}},"2":{"bias":0.014344523660838604,"weights":{"0":0.005895606242120266,"1":-0.07192391157150269,"2":0.0787295252084732,"3":0.14257746934890747,"4":0.1840479075908661,"5":0.10312401503324509,"6":0.09608764946460724,"7":0.11428316682577133,"8":0.07506430894136429,"9":-0.002018669620156288,"10":-0.11876146495342255,"11":0.040284670889377594,"12":0.13608239591121674,"13":-0.040697578340768814,"14":-0.19501279294490814,"15":0.12241052836179733,"16":-0.18271277844905853,"17":-0.07924332469701767,"18":-0.021840766072273254,"19":0.13929666578769684,"20":-0.011588475666940212,"21":0.18690794706344604,"22":0.11163381487131119,"23":0.0003077406727243215,"24":-0.14789912104606628,"25":0.0802563726902008,"26":-0.031871601939201355,"27":0.11204727739095688,"28":0.10033383220434189,"29":0.1203508973121643,"30":-0.021400954574346542,"31":0.10852564871311188,"32":-0.12789326906204224,"33":0.01708604022860527,"34":0.0004812771512661129,"35":0.13067656755447388,"36":-0.1093844398856163,"37":0.10532480478286743,"38":0.1602839231491089,"39":0.021913358941674232,"40":-0.18093346059322357,"41":-0.0869351476430893,"42":-0.011899960227310658,"43":0.02830246090888977,"44":0.10997744649648666,"45":0.0546175017952919,"46":-0.06077488511800766,"47":-0.16810736060142517,"48":0.18699000775814056,"49":-0.1831285059452057,"50":-0.12209729105234146,"51":0.030143950134515762,"52":0.0667165145277977,"53":0.12385769933462143,"54":-0.020612934604287148,"55":-0.02225489355623722,"56":0.17807002365589142,"57":-0.0575345978140831,"58":0.19248373806476593,"59":0.14377424120903015,"60":0.08675570040941238,"61":-0.08631980419158936,"62":0.11684183031320572,"63":0.1584501415491104,"64":-0.02510998025536537,"65":0.1596798300743103,"66":-0.03194460645318031,"67":-0.0024408360477536917,"68":-0.14831271767616272,"69":-0.06489229202270508,"70":-0.035818569362163544,"71":0.15642686188220978,"72":0.01685933582484722,"73":-0.16938860714435577,"74":0.045773696154356,"75":-0.0609830766916275,"76":-0.1520494818687439,"77":0.06756104528903961,"78":0.23375317454338074,"79":-0.043215155601501465,"80":0.15656355023384094,"81":-0.06047281250357628,"82":-0.03615155443549156,"83":0.11845114827156067,"84":0.11228819191455841,"85":-0.0642394945025444,"86":0.13609768450260162,"87":0.03233762085437775,"88":-0.1282321661710739,"89":-0.010422009974718094,"90":-0.05314895510673523,"91":-0.03929738327860832,"92":-0.13327158987522125,"93":0.13638268411159515,"94":0.17412696778774261,"95":-0.10534821450710297,"96":-0.14609219133853912,"97":0.20541982352733612,"98":0.0011550175258889794,"99":0.10827980190515518,"100":-0.14192913472652435,"101":0.06923805177211761,"102":0.0182719174772501,"103":-0.1879035085439682,"104":-0.11814359575510025,"105":-0.020290225744247437,"106":-0.077122263610363,"107":-0.08301489800214767,"108":-0.08324053883552551,"109":0.1198146715760231,"110":-0.009479479864239693,"111":-0.19299176335334778,"112":0.19372065365314484,"113":0.11767546087503433,"114":-0.0685570016503334,"115":0.05481332540512085,"116":-0.07733427733182907,"117":0.0316736213862896,"118":0.22392098605632782,"119":0.13262617588043213,"120":0.15457932651042938,"121":-0.09418915957212448,"122":0.00248352880589664,"123":0.14068767428398132,"124":-0.18408462405204773,"125":-0.06604615598917007,"126":-0.061020806431770325,"127":0.013325044885277748,"128":0.014001399278640747,"129":-0.0859844759106636,"130":-0.13963325321674347,"131":0.16296590864658356,"132":-0.1464914232492447,"133":-0.04830746352672577,"134":0.06828204542398453,"135":0.09639708697795868,"136":-0.12608301639556885,"137":-0.13684605062007904,"138":0.008868762291967869,"139":0.023260967805981636,"140":-0.1256272792816162,"141":0.1903073638677597,"142":0.1698940396308899,"143":0.0409349724650383,"144":-0.022735919803380966,"145":0.1400764435529709,"146":0.06881970167160034,"147":0.04805206507444382,"148":0.03330853581428528,"149":-0.036532625555992126,"150":-0.10659045726060867,"151":-0.01628221571445465,"152":0.018936093896627426,"153":-0.14019644260406494,"154":0.015239501371979713,"155":0.12226090580224991,"156":0.11227112263441086,"157":-0.06626489013433456,"158":0.24606868624687195,"159":-0.07270747423171997,"160":0.10320780426263809,"161":0.09336115419864655,"162":-0.14313173294067383,"163":-0.19166983664035797,"164":0.10949407517910004,"165":0.18257202208042145,"166":0.002159992465749383,"167":-0.012888901866972446,"168":-0.10853156447410583,"169":-0.014109893701970577,"170":-0.03333012014627457,"171":-0.11047197133302689,"172":-0.11393825709819794,"173":0.10501611977815628,"174":0.1430152803659439,"175":-0.11565124988555908,"176":0.130711168050766,"177":0.1668212115764618,"178":0.005172066390514374,"179":0.10317716002464294,"180":-0.05494788661599159,"181":-0.007460145279765129,"182":0.042421553283929825,"183":-0.11707758903503418,"184":-0.05960019677877426,"185":0.18468178808689117,"186":-0.04455455392599106,"187":-0.17614459991455078,"188":0.029288047924637794,"189":0.08734169602394104,"190":0.15848758816719055,"191":-0.007562804501503706,"192":0.20472300052642822,"193":-0.1838396191596985,"194":0.06870225071907043,"195":0.13906486332416534,"196":-0.17879891395568848,"197":0.04730089381337166,"198":0.10267172008752823,"199":0.04397321864962578,"200":-0.1442134529352188,"201":0.1778121441602707,"202":-0.1082102581858635,"203":-0.1748298704624176,"204":0.12087716907262802,"205":-0.15925776958465576,"206":0.02554270066320896,"207":-0.014302920550107956,"208":0.1957927793264389,"209":-0.1551264077425003,"210":0.09129127860069275,"211":0.2194843292236328,"212":-0.11436527967453003,"213":-0.17130529880523682,"214":-0.14693497121334076,"215":0.04810493811964989,"216":0.08283809572458267,"217":-0.19081318378448486,"218":-0.16755275428295135,"219":-0.17642100155353546,"220":0.10129822790622711,"221":0.18828967213630676,"222":0.009158555418252945,"223":-0.11512883007526398,"224":-0.04736615717411041,"225":-0.15843144059181213,"226":0.08434005081653595,"227":0.09508225321769714,"228":0.03069736808538437,"229":-0.1961962878704071,"230":0.20463614165782928,"231":-0.20797806978225708,"232":-0.05004732310771942,"233":-0.0329345241189003,"234":-0.19836662709712982,"235":0.07518111914396286,"236":0.047820232808589935,"237":0.004196132533252239,"238":-0.2565743029117584,"239":-0.28563234210014343,"240":0.13752712309360504,"241":0.04473337158560753,"242":-0.045379702001810074,"243":0.15050488710403442,"244":0.15108558535575867,"245":-0.15001344680786133,"246":0.0498434454202652,"247":-0.07992295175790787,"248":-0.0630502849817276,"249":-0.09793347865343094,"250":0.026958126574754715,"251":0.14392322301864624,"252":0.06713931262493134,"253":0.10495556890964508,"254":0.022180579602718353,"255":-0.18775050342082977,"256":-0.0025555239990353584,"257":-0.21062268316745758,"258":0.16870222985744476,"259":-0.054674915969371796,"260":0.03855828940868378,"261":-0.07479464262723923,"262":-0.01063853595405817,"263":0.17879697680473328,"264":-0.020850377157330513,"265":-0.0827169343829155,"266":0.19593121111392975,"267":0.012626760639250278,"268":-0.19758665561676025,"269":0.03015875443816185,"270":0.11908896267414093,"271":0.00835139025002718,"272":-0.09684623032808304,"273":0.14092741906642914,"274":0.04741649702191353,"275":-0.03783265873789787,"276":0.09313306957483292,"277":0.08420706540346146,"278":0.22696582973003387,"279":0.0655784159898758,"280":0.1349141001701355,"281":0.0584845244884491,"282":0.15011373162269592,"283":-0.16364340484142303,"284":-0.043022625148296356,"285":0.09357539564371109,"286":0.013561377301812172,"287":0.02681833505630493,"288":0.0468129925429821,"289":-0.026235228404402733,"290":0.0734572485089302,"291":-0.11625608056783676,"292":-0.06167545169591904,"293":0.040549490600824356,"294":-0.18433593213558197,"295":-0.12973111867904663,"296":0.026693841442465782,"297":-0.10181780904531479,"298":-0.13407330214977264,"299":-0.1570185422897339,"300":0.15747246146202087,"301":-0.08547418564558029,"302":0.04058584198355675,"303":-0.02544207125902176,"304":-0.14140167832374573,"305":-0.06918887794017792,"306":-0.10833650827407837,"307":-0.023335816338658333,"308":-0.19297446310520172,"309":0.048691119998693466,"310":0.01325825322419405,"311":0.19632308185100555,"312":0.0470522977411747,"313":0.02677072584629059,"314":0.05156198516488075,"315":-0.1556355506181717,"316":-0.05148220807313919,"317":-0.14961344003677368,"318":0.17505241930484772,"319":-0.12814244627952576,"320":-0.1160130575299263,"321":0.003534956369549036,"322":0.10940196365118027,"323":-0.1364840865135193,"324":-0.07729040086269379,"325":0.07665498554706573,"326":0.021182475611567497,"327":-0.05242264270782471,"328":0.10908357053995132,"329":0.1521972417831421,"330":-0.04355749487876892,"331":0.191571444272995,"332":-0.020480595529079437,"333":-0.04384055361151695,"334":0.07649244368076324,"335":-0.0679830014705658,"336":0.15751150250434875,"337":0.044978704303503036,"338":0.15498147904872894,"339":0.14366261661052704,"340":0.07752624899148941,"341":-0.14833158254623413,"342":-0.09903144836425781,"343":0.11051375418901443,"344":0.06283167749643326,"345":0.1804567128419876,"346":-0.0017513830680400133,"347":-0.10386792570352554,"348":-0.05650049075484276,"349":0.08073971420526505,"350":0.08391629159450531,"351":0.0000462842799606733,"352":0.03913106024265289,"353":-0.03056069277226925,"354":-0.1383739560842514,"355":-0.0005520652630366385,"356":0.001966151176020503,"357":0.13300935924053192,"358":-0.010440259240567684,"359":-0.02412189170718193,"360":-0.14755883812904358,"361":0.06366133689880371,"362":0.0016587366117164493,"363":-0.02690165303647518,"364":-0.19220557808876038,"365":-0.051780641078948975,"366":-0.01431053876876831,"367":-0.18823489546775818,"368":0.011062790639698505,"369":0.13481824100017548,"370":0.18649598956108093,"371":0.126361683011055,"372":-0.14489683508872986,"373":0.1488875150680542,"374":-0.16143205761909485,"375":-0.05952688679099083,"376":0.04653136059641838,"377":-0.044154878705739975,"378":0.11395145952701569,"379":0.2228425145149231,"380":0.19157764315605164,"381":0.08895651251077652,"382":-0.08779705315828323,"383":-0.03439177945256233,"384":-0.104224294424057,"385":0.1771557480096817,"386":0.1908496767282486,"387":0.01697579026222229,"388":0.13030199706554413,"389":0.02503373846411705,"390":0.11749090999364853,"391":0.07161229848861694,"392":-0.03250255808234215,"393":0.13861747086048126,"394":-0.13516207039356232,"395":0.21210597455501556,"396":0.06512052565813065,"397":0.0014628572389483452,"398":-0.005561876110732555,"399":-0.0722258985042572}},"3":{"bias":-0.021928369998931885,"weights":{"0":0.17021217942237854,"1":0.07333411276340485,"2":0.18640710413455963,"3":-0.0348517969250679,"4":0.12449173629283905,"5":-0.10396227985620499,"6":-0.0861905962228775,"7":0.0163041353225708,"8":0.05303741991519928,"9":0.00504925474524498,"10":-0.1440391093492508,"11":-0.025052299723029137,"12":0.12868139147758484,"13":-0.18595536053180695,"14":0.10786144435405731,"15":-0.14397217333316803,"16":0.05816713348031044,"17":-0.09348799288272858,"18":0.018183859065175056,"19":0.07577402889728546,"20":0.13037116825580597,"21":-0.011077752336859703,"22":-0.10955899208784103,"23":-0.15959899127483368,"24":-0.08573564141988754,"25":-0.060407236218452454,"26":-0.14106601476669312,"27":0.0676097571849823,"28":0.17432284355163574,"29":-0.16529002785682678,"30":-0.17446210980415344,"31":-0.07496652752161026,"32":0.16056469082832336,"33":0.1161855086684227,"34":-0.07211025059223175,"35":0.033518437296152115,"36":-0.18169571459293365,"37":0.15638801455497742,"38":-0.010012702085077763,"39":-0.17318589985370636,"40":-0.18963047862052917,"41":-0.09506899118423462,"42":0.02885194681584835,"43":0.10796219855546951,"44":-0.12488909065723419,"45":0.16876909136772156,"46":0.011681715957820415,"47":-0.08919542282819748,"48":0.13647739589214325,"49":-0.18768751621246338,"50":-0.17894139885902405,"51":0.0910424068570137,"52":0.09722696989774704,"53":-0.052202578634023666,"54":-0.144018292427063,"55":-0.17637690901756287,"56":0.0923260822892189,"57":0.163517028093338,"58":0.0807785764336586,"59":0.2201184630393982,"60":-0.1587599664926529,"61":-0.1682446002960205,"62":0.03940919041633606,"63":-0.1717684417963028,"64":0.1081802248954773,"65":-0.026524271816015244,"66":-0.1347265988588333,"67":0.1657819002866745,"68":-0.08273956924676895,"69":-0.16730600595474243,"70":0.1632428616285324,"71":0.019336778670549393,"72":-0.1708645075559616,"73":-0.025976363569498062,"74":0.09170340746641159,"75":0.16946148872375488,"76":-0.08950462192296982,"77":-0.16862675547599792,"78":0.10970593243837357,"79":-0.0982256680727005,"80":0.1328078955411911,"81":-0.15289027988910675,"82":0.07580272108316422,"83":0.025986861437559128,"84":0.18286356329917908,"85":-0.024578092619776726,"86":-0.03654588758945465,"87":0.14908361434936523,"88":0.19528265297412872,"89":-0.15719817578792572,"90":0.19784463942050934,"91":0.13236786425113678,"92":-0.1292073130607605,"93":0.19377321004867554,"94":0.17762960493564606,"95":-0.04111539572477341,"96":0.1301807314157486,"97":0.008871707133948803,"98":-0.05266398936510086,"99":-0.0638335645198822,"100":0.02334079146385193,"101":-0.1936296820640564,"102":0.036182206124067307,"103":0.021527092903852463,"104":-0.12655402719974518,"105":0.1509729027748108,"106":0.00709124468266964,"107":-0.12485511600971222,"108":-0.17887142300605774,"109":-0.035801954567432404,"110":0.13838675618171692,"111":-0.021070949733257294,"112":-0.07134252041578293,"113":-0.03623616322875023,"114":-0.11283822357654572,"115":0.014797485433518887,"116":-0.10533719509840012,"117":0.06927351653575897,"118":-0.0017673865659162402,"119":0.18124273419380188,"120":0.048568688333034515,"121":-0.0022550453431904316,"122":-0.0011824427638202906,"123":0.12013140320777893,"124":-0.16906358301639557,"125":0.19487974047660828,"126":-0.06684243679046631,"127":-0.03392605856060982,"128":-0.19534693658351898,"129":0.08910159766674042,"130":0.06940838694572449,"131":0.21253030002117157,"132":0.06695488840341568,"133":0.1902661919593811,"134":0.09834073483943939,"135":-0.11013147234916687,"136":-0.08066335320472717,"137":-0.11321230977773666,"138":-0.04065384715795517,"139":-0.07290171831846237,"140":0.16228990256786346,"141":-0.09811064600944519,"142":-0.116881363093853,"143":0.13823142647743225,"144":-0.017440013587474823,"145":0.13218525052070618,"146":0.022698454558849335,"147":0.0898204818367958,"148":-4.1221915125788655e-7,"149":0.19280500710010529,"150":-0.024685993790626526,"151":0.013976125046610832,"152":-0.09142664074897766,"153":-0.09022653847932816,"154":0.18491874635219574,"155":0.03464430570602417,"156":-0.0044547016732394695,"157":0.15987208485603333,"158":-0.04416361823678017,"159":-0.00729632843285799,"160":-0.08846831321716309,"161":-0.12793691456317902,"162":-0.1609891951084137,"163":-0.13416363298892975,"164":0.1720283180475235,"165":0.0008570544887334108,"166":0.005434800870716572,"167":0.005676674656569958,"168":0.11678957939147949,"169":-0.1303614377975464,"170":-0.0005466029979288578,"171":0.038848381489515305,"172":0.06020576134324074,"173":-0.0723457783460617,"174":0.19987285137176514,"175":-0.09235232323408127,"176":-0.09941316395998001,"177":-0.11734089255332947,"178":0.015011468902230263,"179":-0.04912647232413292,"180":-0.06152398884296417,"181":0.046131592243909836,"182":-0.05332435667514801,"183":-0.12174227088689804,"184":-0.18691430985927582,"185":-0.1422959417104721,"186":-0.05878940969705582,"187":-0.1657763123512268,"188":-0.05198823660612106,"189":0.10925085842609406,"190":0.04027051478624344,"191":0.13252641260623932,"192":0.2277572751045227,"193":-0.08211737871170044,"194":0.17475120723247528,"195":-0.015071386471390724,"196":-0.061083778738975525,"197":0.08526645600795746,"198":0.1278047114610672,"199":-0.1349497139453888,"200":-0.03032960742712021,"201":-0.09114060550928116,"202":0.11966562271118164,"203":0.16668199002742767,"204":-0.014419944025576115,"205":-0.08463839441537857,"206":0.1442987471818924,"207":-0.022617680951952934,"208":-0.18374069035053253,"209":-0.11730769276618958,"210":0.20085206627845764,"211":-0.09893699735403061,"212":0.19093701243400574,"213":-0.21152596175670624,"214":-0.10471828281879425,"215":0.026475412771105766,"216":0.13812784850597382,"217":-0.02582532726228237,"218":0.10753371566534042,"219":0.07633418589830399,"220":0.1945667713880539,"221":-0.08310090005397797,"222":-0.19258539378643036,"223":0.09644951671361923,"224":0.022336088120937347,"225":0.04992415010929108,"226":-0.12019090354442596,"227":-0.15346591174602509,"228":0.07875057309865952,"229":0.11405090987682343,"230":-0.09808707982301712,"231":-0.08098375797271729,"232":0.20915062725543976,"233":-0.08217473328113556,"234":-0.11732665449380875,"235":-0.1389974057674408,"236":-0.06454362720251083,"237":-0.16124632954597473,"238":0.10436010360717773,"239":-0.09658270329236984,"240":0.13001780211925507,"241":-0.19180437922477722,"242":-0.10863800346851349,"243":0.0494251549243927,"244":-0.12117411196231842,"245":-0.1765960454940796,"246":0.15344062447547913,"247":0.00574548589065671,"248":0.16993707418441772,"249":-0.14305119216442108,"250":0.08213920146226883,"251":-0.1794232279062271,"252":0.10098811984062195,"253":0.11441441625356674,"254":0.05066346749663353,"255":-0.12970221042633057,"256":0.030042458325624466,"257":0.11782798171043396,"258":0.02093818224966526,"259":-0.11807228624820709,"260":0.03573073074221611,"261":-0.18159331381320953,"262":0.10810607671737671,"263":0.0573178231716156,"264":0.1342354714870453,"265":-0.18431168794631958,"266":0.10795753449201584,"267":-0.08131992816925049,"268":0.00909051951020956,"269":0.1832970231771469,"270":-0.0055595762096345425,"271":-0.15510350465774536,"272":0.24869844317436218,"273":-0.19535386562347412,"274":-0.03330745920538902,"275":-0.16295373439788818,"276":-0.06483691185712814,"277":-0.07499735057353973,"278":0.08835989236831665,"279":0.11961662769317627,"280":-0.1614021360874176,"281":0.03835977986454964,"282":-0.14379580318927765,"283":-0.07517775148153305,"284":0.18788880109786987,"285":-0.047764480113983154,"286":-0.16233734786510468,"287":-0.0653936117887497,"288":-0.05631639435887337,"289":-0.12324482947587967,"290":-0.0019951402209699154,"291":0.19714516401290894,"292":-0.05522117018699646,"293":0.19068434834480286,"294":0.025697676464915276,"295":0.009606419131159782,"296":-0.09868250787258148,"297":0.15401367843151093,"298":-0.031057389453053474,"299":-0.04658009856939316,"300":-0.1024334505200386,"301":-0.11009924113750458,"302":-0.1930704116821289,"303":0.0034207955468446016,"304":-0.026442287489771843,"305":-0.1875884085893631,"306":0.0743311196565628,"307":-0.061266008764505386,"308":0.1007452979683876,"309":0.12082436680793762,"310":0.02391655556857586,"311":0.12397092580795288,"312":-0.046174053102731705,"313":-0.056135497987270355,"314":-0.13890501856803894,"315":-0.09042137116193771,"316":0.14159396290779114,"317":-0.07551008462905884,"318":0.20437736809253693,"319":0.12979856133460999,"320":0.16404041647911072,"321":0.13982239365577698,"322":0.1953020691871643,"323":0.06807143241167068,"324":-0.07741132378578186,"325":0.11703575402498245,"326":-0.07501965761184692,"327":-0.04068656638264656,"328":0.06890659779310226,"329":-0.1337159276008606,"330":0.08306483924388885,"331":0.04345918074250221,"332":0.17417696118354797,"333":0.07739192992448807,"334":0.1342257410287857,"335":-0.014685295522212982,"336":0.04787905141711235,"337":-0.17226392030715942,"338":-0.15254998207092285,"339":0.038648586720228195,"340":0.18985074758529663,"341":-0.06381998211145401,"342":0.17315295338630676,"343":0.01746499165892601,"344":-0.05193222686648369,"345":-0.019888322800397873,"346":0.1841997653245926,"347":0.018508436158299446,"348":-0.19474869966506958,"349":0.11998630315065384,"350":0.15325818955898285,"351":-0.10641198605298996,"352":0.13199035823345184,"353":-0.06274658441543579,"354":-0.20510268211364746,"355":-0.14922893047332764,"356":-0.06538095325231552,"357":0.11019369214773178,"358":0.07209031283855438,"359":0.01761365868151188,"360":-0.0264299176633358,"361":-0.15572793781757355,"362":0.06432309001684189,"363":0.16414935886859894,"364":0.023979023098945618,"365":0.12117324769496918,"366":-0.19385318458080292,"367":0.1507214903831482,"368":-0.09744934737682343,"369":-0.17533043026924133,"370":-0.1990298628807068,"371":-0.06534947454929352,"372":0.1299625188112259,"373":0.1678234338760376,"374":-0.15476089715957642,"375":0.031843919306993484,"376":-0.09468600153923035,"377":-0.1455472856760025,"378":-0.2081710547208786,"379":0.04625677689909935,"380":0.03641938790678978,"381":-0.15864327549934387,"382":0.18381540477275848,"383":0.09674009680747986,"384":0.016018474474549294,"385":-0.11536315083503723,"386":-0.09780552983283997,"387":0.053417645394802094,"388":0.06996004283428192,"389":-0.15938976407051086,"390":-0.20614667236804962,"391":-0.05859871953725815,"392":-0.11350785195827484,"393":-0.08504201471805573,"394":-0.14017881453037262,"395":0.115510955452919,"396":0.06205825135111809,"397":0.02570800483226776,"398":0.052809108048677444,"399":-0.19627055525779724}},"4":{"bias":-0.0795016661286354,"weights":{"0":-0.07651471346616745,"1":-0.0016883251955732703,"2":0.14349934458732605,"3":-0.0923704206943512,"4":-0.14902716875076294,"5":-0.14395174384117126,"6":-0.058318931609392166,"7":0.07206900417804718,"8":0.013999720104038715,"9":0.1246691644191742,"10":0.0035469643771648407,"11":-0.17897740006446838,"12":-0.08032563328742981,"13":0.04824846237897873,"14":0.14105093479156494,"15":0.02351509779691696,"16":-0.05039002373814583,"17":-0.19310398399829865,"18":0.11182670295238495,"19":-0.04022961109876633,"20":0.16918015480041504,"21":-0.11529310047626495,"22":0.03618672490119934,"23":-0.05927415192127228,"24":-0.09304111450910568,"25":0.085771843791008,"26":0.07432585954666138,"27":-0.1366189569234848,"28":0.18655464053153992,"29":-0.12427442520856857,"30":0.1789979338645935,"31":0.041014328598976135,"32":0.17953862249851227,"33":-0.062322329729795456,"34":0.09607051312923431,"35":-0.03789682313799858,"36":0.1935238540172577,"37":0.0323362834751606,"38":0.012500044889748096,"39":0.139483243227005,"40":-0.16167248785495758,"41":-0.16499972343444824,"42":0.03484561666846275,"43":-0.14870327711105347,"44":-0.0006824120646342635,"45":-0.15292967855930328,"46":0.0740206316113472,"47":-0.10124988853931427,"48":0.05312888324260712,"49":0.020023981109261513,"50":0.195834681391716,"51":-0.016398955136537552,"52":0.18244564533233643,"53":0.1183350682258606,"54":0.03673328459262848,"55":-0.04411613568663597,"56":0.10191579163074493,"57":0.18167199194431305,"58":-0.09943489730358124,"59":-0.20542828738689423,"60":-0.18458379805088043,"61":0.06523977220058441,"62":-0.09372254461050034,"63":0.06091971695423126,"64":0.18426942825317383,"65":0.17836104333400726,"66":-0.038265299052000046,"67":-0.09760082513093948,"68":-0.02057226188480854,"69":0.018401164561510086,"70":-0.13165192306041718,"71":-0.03593040630221367,"72":-0.15450668334960938,"73":0.12259312719106674,"74":0.16269053518772125,"75":0.17149090766906738,"76":0.011265968903899193,"77":-0.1714753955602646,"78":-0.18958380818367004,"79":0.12386541813611984,"80":-0.18141092360019684,"81":0.14574028551578522,"82":-0.04387572035193443,"83":-0.005370523780584335,"84":-0.18580970168113708,"85":0.04536443203687668,"86":0.17988364398479462,"87":0.047453373670578,"88":0.02155265212059021,"89":-0.07414935529232025,"90":0.20259572565555573,"91":-0.15565943717956543,"92":-0.00699846213683486,"93":-0.03140854835510254,"94":-0.0938049927353859,"95":-0.13761314749717712,"96":0.11474932730197906,"97":0.17110705375671387,"98":0.12476590275764465,"99":-0.020609991624951363,"100":-0.1953248679637909,"101":0.17134779691696167,"102":-0.03720313683152199,"103":0.034481387585401535,"104":-0.01894165389239788,"105":0.09152437746524811,"106":0.11511275917291641,"107":-0.0013167113065719604,"108":0.18630298972129822,"109":0.020677898079156876,"110":0.11917601525783539,"111":0.0826316699385643,"112":0.09179006516933441,"113":-0.016318146139383316,"114":0.10080766677856445,"115":-0.009021459147334099,"116":0.11556024104356766,"117":0.06605786830186844,"118":0.18712593615055084,"119":-0.11041317135095596,"120":-0.1386462301015854,"121":-0.13211600482463837,"122":-0.18699605762958527,"123":0.06902262568473816,"124":0.038266848772764206,"125":-0.0734882652759552,"126":-0.14934995770454407,"127":0.06842155009508133,"128":-0.03857189416885376,"129":0.02995099127292633,"130":-0.014203974045813084,"131":0.17739780247211456,"132":0.20839577913284302,"133":0.19979429244995117,"134":-0.07659856230020523,"135":0.18146099150180817,"136":0.027058130130171776,"137":0.06998267024755478,"138":0.08364903181791306,"139":0.19133390486240387,"140":0.035441432148218155,"141":-0.11582496762275696,"142":0.022658297792077065,"143":0.01365789957344532,"144":0.18762803077697754,"145":0.11973922699689865,"146":-0.19887594878673553,"147":0.17100435495376587,"148":0.10947903990745544,"149":0.13124145567417145,"150":0.10908772051334381,"151":0.05268990993499756,"152":0.10471180826425552,"153":-0.19943596422672272,"154":-0.11616767197847366,"155":-0.028348375111818314,"156":-0.0201950054615736,"157":0.1346931755542755,"158":-0.12292620539665222,"159":-0.05987125262618065,"160":0.06306236237287521,"161":0.07307953387498856,"162":0.14282065629959106,"163":-0.08662785589694977,"164":-0.10001860558986664,"165":-0.033854030072689056,"166":0.05938179790973663,"167":-0.0301022008061409,"168":-0.1539250761270523,"169":0.07955127209424973,"170":-0.09695528447628021,"171":-0.2026090770959854,"172":-0.018654869869351387,"173":-0.2187792956829071,"174":-0.09850096702575684,"175":0.03452281281352043,"176":-0.17906291782855988,"177":0.10056884586811066,"178":-0.2084498405456543,"179":0.17189884185791016,"180":-0.07992373406887054,"181":0.07345393300056458,"182":0.07598334550857544,"183":0.03219902515411377,"184":-0.1391698122024536,"185":0.12590017914772034,"186":0.1549070030450821,"187":-0.13924245536327362,"188":0.03257710114121437,"189":-0.15254999697208405,"190":0.04553478956222534,"191":-0.00934098195284605,"192":-0.16702716052532196,"193":-0.0034560326021164656,"194":0.08676375448703766,"195":-0.15152274072170258,"196":0.18106558918952942,"197":0.08017806708812714,"198":-0.13892073929309845,"199":0.1346399039030075,"200":-0.16729390621185303,"201":0.16846831142902374,"202":0.026249803602695465,"203":-0.08574874699115753,"204":0.17737749218940735,"205":0.14105477929115295,"206":-0.16844646632671356,"207":-0.027489427477121353,"208":-0.05802922323346138,"209":0.0514957457780838,"210":-0.09310873597860336,"211":-0.12482765316963196,"212":-0.022067882120609283,"213":-0.1455325037240982,"214":0.12858588993549347,"215":-0.06391090899705887,"216":-0.010709027759730816,"217":-0.0015346361324191093,"218":-0.2031061351299286,"219":-0.23784688115119934,"220":-0.1998784989118576,"221":-0.021555017679929733,"222":-0.03572463244199753,"223":-0.1949075162410736,"224":-0.08307574689388275,"225":0.021357551217079163,"226":0.03675674647092819,"227":-0.07661782205104828,"228":0.19362017512321472,"229":-0.09036906063556671,"230":-0.10475300252437592,"231":-0.13806690275669098,"232":-0.14075450599193573,"233":-0.22065095603466034,"234":0.033548932522535324,"235":-0.13196390867233276,"236":-0.16040223836898804,"237":-0.051853928714990616,"238":-0.08834630995988846,"239":-0.19983598589897156,"240":-0.060030143707990646,"241":-0.053284063935279846,"242":0.020816540345549583,"243":0.08587867766618729,"244":0.011142592877149582,"245":0.16842055320739746,"246":-0.01750371791422367,"247":-0.10968359559774399,"248":0.169760599732399,"249":-0.18186229467391968,"250":0.10714363306760788,"251":-0.1519957035779953,"252":0.07362715154886246,"253":0.03775573521852493,"254":-0.09584929049015045,"255":-0.0793510228395462,"256":-0.04926900938153267,"257":0.12357866019010544,"258":0.059617072343826294,"259":-0.04874102771282196,"260":0.07350168377161026,"261":0.10754573345184326,"262":-0.04084672033786774,"263":0.004711884073913097,"264":-0.06115223094820976,"265":-0.1132156178355217,"266":-0.11610206961631775,"267":-0.04967312142252922,"268":0.06385000050067902,"269":-0.02725496143102646,"270":0.0003742883272934705,"271":-0.014988640323281288,"272":0.050368960946798325,"273":-0.022210093215107918,"274":-0.08765106648206711,"275":-0.1910897046327591,"276":0.09146104007959366,"277":0.19014771282672882,"278":0.059007104486227036,"279":0.03220333904027939,"280":-0.1390177607536316,"281":0.04181408882141113,"282":-0.03117990493774414,"283":-0.026324056088924408,"284":-0.0343526192009449,"285":-0.002680376870557666,"286":-0.09745197743177414,"287":-0.15717224776744843,"288":-0.06856811046600342,"289":-0.06805262714624405,"290":0.2047029286623001,"291":-0.090987928211689,"292":-0.05816459655761719,"293":0.0016951794968917966,"294":0.022542748600244522,"295":-0.07630693167448044,"296":-0.12877462804317474,"297":-0.11461052298545837,"298":0.14998826384544373,"299":-0.14183400571346283,"300":-0.10119620710611343,"301":-0.05681876465678215,"302":0.04499981179833412,"303":0.1779388189315796,"304":-0.13612152636051178,"305":0.1567418873310089,"306":0.18234077095985413,"307":-0.11101498454809189,"308":0.16072770953178406,"309":0.09219498932361603,"310":0.1806308925151825,"311":0.19578434526920319,"312":-0.07081351429224014,"313":0.14239561557769775,"314":-0.01760268583893776,"315":0.17771247029304504,"316":0.03481706604361534,"317":-0.026496516540646553,"318":-0.1186661496758461,"319":-0.015038182958960533,"320":0.0757431834936142,"321":-0.1258736550807953,"322":-0.16836653649806976,"323":-0.056896552443504333,"324":0.028797397390007973,"325":0.1988973170518875,"326":0.14252102375030518,"327":-0.02301023155450821,"328":-0.11680752784013748,"329":-0.04827415198087692,"330":-0.02493329718708992,"331":-0.10786965489387512,"332":0.02807372622191906,"333":0.1672273725271225,"334":0.09222272038459778,"335":-0.1494600474834442,"336":-0.04482202231884003,"337":0.14448633790016174,"338":0.03265727683901787,"339":0.17950929701328278,"340":0.01334795169532299,"341":-0.11793344467878342,"342":-0.051684800535440445,"343":-0.15475179255008698,"344":0.09013719856739044,"345":-0.1812857836484909,"346":-0.12507158517837524,"347":-0.010887938551604748,"348":0.006936078891158104,"349":0.13269709050655365,"350":0.011796114034950733,"351":0.15482725203037262,"352":0.12385687232017517,"353":0.08395600318908691,"354":0.025392495095729828,"355":-0.026242952793836594,"356":0.19632494449615479,"357":-0.13608945906162262,"358":-0.16080163419246674,"359":0.11015830934047699,"360":0.14983335137367249,"361":0.13310302793979645,"362":0.18452882766723633,"363":0.02612466551363468,"364":0.0013257088139653206,"365":0.17549070715904236,"366":0.12804940342903137,"367":-0.1464095562696457,"368":0.1558133065700531,"369":-0.01778080128133297,"370":-0.06963354349136353,"371":0.10815130174160004,"372":0.0653078481554985,"373":0.10546966642141342,"374":-0.16901381313800812,"375":0.08638954907655716,"376":-0.18369397521018982,"377":0.14314904808998108,"378":0.005514304153621197,"379":0.022998066619038582,"380":0.07923857122659683,"381":-0.1756189465522766,"382":-0.06607379019260406,"383":0.030460847541689873,"384":0.0811297744512558,"385":-0.0855349749326706,"386":0.05677919089794159,"387":0.18199042975902557,"388":-0.14841917157173157,"389":0.040967945009469986,"390":-0.10234124958515167,"391":-0.13724984228610992,"392":-0.15428245067596436,"393":0.13322289288043976,"394":-0.020876938477158546,"395":0.11978130042552948,"396":-0.04572131484746933,"397":0.08459124714136124,"398":0.02678878977894783,"399":-0.0694270059466362}},"5":{"bias":0.17309199273586273,"weights":{"0":-0.14175689220428467,"1":-0.16565312445163727,"2":-0.07459510862827301,"3":-0.12907443940639496,"4":0.13948483765125275,"5":0.1974758803844452,"6":0.059207700192928314,"7":-0.07032033801078796,"8":0.06791682541370392,"9":0.19541426002979279,"10":-0.12372655421495438,"11":0.15736468136310577,"12":0.1651870608329773,"13":0.1754828542470932,"14":0.06894160062074661,"15":0.09847650676965714,"16":-0.1883607804775238,"17":0.016616804525256157,"18":-0.13901786506175995,"19":0.06715072691440582,"20":-0.07993843406438828,"21":-0.09394542872905731,"22":-0.06658276915550232,"23":-0.1122715026140213,"24":-0.14062438905239105,"25":-0.1435076743364334,"26":-0.16833706200122833,"27":-0.10245010256767273,"28":-0.055030640214681625,"29":-0.09209828078746796,"30":-0.04401542991399765,"31":0.06086092069745064,"32":-0.007674650754779577,"33":0.17990106344223022,"34":0.02902526967227459,"35":-0.1932155340909958,"36":-0.004154877737164497,"37":0.07223895937204361,"38":0.006319869309663773,"39":-0.14603832364082336,"40":0.01631883718073368,"41":0.11604631692171097,"42":0.04224236309528351,"43":0.025962388142943382,"44":-0.10953034460544586,"45":0.1277576982975006,"46":0.055054377764463425,"47":0.018396439030766487,"48":-0.1537981629371643,"49":-0.18089407682418823,"50":0.09664731472730637,"51":-0.08334975689649582,"52":0.017363833263516426,"53":-0.036759842187166214,"54":-0.15740051865577698,"55":-0.17020471394062042,"56":-0.0700288936495781,"57":-0.13564516603946686,"58":0.12535390257835388,"59":-0.001186357345432043,"60":0.03374934569001198,"61":0.165517196059227,"62":0.13921092450618744,"63":0.17382673919200897,"64":-0.1472175121307373,"65":0.006499692797660828,"66":-0.17384189367294312,"67":0.037580206990242004,"68":-0.009669444523751736,"69":0.1224939376115799,"70":0.10724496841430664,"71":0.09678760170936584,"72":-0.06450282782316208,"73":0.06777849048376083,"74":-0.07232461124658585,"75":-0.13080541789531708,"76":0.1308596134185791,"77":-0.07451865822076797,"78":-0.09375809133052826,"79":0.05417737364768982,"80":0.12362772971391678,"81":0.11819033324718475,"82":-0.1430426388978958,"83":0.04035116359591484,"84":-0.19671469926834106,"85":-0.010988564230501652,"86":-0.012695790268480778,"87":-0.10947813093662262,"88":0.030143992975354195,"89":-0.13137592375278473,"90":-0.03999531269073486,"91":0.06897811591625214,"92":0.09163806587457657,"93":-0.14733316004276276,"94":0.1405133455991745,"95":0.10362553596496582,"96":-0.12504972517490387,"97":0.10258246213197708,"98":-0.00642611738294363,"99":-0.09215109050273895,"100":0.14299194514751434,"101":0.0858115702867508,"102":-0.1487402319908142,"103":0.1554802656173706,"104":-0.039632100611925125,"105":0.025902558118104935,"106":0.07776930928230286,"107":-0.16307982802391052,"108":0.09965172410011292,"109":0.08426179736852646,"110":0.021958468481898308,"111":0.08095738291740417,"112":0.11372210830450058,"113":0.07660005986690521,"114":0.02911609224975109,"115":0.09688815474510193,"116":0.094294972717762,"117":0.026718011125922203,"118":-0.1151912659406662,"119":-0.07676049321889877,"120":-0.1624448299407959,"121":0.19081567227840424,"122":0.14838314056396484,"123":-0.0936240702867508,"124":-0.14690305292606354,"125":-0.0400836206972599,"126":0.06687671691179276,"127":0.12811391055583954,"128":-0.05099257826805115,"129":0.18994897603988647,"130":-0.17954763770103455,"131":-0.13455791771411896,"132":0.16064567863941193,"133":0.19423286616802216,"134":0.1396084874868393,"135":0.1923050582408905,"136":-0.10247565060853958,"137":-0.058555398136377335,"138":-0.09578029066324234,"139":0.1547788828611374,"140":0.10446181893348694,"141":-0.05565173551440239,"142":-0.1063588336110115,"143":0.09996653348207474,"144":0.02222747728228569,"145":0.08865160495042801,"146":0.15744365751743317,"147":-0.12212424725294113,"148":0.028979413211345673,"149":-0.087173230946064,"150":0.16000594198703766,"151":-0.05367637798190117,"152":0.15326078236103058,"153":-0.019715765491127968,"154":-0.16383294761180878,"155":-0.06140730902552605,"156":0.012626581825315952,"157":-0.11723508685827255,"158":-0.09284617006778717,"159":-0.02872955985367298,"160":-0.10240229964256287,"161":-0.17263363301753998,"162":0.07178011536598206,"163":0.07807178795337677,"164":-0.038323454558849335,"165":0.11784505844116211,"166":0.1437366008758545,"167":0.08007976412773132,"168":0.18689681589603424,"169":-0.11333242058753967,"170":-0.11944928020238876,"171":0.17369228601455688,"172":-0.12763798236846924,"173":0.11085996776819229,"174":-0.16471408307552338,"175":-0.08971831947565079,"176":-0.1372295469045639,"177":0.15051573514938354,"178":-0.12206149101257324,"179":-0.033713165670633316,"180":-0.11580004543066025,"181":-0.18567289412021637,"182":0.126652330160141,"183":-0.15263588726520538,"184":0.10775969177484512,"185":-0.047671329230070114,"186":0.03502931818366051,"187":0.09293396770954132,"188":0.07807786017656326,"189":0.12802022695541382,"190":0.09613659977912903,"191":-0.10290553420782089,"192":-0.06667382270097733,"193":-0.13984309136867523,"194":0.024814900010824203,"195":-0.18982170522212982,"196":-0.013064145110547543,"197":0.09842237085103989,"198":-0.1633009910583496,"199":0.1552518606185913,"200":0.11166975647211075,"201":0.05610884353518486,"202":0.1158013716340065,"203":-0.016747131943702698,"204":-0.19308792054653168,"205":0.14418624341487885,"206":-0.19742926955223083,"207":-0.14817127585411072,"208":-0.1488267481327057,"209":0.07639054208993912,"210":0.14628617465496063,"211":-0.15885615348815918,"212":0.0043823737651109695,"213":0.01665389910340309,"214":-0.07937407493591309,"215":0.1692274808883667,"216":0.004370031878352165,"217":-0.12902477383613586,"218":-0.07805479317903519,"219":0.10769955068826675,"220":-0.11221481114625931,"221":0.0266531091183424,"222":0.13094645738601685,"223":-0.06644222140312195,"224":-0.11502312868833542,"225":0.12227349728345871,"226":0.1868973970413208,"227":-0.12209906429052353,"228":-0.04681519418954849,"229":0.028343793004751205,"230":-0.043637096881866455,"231":-0.12500901520252228,"232":0.1263009011745453,"233":0.05813214182853699,"234":-0.02971530146896839,"235":0.001869788160547614,"236":-0.2069433033466339,"237":0.10689578950405121,"238":0.05465007573366165,"239":0.09427818655967712,"240":-0.13001003861427307,"241":0.18171393871307373,"242":0.05953458696603775,"243":-0.13255539536476135,"244":0.16289100050926208,"245":0.04082464799284935,"246":0.0822078213095665,"247":-0.016426322981715202,"248":0.10015001147985458,"249":-0.1834152787923813,"250":0.09744095802307129,"251":-0.171613872051239,"252":-0.17288805544376373,"253":0.06285053491592407,"254":0.09172534197568893,"255":-0.1602206975221634,"256":-0.03624122217297554,"257":0.14249491691589355,"258":0.009704163298010826,"259":0.0822065994143486,"260":0.06391435116529465,"261":-0.013793203979730606,"262":0.10104737430810928,"263":-0.17865052819252014,"264":0.18445999920368195,"265":0.17849291861057281,"266":0.1987413913011551,"267":0.13637663424015045,"268":-0.14823944866657257,"269":-0.08084110915660858,"270":0.10593953728675842,"271":0.1676318198442459,"272":-0.1666460782289505,"273":-0.13701963424682617,"274":-0.04509681090712547,"275":0.07268907874822617,"276":0.14262793958187103,"277":0.06662335991859436,"278":0.18101602792739868,"279":-0.18400774896144867,"280":-0.09681263566017151,"281":-0.1828133761882782,"282":-0.02768043801188469,"283":0.03657916560769081,"284":-0.15756621956825256,"285":-0.16452357172966003,"286":0.09783872216939926,"287":-0.06208139285445213,"288":-0.07315240800380707,"289":0.1797126829624176,"290":-0.19505804777145386,"291":-0.144434854388237,"292":0.1874370276927948,"293":0.02462550811469555,"294":-0.11954949796199799,"295":-0.14992015063762665,"296":0.043114785104990005,"297":-0.1797526627779007,"298":-0.12306997179985046,"299":0.1413004845380783,"300":0.0029002325609326363,"301":0.1745564341545105,"302":0.06961201131343842,"303":-0.12581312656402588,"304":0.14043095707893372,"305":0.10083123296499252,"306":0.14765596389770508,"307":0.16995085775852203,"308":0.18462447822093964,"309":-0.02899211086332798,"310":-0.05847279727458954,"311":0.07236897200345993,"312":0.11772778630256653,"313":-0.026776038110256195,"314":0.07454899698495865,"315":-0.1006925106048584,"316":-0.051448505371809006,"317":0.10630171746015549,"318":-0.08972050994634628,"319":0.10572657734155655,"320":-0.12861543893814087,"321":0.033930934965610504,"322":0.1011558249592781,"323":0.03310764208436012,"324":-0.08341199904680252,"325":0.13471156358718872,"326":-0.1424064338207245,"327":0.01806739531457424,"328":0.05264853313565254,"329":0.04553363099694252,"330":-0.14258086681365967,"331":-0.15695862472057343,"332":-0.14627069234848022,"333":-0.12280488014221191,"334":0.07973095029592514,"335":0.049054693430662155,"336":-0.08483614772558212,"337":-0.02052835375070572,"338":-0.06146883964538574,"339":-0.11229037493467331,"340":-0.14341142773628235,"341":-0.1662415862083435,"342":0.0035448623821139336,"343":0.015319152735173702,"344":-0.19692282378673553,"345":-0.17970393598079681,"346":0.05724490061402321,"347":0.19287659227848053,"348":0.12520501017570496,"349":-0.17819443345069885,"350":0.19326195120811462,"351":-0.08452602475881577,"352":0.0690145194530487,"353":-0.0845632553100586,"354":0.00020909102750010788,"355":-0.06911743432283401,"356":-0.03871003910899162,"357":-0.029123317450284958,"358":0.1246461421251297,"359":-0.1239529550075531,"360":0.16316640377044678,"361":0.11825490742921829,"362":0.18358354270458221,"363":0.0019212171901017427,"364":0.07697266340255737,"365":0.05917447432875633,"366":-0.20050019025802612,"367":0.07319051772356033,"368":-0.053573641926050186,"369":0.06041833013296127,"370":0.055813323706388474,"371":0.04914645105600357,"372":-0.15993128716945648,"373":-0.023715930059552193,"374":-0.18803061544895172,"375":-0.019664820283651352,"376":-0.0680265799164772,"377":0.1649143248796463,"378":0.1421964466571808,"379":0.08649769425392151,"380":0.17462877929210663,"381":0.1980447620153427,"382":-0.02244669944047928,"383":-0.01961970329284668,"384":0.11734271794557571,"385":0.12385084480047226,"386":0.09914680570363998,"387":0.16263307631015778,"388":-0.040065232664346695,"389":0.15221497416496277,"390":-0.14983601868152618,"391":0.21025998890399933,"392":0.004408602602779865,"393":-0.017655933275818825,"394":0.004344203509390354,"395":-0.005595008376985788,"396":-0.08432717621326447,"397":0.19656093418598175,"398":-0.18306323885917664,"399":0.08518271148204803}},"6":{"bias":0.03406238928437233,"weights":{"0":0.04373316466808319,"1":0.07951897382736206,"2":0.1622661054134369,"3":-0.027493126690387726,"4":0.18084946274757385,"5":0.05586818978190422,"6":-0.1264219582080841,"7":0.032516103237867355,"8":0.028372861444950104,"9":0.13225795328617096,"10":-0.06034111604094505,"11":-0.14064447581768036,"12":0.004823599476367235,"13":0.07983472943305969,"14":-0.052526578307151794,"15":-0.07093555480241776,"16":0.06732620298862457,"17":-0.10949287563562393,"18":0.05972449108958244,"19":-0.16116319596767426,"20":0.0034622764214873314,"21":-0.011227133683860302,"22":0.04613649472594261,"23":0.08159101754426956,"24":-0.029800858348608017,"25":0.06857400387525558,"26":0.15770071744918823,"27":0.07429639995098114,"28":0.1400880664587021,"29":0.1208546981215477,"30":0.056310541927814484,"31":-0.19378818571567535,"32":-0.1742163747549057,"33":0.11878112703561783,"34":0.17741438746452332,"35":0.14881518483161926,"36":0.11670250445604324,"37":-0.16432669758796692,"38":0.11060164123773575,"39":0.07153593748807907,"40":-0.08219894766807556,"41":-0.10102130472660065,"42":-0.03060123883187771,"43":-0.1800101101398468,"44":-0.06030295789241791,"45":0.009273826144635677,"46":-0.06649298965930939,"47":-0.1038326546549797,"48":-0.07439650595188141,"49":0.016061706468462944,"50":-0.007396853994578123,"51":0.15526968240737915,"52":-0.06880097836256027,"53":-0.19874924421310425,"54":-0.043152082711458206,"55":-0.08988270163536072,"56":-0.0553390271961689,"57":-0.10130897909402847,"58":-0.061815716326236725,"59":-0.1294824630022049,"60":0.17871332168579102,"61":0.05262690410017967,"62":-0.12466637790203094,"63":0.06366963684558868,"64":-0.024591900408267975,"65":-0.05137437582015991,"66":-0.19122803211212158,"67":0.09235385805368423,"68":-0.18604736030101776,"69":0.17252546548843384,"70":0.045990146696567535,"71":0.15700146555900574,"72":-0.18567965924739838,"73":0.0681251734495163,"74":0.06923265755176544,"75":0.0645458996295929,"76":0.08959189802408218,"77":0.13218215107917786,"78":0.08118028193712234,"79":0.03579572215676308,"80":0.18452629446983337,"81":0.162429079413414,"82":0.1396377980709076,"83":-0.1225910559296608,"84":-0.1159716323018074,"85":-0.1857318878173828,"86":-0.16166651248931885,"87":0.07589676976203918,"88":0.19344066083431244,"89":-0.03017488121986389,"90":0.10065379738807678,"91":0.023581309244036674,"92":0.01233650092035532,"93":-0.1886148452758789,"94":-0.16334578394889832,"95":-0.19485726952552795,"96":0.027397649362683296,"97":0.16901391744613647,"98":-0.16845330595970154,"99":-0.14558765292167664,"100":-0.0749262198805809,"101":-0.16816191375255585,"102":0.15557771921157837,"103":0.17878034710884094,"104":-0.039551183581352234,"105":-0.008946225978434086,"106":-0.05252758413553238,"107":-0.1488564908504486,"108":-0.18400350213050842,"109":-0.1258843094110489,"110":0.1770009547472,"111":0.033091504126787186,"112":0.05949493125081062,"113":0.16707392036914825,"114":0.1494230479001999,"115":0.10943562537431717,"116":0.05607780069112778,"117":0.1812477558851242,"118":0.0001487326226197183,"119":-0.08160094916820526,"120":0.17476633191108704,"121":-0.11309575289487839,"122":0.09114539623260498,"123":-0.09530268609523773,"124":0.15796560049057007,"125":0.1254023015499115,"126":-0.1222393587231636,"127":-0.027324849739670753,"128":-0.12539049983024597,"129":-0.09869511425495148,"130":-0.1796012818813324,"131":0.18398644030094147,"132":0.05010763928294182,"133":0.12497241795063019,"134":0.014456612057983875,"135":-0.1121869832277298,"136":0.10115856677293777,"137":0.048566434532403946,"138":0.17345523834228516,"139":-0.16424418985843658,"140":0.022040575742721558,"141":-0.0018686378607526422,"142":0.07054577767848969,"143":-0.05336208641529083,"144":-0.011355163529515266,"145":-0.18302440643310547,"146":0.0356561653316021,"147":-0.1797945648431778,"148":0.016321660950779915,"149":0.10966845601797104,"150":0.008442130871117115,"151":0.1418229639530182,"152":-0.09393056482076645,"153":0.11875592172145844,"154":-0.0012112036347389221,"155":-0.061604417860507965,"156":-0.19980724155902863,"157":0.10037372261285782,"158":-0.10180545598268509,"159":0.12268856912851334,"160":-0.1910138875246048,"161":0.05342409759759903,"162":-0.09026967734098434,"163":0.030953213572502136,"164":0.07211582362651825,"165":0.06356771290302277,"166":-0.10339882969856262,"167":0.13462620973587036,"168":0.060824424028396606,"169":-0.14486807584762573,"170":0.1275711953639984,"171":-0.1349821537733078,"172":0.05029617249965668,"173":-0.05117624253034592,"174":-0.06974069774150848,"175":0.09179730713367462,"176":0.009069995954632759,"177":-0.05190279707312584,"178":-0.1055646613240242,"179":0.009495999664068222,"180":0.1578734666109085,"181":-0.12081566452980042,"182":0.047132838517427444,"183":0.09623447060585022,"184":0.12733830511569977,"185":0.1255447268486023,"186":-0.0953444316983223,"187":-0.038192976266145706,"188":-0.1929551362991333,"189":0.15110556781291962,"190":0.1789083331823349,"191":0.10800597816705704,"192":-0.18329675495624542,"193":-0.13587911427021027,"194":0.05549362301826477,"195":0.1476791650056839,"196":-0.09580431133508682,"197":0.07117722183465958,"198":-0.17617520689964294,"199":-0.1902293860912323,"200":-0.037822265177965164,"201":-0.056914519518613815,"202":0.19690236449241638,"203":-0.07558143883943558,"204":0.08713313937187195,"205":0.15211418271064758,"206":-0.04990154504776001,"207":-0.18758763372898102,"208":0.17920204997062683,"209":0.0385013185441494,"210":-0.03772418200969696,"211":0.06231078878045082,"212":-0.07084347307682037,"213":-0.16841967403888702,"214":-0.02733905240893364,"215":-0.08263049274682999,"216":-0.010913609527051449,"217":0.07433262467384338,"218":-0.19389553368091583,"219":0.03727133572101593,"220":-0.10733430832624435,"221":-0.13038145005702972,"222":-0.004475137684494257,"223":-0.05909113958477974,"224":0.005459292326122522,"225":-0.03627420589327812,"226":-0.07230821251869202,"227":-0.19378550350666046,"228":-0.06346629559993744,"229":0.1323687732219696,"230":-0.04468141496181488,"231":-0.0937347337603569,"232":0.08048658072948456,"233":-0.21626734733581543,"234":-0.1937447488307953,"235":-0.1909191608428955,"236":0.03846553713083267,"237":-0.09330487251281738,"238":-0.05017386004328728,"239":-0.15778063237667084,"240":0.17232930660247803,"241":-0.08174111694097519,"242":-0.09485892951488495,"243":0.00023705801868345588,"244":0.021649489179253578,"245":0.06949926167726517,"246":-0.06889499723911285,"247":-0.16279208660125732,"248":0.008050715550780296,"249":-0.005392792634665966,"250":0.004823148716241121,"251":-0.20659270882606506,"252":0.03562676161527634,"253":-0.19308604300022125,"254":0.033937856554985046,"255":0.0973828136920929,"256":-0.06035705283284187,"257":-0.1986510306596756,"258":0.16060733795166016,"259":0.159769669175148,"260":-0.09059731662273407,"261":-0.15270394086837769,"262":0.15908080339431763,"263":-0.19182540476322174,"264":-0.10600758343935013,"265":0.12107505649328232,"266":0.02936573140323162,"267":0.17961011826992035,"268":-0.06903605908155441,"269":0.16207431256771088,"270":-0.13150517642498016,"271":0.17862991988658905,"272":-0.20580698549747467,"273":0.026500487700104713,"274":-0.14948080480098724,"275":-0.12740041315555573,"276":0.1564829796552658,"277":0.07047024369239807,"278":0.057658176869153976,"279":0.16507089138031006,"280":-0.12562283873558044,"281":0.0008105921442620456,"282":0.002926959190517664,"283":-0.15074686706066132,"284":0.05110279098153114,"285":0.14512865245342255,"286":-0.07940822094678879,"287":-0.19023685157299042,"288":0.15577054023742676,"289":-0.058463308960199356,"290":-0.07433737814426422,"291":0.17027464509010315,"292":-0.0015707967104390264,"293":-0.05636986717581749,"294":-0.0801592543721199,"295":0.13423246145248413,"296":0.11625758558511734,"297":-0.186797633767128,"298":0.06911154091358185,"299":0.17412453889846802,"300":0.04697750136256218,"301":0.08964601159095764,"302":-0.06430109590291977,"303":-0.03152194991707802,"304":-0.1858271062374115,"305":0.16596630215644836,"306":0.002320939442142844,"307":0.11499718576669693,"308":0.16647928953170776,"309":0.14839158952236176,"310":-0.10675372183322906,"311":0.1507296860218048,"312":-0.09508027881383896,"313":0.05111689493060112,"314":-0.08341767638921738,"315":-0.1739342212677002,"316":0.02427764981985092,"317":0.10817712545394897,"318":-0.19964595139026642,"319":-0.08933911472558975,"320":-0.15166927874088287,"321":-0.1839931756258011,"322":0.173299640417099,"323":-0.05967609956860542,"324":-0.14876513183116913,"325":0.012826764024794102,"326":0.15313436090946198,"327":0.19691789150238037,"328":-0.1994924545288086,"329":-0.11948743462562561,"330":-0.0538589246571064,"331":-0.07397664338350296,"332":0.05463855713605881,"333":-0.1473967432975769,"334":0.14556308090686798,"335":-0.16501915454864502,"336":0.170656219124794,"337":0.18441691994667053,"338":-0.06359975039958954,"339":-0.19318340718746185,"340":0.13830789923667908,"341":-0.11757417023181915,"342":-0.024103930220007896,"343":0.007619636598974466,"344":-0.11873040348291397,"345":0.19567003846168518,"346":0.1268080621957779,"347":0.20032688975334167,"348":-0.1602749079465866,"349":0.028801778331398964,"350":-0.06299770623445511,"351":0.07798699289560318,"352":-0.0007563704275526106,"353":0.18229122459888458,"354":0.204662024974823,"355":-0.16952820122241974,"356":-0.15516765415668488,"357":-0.04193265736103058,"358":-0.11016729474067688,"359":-0.0580301396548748,"360":0.04116184636950493,"361":-0.0006726866122335196,"362":-0.07058827579021454,"363":-0.001625317963771522,"364":-0.19238251447677612,"365":-0.11796382069587708,"366":0.18011027574539185,"367":0.060138802975416183,"368":-0.015273381024599075,"369":0.21190719306468964,"370":-0.007611259818077087,"371":0.2016253024339676,"372":0.14013347029685974,"373":-0.019424716010689735,"374":0.1386994868516922,"375":-0.18580709397792816,"376":0.1914001852273941,"377":-0.14745014905929565,"378":-0.03751247376203537,"379":0.1870364099740982,"380":-0.07093731313943863,"381":-0.02480907551944256,"382":-0.1039954274892807,"383":0.12784790992736816,"384":0.12668409943580627,"385":-0.06797289103269577,"386":0.03407144173979759,"387":0.10210485011339188,"388":-0.1668248474597931,"389":-0.005504357162863016,"390":0.018467038869857788,"391":0.10973864793777466,"392":0.11267172545194626,"393":-0.11652493476867676,"394":-0.04256046190857887,"395":0.050069309771060944,"396":0.13948510587215424,"397":-0.1441572606563568,"398":-0.1038028746843338,"399":-0.015810180455446243}},"7":{"bias":-0.222303569316864,"weights":{"0":-0.17412561178207397,"1":-0.14425250887870789,"2":-0.03405959904193878,"3":-0.07099223136901855,"4":-0.16015784442424774,"5":0.10826258361339569,"6":-0.18125149607658386,"7":0.011041057296097279,"8":0.12251996248960495,"9":0.11588780581951141,"10":-0.033212799578905106,"11":0.1619236171245575,"12":0.011355639435350895,"13":-0.013291539624333382,"14":0.16856683790683746,"15":0.09698675572872162,"16":-0.1968592405319214,"17":-0.04450540989637375,"18":-0.17048682272434235,"19":0.0674768015742302,"20":-0.07977700978517532,"21":-0.07608643919229507,"22":0.14682091772556305,"23":0.02674393728375435,"24":-0.17625710368156433,"25":0.041627783328294754,"26":-0.08341649919748306,"27":-0.0008020008681342006,"28":-0.03876224532723427,"29":-0.14256621897220612,"30":0.11006369441747665,"31":0.17587055265903473,"32":-0.17823314666748047,"33":0.008725949563086033,"34":-0.057408470660448074,"35":0.18645521998405457,"36":0.021447917446494102,"37":0.17064885795116425,"38":0.010080531239509583,"39":-0.0036375499330461025,"40":0.05633852258324623,"41":0.154048889875412,"42":0.15661680698394775,"43":0.009312081150710583,"44":0.17744220793247223,"45":-0.06294678896665573,"46":0.05344110727310181,"47":0.01656140200793743,"48":0.06633192300796509,"49":-0.17832541465759277,"50":-0.09158109873533249,"51":0.06273892521858215,"52":-0.08668771386146545,"53":0.07632424682378769,"54":-0.15617136657238007,"55":-0.049650806933641434,"56":0.07060916721820831,"57":-0.03382251784205437,"58":-0.19150453805923462,"59":-0.04572403058409691,"60":-0.15567347407341003,"61":0.1938631385564804,"62":0.13906486332416534,"63":-0.1900034248828888,"64":0.13654062151908875,"65":-0.027375478297472,"66":0.10772574692964554,"67":0.18694379925727844,"68":-0.1345299780368805,"69":-0.12241768836975098,"70":0.08274835348129272,"71":-0.1992076188325882,"72":-0.031754691153764725,"73":-0.04977649822831154,"74":-0.04414002597332001,"75":-0.16266672313213348,"76":0.06110962852835655,"77":0.17709118127822876,"78":0.12544968724250793,"79":0.05980730429291725,"80":-0.1683705449104309,"81":-0.15990081429481506,"82":-0.19389252364635468,"83":-0.03837106376886368,"84":-0.03227781876921654,"85":-0.07106303423643112,"86":-0.0681285634636879,"87":0.09900320321321487,"88":-0.1538158506155014,"89":-0.15427559614181519,"90":0.04743839427828789,"91":-0.0420507937669754,"92":-0.06260597705841064,"93":0.11962901800870895,"94":-0.018688678741455078,"95":-0.01600256748497486,"96":0.1586836725473404,"97":0.04811277240514755,"98":-0.007831817492842674,"99":0.011722370982170105,"100":-0.17092086374759674,"101":0.11572721600532532,"102":-0.14746849238872528,"103":0.19035962224006653,"104":0.12995333969593048,"105":0.17986427247524261,"106":0.13619957864284515,"107":0.17002658545970917,"108":-0.10368572175502777,"109":-0.18560244143009186,"110":-0.004973178263753653,"111":-0.17348024249076843,"112":0.02450593188405037,"113":-0.05018454045057297,"114":0.15979069471359253,"115":0.12052243202924728,"116":-0.020122744143009186,"117":-0.09657514095306396,"118":-0.18496783077716827,"119":0.061728622764348984,"120":0.008518229238688946,"121":-0.11975271254777908,"122":0.011345189064741135,"123":0.027951227501034737,"124":-0.05885011702775955,"125":-0.11287320405244827,"126":0.09164884686470032,"127":-0.09337526559829712,"128":-0.029884524643421173,"129":-0.010461338795721531,"130":-0.06906106323003769,"131":0.17026355862617493,"132":-0.1419614851474762,"133":-0.0825895294547081,"134":-0.045124977827072144,"135":-0.16021886467933655,"136":-0.08776390552520752,"137":-0.006154997739940882,"138":-0.19095972180366516,"139":-0.21056446433067322,"140":-0.149448961019516,"141":0.0494130402803421,"142":0.06677975505590439,"143":-0.10477794706821442,"144":-0.010783523321151733,"145":0.05614417418837547,"146":0.08415316045284271,"147":-0.016009729355573654,"148":0.050689227879047394,"149":0.05853889137506485,"150":0.05674039572477341,"151":0.0002004738780669868,"152":-0.1635299026966095,"153":0.11835407465696335,"154":0.13687093555927277,"155":-0.17280833423137665,"156":-0.10557014495134354,"157":-0.1924024075269699,"158":-0.1374116837978363,"159":0.01928575336933136,"160":-0.02712193876504898,"161":0.12394724041223526,"162":-0.01191241480410099,"163":-0.16265252232551575,"164":0.13762517273426056,"165":-0.18084071576595306,"166":0.08222214877605438,"167":-0.06785982847213745,"168":-0.03393702208995819,"169":-0.19460248947143555,"170":-0.027814628556370735,"171":-0.03387405350804329,"172":-0.14008119702339172,"173":0.012493235059082508,"174":-0.11095435172319412,"175":-0.25158828496932983,"176":-0.062332674860954285,"177":-0.055677399039268494,"178":-0.22051844000816345,"179":0.09398190677165985,"180":-0.1999824345111847,"181":0.16386334598064423,"182":-0.02839815616607666,"183":0.09391439706087112,"184":0.06525933742523193,"185":-0.1843564510345459,"186":-0.054636385291814804,"187":0.11759927123785019,"188":-0.19532844424247742,"189":-0.05282354727387428,"190":0.07492204755544662,"191":-0.06632380932569504,"192":-0.18297789990901947,"193":0.13073542714118958,"194":0.17146196961402893,"195":0.10088177770376205,"196":0.15935653448104858,"197":0.07603773474693298,"198":0.034248508512973785,"199":0.169997438788414,"200":0.1265867054462433,"201":-0.18472351133823395,"202":-0.19120119512081146,"203":0.1788320094347,"204":0.15222980082035065,"205":-0.05953887477517128,"206":-0.035613588988780975,"207":0.03553016483783722,"208":-0.021476207301020622,"209":0.11434873938560486,"210":-0.17671433091163635,"211":0.047542404383420944,"212":-0.21256622672080994,"213":-0.1996086984872818,"214":0.024927638471126556,"215":-0.177024707198143,"216":-0.10325527936220169,"217":-0.17760752141475677,"218":0.029037846252322197,"219":0.1790507584810257,"220":0.04918307065963745,"221":0.1972147673368454,"222":-0.0983453243970871,"223":0.00613228278234601,"224":-0.13217605650424957,"225":0.10520093142986298,"226":-0.1709180623292923,"227":-0.058392658829689026,"228":-0.11902422457933426,"229":-0.09101416170597076,"230":-0.14987142384052277,"231":-0.08307836204767227,"232":0.10631726682186127,"233":0.07524259388446808,"234":-0.0201720017939806,"235":0.04069894924759865,"236":-0.06765615940093994,"237":-0.07898002117872238,"238":-0.16828641295433044,"239":-0.16392259299755096,"240":-0.13579289615154266,"241":0.06838209927082062,"242":-0.09408923238515854,"243":-0.1708153933286667,"244":-0.18511763215065002,"245":-0.09366446733474731,"246":0.022316988557577133,"247":0.1124759390950203,"248":0.028193769976496696,"249":0.005879269912838936,"250":0.07003452628850937,"251":-0.20234642922878265,"252":0.027129100635647774,"253":-0.14559268951416016,"254":0.062925785779953,"255":0.15850649774074554,"256":-0.035314854234457016,"257":-0.001202201470732689,"258":-0.16774055361747742,"259":0.17902544140815735,"260":0.12218470871448517,"261":0.05886372551321983,"262":-0.13158781826496124,"263":0.09571625292301178,"264":-0.1686796396970749,"265":-0.0903654620051384,"266":-0.056852418929338455,"267":0.17236816883087158,"268":-0.0017483620904386044,"269":-0.16772568225860596,"270":-0.20917317271232605,"271":0.13223160803318024,"272":0.11426451802253723,"273":0.14777979254722595,"274":-0.027160197496414185,"275":-0.008026786148548126,"276":-0.17655588686466217,"277":-0.0852208286523819,"278":-0.200014129281044,"279":0.209877610206604,"280":-0.17062535881996155,"281":-0.14482279121875763,"282":-0.06581505388021469,"283":-0.16391965746879578,"284":0.15795883536338806,"285":-0.023126937448978424,"286":0.1641504019498825,"287":0.10608141124248505,"288":-0.0409865602850914,"289":0.19796761870384216,"290":-0.047643035650253296,"291":-0.10875451564788818,"292":0.1437865048646927,"293":-0.17170116305351257,"294":-0.1082906723022461,"295":-0.13717913627624512,"296":-0.14249151945114136,"297":-0.016814446076750755,"298":0.12454155087471008,"299":0.21132107079029083,"300":-0.043170418590307236,"301":-0.019658364355564117,"302":-0.08023735135793686,"303":0.14622870087623596,"304":-0.11821245402097702,"305":-0.1556553989648819,"306":-0.08132044970989227,"307":0.03383629769086838,"308":-0.17238789796829224,"309":0.06046376749873161,"310":0.04804869368672371,"311":0.15447770059108734,"312":-0.1549762487411499,"313":0.18256987631320953,"314":-0.05848577618598938,"315":-0.1673271805047989,"316":0.19309291243553162,"317":0.022620446979999542,"318":-0.1544007807970047,"319":0.09555230289697647,"320":-0.14849597215652466,"321":0.15796034038066864,"322":0.1716919243335724,"323":-0.1462123990058899,"324":0.021129624918103218,"325":0.13209125399589539,"326":0.12259071320295334,"327":-0.13542057573795319,"328":-0.057764530181884766,"329":-0.1108149066567421,"330":0.18217462301254272,"331":-0.17126600444316864,"332":-0.07718529552221298,"333":0.11041287332773209,"334":0.047524672001600266,"335":-0.10833863914012909,"336":-0.10131886601448059,"337":-0.15051232278347015,"338":-0.003419901942834258,"339":-0.15059500932693481,"340":0.0500253289937973,"341":-0.13927951455116272,"342":0.1966625601053238,"343":-0.0693775862455368,"344":-0.0638979896903038,"345":-0.18492832779884338,"346":-0.09199021011590958,"347":-0.11390873044729233,"348":-0.20099632441997528,"349":-0.09662850201129913,"350":-0.03772686421871185,"351":0.011416332796216011,"352":-0.11959102004766464,"353":-0.01893896423280239,"354":0.023138822987675667,"355":0.11907664686441422,"356":0.22917141020298004,"357":0.2255857139825821,"358":-0.1864948570728302,"359":0.11212225258350372,"360":0.1111576110124588,"361":0.07445120066404343,"362":-0.02119375951588154,"363":-0.14076854288578033,"364":0.026971248909831047,"365":-0.1490849107503891,"366":-0.12880289554595947,"367":0.09882646054029465,"368":0.18550391495227814,"369":0.1393267810344696,"370":-0.012668134644627571,"371":-0.06547021120786667,"372":-0.01633806899189949,"373":-0.030917150899767876,"374":-0.017311235889792442,"375":0.006418327800929546,"376":0.17320601642131805,"377":0.10408055037260056,"378":0.13815538585186005,"379":0.21035544574260712,"380":-0.12711678445339203,"381":-0.0878136157989502,"382":-0.007125395350158215,"383":-0.019703876227140427,"384":0.146007239818573,"385":-0.04816747456789017,"386":0.012654495425522327,"387":0.07560782134532928,"388":-0.1284356415271759,"389":-0.048758335411548615,"390":0.0942387655377388,"391":-0.10755769908428192,"392":0.14476656913757324,"393":-0.12047375738620758,"394":0.2022201269865036,"395":0.10250499099493027,"396":-0.041642315685749054,"397":0.033247534185647964,"398":-0.0780605599284172,"399":0.19607366621494293}},"8":{"bias":0.10111389309167862,"weights":{"0":-0.1912626028060913,"1":-0.03337610512971878,"2":0.0304863303899765,"3":0.16390952467918396,"4":-0.11183648556470871,"5":0.13697735965251923,"6":-0.16936494410037994,"7":0.08493445813655853,"8":-0.14691193401813507,"9":0.016667786985635757,"10":0.044103626161813736,"11":0.1830543726682663,"12":-0.02438949979841709,"13":0.16622726619243622,"14":0.09899145364761353,"15":-0.09001660346984863,"16":-0.19154532253742218,"17":0.16587285697460175,"18":0.011405294761061668,"19":-0.11296825110912323,"20":0.15732355415821075,"21":-0.09130308032035828,"22":-0.07784127444028854,"23":0.18108907341957092,"24":0.1005886122584343,"25":-0.061782244592905045,"26":-0.025586236268281937,"27":0.1856507658958435,"28":-0.08845516294240952,"29":-0.14240552484989166,"30":-0.19124750792980194,"31":0.16808728873729706,"32":0.17017312347888947,"33":-0.06750081479549408,"34":-0.09272079914808273,"35":-0.1311052143573761,"36":-0.10915040969848633,"37":0.14663183689117432,"38":-0.11503331363201141,"39":0.14646470546722412,"40":-0.07857061922550201,"41":0.11003321409225464,"42":-0.08915653824806213,"43":0.1922876089811325,"44":0.012252762913703918,"45":-0.06183220073580742,"46":-0.02487282268702984,"47":-0.03658884018659592,"48":-0.1205446794629097,"49":0.042382799088954926,"50":-0.14718268811702728,"51":-0.09962133318185806,"52":-0.16802175343036652,"53":0.10936121642589569,"54":-0.06941448152065277,"55":0.17353034019470215,"56":-0.1642332822084427,"57":0.19017113745212555,"58":-0.18842735886573792,"59":0.11963587254285812,"60":0.10705780982971191,"61":0.05163601413369179,"62":-0.17805525660514832,"63":0.10259170085191727,"64":0.14195476472377777,"65":-0.15907864272594452,"66":0.1650395542383194,"67":0.19355091452598572,"68":-0.11253471672534943,"69":0.08484537899494171,"70":0.14688587188720703,"71":-0.05049559846520424,"72":0.1024974137544632,"73":0.0108714047819376,"74":0.08452010154724121,"75":0.17470361292362213,"76":0.16471102833747864,"77":-0.08708956837654114,"78":-0.07551493495702744,"79":0.1313801258802414,"80":0.18762119114398956,"81":0.10439025610685349,"82":-0.05109512433409691,"83":0.14641901850700378,"84":-0.09048978984355927,"85":0.0009049837826751173,"86":-0.10740046203136444,"87":-0.12887713313102722,"88":-0.038771215826272964,"89":-0.1528598815202713,"90":0.06731994450092316,"91":0.18371722102165222,"92":0.10156089812517166,"93":-0.15344613790512085,"94":0.09363648295402527,"95":-0.17328958213329315,"96":0.05358040705323219,"97":-0.19847135245800018,"98":-0.11685837805271149,"99":-0.046723004430532455,"100":-0.014436011202633381,"101":-0.004496445879340172,"102":-0.1170836016535759,"103":-0.12755849957466125,"104":-0.18838682770729065,"105":0.08156028389930725,"106":-0.034569256007671356,"107":0.1880243420600891,"108":-0.05138801038265228,"109":-0.1412270963191986,"110":0.1659666895866394,"111":-0.10344824939966202,"112":-0.1918640285730362,"113":0.07099632918834686,"114":0.19174575805664062,"115":0.09384524822235107,"116":0.12732850015163422,"117":-0.014882032759487629,"118":0.037197209894657135,"119":-0.006981698330491781,"120":-0.11645766347646713,"121":-0.17173631489276886,"122":-0.08713433146476746,"123":-0.03994625434279442,"124":0.07580229640007019,"125":0.15389230847358704,"126":0.026232212781906128,"127":-0.1994151920080185,"128":0.18274304270744324,"129":0.035796862095594406,"130":0.059514954686164856,"131":0.047587525099515915,"132":0.17580506205558777,"133":-0.09642858803272247,"134":0.07855111360549927,"135":-0.19594471156597137,"136":-0.05669708549976349,"137":0.00482266116887331,"138":-0.18938159942626953,"139":0.13436444103717804,"140":-0.11732529103755951,"141":-0.051154471933841705,"142":-0.04685873165726662,"143":-0.06312190741300583,"144":0.10618287324905396,"145":0.15865786373615265,"146":-0.19595319032669067,"147":0.04199693351984024,"148":-0.05929090082645416,"149":-0.08264810591936111,"150":-0.10071220993995667,"151":-0.15360060334205627,"152":0.0007678395486436784,"153":0.1290351152420044,"154":-0.13116616010665894,"155":-0.15332546830177307,"156":0.085243821144104,"157":-0.1269896775484085,"158":-0.20396852493286133,"159":0.021074242889881134,"160":0.0028850932139903307,"161":-0.09907886385917664,"162":-0.17989163100719452,"163":-0.10558807849884033,"164":0.07197945564985275,"165":0.18363825976848602,"166":0.08426892757415771,"167":-0.11765759438276291,"168":0.18248748779296875,"169":0.1517052799463272,"170":-0.031102744862437248,"171":0.13320179283618927,"172":0.07120569795370102,"173":-0.1444355547428131,"174":0.15288205444812775,"175":0.1445835679769516,"176":-0.05885778367519379,"177":-0.0731341615319252,"178":-0.058132998645305634,"179":0.08808857947587967,"180":-0.06372137367725372,"181":0.1810111254453659,"182":-0.09626291692256927,"183":-0.18342424929141998,"184":0.025497211143374443,"185":-0.08232992887496948,"186":0.1364845484495163,"187":0.18074584007263184,"188":0.011449653655290604,"189":-0.11150190979242325,"190":0.08715174347162247,"191":0.09542275965213776,"192":-0.15975265204906464,"193":-0.1454235017299652,"194":-0.19823196530342102,"195":0.11882713437080383,"196":-0.06174718588590622,"197":-0.19235552847385406,"198":-0.0018532437970861793,"199":0.04820076376199722,"200":-0.18344730138778687,"201":-0.08770027756690979,"202":0.08624617755413055,"203":-0.03601818159222603,"204":-0.08221904933452606,"205":-0.14559343457221985,"206":-0.1318693608045578,"207":0.13031309843063354,"208":-0.029640352353453636,"209":-0.18589070439338684,"210":-0.026370421051979065,"211":0.139415442943573,"212":-0.1270536184310913,"213":-0.0032342735212296247,"214":0.04224158078432083,"215":0.14617010951042175,"216":-0.08251625299453735,"217":0.05548899993300438,"218":0.03616020083427429,"219":0.18689954280853271,"220":-0.05428462103009224,"221":0.10660547763109207,"222":0.14289557933807373,"223":0.07252205163240433,"224":-0.13654080033302307,"225":0.18244750797748566,"226":0.04728967323899269,"227":0.1343759149312973,"228":-0.11799120903015137,"229":-0.0784992203116417,"230":-0.10848160088062286,"231":-0.2063138484954834,"232":-0.00020340319315437227,"233":0.10661348700523376,"234":0.1826207935810089,"235":0.19611753523349762,"236":-0.003934374079108238,"237":0.1772809773683548,"238":-0.09851247072219849,"239":-0.07985581457614899,"240":-0.18814529478549957,"241":0.1381499320268631,"242":0.17495733499526978,"243":0.07877529412508011,"244":-0.03516346216201782,"245":0.014443055726587772,"246":0.15199638903141022,"247":0.15772511065006256,"248":-0.039831049740314484,"249":-0.05201430991292,"250":-0.029361430555582047,"251":-0.18866269290447235,"252":0.003528286935761571,"253":-0.1855829954147339,"254":0.04450751096010208,"255":0.04750147834420204,"256":0.10564231127500534,"257":0.040854617953300476,"258":0.12865003943443298,"259":-0.19452863931655884,"260":0.059976667165756226,"261":-0.05548999831080437,"262":-0.11195309460163116,"263":-0.1291121393442154,"264":-0.10346697270870209,"265":0.04478294774889946,"266":0.16401346027851105,"267":0.09481732547283173,"268":-0.13125619292259216,"269":0.012384791858494282,"270":-0.12534405291080475,"271":-0.004479238763451576,"272":-0.17021724581718445,"273":-0.14006856083869934,"274":-0.022126732394099236,"275":-0.005174627993255854,"276":-0.09124766290187836,"277":-0.1972617357969284,"278":0.050173766911029816,"279":0.10664282739162445,"280":-0.13385500013828278,"281":-0.01592164859175682,"282":0.03641102835536003,"283":0.1472315490245819,"284":-0.0871511921286583,"285":0.16178500652313232,"286":-0.09528715163469315,"287":0.18828262388706207,"288":-0.18517591059207916,"289":-0.18172158300876617,"290":0.06457257270812988,"291":0.02510913461446762,"292":-0.03059559501707554,"293":-0.08765770494937897,"294":-0.13668027520179749,"295":-0.1956576704978943,"296":0.011719861999154091,"297":-0.018023058772087097,"298":0.02020234987139702,"299":-0.07194848358631134,"300":0.010042678564786911,"301":-0.17532357573509216,"302":-0.11789782345294952,"303":-0.09904598444700241,"304":0.18520236015319824,"305":0.06972747296094894,"306":0.1174573004245758,"307":0.012673269025981426,"308":0.049889810383319855,"309":-0.04871586710214615,"310":0.08491481095552444,"311":0.19017460942268372,"312":-0.1993807703256607,"313":0.034978218376636505,"314":-0.14445993304252625,"315":-0.16856959462165833,"316":0.17007173597812653,"317":-0.08027692884206772,"318":-0.14179030060768127,"319":-0.13302817940711975,"320":0.058155156672000885,"321":-0.13469922542572021,"322":0.08274980634450912,"323":0.17501838505268097,"324":-0.18068908154964447,"325":0.11021000146865845,"326":-0.11791736632585526,"327":-0.09162770211696625,"328":-0.0317971408367157,"329":-0.08490819483995438,"330":0.01194967981427908,"331":0.14921598136425018,"332":0.16089020669460297,"333":0.09340225160121918,"334":-0.1557023823261261,"335":-0.066030353307724,"336":0.1307724267244339,"337":0.10152976959943771,"338":0.08194907754659653,"339":0.005383941810578108,"340":0.0037869594525545835,"341":-0.16544394195079803,"342":0.04167170822620392,"343":0.16948199272155762,"344":0.15513932704925537,"345":-0.1949816197156906,"346":-0.15526585280895233,"347":-0.15799888968467712,"348":-0.0066863177344202995,"349":0.11283356696367264,"350":0.2039060741662979,"351":0.19491952657699585,"352":-0.008363548666238785,"353":-0.06620362401008606,"354":-0.15276691317558289,"355":-0.13388210535049438,"356":-0.12993185222148895,"357":0.092828668653965,"358":0.16244271397590637,"359":-0.06343451142311096,"360":-0.059935133904218674,"361":-0.05625813454389572,"362":-0.17130093276500702,"363":0.15672829747200012,"364":0.17781387269496918,"365":0.18285755813121796,"366":0.11014504730701447,"367":0.14843861758708954,"368":-0.13694168627262115,"369":-0.1096235066652298,"370":0.04377444460988045,"371":0.12511704862117767,"372":-0.02165774628520012,"373":0.18919849395751953,"374":0.01236688531935215,"375":0.08609889447689056,"376":0.04392636567354202,"377":0.1079062968492508,"378":-0.10124277323484421,"379":-0.1321004182100296,"380":0.06434973329305649,"381":0.16713736951351166,"382":-0.0023575241211801767,"383":-0.11810997128486633,"384":-0.017752135172486305,"385":0.09268520027399063,"386":-0.0027874335646629333,"387":0.11354823410511017,"388":0.11166952550411224,"389":0.13626952469348907,"390":-0.06682273745536804,"391":-0.07119495421648026,"392":0.12009327858686447,"393":0.1408645361661911,"394":0.1675058752298355,"395":0.1365349441766739,"396":-0.013322193175554276,"397":-0.11690325289964676,"398":0.058563459664583206,"399":0.04626573622226715}},"9":{"bias":-0.09115148335695267,"weights":{"0":0.17477411031723022,"1":-0.04189145192503929,"2":0.0218130424618721,"3":-0.12054748088121414,"4":0.05153098329901695,"5":0.06991690397262573,"6":0.0043778130784630775,"7":0.1611059159040451,"8":-0.10009649395942688,"9":-0.10475286841392517,"10":-0.02546503208577633,"11":-0.0952855572104454,"12":-0.159254252910614,"13":-0.04161503165960312,"14":-0.1607305109500885,"15":-0.04866088181734085,"16":-0.05945691466331482,"17":0.11364299803972244,"18":-0.042252399027347565,"19":-0.16120760142803192,"20":0.017421219497919083,"21":-0.008808417245745659,"22":0.10154567658901215,"23":0.16087615489959717,"24":0.15376433730125427,"25":-0.1302436739206314,"26":0.19297310709953308,"27":0.11236629635095596,"28":0.0014405595138669014,"29":-0.12722136080265045,"30":0.10095518082380295,"31":0.19958153367042542,"32":0.052296049892902374,"33":-0.13567742705345154,"34":-0.025712506845593452,"35":-0.1479308009147644,"36":-0.14134123921394348,"37":0.04775054752826691,"38":-0.07232893258333206,"39":-0.14040616154670715,"40":-0.06007979437708855,"41":0.05421459302306175,"42":0.07733350992202759,"43":-0.15678420662879944,"44":-0.17734120786190033,"45":0.17827296257019043,"46":-0.04684894159436226,"47":-0.0423002690076828,"48":-0.10365530103445053,"49":-0.19886457920074463,"50":-0.18658477067947388,"51":0.10202022641897202,"52":-0.06454887986183167,"53":-0.05584591627120972,"54":0.003537248121574521,"55":-0.05998903140425682,"56":-0.011160583235323429,"57":-0.16432414948940277,"58":0.15709993243217468,"59":0.17351658642292023,"60":0.007279232610017061,"61":0.1623520702123642,